http://dbpedia.org/ontology/Ambassador	0.001205,-0.000120,0.000124,-0.001608,-0.002812,-0.000285,0.002518,-0.001103,0.000593,-0.004186,-0.004449,-0.004227,0.005783,0.001243,0.001292,-0.000291,-0.000742,-0.002979,-0.000557,-0.000588,-0.001611,0.004621,0.000664,-0.002132,-0.001027,0.001330,0.001241,0.002674,-0.000347,0.000343,0.004156,0.000257,-0.003372,0.002367,0.000020,0.001770,-0.004067,-0.000092,0.000709,0.000315,-0.000101,0.001017,-0.004790,0.000676,0.001979,0.001023,-0.000340,-0.001399,0.001034,-0.003211,-0.003357,-0.002814,0.001086,-0.001060,0.001082,-0.000496,-0.002309,0.000601,-0.001543,-0.000716,-0.002040,0.002485,-0.001795,-0.001345,-0.000739,0.001742,-0.001753,0.000572,0.000995,-0.000551,-0.000600,0.000671,0.002295,0.000906,-0.003327,0.000236,0.001514,0.003794,-0.000350,-0.002381,-0.003364,0.004041,0.000210,0.002825,-0.000250,-0.000556,0.000285,0.002467,-0.003094,-0.000971,-0.002714,-0.002352,-0.001301,0.000976,-0.000384,-0.001044,-0.001370,0.003547,-0.002229,0.002374,0.002574,-0.002221,0.002328,0.000681,-0.000545,-0.002979,-0.001409,-0.001931,-0.004218,-0.000584,-0.000836,-0.003474,-0.001638,0.000509,0.000392,-0.001842,0.002679,-0.002981,0.002284,-0.001680,-0.001151,-0.001457,0.000153,-0.002645,0.001511,0.001745,-0.003573,0.001156,-0.000244,0.002687,0.002051,0.000263,0.000683,0.000543,-0.000376,0.000420,-0.000920,0.004388,0.000742,-0.000354,-0.001847,0.001036,-0.001050,0.001457,0.001399,0.000237,-0.001919,-0.000087,-0.001339,-0.000241,0.002683,0.001018,0.001393,-0.005725,-0.003248,0.001362,0.002596,-0.002867,-0.002441,-0.004886,0.003556,0.000339,-0.000036,-0.001669,0.002133,0.000320,0.005262,-0.001400,-0.000220,-0.000049,0.002780,0.002349,0.001539,0.000482,-0.002408,-0.002597,-0.002326,-0.000164,-0.000044,0.001216,0.003959,-0.000020,0.002913,-0.000734,-0.003860,-0.002684,0.001305,0.001400,-0.000335,-0.002935,0.002391,-0.003200,0.002979,-0.001686,-0.002452,-0.002946,-0.001509,0.001955,-0.002583,-0.001586
http://dbpedia.org/ontology/Architect	-0.005348,-0.003603,0.001999,-0.003653,0.000279,0.000744,0.007655,-0.004667,-0.007102,-0.000360,-0.004366,-0.001542,-0.009306,0.007000,0.008044,0.004919,-0.000820,-0.002858,0.000054,-0.000388,-0.002525,0.009549,-0.010394,0.009351,0.005097,0.004290,0.000368,0.004829,-0.001557,0.001641,0.005070,0.006640,0.001697,-0.003453,-0.000266,-0.007537,-0.009268,0.003219,0.006573,-0.001360,0.004227,-0.006757,-0.002863,0.000073,0.003386,-0.003498,-0.002197,0.000982,-0.003336,-0.004948,-0.002029,0.001497,0.000504,-0.000000,0.000803,-0.006977,0.000299,-0.001228,-0.002548,-0.008321,0.003113,-0.006063,-0.001500,0.000994,0.000172,0.000543,0.002530,-0.003145,0.001456,-0.010002,-0.000022,-0.001220,0.005532,0.002124,0.001721,0.002658,-0.004220,0.001818,0.000048,-0.004319,-0.003536,-0.003018,-0.002138,0.000089,0.002769,-0.006227,-0.002166,-0.003096,-0.009103,-0.013367,0.000437,-0.000494,-0.004142,0.001783,-0.000017,-0.003231,-0.009078,-0.001290,-0.007640,-0.001661,0.002904,-0.008285,0.003121,-0.007181,-0.001818,-0.006120,0.002364,0.001917,-0.004828,0.001007,-0.001603,-0.006192,-0.004478,-0.003930,-0.002198,-0.000365,0.007981,-0.009581,-0.002236,-0.004581,-0.001444,-0.009298,-0.001068,0.003111,-0.002233,0.000043,-0.001879,0.000929,0.001145,0.001902,-0.001460,0.001625,-0.013167,-0.002973,0.003997,-0.002331,-0.000620,-0.004236,-0.002129,-0.007098,0.006627,-0.002235,-0.006987,-0.003880,0.000948,0.015396,-0.005790,-0.004802,-0.000534,-0.010095,0.003584,-0.003450,0.005400,-0.013687,-0.002667,0.002887,0.002090,-0.005482,0.008398,0.001475,0.002864,-0.001316,-0.001891,0.008143,-0.004214,-0.003946,0.002635,-0.000052,-0.002325,-0.003074,0.001609,-0.001421,0.002820,-0.001577,-0.007422,-0.008260,0.004966,-0.002593,0.000595,0.001864,-0.005339,0.000669,-0.000713,0.000427,0.003872,-0.000819,0.007802,0.001464,-0.002652,0.002572,-0.005470,0.005277,0.003598,-0.002081,-0.001992,-0.004649,-0.003499,0.004264,0.001288,0.004303
http://dbpedia.org/ontology/Artist	-0.006609,-0.007327,0.000819,-0.007130,-0.005596,0.007452,0.015374,-0.001916,-0.000278,-0.006641,-0.009012,-0.003506,0.010634,0.006216,0.008266,-0.005036,0.004439,0.001507,0.010841,-0.004935,-0.003225,0.016334,-0.004504,0.003953,-0.003319,0.008864,0.006061,0.000905,0.000708,-0.005377,0.005890,0.009061,-0.003958,-0.001821,0.006847,0.007891,-0.011849,0.007927,0.005188,-0.001161,0.000330,0.002161,-0.014676,-0.004018,0.001782,0.000225,0.002302,-0.000110,-0.002483,-0.007889,-0.001205,-0.010572,-0.012540,-0.000120,-0.004562,-0.001485,-0.005058,-0.001191,-0.008532,-0.007616,-0.001330,-0.008653,-0.006995,-0.000495,0.001480,0.002022,0.005165,-0.007317,-0.001329,-0.010742,-0.006300,0.001508,0.003515,-0.002576,-0.000764,0.008411,0.004381,0.008565,-0.003095,0.001190,-0.004695,0.005489,0.000093,-0.002312,-0.003676,-0.001349,0.000474,0.003080,-0.012902,-0.008436,-0.003837,-0.001623,-0.006362,0.008534,0.003878,-0.004063,-0.007800,0.001239,-0.006922,0.005214,0.000190,-0.003279,0.009324,-0.006792,-0.000084,-0.002868,0.003533,-0.004877,-0.013198,-0.004278,-0.000068,-0.003816,-0.008996,0.003209,-0.002245,-0.005970,0.013328,-0.009440,-0.002543,-0.005732,-0.000666,-0.005025,0.000089,-0.002663,-0.006687,-0.008534,-0.006593,-0.006253,0.002118,-0.002580,0.001855,-0.001315,-0.007919,0.003052,-0.000680,0.007265,0.007148,0.007995,0.003373,-0.012214,0.007426,-0.004928,0.002103,0.002737,0.003260,0.010284,0.001808,-0.001401,0.000769,-0.011996,0.002609,-0.008246,0.005407,-0.010378,-0.008069,0.006777,0.003581,-0.007996,0.003732,-0.006543,0.003615,-0.008522,-0.001078,-0.002732,-0.000995,-0.006447,0.006638,-0.003294,-0.003822,-0.000619,0.000124,0.001514,0.004430,0.003003,-0.006301,-0.012981,0.000049,-0.005160,-0.001421,0.000629,0.006388,-0.001324,0.003630,0.004534,-0.002519,-0.011279,0.007080,0.000496,-0.004825,0.003092,0.007856,-0.005444,0.007292,0.003149,-0.000270,-0.008153,-0.006297,0.002124,0.002752,-0.000116
http://dbpedia.org/ontology/Astronaut	-0.004138,-0.000930,0.002146,-0.002714,0.001350,-0.002047,0.002384,-0.002282,-0.001905,0.001248,0.000869,-0.003240,-0.002862,0.002310,0.003619,0.000457,0.001100,-0.000332,0.000386,0.001117,-0.001787,0.002870,-0.005528,0.002554,0.000741,-0.002374,-0.000453,0.001740,0.002628,-0.000307,0.002508,0.003087,-0.000144,0.001049,-0.001933,-0.005247,-0.001878,0.001427,0.001512,0.001798,-0.000590,-0.004305,0.003045,0.000942,0.000468,-0.002399,0.001203,0.001132,-0.000272,0.000672,-0.001821,0.003626,0.002457,0.000419,-0.001209,-0.005308,-0.000435,-0.000385,-0.002422,-0.002917,0.001169,0.000656,-0.002953,-0.000244,0.000582,0.000444,0.002218,-0.001349,0.000284,-0.000172,0.001482,-0.002917,-0.001210,-0.002077,-0.003131,0.001140,-0.002673,0.000000,0.001173,-0.001164,0.000249,0.000331,-0.001874,0.001935,-0.001073,-0.002861,-0.001339,-0.000934,-0.000914,-0.005607,0.002048,0.000769,-0.000480,0.000679,-0.000932,0.001685,-0.001955,0.001121,-0.001218,-0.000663,0.002109,-0.004356,0.003044,-0.004068,-0.003580,-0.001157,-0.002941,-0.000187,-0.003783,0.001714,0.000700,0.000659,0.000118,0.001463,-0.001489,-0.001909,0.004221,-0.000656,-0.000427,-0.000756,-0.000545,-0.004312,-0.000996,0.002093,0.002247,-0.000426,0.001177,0.003286,0.001689,0.003018,0.000848,0.003564,-0.006398,-0.000906,0.000976,-0.002453,-0.002306,-0.002026,-0.001316,-0.002129,0.003156,-0.002186,-0.001921,-0.003819,-0.000088,0.003956,-0.001961,-0.001353,0.001933,-0.003970,0.002799,0.002143,0.000202,-0.002573,0.001482,0.002080,0.000988,-0.003051,0.003852,0.002569,0.002823,-0.002932,-0.002581,0.003696,-0.004794,-0.001746,-0.002925,-0.001692,-0.002296,-0.004403,0.000919,-0.000383,-0.001871,0.000361,-0.001114,-0.002058,0.002445,0.002497,-0.000457,0.002030,-0.002577,0.000176,-0.001491,-0.001317,0.000107,-0.002453,0.001440,0.002355,-0.000744,-0.000604,0.000211,0.002774,0.002290,-0.001876,-0.001846,-0.002075,-0.002929,0.000505,-0.000055,0.001280
http://dbpedia.org/ontology/Athlete	-0.000686,0.000493,0.001569,0.002373,-0.002132,-0.001631,-0.000870,0.002073,0.000450,0.000139,0.001249,0.001547,-0.001514,0.002203,-0.001477,0.001999,0.000957,0.002405,0.000289,-0.000940,0.001310,0.001301,-0.001677,-0.001608,0.000981,0.002166,0.000985,0.000777,-0.000767,0.000657,0.000124,0.000327,0.001392,-0.000986,-0.002031,-0.002096,-0.000017,-0.002048,-0.000899,-0.001744,-0.000433,-0.001319,-0.002298,0.001790,0.001787,0.000328,-0.001098,0.000500,-0.001609,-0.001577,0.000170,-0.001800,0.001807,0.000353,-0.001253,0.000434,0.000183,-0.001334,0.002330,-0.001144,-0.000515,0.001776,0.001855,-0.001734,0.000174,-0.002198,-0.001818,-0.000093,0.001760,0.000431,0.001829,-0.001186,0.001974,0.001590,0.002143,-0.000856,0.000414,0.001251,-0.000381,0.002395,-0.001787,-0.000717,0.001388,-0.001815,-0.002119,0.001498,-0.002354,0.000855,-0.000939,-0.001022,-0.000596,-0.000180,0.001004,-0.001007,0.002082,-0.001938,0.000471,0.001397,-0.002067,-0.001084,-0.001673,-0.002352,0.001081,0.000097,-0.001315,-0.001462,0.001815,0.000151,0.000963,-0.001338,-0.000581,-0.001502,0.001983,0.001658,-0.001483,0.001031,0.001476,0.000691,-0.000296,0.000254,0.001121,-0.001024,-0.001166,-0.001310,-0.000264,-0.001065,-0.000167,-0.002451,0.002169,0.001978,-0.000736,-0.001823,-0.000529,-0.001360,0.000481,-0.002307,-0.000597,-0.000269,0.001085,0.001712,-0.000711,-0.000108,-0.000706,-0.001297,0.000504,-0.001931,-0.001008,-0.002393,-0.000366,0.000212,0.000503,0.002055,-0.001119,0.001411,-0.002323,-0.002149,-0.001876,0.000960,-0.000133,-0.000279,-0.001191,0.001280,0.000630,-0.000762,0.000077,0.000424,0.001503,-0.001091,0.000332,-0.002078,-0.001659,0.000137,-0.002213,0.001687,-0.000231,0.002440,-0.002430,-0.000094,0.002267,-0.000738,-0.002313,-0.000860,-0.000154,-0.000946,0.000085,-0.001889,-0.000579,0.000744,0.001096,-0.002397,-0.000976,-0.000759,0.000890,-0.001732,-0.000787,0.001393,0.002065,0.000402,0.002272,0.000477
http://dbpedia.org/ontology/BeautyQueen	-0.002562,0.001266,0.002958,-0.002512,0.001455,0.003060,-0.000212,-0.003495,0.000082,0.001322,0.000012,0.002695,-0.000482,0.000264,0.005135,-0.000837,-0.002416,-0.002774,-0.002499,0.000001,-0.000376,0.003983,-0.001703,0.001597,-0.002011,-0.000043,-0.001839,-0.001545,0.002441,0.001908,0.001976,0.003239,0.002110,-0.000273,0.000230,-0.003789,-0.002039,-0.000899,0.002824,0.000847,0.002535,-0.000780,-0.000523,-0.001388,0.001375,-0.001977,-0.002244,-0.001606,0.001195,-0.001334,0.000591,0.000832,0.001323,-0.000169,0.000667,-0.000603,-0.001236,0.000263,-0.001591,-0.004629,0.001884,-0.002604,-0.002780,0.001291,0.000650,-0.000913,0.000270,-0.000288,-0.001189,-0.001060,0.000641,-0.000983,0.000747,-0.000454,-0.001530,-0.000860,0.001212,0.002369,0.000571,-0.001079,-0.000803,-0.002238,-0.002163,0.000431,-0.000462,-0.001125,-0.001443,0.000897,-0.004080,-0.005433,0.001542,-0.002465,-0.001919,0.000592,0.002346,0.002159,-0.003140,-0.002506,-0.000162,-0.000149,-0.001356,-0.001709,-0.001281,0.000102,0.000176,-0.000790,0.001877,0.000269,-0.001267,0.001566,-0.001129,-0.002660,-0.001932,-0.000596,-0.002762,0.000705,0.000197,-0.001487,-0.000181,-0.000156,-0.001310,-0.000706,-0.002746,-0.001356,-0.001296,0.000345,-0.000677,-0.001960,0.000911,-0.000933,0.002293,0.002579,-0.003426,-0.000025,0.001178,-0.001912,-0.000537,-0.001955,-0.000988,-0.001596,-0.000156,0.000469,-0.001380,-0.002609,-0.002300,0.005473,-0.002182,-0.001579,0.000937,-0.005426,0.001867,-0.000540,0.002217,-0.004346,-0.002379,0.002616,-0.000454,-0.002573,0.002930,0.002187,-0.000305,0.002442,-0.003378,0.003318,-0.002117,-0.003680,0.000505,0.000556,-0.001357,0.001163,0.000545,-0.001546,0.003316,-0.001958,-0.001099,-0.003230,-0.000505,-0.002728,0.001002,0.001326,-0.001007,-0.000640,0.001977,0.001626,0.001548,-0.001568,0.000512,-0.001524,-0.002993,0.001330,-0.001865,0.003035,0.003488,-0.001061,-0.003486,-0.000421,-0.002310,0.001568,0.002170,-0.000679
http://dbpedia.org/ontology/BusinessPerson	0.000996,0.000224,-0.001768,-0.000587,-0.003016,0.003178,0.005557,0.001970,-0.000521,-0.004118,-0.001279,0.000111,0.004055,0.001653,-0.000232,-0.004851,0.000369,-0.002042,0.001644,-0.001900,0.000691,0.002974,0.000428,-0.002068,-0.003453,0.001736,-0.000123,-0.002187,-0.001587,-0.002928,0.000275,0.002862,-0.001756,0.000268,0.001251,0.003076,-0.000722,0.002501,0.000686,0.001933,-0.001259,0.004827,-0.005888,-0.002260,-0.000618,0.001019,-0.001113,0.000924,-0.003207,-0.001356,0.000605,-0.003426,-0.002321,-0.000253,-0.000139,0.000147,-0.001212,0.001009,-0.003274,-0.000340,-0.000115,0.001696,0.000598,0.001164,-0.000467,0.000539,-0.000511,-0.003916,0.000311,-0.001430,-0.002286,0.000758,0.001199,-0.002320,0.002151,0.000167,0.002666,-0.000431,0.002505,0.000279,0.000451,-0.000648,0.000922,0.003475,0.003097,0.001323,0.002984,0.003970,-0.002680,0.000995,-0.003371,-0.001249,0.000364,0.000527,0.001728,-0.000772,-0.001339,-0.000136,-0.003629,0.001799,0.002051,-0.003283,-0.000227,-0.003266,0.001838,-0.000886,-0.000493,-0.001349,-0.002889,0.000764,-0.000382,0.000250,-0.004828,0.000378,-0.000810,-0.000497,0.002232,-0.002932,0.002422,0.003087,0.000924,-0.002978,0.002112,-0.001049,0.001029,-0.003123,-0.001644,-0.003385,0.002069,-0.002534,0.000239,-0.000931,-0.001041,0.002603,-0.001196,0.005365,0.003915,0.001483,-0.001422,-0.001244,-0.001350,-0.000639,-0.001108,0.000743,0.000118,0.001795,-0.002010,-0.000589,0.001558,0.000871,0.001438,-0.002084,-0.000436,-0.000878,0.000542,0.002430,0.002306,-0.000173,0.000986,-0.003014,0.002978,-0.002890,0.001894,-0.002013,0.002968,-0.000107,-0.000227,-0.000057,-0.001696,-0.000112,0.000633,0.001745,0.001196,-0.001536,-0.000982,-0.005378,-0.002286,-0.002376,0.000790,0.001371,0.003531,0.001107,0.001645,0.001648,0.000105,-0.003539,0.001106,0.001955,0.000978,0.000757,0.003625,-0.002246,0.000636,0.002242,-0.002328,0.000441,-0.000252,0.001554,-0.003411,-0.000341
http://dbpedia.org/ontology/Chef	-0.000702,0.001437,0.001572,0.000577,-0.002480,0.000441,0.000715,-0.000074,-0.001363,-0.000206,-0.000923,-0.003786,-0.000064,0.002145,0.001459,0.002682,-0.001757,-0.000417,0.000793,-0.002509,-0.002783,0.001781,-0.002904,-0.000635,-0.000012,0.001692,0.000154,-0.001040,-0.002473,0.001987,-0.001965,0.002989,-0.000214,-0.000095,0.002289,0.000285,-0.000270,0.001623,0.000680,-0.000331,0.001606,-0.002484,-0.000312,0.001920,0.002971,-0.000556,-0.000112,0.003257,-0.001039,0.000705,-0.002649,-0.000486,-0.000331,0.001631,-0.001747,-0.001943,0.001010,0.001955,0.001769,0.001026,-0.000498,-0.001209,-0.003200,0.000376,0.002269,0.001285,-0.001205,0.000198,-0.001041,-0.002327,-0.000808,-0.001677,-0.000052,0.002315,-0.003488,-0.001178,-0.001288,0.001908,0.001521,-0.002931,-0.002196,0.002198,0.000769,0.000244,-0.000676,-0.003152,0.000333,-0.002311,-0.002639,-0.002364,-0.000936,0.000086,0.000234,0.001388,0.000954,0.001725,-0.001790,-0.001293,-0.001762,-0.000245,0.002115,-0.002138,0.000360,-0.003033,0.000230,-0.002758,-0.000319,0.000976,0.000158,0.003098,0.001177,-0.002274,-0.000096,0.000250,0.001592,0.001188,0.000546,-0.002150,-0.001238,-0.001051,-0.001015,-0.001620,-0.000454,0.002935,-0.002473,-0.001217,0.000896,-0.000138,0.001956,-0.000169,-0.000553,0.001587,-0.004021,0.000899,-0.001326,0.000415,-0.001133,-0.001414,-0.001402,0.001771,0.002961,0.000783,-0.002978,-0.001712,-0.000734,0.000816,-0.002716,0.000215,-0.002421,-0.001380,0.001755,0.001514,0.003341,0.001045,-0.001894,0.002130,0.000349,-0.002912,0.001509,0.001240,0.001070,-0.001742,0.000267,0.003732,0.000357,0.001342,0.000965,-0.001041,0.001620,0.000285,-0.001547,0.001317,-0.000250,-0.001332,0.000446,0.000704,-0.000016,-0.000814,0.002409,-0.001047,0.000757,0.001729,0.000682,0.002107,-0.001858,0.000037,0.001500,0.001965,-0.000315,-0.002196,-0.003058,-0.000448,0.002120,0.000202,0.001740,0.001586,0.000305,-0.001685,0.002635,0.000268
http://dbpedia.org/ontology/Cleric	-0.016250,0.008940,-0.004480,-0.005820,0.007753,-0.005270,0.004655,-0.026661,-0.029619,-0.010523,-0.019571,0.014982,-0.019764,0.006899,0.017148,0.001843,-0.033119,-0.026531,0.014383,-0.000408,-0.018035,-0.014618,-0.010401,0.027069,0.021620,-0.019538,0.018065,0.002326,-0.008756,0.011677,-0.006765,0.034417,0.006312,-0.031643,-0.010426,-0.020172,-0.009964,0.006808,-0.006203,0.017176,0.015496,-0.058225,-0.002298,0.006637,0.016141,-0.013401,-0.010916,0.054113,0.005198,0.012376,0.018902,0.001345,0.011156,-0.032842,0.004743,-0.016134,0.019924,0.004408,0.019420,-0.023867,0.019120,-0.006320,0.018429,-0.010793,-0.000854,0.019439,-0.018848,0.018543,-0.019695,0.010273,-0.005152,-0.001054,0.014926,0.003876,-0.008342,0.011528,-0.013536,0.027852,0.020023,-0.027983,-0.004906,-0.032250,-0.009512,-0.009837,-0.020194,-0.014091,-0.037945,-0.014048,-0.007657,-0.029623,0.006462,0.011365,0.005068,-0.010231,-0.013440,-0.016558,-0.031785,0.016113,-0.011076,0.023115,-0.009788,-0.016178,0.006498,-0.020756,0.019165,-0.015714,-0.003709,0.007376,-0.008208,0.001598,-0.029693,-0.014137,0.001121,0.004209,-0.007764,-0.002480,0.006563,-0.030113,-0.009597,-0.012305,-0.005974,0.007110,-0.029199,0.037737,0.014167,0.001004,0.016336,0.002504,0.003562,0.001996,0.005467,0.011858,-0.038443,-0.003720,0.024908,0.001622,-0.015838,-0.029992,-0.020201,-0.020300,0.030140,-0.000625,0.002896,0.003814,-0.017435,0.000687,-0.005550,0.016105,0.016046,-0.013916,0.009876,-0.009447,0.028364,-0.011401,-0.004511,0.016516,0.014837,-0.043535,0.008720,0.032007,0.004185,-0.001133,0.004413,0.035565,-0.003254,-0.017939,0.012822,-0.008375,-0.026413,-0.010570,-0.006120,-0.010761,-0.006278,-0.009399,-0.013678,0.018093,0.009510,0.005089,-0.004057,-0.021154,0.008459,-0.005690,0.000368,-0.015613,-0.015742,0.015633,0.026972,0.003138,-0.005116,0.006006,-0.017358,0.006038,-0.002939,0.019995,0.012876,0.001043,-0.025013,-0.008298,-0.014915,-0.013573
http://dbpedia.org/ontology/Coach	-0.000122,-0.000304,0.000665,-0.000868,-0.002473,0.001058,-0.000012,-0.001505,-0.004779,-0.001576,0.001036,-0.002549,-0.004127,0.001903,0.001947,0.002203,0.001733,-0.003295,0.001314,-0.000417,0.001210,0.001645,-0.005483,0.001656,0.000792,-0.004463,-0.000044,0.003451,-0.001061,-0.001773,-0.003478,0.000714,-0.004354,0.001021,-0.000059,-0.001044,-0.003151,-0.001979,0.001925,-0.001373,-0.000154,-0.002370,0.003191,-0.002336,-0.000197,-0.000411,-0.005181,0.004771,0.000503,0.001003,-0.000574,0.002104,0.001510,-0.002826,0.000049,-0.004108,0.000312,0.001128,0.000974,-0.005378,-0.002165,0.003505,-0.003877,-0.000813,-0.000481,0.001505,-0.000620,0.000230,-0.002525,0.001329,0.000037,-0.003913,0.001188,-0.000523,-0.002657,0.002023,0.002327,0.002503,0.000371,-0.004239,0.001109,0.002365,-0.000814,0.001207,-0.000797,-0.002973,0.002511,-0.006277,-0.004236,-0.000794,0.001492,0.001345,-0.001039,-0.000139,0.001989,0.000769,-0.005049,0.001268,0.000957,-0.002132,0.000260,0.001356,0.003019,0.000577,0.001657,-0.002877,0.002130,0.001294,-0.002074,0.002047,-0.002800,-0.002919,0.001138,-0.000774,-0.000541,-0.000052,0.004417,0.000440,-0.001621,-0.000888,0.000001,0.000118,-0.003137,0.003339,0.000994,0.000986,-0.002280,-0.000756,-0.002115,0.000628,-0.001010,0.000703,-0.003351,-0.000612,0.002278,-0.003456,-0.001757,-0.002112,0.000764,-0.000031,-0.000338,0.000863,-0.005376,-0.000006,-0.003182,0.002109,-0.000745,0.001278,-0.002415,-0.002208,0.002263,0.000526,-0.000332,-0.001608,-0.001205,-0.000808,-0.002616,-0.003319,-0.000382,0.003604,0.000519,0.000300,-0.000838,0.003863,-0.002511,-0.001196,0.001128,-0.000380,0.003727,-0.001438,-0.000837,0.001826,-0.003371,0.000120,-0.004942,0.001323,0.002066,0.001743,-0.001144,-0.003445,-0.002935,0.001930,-0.000367,0.000452,-0.003033,0.001663,0.000451,-0.000072,-0.000778,-0.000943,-0.001750,0.001778,0.000161,0.000887,-0.000524,-0.001621,-0.002692,-0.001785,0.002880,-0.001232
http://dbpedia.org/ontology/Criminal	-0.001401,-0.001304,0.002813,-0.001917,-0.001690,0.000970,0.007082,-0.003035,-0.004028,-0.001810,-0.003889,0.000101,-0.008295,0.005619,0.006557,0.006974,-0.003072,-0.006390,-0.001333,-0.001934,-0.004569,0.006962,-0.010393,0.004346,0.004538,0.003357,-0.001059,0.002110,-0.000563,-0.000612,0.000390,0.002265,0.002570,-0.002010,-0.003113,-0.006604,-0.006804,0.003264,0.004545,0.001409,0.005172,-0.007094,-0.001290,-0.003323,0.005434,-0.005128,-0.001939,0.005097,-0.000396,0.000066,-0.000398,0.001835,-0.000028,-0.002642,0.002274,-0.007498,-0.000333,0.000101,-0.001322,-0.009183,-0.001791,-0.005759,-0.000884,-0.002480,-0.000452,-0.001763,-0.000734,-0.000828,0.000291,-0.004761,-0.001296,-0.001339,0.002757,0.001575,-0.000583,0.002670,-0.001300,0.000838,0.000774,-0.008564,-0.003740,-0.000356,0.001174,-0.001631,0.001889,-0.008477,-0.002593,-0.005185,-0.009267,-0.009450,0.002214,-0.002417,-0.004409,0.000251,-0.000492,0.001372,-0.006833,-0.004050,-0.007462,0.000817,0.003289,-0.006776,0.003740,-0.004957,-0.004644,-0.002474,-0.002691,0.001408,-0.002078,-0.001259,0.000979,-0.003035,-0.002977,-0.004365,-0.002683,0.000797,0.005038,-0.006873,-0.004150,-0.000786,-0.002870,-0.007823,-0.002249,0.001690,-0.000025,0.001620,0.001734,0.003029,-0.000113,-0.000630,0.002515,0.005737,-0.010827,-0.003492,0.003288,-0.000850,-0.003163,-0.001657,-0.002020,-0.000875,0.005902,-0.001579,-0.006280,-0.006263,-0.003830,0.011624,-0.002649,-0.006424,0.000977,-0.008759,-0.000241,0.000339,0.002452,-0.010727,0.000113,0.001921,-0.001252,-0.003475,0.004273,0.005649,0.000617,0.000803,-0.001147,0.008830,-0.007607,-0.001488,-0.001203,0.000933,-0.002466,-0.002898,-0.000339,0.001033,0.002240,-0.000096,-0.003191,-0.006304,0.002618,-0.001159,0.001406,-0.001769,-0.005680,0.003488,-0.002533,-0.002260,0.002330,-0.003655,0.005220,-0.001815,-0.005326,0.003853,-0.005447,0.006537,0.006688,-0.005332,-0.001492,-0.001229,0.000159,0.001161,0.002310,0.003514
http://dbpedia.org/ontology/Economist	0.006120,-0.001539,-0.006197,0.012968,-0.007479,0.003977,0.000096,0.008159,0.008918,-0.009710,0.006704,-0.005789,0.038493,-0.013160,-0.028594,-0.020248,0.007365,0.010181,0.009759,-0.000116,0.006902,-0.006831,0.022589,-0.025894,-0.016436,-0.003992,0.005679,-0.006009,-0.012914,-0.007380,-0.004123,-0.004842,-0.011852,0.002759,0.004174,0.037692,0.004543,-0.008034,-0.017851,-0.003203,-0.011009,0.030653,-0.021253,0.003864,-0.008949,0.012496,-0.007416,-0.007328,0.001245,0.003318,-0.003798,-0.025178,-0.008585,-0.003024,0.006731,0.028985,-0.018059,-0.001470,0.002900,0.017879,-0.002434,0.018112,0.007085,0.011141,-0.008869,0.010362,-0.003031,-0.003291,-0.006840,0.021622,0.000408,0.006035,-0.007088,-0.006976,0.001596,0.000489,0.015921,0.006482,-0.006632,0.023861,0.003906,0.015170,-0.008410,-0.001146,-0.003290,0.013559,0.017893,0.014477,0.012638,0.028650,-0.008032,0.003417,-0.002396,-0.010820,0.003116,-0.006916,0.017275,0.010994,0.011141,0.006577,0.000500,0.027537,-0.000040,0.015925,0.013056,0.006963,0.015628,-0.018306,-0.000353,-0.007226,0.001240,0.003318,0.004482,0.002887,0.010166,-0.002826,-0.000632,0.009625,0.012160,-0.002826,0.012272,0.016037,0.016347,-0.011252,-0.001039,-0.000124,-0.012296,-0.007382,-0.000461,-0.003161,-0.001361,-0.015549,0.021369,0.018543,-0.011406,0.020102,0.014560,0.027122,-0.006417,0.009656,-0.022305,-0.001445,0.025914,0.020862,0.011705,-0.032049,-0.003678,0.021654,0.005447,0.024376,0.002785,-0.001840,-0.013466,0.014985,0.001697,-0.003143,0.004174,0.012038,-0.018695,-0.026499,0.002811,-0.003533,0.012104,-0.020990,0.027606,0.010074,0.013855,0.001453,0.004250,0.013483,0.003373,-0.001291,-0.009551,0.004981,0.003839,0.005770,-0.019998,0.000010,0.004790,-0.004800,0.022354,-0.007779,0.005012,0.006770,-0.014638,-0.006247,-0.008089,0.002846,0.003048,-0.011649,0.025637,-0.018626,-0.010933,0.018008,0.003010,0.005585,-0.001640,-0.005947,-0.010054,-0.011793
http://dbpedia.org/ontology/Engineer	0.000838,-0.003963,0.000259,-0.002081,0.001866,0.002622,0.004588,-0.001482,-0.001117,-0.002940,-0.001053,-0.000032,-0.002139,0.003722,0.003595,-0.000099,-0.002943,-0.002186,-0.000562,0.000184,0.000533,0.004477,-0.004044,0.002456,0.001382,-0.000514,0.001045,0.001516,0.000329,-0.001109,0.003844,0.002545,0.002235,-0.002361,0.001345,-0.001059,-0.001524,0.001763,0.004302,-0.001468,0.002233,-0.000625,-0.001645,-0.000856,0.002460,-0.003102,-0.002051,-0.000812,-0.001580,-0.001483,0.001412,0.000041,-0.001009,0.000215,-0.000377,-0.002576,0.000349,-0.003025,-0.001907,-0.000391,0.000598,-0.000662,-0.000290,-0.001273,0.000064,-0.000560,0.001516,-0.003094,0.001766,-0.000847,-0.000461,-0.001796,0.001571,0.000951,-0.001702,-0.000183,-0.000396,-0.001640,0.001335,-0.002260,-0.003776,-0.004522,0.002011,-0.001196,0.000669,-0.002066,-0.002607,-0.003295,-0.002769,-0.004240,-0.002480,-0.000240,0.001727,0.001260,-0.002273,0.001520,-0.004718,-0.000818,-0.002837,-0.000864,0.002813,-0.004428,-0.001410,-0.004813,0.001731,-0.001849,-0.000774,-0.000735,-0.002008,-0.002027,-0.000781,-0.001504,-0.002914,0.001804,-0.001504,0.001997,0.001583,-0.004548,-0.003281,-0.002961,-0.000477,-0.004939,-0.001124,0.000062,-0.002445,-0.001639,-0.002013,-0.001444,0.003887,-0.000574,-0.002076,0.001552,-0.002790,-0.002957,0.000080,-0.001263,-0.000077,-0.003698,0.000165,-0.002254,0.003811,0.000334,-0.000004,0.000093,-0.001058,0.004453,-0.001761,-0.004580,-0.000919,-0.000561,-0.000787,-0.002087,0.004176,-0.003677,-0.002312,0.000467,0.000946,-0.004498,-0.000155,-0.000461,0.000548,-0.002325,-0.001393,0.004724,-0.004769,-0.000776,0.003039,-0.001604,-0.002921,-0.002397,-0.001514,0.001993,-0.001348,-0.002390,-0.001705,-0.002660,0.001352,-0.002206,-0.000321,-0.002563,-0.001890,0.000220,0.001041,-0.000044,0.003480,-0.000158,0.000865,0.001852,0.000149,0.002115,-0.000748,0.001100,-0.000487,-0.000581,-0.003030,-0.000520,-0.002485,0.002071,0.001236,0.002013
http://dbpedia.org/ontology/FictionalCharacter	0.001010,0.001791,0.000299,-0.001384,0.003006,-0.001128,0.002562,-0.002061,0.000331,0.001623,-0.001622,-0.000115,-0.006207,0.001809,0.003449,0.002138,-0.001547,-0.002383,-0.003001,-0.002321,-0.002092,0.003012,-0.001408,0.001623,0.002064,0.000030,0.000426,0.002376,-0.001474,-0.001026,0.000076,0.001591,-0.000061,0.000252,0.000513,-0.002909,-0.000180,0.001401,0.001269,0.001026,0.000521,-0.001679,0.001196,-0.002358,-0.000228,-0.002755,-0.001268,0.000707,0.000702,0.001409,0.000280,0.001273,0.002809,-0.000693,-0.000701,-0.003571,0.000725,0.001258,0.000376,-0.002516,-0.001464,0.000570,-0.002189,-0.003194,0.001128,-0.002434,-0.001225,0.000869,-0.000281,-0.001453,0.002115,-0.002960,0.002398,0.002949,0.001166,-0.001308,-0.002655,-0.000055,0.002137,-0.003693,-0.002084,-0.002631,-0.000098,-0.000019,-0.002130,-0.003445,-0.001989,-0.000349,-0.002931,-0.005129,-0.000657,-0.001351,-0.001121,-0.001144,-0.000403,0.002774,-0.003215,-0.001655,-0.000194,0.000797,0.000886,-0.001036,-0.001051,-0.004287,0.001026,0.000571,-0.001492,0.001854,-0.000114,-0.000835,-0.002994,-0.002994,0.001023,-0.002268,-0.002068,0.000201,-0.001214,-0.000755,-0.002347,0.001664,0.000335,-0.002214,0.000094,0.001501,-0.001541,-0.000719,0.001595,0.001433,0.002314,-0.001582,0.001762,0.002391,-0.003524,-0.000188,0.001262,-0.003112,0.000396,-0.000426,0.000583,0.000921,0.000885,-0.000220,-0.003530,-0.003220,-0.001606,0.003579,-0.002336,-0.001276,-0.001192,-0.002918,0.002455,0.001456,0.001513,-0.001702,-0.001881,0.000696,0.000131,-0.001391,0.000114,0.004953,0.000313,0.002288,0.000541,0.003035,-0.001554,0.000973,0.001258,-0.002109,-0.001463,-0.003458,-0.001678,0.001689,-0.001799,0.000296,0.000016,-0.002734,0.000717,0.002171,-0.001368,-0.000735,-0.004200,0.001324,-0.001335,-0.002641,0.001757,0.002677,0.001181,0.001449,0.001116,0.000081,-0.003994,0.003278,0.003366,-0.002532,-0.000100,0.002105,-0.000724,0.002794,0.000014,-0.001779
http://dbpedia.org/ontology/HorseTrainer	-0.000481,0.001475,0.000081,-0.003190,0.001931,0.001385,-0.000160,0.003752,0.001855,-0.004032,-0.001362,0.009618,0.005556,-0.004341,-0.004542,-0.006706,0.002109,0.001797,0.000716,0.002023,-0.000608,0.000918,0.006584,-0.003159,-0.000413,0.006434,-0.001140,-0.000773,-0.000047,0.000068,0.002456,0.000136,0.000351,-0.001890,0.002033,0.004729,0.002007,-0.003365,-0.000874,-0.000681,-0.003978,0.007709,-0.008852,0.003987,-0.003554,0.001598,0.003424,-0.001604,-0.000748,0.001586,0.000751,-0.008133,-0.003231,-0.002651,-0.000288,0.004691,-0.000724,-0.000245,0.002060,0.009273,-0.000658,0.000473,0.006637,-0.000636,-0.000422,0.005739,0.002050,-0.003707,0.000712,-0.001357,0.000408,0.007876,-0.003805,0.000525,0.003566,0.002758,-0.005366,0.000159,0.003115,0.008973,0.002180,-0.003909,0.002027,0.000383,0.003719,0.004855,0.003688,0.005816,0.004954,0.004551,-0.003749,-0.000809,0.007357,-0.002022,-0.000449,-0.005424,0.005537,0.001177,-0.002616,0.005536,0.002772,0.001912,-0.002590,-0.000213,0.006086,0.003980,0.001840,-0.006969,0.000043,-0.002196,-0.001309,0.000392,0.000260,-0.000232,-0.002070,0.001023,-0.006018,-0.000557,-0.002798,0.002498,-0.002708,0.006416,0.001803,-0.001996,-0.000586,-0.003463,-0.004176,-0.000371,0.004520,-0.002094,-0.001332,-0.002802,0.006070,0.007425,-0.003922,0.005442,0.002427,0.001819,-0.001043,-0.001072,-0.000844,-0.000487,0.005607,0.009854,0.004071,-0.002840,-0.003797,0.000532,0.007211,0.003815,-0.002846,-0.001702,-0.002885,0.005782,-0.000532,-0.000996,0.002324,0.000853,-0.002248,-0.005779,0.000070,0.000979,0.001558,-0.008219,0.002252,-0.001058,0.002724,0.002350,-0.008491,0.003142,0.001484,-0.002393,0.000106,0.000659,0.007849,0.000040,-0.001035,-0.003197,-0.004623,-0.003299,0.005155,0.001915,0.003473,0.001540,-0.001183,0.001365,-0.003333,-0.000309,0.000133,0.000136,0.003096,-0.004726,-0.001171,-0.000833,-0.002600,0.000610,-0.001566,0.002816,-0.007446,-0.000862
http://dbpedia.org/ontology/Journalist	0.002733,0.000336,0.002669,-0.001485,-0.001887,-0.002377,-0.001050,-0.001396,-0.001483,0.001431,-0.000812,0.000464,-0.000106,-0.001889,-0.000857,0.001622,-0.000356,-0.000787,0.002328,0.000310,0.002175,0.001670,-0.000972,0.001433,0.000148,0.000195,0.002103,0.002612,0.000566,-0.000111,0.000543,0.001970,0.000639,-0.000802,-0.002083,-0.000423,-0.002226,0.002080,0.000588,0.001571,-0.000035,-0.000804,-0.000188,0.000691,0.002843,-0.002560,-0.001255,-0.002267,0.000025,-0.000226,0.000001,-0.000503,-0.001617,-0.001795,0.001279,-0.002634,0.001256,0.002135,0.001123,-0.002370,0.000493,-0.002848,-0.001752,-0.001046,-0.001023,-0.002529,0.000140,-0.003026,0.000773,-0.003095,0.000357,0.002034,0.001000,-0.002242,-0.001876,0.001350,-0.001567,0.001493,0.002484,-0.002246,0.000510,-0.001117,-0.001526,0.002202,0.000427,-0.001637,0.000736,-0.001134,0.000497,-0.002054,0.000819,0.002178,0.000637,0.001449,-0.001597,0.000923,-0.002171,0.002089,0.000736,0.002662,-0.001206,-0.000271,0.001340,-0.002387,0.001434,0.001202,0.002559,0.001472,-0.001940,-0.000117,0.000571,-0.001372,-0.003022,-0.001622,0.000772,0.002120,-0.001643,-0.001421,0.001898,-0.001458,-0.001730,-0.000596,-0.000795,0.002095,0.002692,0.001912,0.000743,-0.002201,-0.002495,0.001961,-0.000257,0.000654,-0.003151,0.000375,0.001335,-0.001234,0.002496,-0.000492,-0.001052,0.000623,-0.002225,0.002073,-0.002929,0.000881,0.000241,0.002162,0.002148,0.000256,0.000714,-0.002485,-0.001016,0.000317,0.000860,0.000102,-0.000049,0.000077,-0.000554,-0.002301,-0.000971,0.000730,0.002397,0.000852,0.002284,-0.001186,-0.001364,0.000997,0.001105,0.000382,-0.001712,-0.001056,0.000850,0.002323,0.000675,-0.001990,-0.002665,0.001270,-0.001479,0.000368,-0.001881,0.001885,-0.001251,0.000582,-0.001770,-0.000517,0.001526,-0.000072,-0.001081,0.001814,-0.002873,-0.001539,0.000867,0.000682,-0.001689,-0.002008,-0.002383,0.001382,-0.001780,0.002296,-0.000293,-0.000795
http://dbpedia.org/ontology/Judge	-0.001459,0.000933,-0.005430,-0.001644,-0.007177,0.000608,0.004818,-0.009672,-0.010296,-0.004050,-0.006630,0.003674,0.013511,0.004425,-0.007672,-0.001988,-0.001069,-0.004669,0.005393,0.001988,-0.001851,0.012302,0.002344,-0.002048,-0.001384,0.001254,0.002716,0.000994,-0.005930,-0.000171,-0.002691,0.005068,-0.006838,0.005150,0.003273,0.013722,-0.008325,0.002591,0.000198,-0.001197,0.002783,0.001596,-0.016153,-0.003818,0.002561,-0.004631,-0.012119,0.003845,0.003222,0.000197,-0.010052,-0.017522,0.003529,-0.009734,0.006665,0.015650,-0.000892,0.003857,-0.001857,0.001398,-0.001402,0.006739,0.000915,0.004398,-0.000225,0.007368,-0.001897,-0.001843,0.000815,-0.000121,-0.000420,0.008167,0.002984,0.001224,-0.007810,0.004924,-0.006429,0.003555,-0.003631,0.010678,-0.000757,0.003537,-0.009506,-0.004113,-0.001974,-0.003711,0.000586,-0.001478,-0.005678,-0.000758,0.000934,0.001282,-0.005915,0.001595,0.002722,-0.008686,-0.006936,0.007093,-0.000208,0.003768,0.001621,-0.001823,0.007765,-0.005955,0.005052,0.000979,0.008134,-0.006507,-0.000666,-0.002390,-0.000607,-0.002205,0.000625,-0.001925,0.000111,-0.013596,0.009157,-0.008209,0.001372,-0.011243,0.000728,0.001539,0.001374,-0.003762,0.011878,0.000380,-0.004025,0.002522,-0.000919,0.001492,-0.002437,-0.002821,-0.010614,0.008381,0.003364,0.006833,-0.004247,-0.003734,-0.008290,0.002999,0.003021,0.005432,0.011636,0.015477,0.009898,0.005951,-0.012022,0.007679,0.014674,0.009400,0.002751,0.002913,0.004795,-0.005568,-0.002220,-0.002789,-0.000545,-0.006762,-0.002773,-0.002171,0.005988,0.001205,0.006156,-0.000007,0.003974,0.004989,0.016110,-0.000220,-0.018138,-0.000549,-0.000357,0.001235,-0.000864,-0.010710,-0.005936,-0.006397,-0.003750,-0.002643,0.000408,-0.002966,0.009855,-0.008899,-0.003460,0.001229,-0.008308,-0.004773,0.005502,0.002806,-0.004391,0.002230,0.003117,-0.016117,-0.001127,0.000311,-0.000424,-0.000965,-0.003762,0.001427,-0.012442,-0.004705
http://dbpedia.org/ontology/MilitaryPerson	-0.003330,-0.006191,-0.001355,-0.001165,-0.003616,-0.000781,0.007313,-0.002696,-0.008666,-0.003610,-0.001047,-0.010615,0.000483,0.003352,0.005790,-0.001327,-0.000021,-0.004656,0.001850,-0.004043,0.001102,0.007466,-0.007968,0.005593,-0.004011,0.000078,0.006637,0.002401,-0.004397,0.002983,0.001808,0.003029,-0.004671,-0.003213,-0.000109,-0.002265,-0.009188,0.002609,0.005570,-0.001364,0.002694,0.000001,-0.002653,-0.000877,0.005815,-0.004146,-0.006678,0.003674,-0.002803,-0.000292,-0.008112,0.002083,-0.001201,0.001219,0.002420,-0.004037,-0.004398,0.001951,-0.006544,-0.010279,-0.002460,-0.002601,-0.006896,0.001499,0.002418,0.000098,0.003156,-0.001377,-0.002872,0.001086,-0.000009,-0.006702,0.004011,0.000436,-0.001636,0.006551,0.003640,0.007019,0.000777,-0.004424,-0.003210,0.003534,-0.001111,0.001005,-0.001682,-0.006772,0.002062,-0.003255,-0.007207,-0.009169,0.003777,0.000560,-0.004585,-0.000377,0.005643,0.001574,-0.007220,0.001996,-0.008939,-0.003304,0.000108,-0.004493,0.005248,0.000356,-0.000700,-0.005239,0.001001,-0.001405,-0.005418,-0.000454,0.000160,-0.004081,-0.001022,-0.003375,-0.000169,-0.001124,0.011582,-0.008656,0.004759,-0.005348,-0.000471,-0.007514,-0.000767,0.000822,-0.001227,0.000327,-0.005019,-0.000931,-0.004342,0.000990,0.002749,0.002619,-0.010889,-0.002461,0.001394,0.002518,0.000928,0.005488,-0.000110,-0.003170,0.001119,-0.000959,-0.006341,-0.006940,0.000476,0.007135,-0.001019,-0.000670,-0.005368,-0.005301,0.002705,-0.002386,0.003474,-0.014784,0.000223,0.002838,-0.000603,-0.002556,0.004386,-0.003428,0.000122,-0.002220,-0.006518,0.006236,0.002602,-0.003077,0.003640,-0.004727,0.005111,-0.004747,-0.001244,-0.001084,0.001471,-0.001801,-0.005249,-0.003543,0.000687,0.000421,0.000934,0.002548,0.002130,-0.002929,-0.000096,0.000661,-0.000294,-0.004654,0.003299,0.001752,-0.000747,-0.001990,-0.002768,0.003058,0.006597,0.001236,-0.001645,-0.004872,-0.004892,0.003210,0.000036,0.006408
http://dbpedia.org/ontology/Model	-0.003567,-0.002794,-0.002012,-0.002342,0.000119,-0.000212,0.001276,-0.001159,-0.003914,0.001743,0.001242,-0.002251,-0.001963,0.003833,0.001250,0.003591,-0.002095,-0.002795,0.002147,0.001673,0.000885,-0.000419,-0.003965,0.002019,-0.000299,-0.001570,-0.000734,0.001271,-0.000711,-0.000675,0.001158,0.002819,-0.000638,0.000947,-0.000119,-0.000141,-0.003935,0.000693,-0.001378,-0.000985,-0.001798,0.000360,-0.003011,-0.000872,0.003191,0.000302,0.000884,0.000881,-0.001833,0.000285,0.000567,-0.000107,0.001418,-0.001058,0.001078,-0.001437,-0.000677,-0.001050,-0.002182,-0.002665,-0.000852,0.000576,-0.002870,-0.001567,-0.001369,0.001706,0.001432,0.002647,-0.000420,0.000104,0.000081,-0.000931,0.003391,0.001321,-0.001140,0.002914,-0.003240,-0.000061,-0.000249,-0.003769,-0.003481,-0.002609,-0.002026,0.001926,-0.000017,-0.001441,-0.000153,-0.002910,-0.004890,-0.002557,0.000285,0.001145,-0.001895,0.001946,0.000428,0.000115,-0.003094,-0.002019,-0.001003,0.001437,0.000212,-0.000804,0.001295,-0.000187,-0.003262,-0.000894,-0.002125,0.001320,0.000859,0.001344,-0.000653,0.000215,-0.002567,0.000196,-0.000598,0.001949,0.003158,-0.001626,-0.002164,-0.000055,0.001206,-0.001729,-0.000702,0.000813,0.001108,-0.001449,-0.000188,0.002087,0.001662,0.001893,-0.000341,-0.000742,-0.003148,-0.000217,0.002778,0.001007,-0.000751,0.000588,-0.000692,-0.002586,0.001929,-0.002110,-0.003867,-0.000497,-0.002018,0.004962,-0.001881,-0.000062,-0.002969,0.000180,0.003176,-0.001815,0.003718,-0.001472,0.001086,0.000367,-0.000258,-0.000622,0.003843,0.002464,-0.000845,0.000047,-0.000714,-0.000259,-0.003833,0.000295,-0.001290,-0.000030,-0.001536,0.000691,0.000201,-0.001749,0.001607,-0.001570,-0.000549,-0.002491,0.000137,-0.000918,0.002125,-0.000025,-0.003221,0.000228,0.000489,-0.002625,-0.000749,-0.004190,0.000519,0.003151,-0.000362,-0.000335,-0.000453,0.003078,0.002189,-0.001219,0.000318,-0.001110,-0.001731,0.001209,0.000578,0.002397
http://dbpedia.org/ontology/Monarch	-0.003066,0.000813,0.001419,-0.001152,0.000381,-0.001151,0.005164,-0.005010,-0.005705,0.000102,-0.000141,-0.002112,-0.006506,0.002441,0.008034,0.005530,-0.001164,-0.005925,-0.000091,-0.000616,-0.003664,0.006830,-0.005690,0.006682,0.003110,0.002631,0.000829,0.005505,0.002043,0.002793,0.002877,0.001461,0.000913,0.000910,-0.000422,-0.008133,-0.007265,0.002988,0.004186,0.003604,0.005259,-0.005791,0.002034,-0.001090,0.002827,-0.004991,-0.003369,0.004059,-0.001322,-0.001184,-0.003455,0.004874,0.003928,-0.001863,0.000474,-0.009518,0.002627,-0.001298,-0.004068,-0.007298,-0.001506,-0.004789,-0.001886,-0.002755,0.004094,-0.004448,0.001517,-0.001373,-0.000295,-0.003901,-0.001653,-0.000485,0.006779,0.001294,-0.001100,0.001299,-0.002379,0.000370,0.000141,-0.008633,-0.002259,-0.004228,-0.002625,0.001160,-0.002182,-0.005013,-0.002161,-0.007232,-0.007512,-0.007756,0.003451,0.000441,-0.002753,0.000900,0.002142,-0.000041,-0.009765,-0.000623,-0.006000,-0.000022,0.000099,-0.007719,0.003144,-0.005638,-0.002689,-0.004299,0.001079,0.004212,-0.001302,0.002006,-0.000321,-0.002044,0.000162,-0.003503,-0.000396,0.000701,0.006072,-0.005963,-0.000834,-0.001186,-0.000148,-0.005280,-0.002322,0.001022,-0.001657,0.001708,-0.000923,0.002551,-0.000110,0.001564,0.002661,0.004828,-0.010699,-0.003171,0.003675,-0.001017,-0.003700,-0.006829,-0.002381,0.000598,0.007400,-0.000001,-0.005578,-0.003636,-0.003203,0.008011,-0.002756,-0.004808,-0.000761,-0.005907,-0.000418,0.002057,0.004107,-0.010760,-0.002668,0.004633,-0.001565,-0.001253,0.003162,0.003989,0.002118,0.001844,-0.004190,0.009031,-0.006359,-0.002007,-0.002307,0.000962,0.001858,-0.003530,-0.002439,0.001424,-0.000162,-0.000792,-0.004492,-0.005789,0.004976,0.003286,0.002461,0.000170,-0.005510,0.001045,-0.000137,-0.002791,0.000725,0.001031,0.005476,-0.001745,-0.003955,0.001990,-0.006445,0.003283,0.004231,-0.006469,0.001292,-0.003616,0.000344,0.002435,0.004727,0.004808
http://dbpedia.org/ontology/Noble	0.000827,0.000293,0.002136,-0.001260,0.001750,0.000693,0.000541,-0.003415,0.000385,-0.000396,-0.002774,-0.001688,-0.001764,0.002256,0.002819,-0.000066,-0.000303,0.001716,0.001856,0.001630,-0.000819,0.002482,-0.002421,0.002215,0.000568,0.000711,0.000458,0.002158,-0.001242,0.002232,-0.000072,0.001137,0.002967,-0.000017,-0.000276,-0.001342,-0.001155,0.001426,0.003964,0.001010,0.003021,-0.000391,0.000883,0.001028,0.001170,-0.003822,0.000263,0.000890,0.000212,-0.002853,-0.002354,0.001761,0.001382,0.001055,-0.000406,-0.002956,0.001365,-0.000847,-0.001788,-0.002323,-0.000919,-0.001653,0.001588,-0.001079,0.001758,-0.002760,-0.001432,-0.002690,-0.001480,-0.003857,-0.001363,0.000441,0.003190,-0.001192,0.001834,0.001524,-0.001535,0.001383,0.001622,-0.000862,0.000519,-0.001177,0.001525,0.001824,0.002010,-0.003738,-0.002331,-0.003335,0.000575,-0.001449,0.000442,-0.002235,0.001288,-0.000496,-0.001253,0.001166,-0.003407,-0.002805,-0.001879,0.002301,0.001111,-0.000322,-0.001029,-0.002163,0.001456,0.001236,-0.001723,-0.000333,0.000694,-0.002746,-0.001824,-0.002024,-0.000663,-0.003027,-0.000433,-0.000773,0.002865,0.000342,0.000105,-0.000674,-0.001330,-0.003304,-0.000836,0.000306,-0.001667,0.002164,0.001921,-0.001733,0.001334,-0.001038,-0.001666,-0.000155,-0.002977,-0.002295,-0.000052,-0.003060,0.000541,-0.001473,-0.001063,-0.000994,0.000512,0.000180,-0.000886,-0.001938,0.001475,0.002000,-0.001174,-0.001237,-0.000966,-0.000666,-0.001996,0.001249,-0.000948,-0.000754,-0.001913,0.003012,0.000342,-0.003369,0.001673,-0.001112,-0.001308,-0.001273,0.001072,0.001228,-0.001566,0.000434,0.002648,-0.002253,-0.003473,-0.001438,0.000788,0.001690,-0.000902,0.000062,-0.002746,-0.001566,0.003206,-0.002435,-0.000829,0.001635,-0.002474,-0.001341,0.001545,-0.001692,0.000483,-0.001921,0.003890,0.001241,-0.002957,-0.001795,-0.003826,0.001024,0.002539,-0.003580,-0.003303,-0.001870,0.001447,0.002158,0.000362,0.002606
http://dbpedia.org/ontology/OfficeHolder	0.006481,0.003499,-0.019802,0.004628,-0.010517,-0.002307,0.001558,0.019590,0.013665,-0.010058,0.004261,0.040830,0.037519,-0.015836,-0.040856,-0.019487,-0.007855,0.001816,0.015816,0.008380,-0.002525,-0.031611,0.019363,-0.037574,-0.018361,-0.003148,0.014799,-0.017075,-0.034966,-0.006827,-0.033233,-0.004308,-0.038079,-0.012945,-0.001247,0.050274,0.015861,-0.004587,-0.033402,0.003051,-0.011941,0.042967,-0.021740,0.013035,-0.020986,0.016262,-0.008314,-0.000639,0.000010,0.002533,0.021541,-0.043053,-0.022643,-0.005521,0.028402,0.051117,-0.022709,-0.012499,0.027648,0.010417,0.007754,0.024844,0.020885,0.009382,-0.018083,0.040483,-0.024773,0.002121,-0.024805,0.050693,0.020779,0.003052,-0.023377,-0.005393,0.021524,-0.009718,0.022172,0.030214,-0.017155,0.065380,0.011240,0.008506,-0.015384,-0.001576,-0.017871,0.031569,0.012619,0.029299,0.022956,0.032506,0.005048,0.017954,0.005719,-0.012525,0.003800,-0.009665,0.029902,0.025752,0.006970,0.015745,-0.012003,0.054249,-0.000202,0.023808,0.042167,0.021083,0.035790,-0.029774,0.002956,-0.012496,0.006313,-0.003744,0.017919,0.001782,0.028373,0.019464,-0.008650,-0.001277,0.020296,-0.014250,0.022556,0.038690,0.007986,-0.004561,-0.011830,-0.000086,-0.012315,-0.018581,-0.000189,0.002300,-0.020200,-0.030997,0.019306,0.016024,-0.003387,0.005921,0.006065,0.049674,-0.013479,-0.007028,-0.020951,-0.027895,0.029299,0.007337,0.017274,-0.051124,-0.009085,0.044647,0.019073,0.025140,0.011797,-0.006378,-0.021971,0.012101,0.002509,0.001706,-0.001148,0.007714,-0.027391,-0.039726,0.003227,0.006063,0.015110,-0.012917,0.039714,0.018618,0.020452,0.004845,0.011668,0.015791,-0.003141,0.017598,-0.006819,0.016831,-0.001271,0.046125,-0.021275,0.003474,-0.019215,-0.025137,0.035080,-0.016381,-0.005669,0.005654,-0.019749,0.010633,-0.014543,0.008557,0.006714,-0.022832,0.042017,-0.019708,-0.037348,0.045507,0.012377,0.025549,-0.011815,-0.008577,-0.014748,-0.015003
http://dbpedia.org/ontology/OrganisationMember	-0.000644,-0.000954,0.002281,0.001523,0.001338,-0.001938,-0.001606,0.001182,-0.001974,-0.001969,-0.002470,-0.000877,0.000265,-0.000084,0.001320,0.001432,-0.001957,0.001101,-0.000296,0.002089,-0.002148,-0.001076,0.001092,0.000322,-0.001259,0.000950,0.000791,-0.000094,-0.000328,-0.001016,-0.001819,0.000090,0.000984,0.001111,0.001198,0.002246,0.000672,-0.002390,-0.001136,0.000757,-0.001666,-0.002345,-0.000216,-0.000823,0.001139,-0.000061,-0.000142,-0.001941,-0.000735,0.001264,-0.000054,0.002113,0.001174,-0.001422,0.001545,0.001992,0.000510,0.000414,-0.001148,-0.002110,-0.000560,0.001766,-0.002440,-0.000815,0.000539,-0.002381,0.000106,0.000141,0.001785,-0.002320,-0.001257,0.000882,-0.001541,0.002482,-0.001975,0.000246,-0.001973,0.001200,-0.002451,0.001949,0.001346,-0.000793,-0.001016,0.000462,-0.000033,0.002399,-0.002261,0.002212,-0.000416,-0.000289,0.002071,0.001155,-0.000399,0.000344,-0.000748,0.000065,0.000241,0.002024,0.002297,0.001663,0.002093,0.000921,-0.001719,0.002422,0.000643,0.001875,0.001393,0.000137,0.001098,0.000894,0.000784,0.001646,0.000944,0.002441,0.000688,0.000259,-0.001503,0.001382,-0.001076,-0.001040,-0.000792,-0.000721,-0.001039,0.001728,-0.001767,0.000014,-0.001014,0.001079,0.001503,0.000083,0.001899,0.001966,-0.001887,0.000242,0.001226,0.002386,-0.001775,0.002377,0.001659,0.001730,0.000262,-0.001682,-0.001306,-0.002418,-0.000666,-0.001592,0.002139,0.002328,0.002123,-0.002279,-0.001699,-0.001691,0.002056,-0.000942,0.001309,-0.001170,-0.000506,0.000103,0.000141,0.000568,-0.000160,-0.000646,-0.001498,-0.000133,0.000152,-0.000313,-0.001211,-0.000807,0.001202,0.000159,0.001843,-0.000761,0.001427,-0.002032,0.001745,0.000729,0.002131,-0.000171,0.001857,0.000596,0.000627,-0.001555,-0.002252,0.000541,0.000309,0.000858,0.002140,0.001597,-0.000891,0.001065,-0.001067,0.000149,-0.002349,-0.001669,0.000560,-0.000895,-0.000039,0.001470,0.000280,-0.000394
http://dbpedia.org/ontology/Philosopher	0.004209,-0.001072,-0.000495,0.003917,-0.005046,0.002057,0.000693,0.001537,0.004347,-0.008221,0.001558,0.002667,0.020938,-0.003422,-0.013311,-0.010506,0.005847,0.006794,0.005704,-0.000748,0.006706,-0.006007,0.011028,-0.012332,-0.011770,-0.003711,0.000926,-0.003139,-0.011114,-0.005282,-0.002678,-0.002229,-0.008867,0.001290,0.000374,0.023794,0.004086,-0.003892,-0.012139,0.000840,-0.009432,0.018722,-0.014963,0.005069,-0.004523,0.002177,-0.004627,-0.003100,0.000145,0.003120,-0.001509,-0.014166,-0.006960,-0.002778,0.005348,0.020313,-0.014044,-0.001653,0.001593,0.008681,0.000719,0.009253,0.005486,0.009004,-0.004274,0.011859,-0.002737,-0.001508,-0.006991,0.014386,0.001739,0.002010,-0.002437,-0.004949,0.001319,-0.001225,0.009082,0.008108,-0.000879,0.016505,0.002152,0.006543,-0.004834,-0.003485,-0.000922,0.007300,0.009388,0.007519,0.008009,0.015792,-0.002745,-0.000269,0.000369,-0.002196,0.001832,-0.004057,0.009976,0.007665,0.002654,0.006389,-0.001344,0.014725,0.003894,0.007757,0.013233,0.009255,0.007610,-0.011009,-0.001220,-0.004467,0.002438,-0.001185,-0.000816,0.004424,0.005115,0.000672,0.001882,-0.000230,0.007969,-0.001557,0.008217,0.007527,0.007857,-0.005751,-0.000179,0.001758,-0.006837,-0.007188,-0.001755,-0.003576,-0.006258,-0.010003,0.009463,0.011697,-0.004023,0.012900,0.009016,0.019669,-0.002497,0.001930,-0.012940,-0.005835,0.015166,0.008893,0.006834,-0.015421,-0.004062,0.013603,0.003910,0.012166,0.002018,-0.000381,-0.006024,0.005386,-0.003629,-0.001944,0.004858,0.004937,-0.010923,-0.017175,0.003586,0.002591,0.007635,-0.014669,0.016974,0.005849,0.010249,-0.001367,0.005616,0.006949,0.003286,-0.001003,-0.004992,0.001978,0.001053,0.003562,-0.010967,-0.001533,0.000372,-0.003562,0.013859,-0.005768,0.001530,0.005112,-0.007267,-0.006461,-0.006507,0.004305,0.005686,-0.004631,0.017463,-0.014625,-0.007801,0.009832,0.002517,0.002832,-0.001353,0.000178,-0.006138,-0.005740
http://dbpedia.org/ontology/PlayboyPlaymate	-0.000591,-0.001279,-0.003000,-0.001814,-0.000261,-0.000794,-0.001200,0.002876,0.002746,-0.000001,0.000903,-0.001783,0.002076,-0.000118,-0.003618,0.001798,-0.001697,-0.000933,-0.000316,-0.000255,0.000396,0.001400,0.002737,-0.002705,0.000673,0.001871,0.000411,-0.001736,0.000723,0.000612,0.000860,-0.001231,0.002230,0.000416,0.000587,0.000217,0.001127,-0.001731,0.001524,0.001991,0.001753,0.003329,-0.002318,-0.002497,0.001262,-0.000151,0.000150,-0.001842,-0.001203,-0.000755,-0.001454,0.000665,0.002368,-0.000024,-0.001150,0.001720,0.000265,0.001668,-0.001335,0.001718,-0.000516,0.000592,-0.001247,0.000344,-0.001193,-0.001760,0.001099,0.000615,0.000675,-0.001994,-0.003140,0.000085,-0.000846,0.001258,0.001171,0.001402,0.002024,0.000436,0.001997,-0.001819,0.003162,0.001615,0.001432,0.002454,-0.000250,-0.001348,0.002077,-0.000155,0.000221,0.003041,-0.001553,0.001871,-0.000194,-0.002261,0.000522,-0.003271,-0.001760,0.000192,-0.000441,-0.000416,0.001763,0.000900,-0.002219,0.000981,0.000649,-0.001374,-0.001734,-0.003131,-0.002203,0.000959,-0.001777,0.001293,-0.002506,0.001654,-0.001229,-0.001210,0.000341,-0.001160,0.000769,0.002249,0.000607,0.000055,-0.001521,0.001565,0.001045,-0.002945,-0.002429,-0.000764,0.000674,0.001087,0.001926,-0.000136,0.003128,0.002857,0.000095,0.003117,-0.001583,0.000339,-0.002110,0.002340,0.001944,0.000382,0.002752,-0.000595,0.001189,0.000932,0.001726,0.001486,-0.000077,0.003395,-0.001302,-0.001377,0.002148,0.000511,-0.000112,0.001170,-0.000038,0.000184,0.000187,-0.000109,0.001012,-0.000527,0.002227,-0.002677,0.000879,0.001655,-0.001029,-0.001891,-0.000693,0.001774,-0.000686,0.001302,-0.001751,0.001129,0.000627,-0.002245,-0.000981,0.001664,0.000915,0.001395,0.002645,-0.000950,0.002840,0.001604,-0.001604,-0.002283,-0.001232,0.001551,-0.001555,0.002873,-0.000816,0.000624,0.000016,-0.001664,-0.000829,0.001219,0.000035,-0.002587,0.000236,-0.001330
http://dbpedia.org/ontology/Politician	-0.006177,-0.013842,0.000111,-0.004662,-0.005439,-0.005034,0.008590,-0.006179,-0.013023,-0.000643,0.011136,0.011899,-0.009675,0.008212,0.002414,0.014698,-0.000957,-0.014392,-0.010132,0.006688,-0.000248,-0.000508,-0.019971,0.005040,-0.013355,0.000996,0.002609,0.004246,-0.022412,0.004943,-0.014627,0.000049,-0.006031,0.002725,-0.009116,0.004063,-0.003737,0.008293,0.003036,0.005152,0.005075,0.002294,0.002102,0.009551,0.002855,-0.002185,-0.010922,0.002691,-0.001476,-0.000602,-0.006792,0.003896,0.003048,0.000064,0.017233,-0.002309,-0.011812,0.002610,-0.001519,-0.010672,0.003874,0.003155,-0.006284,0.001152,0.004415,0.006121,-0.009241,0.008837,-0.008238,0.017032,0.014395,-0.019079,0.002738,0.002015,0.005669,0.003253,0.002901,0.011251,-0.003678,0.008050,0.000092,0.000749,-0.012036,-0.011634,0.008288,-0.010771,0.006934,-0.009519,-0.005823,-0.011841,0.014408,0.008581,-0.007527,0.005881,0.007181,0.007999,0.001106,-0.000005,-0.002635,-0.002747,-0.000624,0.004400,0.012515,-0.002220,0.012928,-0.002100,0.013187,0.004440,0.002024,0.007858,0.007123,-0.009583,0.013452,-0.008239,0.005534,0.002679,0.012559,-0.007408,0.011653,-0.021952,0.005094,-0.009969,-0.007367,0.004723,0.002528,0.009039,-0.002334,-0.004129,-0.002685,-0.000301,-0.008996,0.004065,-0.019361,-0.005230,0.003301,-0.006774,-0.005215,0.008161,0.003193,-0.001401,-0.003024,-0.003138,-0.015219,-0.020020,0.009040,0.008106,-0.010506,0.000270,-0.006581,-0.012775,0.004796,0.007649,0.011758,-0.019128,0.007693,-0.000060,-0.002007,0.000363,0.015257,-0.003169,0.000265,0.010812,-0.005192,0.014554,0.002639,0.004315,-0.001554,-0.002561,0.021769,-0.017750,-0.009580,-0.006520,0.011621,-0.008835,-0.022075,0.009750,0.006064,0.008726,-0.000313,-0.010656,-0.001295,-0.010491,-0.017339,-0.004553,-0.004446,0.000577,0.002886,0.006109,-0.004749,-0.004215,-0.001975,0.014785,-0.001628,0.006250,-0.001800,-0.001097,0.005868,0.009463,-0.001902,0.015327
http://dbpedia.org/ontology/Presenter	0.000567,0.001724,-0.002750,-0.000734,0.001220,0.001681,0.000256,-0.001724,0.001047,0.000180,0.000156,-0.002493,-0.000394,-0.000376,-0.000972,0.000137,0.000099,-0.002615,0.002858,-0.000399,0.000663,0.002196,0.001468,-0.001742,-0.000467,-0.001241,0.000985,0.002380,-0.002131,0.001167,0.001013,0.000589,-0.000359,0.001002,-0.001408,0.003292,0.000382,0.002505,0.000825,-0.001202,-0.001510,-0.002432,-0.002226,0.000292,0.001814,-0.001202,-0.003132,0.000661,-0.000514,0.001942,-0.001038,-0.000938,0.001519,-0.002363,-0.000346,-0.002537,0.001197,-0.000560,-0.002170,-0.001747,-0.001451,0.001648,-0.002714,-0.000178,0.000943,0.001023,0.001458,-0.001159,-0.000384,0.002392,-0.002133,-0.001268,-0.001107,-0.002445,-0.003172,0.000004,0.003385,0.000665,-0.001347,-0.001529,0.002183,-0.002123,-0.000079,0.000262,-0.000744,0.000475,0.000193,0.000643,-0.000667,0.000371,0.001656,0.000346,0.000801,-0.002589,0.001055,-0.000707,-0.002340,0.001192,0.002121,-0.000972,-0.000911,0.002510,0.001019,0.002743,0.001953,0.001208,0.000215,-0.002808,0.000964,0.000099,0.000296,-0.000312,0.000277,-0.001492,-0.001410,-0.001353,0.002494,-0.000091,-0.002102,-0.001105,-0.001314,0.003030,-0.001819,0.000981,0.000210,-0.000090,0.000131,0.002636,-0.001333,0.000799,-0.000394,-0.000694,0.000863,-0.001680,-0.000248,-0.001013,0.001437,-0.000861,-0.000422,0.002069,0.000118,0.001107,-0.003028,-0.001068,0.002143,-0.000470,0.001787,-0.001730,0.000394,-0.000975,0.002849,-0.000520,-0.000819,0.001598,-0.002069,0.002417,0.000892,0.001079,0.002346,-0.000006,-0.001896,-0.002276,0.000924,0.003419,0.000813,0.000473,0.000595,-0.002471,0.002136,0.001077,-0.000983,-0.001913,-0.002896,0.001477,-0.002150,-0.000389,-0.002131,0.002181,-0.001533,-0.001565,0.001524,0.001409,-0.002426,0.000450,-0.001796,0.000864,0.000472,0.002252,0.002038,0.001179,-0.000869,0.000835,0.000741,0.000932,-0.000101,-0.001351,-0.002237,-0.000002,0.001083,0.002491
http://dbpedia.org/ontology/Religious	-0.000696,-0.001756,-0.001041,-0.002050,0.002287,0.003666,0.003985,-0.003074,-0.000914,0.000243,0.000788,0.003095,-0.003808,0.003249,0.002616,0.002093,-0.001501,-0.003816,-0.001022,0.000591,-0.002703,0.005787,-0.003142,0.002437,0.002422,0.003411,0.002635,-0.000855,0.003184,-0.001589,-0.000056,0.002744,0.001058,-0.000131,-0.001409,-0.004592,-0.000365,0.003533,0.004937,0.000190,-0.001840,-0.004624,-0.000138,0.000779,0.000589,-0.001821,0.000021,-0.000770,-0.002112,-0.000743,-0.001022,-0.000847,-0.002240,0.000132,-0.001692,-0.002629,0.000459,0.001262,-0.001892,-0.002673,0.002027,-0.003945,-0.001323,-0.000553,0.002305,0.000235,0.001696,-0.003431,-0.001800,-0.002302,-0.000280,0.002177,-0.000992,-0.000736,0.001783,0.000096,-0.000397,-0.000831,0.003901,-0.000030,-0.001842,-0.003170,-0.001044,-0.001050,0.001486,-0.003056,-0.000743,-0.002837,-0.004715,-0.006418,-0.001228,0.000537,0.001284,0.000699,0.001878,0.000042,-0.002878,0.000668,-0.004049,-0.002725,-0.000734,-0.005338,-0.000831,-0.002663,-0.002797,-0.003096,-0.000892,0.002200,-0.005574,-0.001870,-0.000160,-0.002860,-0.003864,-0.002779,-0.000811,-0.001655,0.003491,-0.001553,0.000650,0.000799,-0.001853,-0.004989,-0.001601,0.002258,-0.000229,-0.001279,0.000641,-0.001123,-0.000185,0.001204,0.000835,0.000888,-0.005389,0.000224,-0.000464,0.000133,-0.001261,-0.000105,0.001922,-0.000510,0.003558,0.000872,-0.000828,-0.000769,0.002008,0.008754,-0.003029,-0.004084,0.001895,-0.003942,-0.002021,-0.000080,0.003309,-0.005345,-0.002575,0.001189,-0.001253,-0.002856,0.001725,0.003426,-0.001020,-0.000913,-0.000026,-0.000074,-0.002582,-0.000577,0.002559,-0.001803,-0.001009,-0.000794,-0.000248,-0.002134,0.002989,0.000108,0.001012,-0.003454,0.001377,-0.002179,-0.002542,-0.001931,-0.001281,0.002135,-0.001220,0.002170,0.002514,-0.000265,0.002244,-0.001100,-0.001816,0.000154,-0.000754,0.001717,0.001903,-0.002675,-0.003093,-0.002934,-0.001688,0.000772,0.002344,0.001951
http://dbpedia.org/ontology/Royalty	0.001008,0.053979,-0.011260,0.005401,0.010001,0.015123,-0.019327,-0.004052,0.028591,-0.010538,-0.016629,-0.019145,0.021688,-0.026411,-0.000928,-0.019582,-0.001497,0.016406,0.015342,0.025682,-0.005628,0.017926,0.039775,-0.016810,0.016203,-0.001795,-0.025008,-0.011689,0.026992,-0.021141,-0.001157,0.014565,-0.007409,-0.007901,0.006470,0.014235,0.021078,-0.029943,-0.001921,-0.011900,0.016451,0.003222,-0.021882,-0.032129,0.020585,-0.000562,0.027106,0.019640,-0.002410,-0.023226,-0.013962,-0.004466,0.006464,-0.025458,-0.014788,-0.008768,0.018343,0.009084,0.005474,0.022077,-0.016810,0.027632,0.027601,0.015914,-0.010316,0.008724,-0.016165,-0.029411,0.019510,-0.041366,-0.033048,0.040708,-0.026777,-0.023440,-0.025387,0.011349,-0.017983,-0.013047,-0.001195,-0.017932,-0.021181,-0.001127,0.011977,0.031543,-0.013047,0.013465,0.010802,-0.001215,0.001723,0.025155,-0.019792,-0.023119,0.000571,-0.025763,-0.029598,-0.034500,0.011219,0.007859,-0.013074,-0.000087,0.041091,-0.033740,-0.027255,0.011459,-0.036495,0.032926,-0.017304,-0.028942,-0.006213,0.014062,-0.013941,-0.002100,-0.011170,-0.002543,-0.012347,0.001665,-0.003334,0.000239,-0.027920,0.012901,-0.008574,0.010949,0.020833,-0.057784,0.022031,0.005658,-0.006033,0.041801,-0.005468,0.006430,0.000274,-0.015038,0.018041,-0.010334,-0.023636,0.022222,-0.013301,0.000014,-0.002198,0.001441,-0.000699,0.017007,0.008005,0.094071,-0.007657,0.003543,-0.018181,-0.010125,0.033901,0.033757,0.014348,-0.012605,-0.037342,0.025628,-0.031845,-0.028876,-0.007785,0.003743,-0.025007,0.004271,0.006586,-0.006273,0.014004,-0.021728,-0.006332,0.008023,-0.000686,0.025502,-0.079151,0.029303,0.027520,0.020763,-0.025792,-0.011049,0.046250,-0.016690,-0.039775,-0.008672,0.006551,-0.007868,0.006561,0.034869,0.039287,0.014738,-0.007077,-0.011632,-0.019498,0.008988,0.010882,0.018215,-0.021475,-0.032420,-0.033053,-0.008949,0.000026,0.002041,-0.026409,-0.000757,-0.016269,-0.021226
http://dbpedia.org/ontology/Scientist	-0.001035,-0.002980,-0.000549,0.004613,-0.002815,-0.001581,0.006130,-0.003483,-0.004285,-0.004121,0.002292,-0.015458,0.002582,0.004084,-0.002632,0.002773,0.006070,-0.006759,-0.001672,-0.000305,0.004309,0.001438,-0.008584,-0.002131,-0.002082,-0.007871,0.009501,0.004264,-0.007810,-0.000178,-0.000328,0.001761,-0.005412,0.002738,-0.002256,0.004964,-0.008035,0.000409,0.000159,-0.000082,0.003634,-0.002936,-0.000887,0.004089,0.002694,0.003442,-0.012013,-0.000902,0.005586,0.003905,-0.010066,-0.000214,-0.000324,0.002744,0.007655,-0.004335,-0.003848,0.000317,-0.008260,-0.008210,-0.003471,0.002583,-0.009607,0.002657,-0.001162,-0.004804,0.002485,0.000831,-0.003383,0.004042,-0.001033,-0.008242,0.009303,-0.000112,-0.004028,0.002511,0.008142,0.007276,-0.003616,-0.007133,-0.005784,0.010904,-0.006651,-0.003307,-0.000473,-0.011324,0.011587,-0.007755,-0.010341,-0.008213,0.004672,0.000160,-0.010112,0.000773,0.009993,0.001920,-0.010702,0.002866,-0.001853,-0.004989,0.003614,0.003005,0.007369,-0.000923,0.001750,-0.006131,0.003642,0.000190,-0.002104,-0.000405,-0.001095,-0.003615,0.000323,-0.003509,0.002864,-0.000504,0.015411,-0.000840,0.001654,-0.004486,0.009104,-0.009376,0.001636,-0.000213,-0.001008,0.002503,-0.005898,-0.003380,-0.001755,0.000350,0.002217,-0.001824,-0.005107,-0.001596,0.000373,0.000365,0.000953,0.006116,-0.003157,0.003304,-0.004750,0.000407,-0.007939,-0.004776,0.001267,-0.000175,-0.008804,0.002798,-0.008096,-0.002561,0.006138,0.001570,0.007552,-0.013669,0.003353,0.003853,0.002379,0.001877,0.003351,-0.004492,0.002180,-0.001613,-0.002953,0.010328,-0.000533,0.000251,-0.001126,-0.000897,0.010914,-0.007619,-0.004936,-0.004247,-0.000278,0.000643,-0.011295,-0.006881,-0.001662,0.006861,0.005922,0.001423,0.000875,-0.002354,-0.006679,-0.001264,-0.006445,-0.008846,0.008478,0.004398,-0.000765,-0.004302,-0.001257,0.001822,0.005213,0.003826,-0.000946,-0.001424,-0.003195,-0.000490,0.006864,0.001115
http://dbpedia.org/ontology/SportsManager	-0.002682,0.000123,-0.001359,0.000099,-0.000288,0.000855,0.000077,-0.003769,-0.002224,-0.003577,-0.001428,-0.003974,0.001586,-0.002422,-0.001316,-0.003272,-0.002368,-0.001329,0.004210,-0.003009,-0.001597,-0.001403,0.000924,-0.000711,-0.002300,0.001913,0.003443,-0.002444,-0.003582,-0.001483,-0.000433,0.004160,0.000506,0.001150,0.001603,0.001424,-0.000531,0.002317,0.002480,0.001775,-0.002906,0.003224,-0.001211,-0.000084,0.001647,-0.001093,-0.003598,0.003269,-0.001725,0.002391,-0.002563,-0.000984,0.002740,-0.001121,-0.001618,-0.001188,-0.002099,-0.001049,-0.003660,0.000908,-0.000928,0.003270,0.001425,-0.002026,-0.000504,0.000542,0.000508,-0.000164,-0.003407,-0.001148,0.000311,0.001223,0.001771,-0.002075,-0.003760,-0.001226,0.002475,0.000819,-0.001081,-0.001104,-0.003327,-0.001621,-0.002215,-0.001425,-0.002069,-0.001384,0.003625,-0.002370,-0.000012,-0.000458,0.001181,-0.001351,-0.000997,-0.002294,0.001241,-0.001916,-0.002035,0.003427,-0.002658,-0.002134,0.002687,-0.001156,-0.000828,0.001834,-0.002087,0.001858,0.000528,-0.000925,-0.002243,0.001386,-0.001851,-0.002752,-0.000497,-0.000430,-0.002441,-0.000086,0.004203,-0.000190,-0.000398,0.000173,0.002920,-0.003179,-0.001541,-0.003374,-0.001358,0.001936,-0.002534,-0.000374,-0.001885,0.001247,0.001445,0.000617,-0.000602,0.002549,-0.002237,-0.000390,0.002395,0.001715,-0.004104,-0.000337,0.000101,0.001317,0.001555,0.001794,0.001748,0.003148,-0.003916,0.001196,0.001390,0.001429,0.002280,-0.001403,0.000871,-0.002469,0.000159,0.001029,0.003769,-0.002154,-0.002345,-0.002177,0.000675,-0.002490,0.001084,0.003003,0.002666,-0.002827,0.003036,-0.000530,-0.001696,0.000359,0.000411,-0.000106,-0.000190,-0.000060,0.000865,0.000055,-0.000532,0.003114,0.000532,-0.001011,-0.000386,0.000941,-0.000376,-0.002374,-0.003412,-0.003803,0.001500,0.001170,-0.001799,-0.000824,0.002457,0.000718,-0.000195,0.002622,-0.001275,0.000004,-0.001358,0.001141,-0.002138,-0.003041
http://dbpedia.org/ontology/Writer	-0.002044,-0.002765,-0.001812,0.001460,-0.003540,0.001862,0.003354,0.002266,0.003732,-0.004103,-0.000982,0.001995,0.007213,-0.000275,-0.002389,-0.004479,0.003107,-0.000269,0.005197,-0.002734,-0.000415,0.001932,0.004630,-0.001150,0.000043,0.000703,0.001022,0.001252,-0.001943,-0.001292,-0.001041,-0.000509,-0.002085,0.002954,0.002320,0.008467,-0.003501,0.002231,0.001259,-0.002029,-0.003765,0.007477,-0.004943,0.001404,-0.001039,0.001188,0.001691,0.000939,-0.001314,-0.000215,-0.002662,-0.004664,-0.003055,0.001224,0.002089,0.005781,-0.004656,-0.000868,-0.001115,0.002967,-0.002734,-0.000927,0.001794,0.003373,-0.002790,0.000035,-0.001012,-0.002719,0.000482,-0.001496,0.001992,0.000585,0.001173,-0.001356,0.003683,0.000081,0.002795,0.002861,-0.001880,0.003314,-0.000429,0.001292,-0.003473,-0.001719,0.002134,-0.000715,0.006098,0.002569,0.000850,0.000337,0.000361,-0.000798,0.001068,-0.001022,0.001587,-0.001616,0.000777,0.001693,0.000307,0.001628,0.000738,0.000141,0.002202,-0.000857,0.003359,-0.000085,0.003302,-0.005336,-0.000499,-0.002341,0.002938,0.000384,-0.004015,0.001400,0.000714,0.002304,0.000253,-0.000104,0.003407,-0.002821,-0.001243,0.001538,0.000120,-0.004033,-0.000822,-0.001641,-0.003232,-0.004142,0.001823,-0.001919,0.000634,-0.001636,-0.000025,0.002370,0.000111,0.002835,0.003003,0.009167,-0.003256,-0.001976,-0.004123,-0.000470,0.000552,0.004465,0.002756,-0.001597,-0.003457,0.002673,0.001845,0.003250,-0.001039,0.001061,-0.000624,-0.002143,-0.000822,0.000518,0.000602,0.000732,-0.001362,-0.005074,-0.000375,-0.001116,0.001769,-0.003211,0.005100,0.000156,0.004287,0.000076,0.000913,-0.000478,-0.000567,0.001554,-0.001580,-0.001373,0.001951,-0.000854,-0.003501,-0.004120,0.001620,-0.001428,0.003216,-0.001410,0.002313,0.001535,-0.001379,-0.004441,-0.003026,-0.000528,-0.001358,-0.002708,0.006782,-0.000908,-0.001730,0.004042,0.000541,-0.001084,-0.002817,0.001517,-0.001585,-0.003181
http://dbpedia.org/ontology/Person	-0.000120,0.000888,0.002210,0.001551,-0.001968,-0.002396,0.001204,-0.000140,0.000506,-0.001386,0.001704,0.000013,-0.000298,0.000274,0.001591,0.001290,-0.000777,0.002478,-0.002184,0.001126,0.001802,-0.000046,-0.000732,-0.002311,-0.001596,0.000655,0.001022,-0.000667,-0.000665,0.001458,0.000800,0.002117,0.002390,-0.000886,0.002201,-0.000401,-0.001354,-0.001074,0.002398,0.000829,0.000802,0.001813,0.001365,-0.002455,-0.000128,-0.000890,0.000240,0.001466,0.000951,-0.002039,-0.000152,-0.000578,-0.002322,0.000203,-0.002448,0.000795,-0.000384,0.000695,0.000927,-0.002229,-0.001857,-0.001650,-0.000786,0.000584,0.000537,0.001731,-0.000273,-0.002180,0.000435,0.000363,-0.001355,-0.001246,0.000082,0.001192,0.000588,0.002316,0.000733,-0.001005,0.001781,-0.000783,-0.000671,0.002209,0.001019,-0.001307,-0.001427,-0.000828,0.002301,0.001955,-0.002192,-0.001358,-0.002210,0.001533,0.000545,-0.002058,0.001903,0.000051,0.000788,0.001036,0.002403,0.001972,0.000400,-0.001256,-0.001473,0.000265,0.002438,0.000136,0.001077,0.001289,0.002331,0.001535,-0.001139,-0.001146,0.000035,0.000299,-0.001112,-0.000393,-0.000511,0.001106,0.001725,-0.001796,0.001574,0.000067,0.000099,-0.001005,0.000971,0.001234,0.002283,-0.002219,-0.000212,-0.000454,-0.000188,-0.002008,-0.000295,0.001456,-0.001604,0.002125,-0.001088,0.001234,-0.000624,0.001920,0.000176,-0.000454,0.001766,0.000316,-0.000269,-0.000107,0.001341,-0.001909,0.002214,-0.000904,0.001412,-0.002070,0.000384,-0.001991,0.001623,-0.002162,0.001408,0.001916,0.001807,0.000353,-0.000998,0.000783,0.001270,-0.001183,-0.000413,-0.000848,-0.000405,0.002236,0.001523,-0.000208,0.001094,0.000225,0.002262,0.000900,-0.001509,0.001034,-0.002458,-0.001570,-0.002032,-0.000380,-0.000389,-0.001758,0.002215,-0.000309,0.001626,0.001274,0.002385,-0.000484,-0.000521,0.000375,-0.002146,0.000280,-0.000534,0.000182,0.001235,0.001157,-0.000687,-0.000018,-0.001485,-0.000600
