http://dbpedia.org/ontology/ArchitecturalStructure	-0.000057,0.001137,-0.000942,0.003100,-0.002530,-0.001179,-0.002211,0.001994,0.001796,-0.000744,-0.000252,0.002136,0.000380,-0.001578,-0.000846,-0.004174,0.001672,0.003126,0.000328,-0.001109,-0.000397,0.001321,0.001474,-0.000927,-0.003508,-0.001977,0.003134,0.000539,0.001167,-0.002256,-0.000734,0.000772,0.000251,0.001332,-0.001152,0.003078,0.002340,0.001055,-0.002754,-0.002385,-0.002399,0.002303,-0.001202,-0.001486,-0.002348,0.000899,-0.002593,-0.000427,0.002046,0.000584,-0.001945,0.001032,0.001432,0.002083,0.000235,0.003113,-0.001438,0.002293,-0.002799,-0.000593,-0.000981,0.001854,-0.002845,0.002242,-0.002823,0.002338,0.002454,0.002564,0.001214,0.001215,-0.000067,-0.003077,0.001665,-0.001787,0.002598,-0.000621,-0.000783,0.002564,0.000291,0.000727,-0.001892,0.001602,0.001758,-0.001136,-0.000566,-0.000325,0.001770,0.001447,0.000504,0.002173,-0.000117,0.000264,-0.000326,-0.001760,0.000268,-0.001191,-0.000454,0.002462,0.002069,0.000200,0.000618,0.003513,-0.001734,0.003550,0.001029,0.000198,-0.001563,0.001434,0.002848,-0.001007,0.003443,0.003115,0.001295,-0.000761,-0.000894,0.002101,0.000706,0.000491,0.000210,-0.002619,-0.000598,0.001856,-0.001403,-0.000363,0.001961,0.000954,0.000320,-0.000788,0.001042,0.000943,0.001885,0.001445,0.001863,-0.000224,0.001503,-0.001350,-0.001091,0.001610,0.001520,0.002727,-0.001560,0.001605,-0.000916,0.000636,0.001794,-0.004088,0.002713,0.000913,-0.000662,0.002546,-0.001268,0.002230,-0.000249,-0.001260,0.000344,0.001803,0.000046,0.001183,0.001498,-0.002688,-0.002619,0.000605,0.000568,-0.000286,0.003931,0.002818,-0.001645,0.001967,0.001330,0.000401,-0.002054,0.000779,-0.001519,-0.000379,-0.002844,0.002053,-0.003235,0.000843,0.002294,-0.001651,0.002607,0.001141,-0.001886,0.000555,0.001528,-0.000598,-0.001791,0.000594,0.001718,0.001116,0.003599,-0.003350,0.000983,0.002899,0.000595,0.001003,0.000682,0.000058,0.003152,-0.002462
http://dbpedia.org/ontology/CelestialBody	-0.000235,0.002500,0.000682,-0.002250,-0.002649,0.000831,0.000577,-0.005912,-0.005498,0.000308,-0.001442,-0.005493,-0.008873,0.005863,0.005093,0.008001,-0.000777,-0.004648,-0.001719,-0.002843,-0.004329,0.002152,-0.009389,0.008823,0.003198,0.000843,0.003648,0.001550,0.001534,0.002398,-0.001320,-0.000310,0.001116,0.003051,-0.001695,-0.010705,-0.005388,0.003342,0.002689,0.004296,0.006428,-0.011765,0.005384,-0.001744,0.005671,-0.004795,-0.002822,0.003436,0.000165,-0.001396,-0.001659,0.008217,0.000427,-0.001528,-0.002814,-0.007545,0.002537,0.004104,0.002692,-0.007478,0.000743,-0.002050,-0.004933,-0.004728,0.002552,-0.002432,-0.003588,-0.001907,0.002272,-0.005394,-0.002414,-0.001608,0.005188,0.002551,-0.007122,-0.000094,0.001199,0.002628,-0.002098,-0.011042,-0.000614,-0.002399,0.002068,-0.001180,-0.003906,-0.008246,-0.005563,-0.005205,-0.006256,-0.009743,0.002327,-0.001888,-0.004099,0.004849,-0.000625,0.000052,-0.009318,-0.000335,0.000113,-0.003031,-0.001846,-0.005654,0.000784,-0.006863,-0.002475,-0.003241,-0.003593,0.002212,0.000246,0.003096,-0.001625,-0.003235,-0.001131,-0.002254,-0.004658,-0.001626,0.005214,-0.004770,-0.002177,-0.003369,0.001324,-0.003767,-0.006390,0.002239,-0.001881,-0.000573,0.003870,0.001755,-0.000657,0.003464,0.002312,0.003028,-0.010663,-0.007349,0.003750,-0.004765,-0.005790,-0.006316,0.002199,-0.001042,0.009155,0.000976,-0.005786,-0.007029,-0.002400,0.005899,0.000019,-0.004133,-0.002599,-0.006289,0.002150,0.001973,0.006288,-0.006858,-0.000543,0.005122,0.001127,-0.005287,0.005771,0.006924,-0.002086,-0.001085,-0.003149,0.008561,-0.004808,-0.000048,-0.000266,-0.001502,-0.000950,-0.006067,-0.002282,-0.000120,-0.001484,-0.001064,-0.005961,-0.002513,0.002042,0.004138,0.000242,-0.000899,-0.002604,0.001893,-0.000673,0.000491,0.002656,0.000488,0.007910,0.003268,-0.002767,-0.001215,-0.007548,0.001879,0.002550,-0.003418,-0.001407,-0.003699,-0.003188,-0.001268,0.006997,-0.000129
http://dbpedia.org/ontology/Garden	-0.002048,-0.000929,-0.001147,-0.001710,-0.002401,0.001381,0.003176,0.000553,-0.003602,-0.002166,-0.002306,0.000742,-0.002861,0.003278,0.000291,0.001719,-0.002346,-0.000710,-0.000919,-0.002059,0.000438,0.002772,-0.000747,-0.001396,-0.001796,-0.000112,0.002454,0.000557,-0.001759,0.002426,0.001648,0.003907,0.001674,0.000264,-0.000059,-0.002368,-0.003125,0.001258,0.000752,-0.001849,-0.000902,-0.001229,-0.001928,0.001248,-0.000244,-0.000884,0.001468,-0.000110,-0.002631,-0.001778,-0.000174,-0.001049,0.001881,0.000340,0.001265,-0.001890,-0.001946,0.001483,0.001332,-0.000662,0.001311,-0.003660,0.001051,-0.001986,0.000050,-0.000776,0.001685,-0.003088,-0.000682,-0.003334,0.000470,-0.002294,-0.000161,0.002828,-0.001039,0.002287,0.000814,0.001180,0.001484,0.000928,-0.000915,-0.002675,0.001802,0.000756,-0.002476,-0.001605,-0.001682,-0.000561,-0.002446,-0.001976,0.000763,-0.000699,-0.002561,0.000927,0.000973,-0.001339,-0.000335,-0.001952,-0.002048,-0.002416,0.002174,-0.000949,-0.000059,-0.002890,-0.002629,-0.001062,0.001703,-0.001303,-0.001283,-0.000820,0.001849,-0.003354,0.000722,0.001409,-0.001063,0.000399,-0.000593,-0.000187,-0.002640,0.000301,-0.000517,-0.001203,0.000128,0.002053,0.000882,-0.001640,0.000687,-0.000462,0.002672,0.000462,0.002220,-0.000851,-0.003305,0.001394,-0.001241,-0.000956,0.001341,-0.000510,-0.000044,-0.000980,-0.000575,0.001531,-0.000875,-0.000486,0.000490,0.000476,0.001653,0.000317,-0.001038,-0.004326,0.000685,0.002081,-0.000471,-0.001350,0.000898,0.001896,-0.002001,0.000505,0.000764,-0.002008,-0.001570,0.000744,0.001847,0.001390,0.000776,-0.002812,0.002566,-0.000854,-0.000568,-0.002511,-0.000204,-0.000308,0.003154,0.000193,0.001259,0.000378,-0.000440,-0.000572,-0.001096,0.000749,0.001353,0.001826,0.000435,-0.001581,-0.001428,0.001318,-0.000035,-0.001662,0.000467,0.000157,-0.003355,-0.001539,0.003053,-0.001239,0.000763,-0.002716,0.001468,0.001619,-0.001254,-0.000958
http://dbpedia.org/ontology/HistoricPlace	-0.002664,0.000261,-0.000351,-0.003961,0.000135,-0.002118,-0.000559,-0.000358,0.000977,-0.002114,-0.003109,0.003682,-0.002837,0.002335,0.004494,0.002806,-0.001639,-0.000401,0.000201,0.000705,0.001271,0.004983,-0.000220,0.000691,0.000085,0.003721,-0.002759,-0.000219,0.002115,0.000009,0.000716,0.003602,0.001459,-0.000836,-0.001157,-0.001560,0.000777,-0.000634,0.001050,0.000053,0.000595,0.001728,-0.001523,-0.001535,-0.000767,-0.003351,0.003449,-0.000253,0.000723,-0.001352,0.000253,-0.000448,-0.000318,-0.000447,-0.001843,-0.003504,-0.000732,-0.001595,-0.000024,0.001322,-0.000218,-0.000791,-0.001628,0.000352,0.000833,-0.001258,0.001772,-0.000618,0.000891,-0.000019,0.000744,0.000120,0.000097,0.000933,0.004323,0.003222,-0.003708,-0.001962,-0.001022,0.000086,0.000597,0.000191,0.000705,-0.000310,0.000730,-0.001866,-0.002552,0.000588,-0.003705,-0.004617,0.001019,-0.002072,0.001673,-0.000073,0.001277,-0.001169,-0.000187,-0.003206,-0.004114,-0.002189,0.001312,-0.001306,0.003126,-0.002400,-0.000512,-0.002239,0.001146,0.000079,-0.001578,-0.002697,0.001122,0.000666,0.000049,0.001960,-0.002584,0.002480,0.002328,0.000082,-0.001977,0.001325,-0.004017,-0.001468,-0.002199,-0.001457,0.001152,0.000906,-0.001846,0.000042,0.000206,-0.001294,-0.001496,0.001995,-0.003351,0.001529,0.001385,-0.001486,0.001944,0.000055,0.001950,0.000449,0.000421,-0.001099,-0.003741,0.000514,0.002069,0.003012,-0.002621,-0.002155,-0.002256,-0.001297,0.001135,-0.001405,0.001670,-0.000383,0.002133,0.000160,0.000440,-0.001781,0.000778,-0.002109,-0.000210,0.002367,0.001251,0.002389,0.000213,-0.000320,-0.002114,-0.002752,0.000098,-0.000093,0.001607,-0.001213,0.000943,0.002165,-0.000346,0.000635,0.000770,0.000895,-0.002755,0.000965,-0.000399,0.000243,-0.001186,0.001971,0.000981,-0.002481,0.000637,-0.000113,-0.001774,0.001327,-0.000097,-0.000757,-0.000137,0.000483,-0.000119,-0.001691,0.002357,0.004268,-0.001973,0.000634
http://dbpedia.org/ontology/Monument	-0.001927,-0.001844,-0.001972,-0.000320,-0.000539,-0.000106,0.005221,-0.004071,-0.000568,-0.000398,-0.001203,0.002084,-0.002742,0.004589,0.004065,0.001365,0.001277,-0.000425,-0.001606,-0.002016,-0.003831,0.004457,-0.000671,0.002711,0.000357,0.003460,0.001534,0.002668,-0.000178,-0.001820,0.000723,0.004972,0.000162,-0.003038,0.001313,-0.004046,-0.002577,0.003624,0.002289,-0.001920,-0.000759,-0.001997,0.000950,-0.002608,0.001159,-0.003121,-0.002299,0.001652,-0.002558,-0.000167,0.000138,0.002004,0.001304,-0.003127,-0.001892,-0.001717,0.001817,-0.000442,0.000751,-0.001254,-0.001413,-0.004175,0.000517,-0.001977,0.002784,-0.000604,-0.001183,-0.003525,0.000573,-0.003204,0.000471,0.001316,0.003882,-0.001507,-0.001265,0.002181,0.000318,-0.001750,0.000224,-0.003000,-0.002902,-0.001793,-0.002323,0.002708,-0.000588,-0.004742,-0.000574,-0.001836,-0.005375,-0.005797,0.001843,0.000869,-0.002505,0.000402,0.002918,-0.001887,-0.004664,-0.002043,-0.002979,-0.001739,0.002935,-0.002919,0.000512,-0.000619,0.000923,-0.000515,0.000950,-0.000155,-0.002835,-0.000937,0.001569,-0.001393,-0.000629,0.000889,0.000995,0.000665,0.002227,-0.004836,0.001577,0.000743,-0.003271,-0.004972,-0.001504,-0.001826,0.001136,-0.002508,0.001900,0.000766,-0.001182,-0.002136,0.000023,0.002302,-0.002617,-0.003606,0.000248,-0.002118,-0.002266,-0.002903,-0.000913,-0.004625,0.003661,0.001794,-0.000175,0.000720,0.000907,0.008690,-0.000841,-0.000330,-0.000338,-0.002520,0.001683,-0.000015,0.000104,-0.004398,0.001092,-0.000923,0.001101,-0.004840,0.004846,0.002393,-0.000935,0.001445,0.000997,0.000648,-0.000348,-0.000338,0.001075,-0.002865,-0.000863,0.000757,0.001596,0.000988,-0.000118,-0.001721,-0.000132,-0.003142,-0.000611,-0.001423,-0.002008,0.000760,-0.001347,-0.001291,0.002004,0.001889,0.000443,-0.000266,0.001898,-0.000829,-0.001641,0.000356,-0.002851,0.003172,0.001581,-0.001003,-0.000808,-0.003544,-0.003523,0.000046,-0.001857,0.001767
http://dbpedia.org/ontology/NaturalPlace	0.000758,0.008854,0.017892,-0.018437,0.009796,0.005980,-0.002958,0.000967,0.005544,0.007415,-0.022815,0.007525,-0.030133,0.002167,0.022032,0.004663,-0.013327,0.007334,0.000733,-0.007667,-0.027653,0.023418,0.001596,0.013966,0.017870,0.028251,-0.009798,-0.009640,0.027831,-0.010369,0.018084,0.008594,0.017201,-0.023598,0.012540,-0.038061,-0.001889,0.001876,0.015912,-0.003753,-0.001187,-0.018432,0.007227,-0.018612,0.014394,-0.006561,0.020336,0.006429,-0.004268,-0.013132,0.018954,0.010333,-0.002329,-0.002788,-0.032032,-0.011214,0.029753,-0.011678,-0.003943,0.005621,0.010073,-0.023729,0.008183,-0.010377,0.006626,-0.018351,0.006273,-0.010743,0.005511,-0.050083,-0.001460,0.020028,-0.003591,0.011233,0.009682,0.002123,-0.035514,-0.004837,0.004782,-0.012171,-0.006449,-0.015408,0.021371,0.007390,-0.000792,0.010530,-0.026702,0.008927,-0.010008,-0.005845,-0.013550,-0.009867,0.011598,0.014009,-0.006675,-0.004631,-0.012127,-0.014548,-0.015874,0.012340,0.003214,-0.028026,-0.006011,-0.008653,-0.027881,-0.004425,-0.010285,0.008557,-0.005130,-0.000569,-0.007451,0.001872,-0.019528,0.002224,-0.007406,0.000255,-0.011289,-0.006721,-0.023808,0.017061,-0.025074,-0.013516,-0.010882,0.006193,-0.005421,-0.015237,0.019597,0.011666,0.010043,0.003575,-0.000695,0.007570,-0.005488,-0.003479,-0.001235,0.000754,-0.006987,-0.028733,0.008298,-0.018896,0.026878,-0.000613,0.001843,-0.002511,-0.018368,0.021894,0.013674,-0.027323,-0.003196,-0.021199,-0.015972,-0.008485,-0.006196,0.009783,-0.007030,0.005048,-0.003519,-0.021382,-0.009021,0.020105,0.004284,-0.002005,-0.005380,-0.002058,-0.022153,-0.019097,-0.006132,0.000432,-0.029858,0.001180,0.006756,0.004206,0.007217,0.008187,0.031979,-0.013825,0.010965,-0.014504,-0.010630,-0.005583,-0.014626,0.009868,0.027319,0.010854,0.019044,0.002541,0.010182,-0.008156,-0.001685,0.014855,-0.005569,0.006915,0.011013,-0.021713,0.001145,-0.005113,-0.001885,-0.001759,-0.004521,-0.008657
http://dbpedia.org/ontology/Park	-0.001601,-0.000472,0.000679,-0.002340,-0.001713,-0.000513,0.002132,-0.003887,-0.002484,-0.001512,-0.001847,0.001325,-0.004052,0.002712,0.003564,-0.001899,0.000918,-0.003776,-0.002263,-0.001608,-0.000420,0.001327,0.000143,0.004037,0.003416,-0.000168,-0.000583,0.003333,-0.001009,-0.001171,0.001872,0.003523,0.001062,-0.001738,-0.001094,-0.001875,-0.004364,0.000434,0.000517,-0.002606,0.000400,0.000180,-0.000285,0.000944,-0.000101,-0.003467,0.001758,-0.000039,0.000883,0.000489,-0.001007,0.000487,0.000099,-0.001599,-0.000671,-0.003080,0.002668,0.000190,-0.000849,-0.003242,0.001280,0.000370,0.000052,-0.000806,0.000690,-0.002439,0.001007,0.001359,-0.000342,-0.005752,0.001283,0.002315,0.003158,0.002862,-0.002184,0.000564,-0.003011,0.000402,0.002648,-0.002635,-0.003976,-0.002311,0.001097,0.000989,0.001254,-0.002033,-0.000994,-0.003375,-0.004759,-0.003816,0.000873,-0.001226,-0.002184,-0.000282,-0.002546,-0.001581,-0.002751,-0.000063,-0.006127,0.002782,-0.000982,-0.002166,0.002410,-0.004146,-0.002433,-0.002321,0.001753,0.000304,-0.004165,-0.001711,0.000712,-0.002171,-0.002433,0.001516,-0.003590,0.002362,0.004040,-0.000505,-0.002143,-0.001865,-0.002212,-0.000715,0.001102,0.002481,-0.002044,0.000718,0.000338,-0.001515,0.002232,-0.001800,-0.001685,-0.000220,-0.003989,-0.001177,-0.001178,-0.001536,-0.001460,-0.002575,-0.000059,-0.003553,0.001186,-0.002041,-0.002216,-0.002387,0.000243,0.006013,-0.000978,-0.004833,-0.000364,-0.001120,0.003192,0.001659,-0.000388,-0.006389,-0.002639,0.002011,0.000211,0.000425,-0.000113,0.003121,0.002269,0.001635,-0.002686,0.002187,-0.003489,-0.001402,-0.000581,0.001473,-0.004649,-0.001410,0.002692,0.002049,0.001696,-0.000011,0.001412,-0.000650,0.002735,0.001806,0.000237,0.001250,-0.000862,0.001492,0.001525,-0.002116,-0.000260,-0.003026,0.003742,-0.000706,0.000370,0.000381,-0.000325,-0.001735,0.002884,-0.000795,-0.001169,-0.001373,0.000770,0.001292,-0.001420,-0.000549
http://dbpedia.org/ontology/PopulatedPlace	0.015227,0.011276,0.003371,-0.040336,-0.003021,0.012763,-0.006766,-0.008730,0.034150,0.006791,0.009925,0.017834,0.012856,0.035437,-0.018231,0.004242,0.024380,0.016536,0.028144,-0.014468,-0.018643,-0.002133,0.044933,-0.024976,0.030991,0.052395,-0.020951,0.002158,0.012013,-0.030193,0.023005,-0.011778,0.016760,0.031097,0.014259,0.038855,0.005009,-0.002601,-0.031215,-0.024198,-0.005783,0.014644,-0.025719,-0.002294,-0.026048,-0.014290,-0.004037,-0.019404,0.039687,0.027065,-0.004529,-0.040404,0.042923,0.005364,-0.006455,0.028071,0.035141,0.003701,-0.008716,0.026336,-0.025934,-0.008722,0.020575,0.007455,-0.014852,-0.037685,0.028809,-0.048980,0.030217,-0.050352,0.003529,0.064302,0.014148,0.010039,0.012535,-0.004696,-0.020645,-0.053112,-0.011786,0.000092,-0.013718,0.009105,0.006118,0.014141,0.011704,0.039947,-0.015278,0.028725,0.038539,0.003938,-0.022941,-0.018720,0.005039,0.008763,-0.008268,-0.037968,-0.018352,-0.026689,-0.009746,0.019615,-0.009630,-0.021083,-0.015581,-0.042590,-0.004056,0.010086,0.005231,0.008856,0.009269,-0.027627,-0.002833,0.028179,-0.016987,0.055226,0.008190,-0.019816,-0.029851,0.006112,-0.038519,0.004334,0.003916,-0.002876,0.010593,0.019152,0.024238,-0.029209,0.030488,0.008496,0.031804,0.026673,-0.025962,0.000533,0.013803,0.028155,0.010945,0.011851,-0.026412,-0.021553,-0.008937,-0.002411,0.005613,0.008476,0.013947,0.021296,0.004335,-0.010127,0.021678,0.000309,0.026295,0.044940,-0.017267,0.005196,-0.008961,0.015979,0.000049,-0.005644,0.011862,-0.003424,-0.021962,-0.014625,-0.006176,0.000432,0.035380,-0.011496,-0.022431,0.013420,0.031591,0.003940,-0.048948,0.029337,0.001788,0.018940,-0.022930,0.018330,0.033245,-0.011483,-0.007896,0.005926,-0.006551,0.015875,0.002641,0.009338,0.015704,0.013825,0.025919,-0.029138,-0.011366,-0.035925,-0.018837,-0.004082,0.010768,-0.017225,0.027529,0.015763,0.008428,-0.000141,-0.032055,-0.013328,0.020249,-0.072266
http://dbpedia.org/ontology/ProtectedArea	-0.001946,0.001622,0.000251,-0.001033,-0.000173,0.002604,0.002089,0.000359,-0.000636,-0.002559,-0.000883,-0.000210,-0.003616,0.001767,0.003969,-0.000244,-0.000504,-0.003548,-0.002866,-0.001680,0.000188,0.003952,-0.001855,0.001358,-0.000915,0.004256,0.000860,0.001246,0.000091,-0.000094,0.001267,0.004168,0.001524,-0.001328,0.001226,-0.004763,-0.002996,0.001025,0.003624,-0.002921,0.000294,-0.004016,-0.000936,-0.002860,0.001655,-0.003829,0.002327,0.002624,-0.001339,-0.000720,-0.001587,0.000347,0.000196,-0.001461,-0.003058,-0.002422,0.002155,0.002913,0.000683,-0.001077,-0.002203,-0.003253,-0.000911,0.000092,0.001588,-0.002517,0.000283,0.000783,-0.002174,-0.003746,0.001429,-0.000828,-0.000808,-0.000210,-0.000800,-0.000460,-0.001817,-0.001973,-0.000832,-0.000364,-0.003502,0.000715,-0.000133,-0.001008,0.002499,-0.001760,-0.000211,-0.001740,-0.002445,-0.002221,-0.000363,-0.003467,-0.000433,-0.001099,0.000922,0.000642,0.000016,-0.001385,-0.002300,-0.000308,0.004203,-0.001970,0.000842,-0.004151,-0.003583,0.001245,-0.002609,0.002642,-0.000350,-0.000432,0.001938,-0.001029,-0.001905,-0.002368,0.000041,-0.001991,0.001786,-0.001035,-0.001483,-0.000179,-0.002006,-0.002285,-0.003285,0.001267,-0.000124,0.001255,-0.000856,-0.001607,0.002015,0.000646,-0.001280,0.000674,-0.004102,-0.003165,-0.000497,-0.002727,0.001838,-0.003832,0.003280,-0.001356,0.005075,0.000843,-0.001056,-0.000356,0.001003,0.007538,-0.000701,-0.000532,-0.001857,-0.005116,-0.000419,-0.000402,0.000212,-0.005123,-0.002651,0.001209,0.002262,0.000276,0.004802,0.000892,0.002824,0.001124,-0.001030,-0.000546,-0.002604,0.001231,0.002664,-0.000978,-0.001690,-0.001057,0.003291,-0.000720,-0.001140,0.000943,0.000380,-0.002690,0.001988,-0.001665,0.002214,-0.000850,-0.003083,0.000634,-0.000933,0.001938,-0.000740,0.000399,0.002475,-0.002623,-0.002419,0.003021,-0.004704,0.001902,0.003821,-0.000169,-0.001953,-0.000753,-0.000373,0.000918,0.001554,0.002237
http://dbpedia.org/ontology/SiteOfSpecialScientificInterest	0.000657,-0.001732,0.001606,-0.000705,0.000790,0.002001,0.002133,0.000445,-0.002161,-0.000546,-0.000050,0.000313,-0.004826,0.003012,0.004948,-0.001289,-0.001067,0.000389,-0.002283,0.001639,-0.000380,0.000484,-0.003477,0.003027,-0.000887,0.001916,-0.000728,-0.000552,0.003040,0.000210,-0.001388,0.000531,-0.000069,0.000828,0.000047,-0.004555,-0.000521,0.004182,0.000341,-0.002039,0.002324,-0.002420,0.000475,0.000260,0.001663,-0.003557,0.001383,0.001939,-0.002655,-0.001569,0.001834,0.000621,-0.001403,0.000179,-0.000583,-0.000064,0.003605,-0.001280,-0.000522,-0.000008,0.001387,0.000534,-0.002992,0.000488,-0.000632,-0.002261,0.000056,-0.002129,0.001987,-0.001360,-0.001676,-0.002967,0.000881,0.002578,-0.000245,-0.001084,-0.003136,-0.002025,0.002858,-0.000475,-0.002676,0.000780,-0.002627,-0.000810,-0.001076,-0.001640,-0.001399,-0.003053,-0.000271,-0.004655,-0.001673,-0.000809,0.001113,-0.001162,0.000625,0.001114,-0.004118,-0.002557,-0.000743,0.002353,-0.001776,-0.002027,0.002873,-0.002543,-0.002365,-0.002927,-0.001344,0.000162,-0.002635,0.000877,-0.001952,0.000628,0.000761,0.000469,-0.001502,-0.002363,0.000446,-0.000002,0.000952,0.001347,-0.002351,-0.002868,0.000558,0.002558,0.001073,0.000552,-0.001760,-0.000353,-0.000084,-0.002022,-0.000715,0.001077,-0.001225,-0.003104,0.000473,0.000756,-0.000577,-0.002986,-0.002672,-0.003930,0.003197,-0.000786,-0.003346,-0.003221,0.000327,0.004873,0.000335,-0.002795,0.002123,-0.002837,0.001197,0.001420,0.003011,-0.003232,0.002004,0.000262,0.000254,-0.003665,0.000164,0.000721,-0.000455,0.001347,0.001246,0.004509,-0.003283,-0.003799,0.002600,-0.002334,-0.000274,0.001171,-0.002354,0.000035,0.000255,0.002262,0.001850,-0.002222,0.000224,-0.001919,-0.002319,0.000723,-0.002445,0.000917,-0.000120,-0.001730,0.000495,0.001234,0.003215,0.001236,-0.003881,0.001246,-0.001469,0.000822,0.003312,-0.000460,0.001229,-0.003408,-0.001476,0.000908,0.001231,-0.000202
http://dbpedia.org/ontology/WineRegion	-0.000480,0.003959,-0.000680,0.000249,0.004751,0.002808,-0.003597,0.001863,0.005036,-0.002498,0.000576,0.005607,0.000678,-0.000994,-0.003743,-0.001965,-0.000014,-0.000275,-0.001833,0.002017,-0.000328,-0.002053,0.005469,-0.004808,0.000797,0.001458,0.000342,-0.001661,0.002032,-0.000609,-0.001616,-0.000793,0.002380,-0.000793,0.000343,0.003083,0.002507,-0.002400,0.000300,-0.002273,-0.002226,0.001624,-0.001766,0.003861,-0.000174,0.000184,-0.000639,-0.002235,0.000104,0.001903,-0.000878,-0.001084,0.003283,0.002216,-0.000756,0.005230,0.000648,-0.002215,0.000847,0.006449,0.000439,-0.001404,0.004249,0.000573,-0.002684,0.001139,-0.000015,-0.000970,0.000551,0.002097,0.001406,0.003710,-0.000928,0.001427,0.001941,0.002169,-0.002954,-0.001498,-0.001305,0.005226,0.000724,-0.001265,0.002512,0.001613,0.000893,0.004841,-0.001153,0.005095,0.004961,0.001961,-0.001666,0.001174,0.003336,-0.001247,-0.003234,-0.003932,0.005038,-0.001659,-0.000556,0.001024,-0.000351,0.003038,-0.000398,-0.000050,0.000725,0.002033,0.000838,-0.000706,0.000980,-0.004125,-0.001844,0.001126,-0.000910,0.000311,-0.000527,0.003038,-0.004247,0.004032,0.000430,0.005499,-0.001134,0.004983,0.002876,-0.000015,0.003465,-0.002539,-0.000246,-0.001222,0.005057,-0.002872,-0.001198,0.000006,0.007808,0.001428,-0.001426,-0.000809,-0.000239,0.000442,0.001856,0.003473,0.001039,-0.000458,0.005905,0.004178,-0.000755,-0.000298,0.001080,-0.001913,0.002068,0.005397,-0.001804,0.001619,-0.003710,0.006075,-0.000775,-0.004109,-0.001721,0.003397,-0.003746,-0.001174,-0.001138,-0.000295,0.002121,-0.004626,0.001386,0.001109,-0.001335,0.000704,-0.004652,0.002115,0.000160,0.001524,-0.000822,0.000688,0.002980,0.001886,-0.000450,-0.003832,-0.000120,0.001612,-0.001487,0.001281,0.001655,0.000472,0.002100,-0.000156,-0.005598,-0.000402,0.003089,-0.001234,0.000197,-0.002191,-0.005278,0.001097,0.001294,0.002292,0.003686,0.000202,-0.002106,-0.002821
http://dbpedia.org/ontology/WorldHeritageSite	-0.003514,-0.002109,0.000544,-0.000512,0.000614,0.001560,0.000861,-0.005189,-0.003862,-0.001116,-0.000601,0.000679,-0.010075,0.001708,0.004686,0.006997,-0.001558,-0.004605,-0.002677,0.000967,-0.001852,0.003434,-0.008003,0.008143,0.000780,0.001346,0.002451,0.001605,0.002756,0.002567,0.004618,0.001737,0.001301,0.001635,-0.000434,-0.006380,-0.005952,0.000236,0.002715,0.000120,0.001572,-0.007562,0.000013,0.000272,0.005390,-0.003149,0.000694,0.003285,-0.000786,-0.003010,-0.000114,0.003676,-0.001172,-0.001998,-0.003660,-0.007799,0.000640,-0.000175,-0.003189,-0.003751,0.002100,-0.005874,-0.003094,-0.001443,0.000124,-0.003746,-0.001828,0.001287,0.000824,-0.002785,-0.002685,-0.000307,0.003859,-0.000123,-0.001805,-0.000801,-0.004990,0.000195,0.003234,-0.004230,0.000005,-0.000410,-0.001239,-0.001912,-0.001853,-0.007274,-0.005249,-0.005020,-0.005582,-0.008229,0.000123,-0.002165,-0.002240,0.001968,-0.000808,0.000719,-0.004512,-0.002794,-0.003031,-0.001525,0.001101,-0.007650,0.002276,-0.003523,-0.003007,-0.001686,-0.003563,0.002172,-0.001921,0.002163,-0.001396,-0.003150,-0.003964,0.001046,-0.002884,0.001832,0.003010,-0.001294,-0.003141,-0.003041,-0.000549,-0.007602,-0.002429,0.002410,0.001467,0.000895,0.000032,-0.000766,0.001740,0.001622,-0.001711,0.005764,-0.006214,-0.004675,0.001166,-0.004580,0.000945,-0.004521,0.002960,-0.001357,0.005409,-0.001720,-0.005759,-0.002928,-0.001352,0.011611,-0.001488,-0.006704,-0.000148,-0.008282,0.003096,0.001370,0.006426,-0.009132,-0.000522,0.002260,-0.001711,-0.006278,0.007427,0.004155,0.001309,-0.002033,-0.003657,0.007937,-0.007124,-0.004177,-0.001738,-0.003375,0.000110,-0.003422,-0.001880,0.000567,0.000468,0.001302,-0.005342,-0.004697,0.006696,0.001017,-0.000063,0.001071,-0.003137,0.000413,-0.002895,-0.000471,0.001152,-0.001104,0.005628,0.001410,-0.002039,-0.000017,-0.006476,0.004143,0.005760,-0.006411,-0.003160,-0.002167,-0.000067,0.003524,-0.000398,0.003909
http://dbpedia.org/ontology/Place	0.010899,-0.005800,-0.004719,-0.032084,0.008653,0.012690,-0.014291,0.010703,0.034020,0.022705,0.011787,0.055343,-0.001909,0.032277,-0.028663,0.008940,0.032153,0.015287,0.024184,-0.029208,-0.024387,-0.012837,0.049414,-0.025169,0.030033,0.047993,-0.029248,0.000348,0.013531,-0.021082,0.009928,-0.014850,0.014747,0.036611,0.003009,0.036616,0.011629,-0.018249,-0.027661,-0.023936,-0.001528,0.025204,-0.015850,0.009265,-0.034255,-0.020258,-0.002770,-0.028827,0.034091,0.028653,0.004976,-0.041113,0.040500,0.012631,-0.004257,0.038619,0.030031,0.001107,0.006883,0.036634,-0.005700,-0.010926,0.022075,-0.003151,-0.006508,-0.026274,0.040051,-0.050212,0.033563,-0.028814,0.018825,0.074869,0.007983,0.017271,0.013525,-0.015668,-0.027486,-0.062023,-0.007076,0.024582,-0.003825,-0.009364,0.006670,0.019714,0.016827,0.045859,-0.006784,0.030326,0.050662,0.000211,-0.025923,-0.010116,0.015370,0.001435,-0.013239,-0.034502,-0.007558,-0.028392,-0.001213,0.012261,-0.005774,-0.003915,-0.027932,-0.025037,0.012021,0.023575,-0.000665,0.013796,0.010589,-0.018140,-0.001419,0.028626,-0.009413,0.058942,0.011986,-0.011583,-0.049898,0.022424,-0.032693,0.009319,-0.003793,0.010589,0.002325,0.022012,0.009061,-0.026207,0.027345,0.004895,0.036883,0.019501,-0.028071,-0.006269,0.020127,0.033790,0.011966,-0.010475,-0.030099,-0.030169,-0.007602,0.005481,0.003574,0.007130,0.011655,0.013522,-0.001083,0.006108,0.015060,0.015051,0.038434,0.054904,-0.009459,0.014606,-0.007986,0.027934,0.006130,-0.017630,0.008766,0.013317,-0.025121,-0.011823,-0.002893,-0.001570,0.036301,-0.022504,-0.021134,0.004298,0.032025,0.000133,-0.048444,0.038541,-0.003234,0.024068,-0.026799,0.026736,0.034238,-0.000386,0.006959,0.014146,-0.017302,0.024083,-0.002137,0.012150,0.007502,0.009308,0.033059,-0.013345,-0.023262,-0.036895,-0.016634,0.003737,-0.007183,-0.021073,0.024500,0.017434,-0.005614,0.010336,-0.020501,-0.006957,0.005731,-0.075738
