Infrastructure	-0.002368,-0.001470,0.001518,-0.001567,0.001598,0.000737,-0.001898,0.002322,0.000332,0.001256,0.002469,-0.001764,-0.001407,0.001721,-0.000035,-0.002431,0.001109,-0.000494,-0.000990,0.000316,0.000755,-0.000408,0.000658,0.001113,0.000926,0.000685,-0.001860,0.000732,0.000269,-0.000743,-0.001222,0.000522,0.002013,-0.000861,-0.001797,0.002143,-0.001883,-0.000007,-0.000811,-0.002462,-0.000453,0.000687,-0.001575,-0.000333,-0.000217,-0.000668,-0.001119,0.001592,0.002203,-0.001002,0.000033,0.000856,-0.000600,0.000393,-0.001094,0.000473,0.000539,-0.001991,0.001501,0.000532,-0.001189,-0.000543,0.000080,0.001264,0.002370,-0.000147,-0.002083,0.000386,-0.001156,-0.001252,0.001808,-0.001805,-0.001139,0.001919,-0.001563,0.002449,0.001376,-0.001846,0.001700,-0.000164,-0.001054,-0.000225,0.002005,0.001554,0.001651,0.000804,0.000951,0.000853,0.000503,-0.001873,0.002446,0.001041,-0.002321,-0.000406,-0.002449,0.001251,0.000549,0.001334,0.000083,-0.000132,-0.001434,-0.001071,0.000795,0.002295,-0.001783,0.001350,-0.000657,-0.000711,0.001543,-0.000706,-0.001959,-0.002286,0.001074,0.000023,0.000861,-0.000221,-0.000800,-0.001806,0.001269,-0.000806,-0.001149,0.001086,0.001465,0.000015,0.001877,-0.002181,-0.001160,0.000876,-0.001861,0.001546,0.000896,0.001226,0.001212,-0.000992,0.001590,0.002409,0.002235,-0.000104,-0.000246,-0.001618,0.000647,0.001276,0.000015,0.002436,-0.001879,-0.000328,0.001033,-0.001934,0.000184,-0.000624,0.002122,-0.001670,0.002363,-0.001601,0.001959,-0.001546,-0.000281,0.001898,-0.000943,0.001247,-0.001503,-0.000652,-0.001637,0.001702,0.001986,0.001847,0.000771,-0.002343,-0.001675,-0.001690,-0.001629,-0.000040,-0.002262,0.000869,-0.000750,0.000480,-0.002257,-0.000232,0.001838,-0.002145,0.001762,0.001304,0.000199,0.000726,0.001815,-0.000704,0.002318,0.000735,-0.000107,0.001710,-0.000585,0.002476,0.002091,-0.000087,0.000200,-0.002421,0.000209,-0.001106,0.000191,0.000544	-0.026207,-0.37482,0.59126,-0.48798,-0.23403,0.093748,-0.39796,0.23999,-0.49686,2.2854,-0.54511,-0.62619,0.13817,0.85284,-0.40769,0.64707,-0.085917,1.7468,-0.061396,-0.03813,0.25513,0.42036,-0.16573,-0.038241,0.12185,-0.066516,0.031953,0.19664,-0.066343,0.42808,-0.31972,-0.32814,0.36088,-0.090045,-0.20253,-0.014182,0.23666,0.2892,0.20374,0.3829,0.27418,0.21609,0.10291,0.043226,-0.77527,-0.088331,0.28864,0.062331,-0.59936,0.26147,0.68761,0.07199,-0.33757,0.24197,0.2197,0.65165,-0.072556,-0.29141,0.32713,0.43383,-0.22756,0.061425,-0.5966,-0.32718,0.79778,0.14046,-0.027207,-0.077025,-0.29857,-0.16505,-0.011064,-0.10409,0.40267,-0.099512,-0.34619,0.23475,0.13225,0.065492,0.11161,-0.17211,0.26525,0.16772,0.56533,0.2049,-0.53091,0.33741,-0.79861,0.31654,0.28701,0.17815,-0.15017,0.55634,-0.63474,-0.054413,0.33287,0.19563,-0.11626,0.097548,0.063869,0.15284,-0.064317,-0.13255,-0.41946,-0.040928,-0.15255,-2.2916,-0.30309,-0.35053,-0.23431,-0.18783,-0.46862,-0.19287,0.0089116,0.048236,0.078087,-0.16769,0.27914,-0.10754,-0.37369,-0.31255,0.065344,0.53848,-0.57941,-0.52956,-0.3861,-0.16582,0.3157,0.0069937,-0.072053,-0.063505,-0.067265,0.22774,0.35072,-0.095488,-0.031042,0.14652,0.1175,-0.28684,0.34052,0.20284,0.86388,0.0006741,0.15762,0.14991,-0.19197,-0.17216,0.18388,0.21234,0.027011,0.058812,0.20831,0.50712,0.36124,0.27814,0.32248,-0.18253,0.20722,-0.073957,0.18052,0.30542,0.25155,0.50316,-0.20134,-0.084166,-0.45923,-0.20417,0.40044,-0.36135,0.15506,0.12299,-0.1759,-0.17226,-0.1609,0.22635,0.35418,-0.36357,-0.10923,0.27705,0.42403,0.439,-0.19819,-0.0018125,-0.05273,0.027994,-0.15517,0.34937,0.15164,-0.24024,-0.17292,-0.14785,0.64282,-0.17749,-0.22587,0.35005,-0.51879,-0.60546,0.0045634,-0.089977,-0.59805,0.62188,-0.12497,-0.1324,0.12018,0.43417,0.31336,0.1261,-0.24682,-0.042576,0.055008,-0.61449,-0.13574,-1.125,0.16133,0.17301,0.59431,-0.49412,-0.40366,-0.0044036,-0.094681,0.017803,-0.54816,0.29314,0.17899,0.75317,0.21509,-0.77621,0.72523,-0.14118,-0.6824,0.10599,-0.11526,-0.031637,-0.094111,-0.6738,0.65279,0.40076,0.16555,-0.63574,0.18524,-0.12273,0.05159,-0.13407,-0.37629,0.25042,0.14494,-0.20167,0.052071,-0.18746,-0.10754,-0.25383,0.096038,0.38088,0.014097,0.31904,-0.13962,-0.67715,-0.1044,-0.61899,-0.51627,-0.41962,0.46452,0.35286,0.17786,0.053376,-0.19279,-0.98803,-0.31751,-0.74022,1.1307,0.11446,0.16784,0.10473,0.084259,-0.33905,-0.39483,0.1069,0.62181,0.13116,0.21621,-0.11465,-0.64962,-0.41561,-0.15782,0.45246,-0.4315,-0.6664,0.31478,-0.23353,-0.28689,-0.20571,-0.70104,0.12543,0.22817,0.14241,-0.30367,-0.089781,0.16255,-0.33186,-0.2585,0.28613	-0.026207,-0.37482,0.59126,-0.48798,-0.23403,0.093748,-0.39796,0.23999,-0.49686,2.2854,-0.54511,-0.62619,0.13817,0.85284,-0.40769,0.64707,-0.085917,1.7468,-0.061396,-0.03813,0.25513,0.42036,-0.16573,-0.038241,0.12185,-0.066516,0.031953,0.19664,-0.066343,0.42808,-0.31972,-0.32814,0.36088,-0.090045,-0.20253,-0.014182,0.23666,0.2892,0.20374,0.3829,0.27418,0.21609,0.10291,0.043226,-0.77527,-0.088331,0.28864,0.062331,-0.59936,0.26147,0.68761,0.07199,-0.33757,0.24197,0.2197,0.65165,-0.072556,-0.29141,0.32713,0.43383,-0.22756,0.061425,-0.5966,-0.32718,0.79778,0.14046,-0.027207,-0.077025,-0.29857,-0.16505,-0.011064,-0.10409,0.40267,-0.099512,-0.34619,0.23475,0.13225,0.065492,0.11161,-0.17211,0.26525,0.16772,0.56533,0.2049,-0.53091,0.33741,-0.79861,0.31654,0.28701,0.17815,-0.15017,0.55634,-0.63474,-0.054413,0.33287,0.19563,-0.11626,0.097548,0.063869,0.15284,-0.064317,-0.13255,-0.41946,-0.040928,-0.15255,-2.2916,-0.30309,-0.35053,-0.23431,-0.18783,-0.46862,-0.19287,0.0089116,0.048236,0.078087,-0.16769,0.27914,-0.10754,-0.37369,-0.31255,0.065344,0.53848,-0.57941,-0.52956,-0.3861,-0.16582,0.3157,0.0069937,-0.072053,-0.063505,-0.067265,0.22774,0.35072,-0.095488,-0.031042,0.14652,0.1175,-0.28684,0.34052,0.20284,0.86388,0.0006741,0.15762,0.14991,-0.19197,-0.17216,0.18388,0.21234,0.027011,0.058812,0.20831,0.50712,0.36124,0.27814,0.32248,-0.18253,0.20722,-0.073957,0.18052,0.30542,0.25155,0.50316,-0.20134,-0.084166,-0.45923,-0.20417,0.40044,-0.36135,0.15506,0.12299,-0.1759,-0.17226,-0.1609,0.22635,0.35418,-0.36357,-0.10923,0.27705,0.42403,0.439,-0.19819,-0.0018125,-0.05273,0.027994,-0.15517,0.34937,0.15164,-0.24024,-0.17292,-0.14785,0.64282,-0.17749,-0.22587,0.35005,-0.51879,-0.60546,0.0045634,-0.089977,-0.59805,0.62188,-0.12497,-0.1324,0.12018,0.43417,0.31336,0.1261,-0.24682,-0.042576,0.055008,-0.61449,-0.13574,-1.125,0.16133,0.17301,0.59431,-0.49412,-0.40366,-0.0044036,-0.094681,0.017803,-0.54816,0.29314,0.17899,0.75317,0.21509,-0.77621,0.72523,-0.14118,-0.6824,0.10599,-0.11526,-0.031637,-0.094111,-0.6738,0.65279,0.40076,0.16555,-0.63574,0.18524,-0.12273,0.05159,-0.13407,-0.37629,0.25042,0.14494,-0.20167,0.052071,-0.18746,-0.10754,-0.25383,0.096038,0.38088,0.014097,0.31904,-0.13962,-0.67715,-0.1044,-0.61899,-0.51627,-0.41962,0.46452,0.35286,0.17786,0.053376,-0.19279,-0.98803,-0.31751,-0.74022,1.1307,0.11446,0.16784,0.10473,0.084259,-0.33905,-0.39483,0.1069,0.62181,0.13116,0.21621,-0.11465,-0.64962,-0.41561,-0.15782,0.45246,-0.4315,-0.6664,0.31478,-0.23353,-0.28689,-0.20571,-0.70104,0.12543,0.22817,0.14241,-0.30367,-0.089781,0.16255,-0.33186,-0.2585,0.28613
Work	0.003495,0.000667,-0.003742,0.002442,0.000838,-0.002460,-0.002569,0.001120,0.001736,0.001249,0.003847,-0.000259,0.008605,-0.004539,-0.004266,-0.003608,-0.001772,-0.001244,0.000240,0.000942,0.000118,-0.004221,0.006232,-0.001287,-0.000513,-0.004334,0.001261,-0.003396,-0.006215,-0.001291,-0.002907,-0.003907,-0.002734,0.003203,-0.000264,0.008423,0.001885,-0.001569,-0.003308,0.001318,0.001140,0.002356,0.000530,0.002812,0.000391,0.002264,-0.004445,0.003074,-0.001273,0.000612,-0.002596,-0.002944,-0.002569,-0.000430,0.002367,0.007700,-0.005236,-0.000759,-0.001127,0.000042,-0.002401,0.003927,0.000219,0.001509,-0.002654,0.001756,-0.003648,0.001212,-0.001061,0.006305,0.002069,-0.000546,-0.001369,-0.002283,-0.002422,0.002505,-0.001358,0.000700,-0.000495,0.004049,-0.001418,0.002650,-0.002160,-0.002327,-0.001355,0.000859,0.004115,0.001216,0.002503,0.007211,-0.001057,-0.000199,-0.000003,-0.004576,-0.000604,-0.002727,0.003492,0.002977,0.000344,0.002720,-0.002547,0.006437,-0.002587,0.002334,0.001872,0.003375,0.003508,-0.001061,0.005118,0.000025,-0.001277,0.002927,0.001148,-0.002564,0.003520,-0.001797,0.000545,0.002182,0.003079,-0.003384,0.003339,0.005769,0.004317,-0.002750,-0.000471,-0.000476,-0.002457,-0.001386,-0.003626,0.002856,-0.001906,-0.004906,0.002958,0.005712,-0.000236,0.002448,0.000424,0.005448,-0.000681,0.002968,-0.006194,-0.001594,0.004762,0.006723,-0.000687,-0.009405,-0.001566,0.006377,0.001119,0.005934,0.001879,-0.000410,-0.002892,0.005783,0.000091,-0.002285,0.001314,0.001059,-0.002052,-0.001167,-0.000709,0.001154,0.001175,-0.004372,0.006511,0.004973,0.003515,0.003137,-0.000819,0.001797,-0.000186,0.003756,0.000166,0.000668,-0.000511,0.003521,-0.004689,0.002037,0.002547,-0.000748,0.005823,-0.004098,-0.002357,-0.002262,-0.002298,0.002778,-0.003976,-0.000469,0.003714,-0.003664,0.004209,-0.005021,-0.007037,0.004933,0.001793,0.002917,0.001485,-0.001904,-0.004486,0.001283	-3.0251e-05,0.084473,-0.12865,-0.30777,-0.28069,0.35496,-0.14539,-0.24887,0.024285,2.7458,-0.23302,0.28894,-0.091569,-0.084646,0.052142,0.081376,-0.11976,1.3867,-0.39783,0.023598,0.53982,0.19111,-0.25128,-0.18636,0.114,-0.048751,0.49926,-0.20395,0.3993,-0.068803,0.0037073,-0.095517,-0.22971,-0.26071,0.35043,-0.18862,0.14022,-0.24157,0.008732,0.0062659,-0.054821,0.41986,-0.25279,-0.085991,0.012081,0.20478,0.094689,-0.086193,-0.054492,0.18633,0.20406,-0.089217,0.18844,-0.011613,0.13108,0.39935,0.081055,-0.22,0.29133,-0.33297,-0.33128,-0.53536,0.22014,0.52748,0.35724,-0.50042,-0.030106,0.28693,0.081756,0.21429,0.10702,-0.25021,0.098761,0.13568,0.25266,0.41761,-0.02444,-0.27136,-0.34022,0.35447,0.20254,0.072055,-0.18274,-0.043591,-0.53053,-0.17978,-0.29953,-0.18571,0.39595,0.13248,-0.28389,-0.30144,-0.19078,0.2856,0.32735,-0.059477,0.42157,0.10178,-0.044889,0.10871,-0.18212,-0.14421,0.2128,-0.1987,-0.24266,-1.0862,0.21282,0.10514,-0.12159,-0.20281,-0.010819,-0.36904,0.47037,-0.1965,0.19009,-0.34452,-0.15184,0.12665,0.20491,0.19476,0.24123,-0.19158,0.19126,-0.092726,0.11684,0.086745,-0.23692,0.12787,0.41563,-0.034971,0.015254,0.12348,-0.28076,0.44156,0.077484,0.61009,0.054864,-0.34637,-0.030725,0.013681,-0.89796,-0.074882,0.29525,-0.085063,-0.072151,0.18176,-0.38935,-0.035815,-0.25195,0.00070542,-0.003025,0.29411,-0.36548,-0.035126,-0.06142,-0.17111,0.093471,-0.32217,-0.065374,-0.28315,-0.072346,0.12054,-0.13135,-0.032881,0.39595,-0.19038,0.026324,-0.51428,0.31435,-0.23177,-0.17658,0.172,-0.001701,-0.1272,0.11029,0.44887,-0.2808,0.21439,0.041558,-0.033964,0.2601,0.10319,-0.23774,0.29048,0.20158,0.2184,-0.0039568,0.087162,0.19351,0.099475,-0.43441,0.29216,-0.26764,-0.20369,-0.16012,0.46065,0.13767,-0.52732,0.16619,0.025186,-0.12032,-0.17319,0.085689,0.01681,0.031387,-0.01584,-0.14732,-0.057207,0.11737,0.16179,0.28151,0.066583,0.22459,-0.23539,0.030972,0.13443,0.15526,-0.36964,-0.27271,-0.032876,0.10947,-0.26436,-0.13238,0.36409,0.14598,0.26574,-0.10396,0.069972,0.19525,0.0308,-0.59623,-0.12018,0.09427,0.51457,0.22863,0.030431,0.047524,-0.37872,0.15263,0.2696,0.20041,0.0066654,-0.083169,0.41175,0.21256,-0.32507,-0.36418,-0.26935,0.089675,0.072852,-0.0188,-0.0010982,-0.47894,-0.34468,0.26277,-0.14638,0.18308,0.15334,-0.23414,-0.020833,0.61427,0.5648,0.0039846,0.20066,-0.14306,-0.057597,0.17136,-0.137,0.69121,0.11135,0.28582,-0.24287,-0.30874,-0.17066,-0.29489,-0.14869,0.035586,0.11402,0.24561,0.7099,-0.05246,-0.021788,-0.29901,0.21078,-0.096015,-0.49433,0.12692,-0.054418,0.023369,-0.26057,-0.27812,-0.2246,0.3906,0.32884,0.23927,-0.15114,0.42146,0.077291,-0.37827,0.27388	-3.0251e-05,0.084473,-0.12865,-0.30777,-0.28069,0.35496,-0.14539,-0.24887,0.024285,2.7458,-0.23302,0.28894,-0.091569,-0.084646,0.052142,0.081376,-0.11976,1.3867,-0.39783,0.023598,0.53982,0.19111,-0.25128,-0.18636,0.114,-0.048751,0.49926,-0.20395,0.3993,-0.068803,0.0037073,-0.095517,-0.22971,-0.26071,0.35043,-0.18862,0.14022,-0.24157,0.008732,0.0062659,-0.054821,0.41986,-0.25279,-0.085991,0.012081,0.20478,0.094689,-0.086193,-0.054492,0.18633,0.20406,-0.089217,0.18844,-0.011613,0.13108,0.39935,0.081055,-0.22,0.29133,-0.33297,-0.33128,-0.53536,0.22014,0.52748,0.35724,-0.50042,-0.030106,0.28693,0.081756,0.21429,0.10702,-0.25021,0.098761,0.13568,0.25266,0.41761,-0.02444,-0.27136,-0.34022,0.35447,0.20254,0.072055,-0.18274,-0.043591,-0.53053,-0.17978,-0.29953,-0.18571,0.39595,0.13248,-0.28389,-0.30144,-0.19078,0.2856,0.32735,-0.059477,0.42157,0.10178,-0.044889,0.10871,-0.18212,-0.14421,0.2128,-0.1987,-0.24266,-1.0862,0.21282,0.10514,-0.12159,-0.20281,-0.010819,-0.36904,0.47037,-0.1965,0.19009,-0.34452,-0.15184,0.12665,0.20491,0.19476,0.24123,-0.19158,0.19126,-0.092726,0.11684,0.086745,-0.23692,0.12787,0.41563,-0.034971,0.015254,0.12348,-0.28076,0.44156,0.077484,0.61009,0.054864,-0.34637,-0.030725,0.013681,-0.89796,-0.074882,0.29525,-0.085063,-0.072151,0.18176,-0.38935,-0.035815,-0.25195,0.00070542,-0.003025,0.29411,-0.36548,-0.035126,-0.06142,-0.17111,0.093471,-0.32217,-0.065374,-0.28315,-0.072346,0.12054,-0.13135,-0.032881,0.39595,-0.19038,0.026324,-0.51428,0.31435,-0.23177,-0.17658,0.172,-0.001701,-0.1272,0.11029,0.44887,-0.2808,0.21439,0.041558,-0.033964,0.2601,0.10319,-0.23774,0.29048,0.20158,0.2184,-0.0039568,0.087162,0.19351,0.099475,-0.43441,0.29216,-0.26764,-0.20369,-0.16012,0.46065,0.13767,-0.52732,0.16619,0.025186,-0.12032,-0.17319,0.085689,0.01681,0.031387,-0.01584,-0.14732,-0.057207,0.11737,0.16179,0.28151,0.066583,0.22459,-0.23539,0.030972,0.13443,0.15526,-0.36964,-0.27271,-0.032876,0.10947,-0.26436,-0.13238,0.36409,0.14598,0.26574,-0.10396,0.069972,0.19525,0.0308,-0.59623,-0.12018,0.09427,0.51457,0.22863,0.030431,0.047524,-0.37872,0.15263,0.2696,0.20041,0.0066654,-0.083169,0.41175,0.21256,-0.32507,-0.36418,-0.26935,0.089675,0.072852,-0.0188,-0.0010982,-0.47894,-0.34468,0.26277,-0.14638,0.18308,0.15334,-0.23414,-0.020833,0.61427,0.5648,0.0039846,0.20066,-0.14306,-0.057597,0.17136,-0.137,0.69121,0.11135,0.28582,-0.24287,-0.30874,-0.17066,-0.29489,-0.14869,0.035586,0.11402,0.24561,0.7099,-0.05246,-0.021788,-0.29901,0.21078,-0.096015,-0.49433,0.12692,-0.054418,0.023369,-0.26057,-0.27812,-0.2246,0.3906,0.32884,0.23927,-0.15114,0.42146,0.077291,-0.37827,0.27388
Agent	0.000439,0.000212,-0.002011,0.001701,-0.001059,0.000051,0.001345,-0.000765,0.000577,-0.001203,0.001520,-0.001405,0.001257,-0.001541,0.001995,0.000253,-0.001079,-0.002211,-0.001413,0.000961,0.000916,0.001108,-0.001430,-0.001358,-0.001902,-0.002181,0.002462,0.000111,0.001334,0.001230,0.001333,-0.001957,0.001258,0.001532,-0.001565,0.002045,0.001286,-0.002206,-0.001418,0.000949,-0.001635,0.002302,0.001091,0.002347,-0.001929,0.000850,-0.001766,-0.000584,-0.002254,-0.001371,-0.000475,-0.002355,-0.001021,-0.000952,0.000051,0.000073,-0.001540,-0.000435,0.000438,0.000380,0.001544,0.000880,0.000311,-0.001296,0.002167,0.001393,0.001496,-0.000969,-0.000248,0.002334,0.001840,-0.001520,-0.001862,-0.000995,-0.000155,-0.001598,0.002264,0.001401,0.001283,0.002285,-0.002325,0.000182,-0.001092,0.001115,-0.000077,0.000783,0.002223,-0.001838,0.001287,-0.000768,-0.000700,0.000954,-0.002107,-0.000635,-0.000439,-0.000363,-0.000501,0.000349,-0.001632,0.002309,0.002396,0.002416,0.000832,0.001088,0.001984,-0.002407,0.000959,-0.002469,-0.001299,0.000996,-0.002411,-0.001715,0.001434,-0.001858,0.000468,-0.001300,0.001089,0.002303,-0.002109,0.000441,-0.001499,-0.000412,-0.001104,-0.002399,0.001034,0.000559,0.001446,0.002485,0.000347,-0.000094,-0.000391,0.000251,0.002195,0.002133,-0.000050,0.001045,0.001696,0.002129,0.000474,0.001848,-0.001678,-0.001418,-0.000368,-0.001099,-0.002361,-0.001243,-0.002104,0.000091,-0.001623,0.002317,-0.001759,-0.002105,-0.001279,-0.000526,0.000286,-0.002079,0.002481,-0.001892,0.000055,0.001555,-0.000565,-0.002057,0.001515,0.001251,0.001501,-0.000739,0.002001,0.001413,-0.002475,0.001748,-0.002061,0.001077,0.001984,-0.002229,0.000326,-0.000305,0.001129,0.000188,0.001749,0.001578,-0.000482,0.001692,-0.000271,-0.000511,0.002032,-0.000367,-0.000781,-0.002311,0.002363,-0.001503,0.001623,-0.001646,-0.002200,0.000172,0.002226,0.001221,0.000172,0.001076,-0.001828,-0.001972	-0.22032,0.36723,-0.6437,0.15579,0.18732,0.044208,0.083665,-0.90376,0.37473,2.6887,-0.29814,-0.22812,0.44761,-0.52075,0.16765,-0.49008,0.26249,1.1466,0.27937,-0.49494,0.324,-0.21097,-0.19081,0.55998,-0.28308,0.0091846,-0.37443,-0.30318,0.43476,-0.22858,0.052305,-0.029171,0.81549,0.54846,0.063005,-0.21276,0.23479,-0.085494,-0.014125,-0.7504,0.4406,-0.15491,-0.097028,-0.20655,-0.46881,-0.28398,0.15309,-0.10642,0.32105,0.081507,0.82433,-0.29782,-0.35056,-0.84619,-0.053206,-0.55085,-0.64892,0.08983,-0.19784,0.077934,0.42177,-0.26232,-0.39784,-0.07839,0.04633,0.21644,-0.68435,0.6311,-0.46869,-0.10602,-0.44199,0.11829,-0.22998,0.045557,-0.84252,-0.57467,-0.10187,-0.27513,-0.04613,-0.16116,-0.17457,0.32237,-0.81696,-0.60624,-0.0056554,0.028706,0.15739,0.09072,-0.065742,0.028864,0.86704,0.15318,-0.45679,-0.29777,0.01888,-0.71853,0.039894,-0.24089,-0.60476,0.13742,0.12455,0.12241,-0.18232,0.34358,0.43593,-0.9969,-0.099922,0.30109,-0.051392,-0.0037107,-0.055202,0.16381,0.010993,0.28394,0.096896,0.21015,0.1004,-0.010352,0.38478,0.047545,-0.31649,0.53755,0.0076468,-0.31043,0.28266,-0.19272,-0.27609,0.2916,-0.14548,-0.019472,-0.26892,-0.39305,-0.52483,0.11702,-0.44016,0.57694,-0.55115,-0.19667,0.25307,-0.48081,-0.18939,0.038994,0.32371,0.0095219,-0.43173,-0.036569,0.65011,-0.21016,0.25599,-0.12158,0.53267,0.22746,-0.60516,-0.18845,0.36553,0.58806,0.32297,0.11429,0.055518,0.53163,0.02913,-0.77809,0.17849,0.40936,0.40017,-0.27706,0.2763,-0.59453,0.10632,-0.26638,0.32024,0.1636,-0.72927,-0.26159,0.38494,0.1772,-0.51857,-0.24669,-0.41038,0.34012,0.17753,-0.024413,-0.9183,-0.481,-0.34678,0.19217,0.33328,0.49893,-0.4131,0.072139,-0.32558,0.18638,0.15365,1.0547,0.049805,-0.19362,-0.061592,-0.020607,0.008061,0.11572,-0.0087957,0.17535,0.15694,-0.42608,-0.43136,0.90362,0.60515,0.37338,-0.094098,0.5215,0.22294,0.14146,0.54572,0.21102,-0.66212,-0.70635,0.56706,-0.12761,-0.52132,0.083062,-0.22181,0.26432,0.084752,0.18783,-0.21224,0.20425,0.24667,0.65353,0.0094585,-0.043594,-0.1384,0.27211,0.06852,0.10874,-0.82677,0.019471,0.14925,0.25852,-0.21325,0.16036,0.425,0.2391,0.58661,0.065942,0.21257,-0.074489,0.03514,-0.26034,0.23884,-0.88894,0.075416,-0.0037151,-0.062978,0.052209,-0.46306,-0.43207,0.16965,-0.99381,0.21971,-0.066485,0.27301,-0.35746,0.23278,0.039474,0.21949,0.54536,-0.1863,0.37534,0.51677,-0.43823,0.75832,0.80913,0.49337,-0.15938,0.46649,-0.10548,-0.38881,-0.1678,0.090013,0.0035469,-0.20238,0.43037,-0.16477,-0.043735,0.090746,-0.11239,0.16633,-0.44221,0.72113,0.47143,0.11538,0.17715,0.051148,0.2464,0.052861,-0.70788,0.050054,-0.49036,-0.18695,0.072613	-0.22032,0.36723,-0.6437,0.15579,0.18732,0.044208,0.083665,-0.90376,0.37473,2.6887,-0.29814,-0.22812,0.44761,-0.52075,0.16765,-0.49008,0.26249,1.1466,0.27937,-0.49494,0.324,-0.21097,-0.19081,0.55998,-0.28308,0.0091846,-0.37443,-0.30318,0.43476,-0.22858,0.052305,-0.029171,0.81549,0.54846,0.063005,-0.21276,0.23479,-0.085494,-0.014125,-0.7504,0.4406,-0.15491,-0.097028,-0.20655,-0.46881,-0.28398,0.15309,-0.10642,0.32105,0.081507,0.82433,-0.29782,-0.35056,-0.84619,-0.053206,-0.55085,-0.64892,0.08983,-0.19784,0.077934,0.42177,-0.26232,-0.39784,-0.07839,0.04633,0.21644,-0.68435,0.6311,-0.46869,-0.10602,-0.44199,0.11829,-0.22998,0.045557,-0.84252,-0.57467,-0.10187,-0.27513,-0.04613,-0.16116,-0.17457,0.32237,-0.81696,-0.60624,-0.0056554,0.028706,0.15739,0.09072,-0.065742,0.028864,0.86704,0.15318,-0.45679,-0.29777,0.01888,-0.71853,0.039894,-0.24089,-0.60476,0.13742,0.12455,0.12241,-0.18232,0.34358,0.43593,-0.9969,-0.099922,0.30109,-0.051392,-0.0037107,-0.055202,0.16381,0.010993,0.28394,0.096896,0.21015,0.1004,-0.010352,0.38478,0.047545,-0.31649,0.53755,0.0076468,-0.31043,0.28266,-0.19272,-0.27609,0.2916,-0.14548,-0.019472,-0.26892,-0.39305,-0.52483,0.11702,-0.44016,0.57694,-0.55115,-0.19667,0.25307,-0.48081,-0.18939,0.038994,0.32371,0.0095219,-0.43173,-0.036569,0.65011,-0.21016,0.25599,-0.12158,0.53267,0.22746,-0.60516,-0.18845,0.36553,0.58806,0.32297,0.11429,0.055518,0.53163,0.02913,-0.77809,0.17849,0.40936,0.40017,-0.27706,0.2763,-0.59453,0.10632,-0.26638,0.32024,0.1636,-0.72927,-0.26159,0.38494,0.1772,-0.51857,-0.24669,-0.41038,0.34012,0.17753,-0.024413,-0.9183,-0.481,-0.34678,0.19217,0.33328,0.49893,-0.4131,0.072139,-0.32558,0.18638,0.15365,1.0547,0.049805,-0.19362,-0.061592,-0.020607,0.008061,0.11572,-0.0087957,0.17535,0.15694,-0.42608,-0.43136,0.90362,0.60515,0.37338,-0.094098,0.5215,0.22294,0.14146,0.54572,0.21102,-0.66212,-0.70635,0.56706,-0.12761,-0.52132,0.083062,-0.22181,0.26432,0.084752,0.18783,-0.21224,0.20425,0.24667,0.65353,0.0094585,-0.043594,-0.1384,0.27211,0.06852,0.10874,-0.82677,0.019471,0.14925,0.25852,-0.21325,0.16036,0.425,0.2391,0.58661,0.065942,0.21257,-0.074489,0.03514,-0.26034,0.23884,-0.88894,0.075416,-0.0037151,-0.062978,0.052209,-0.46306,-0.43207,0.16965,-0.99381,0.21971,-0.066485,0.27301,-0.35746,0.23278,0.039474,0.21949,0.54536,-0.1863,0.37534,0.51677,-0.43823,0.75832,0.80913,0.49337,-0.15938,0.46649,-0.10548,-0.38881,-0.1678,0.090013,0.0035469,-0.20238,0.43037,-0.16477,-0.043735,0.090746,-0.11239,0.16633,-0.44221,0.72113,0.47143,0.11538,0.17715,0.051148,0.2464,0.052861,-0.70788,0.050054,-0.49036,-0.18695,0.072613
