http://dbpedia.org/ontology/AustralianRulesFootballPlayer	0.840974,1.117137,-0.3251733,-0.531173,0.88733,-0.690256,1.17434,0.149526,-0.2073356,9.1949,-1.27085,1.6696,0.173606,1.07858,1.05992,-0.750595,-0.52025,1.776603,1.400925,-0.12346,-0.71927,-1.160681,0.27221,-0.743442,0.391301,1.60187,-0.655941,0.843324,0.204796,-0.3088587,-1.496755,-0.03819,0.598283,0.047198,0.095393,-0.120269,1.02918583,-0.961627,-0.5621412,-0.0862,0.96385,0.70174,1.6144,0.87341,-0.41133,-0.67844,-0.337701,1.251897,-1.00902,0.40552,-0.91946,-0.72871,-0.0500894,-0.48718,-1.209535,0.114177,0.323616,0.5575,0.704039,0.063133,-0.84832,1.597248,0.851977,0.33984,-0.676391315,0.4482566,0.338724,0.92363,-0.424338,-0.370654,0.8133453,-1.16619,1.325357,-0.246389,-0.530274,-0.015382,0.046722,-0.065052,1.00913,0.574492,0.3131957,0.27776,0.606574,0.7163,0.371766,0.707403,-1.92620866,1.241357,0.98978,-0.326528,-0.49413,-1.44072,-1.03872,-0.659916,1.18366,-2.36905,-0.12829,0.780436,0.17807,0.91714,0.125886,-0.897369,0.67977,0.266227,-0.610632,-2.00254,0.249045,0.7898,0.53873,-0.478331,0.27121,-0.4654903,-1.779318,-0.54564,-0.843921,1.4801972,0.381654,0.056999,-0.97174,-0.526927,0.461682,-0.414946,-0.96067,-0.782127,-0.265243,-0.985097,-0.512637,0.926796,0.012159,0.789138,0.58592,-0.06525,0.417767,-0.671049,1.09828,-1.46928,0.798433,-0.446784,1.09118,-0.256571,-5.0898,-0.2515,1.10643,-0.40251,0.0658731,-0.07443,1.362373,0.154703,-0.566271,0.226163,-0.022093,0.7814202,-0.114,0.775215,-0.507097,-0.613354,0.486531,0.865472,-0.400484,-0.00629,0.5005047,0.160012,0.92753,-1.173587,-1.489371,-1.46412,1.369203,0.007534,-0.96259,-0.05045,-0.50229,0.906305,-0.08365,-0.922611,0.77315,0.251944,-0.17147,0.77766,0.374143,1.543973,-0.957398,-0.009416,-0.019074,-0.879459,-2.14258,-0.517178,-0.99651,0.932043,0.767305,-1.805569,0.337192,0.377159,0.388095,-0.435401,-0.092437,-0.8115,-0.028197,0.91304,0.663948,0.63482,1.99418,-0.41687,1.5612,0.78071,0.336882,-0.2550234,0.121835,0.708607,-1.003048,0.027814,-0.230302,0.325388,1.1991,0.247589,-0.47768,2.55146,-0.842844,-0.246596,-3.35837,0.85292,-1.13454,0.49849,-0.42028,-1.08964,0.335224,0.30519,0.2831666,0.59946,2.43502,2.146167,-0.8545,0.810473,-0.792477,0.5986951,-0.91377,-0.732,-0.164221,2.00106,-0.01879,0.57426,1.026714,-0.040079,1.38768,-0.638452,-1.339217,0.226093,0.265977,-0.1580066,-1.19323,0.724399,1.77924,-0.883984,0.119848,-0.658617,0.55374,0.06576,-1.10366,-0.531152,-0.22985,-0.451341,0.716112,1.4898303,0.038705,0.362368,-1.0783582,0.43814,-1.19979,0.315084,1.97892,-0.7841346,-0.21016,0.657119,0.684927,0.661882,-0.64007,0.085154,-0.046747,0.180123,-0.45569,-0.42731,-1.01989,-0.15796,-1.79235,-0.44004,-0.392279,-1.43945,-1.27075,-0.54895,0.586235,-0.185827,-1.46942,-1.160614,-1.31742,-0.45371,0.615142,1.326867,-0.052643,-1.45905,2.33413,-0.04266
http://dbpedia.org/ontology/BadmintonPlayer	1.1169,0.79732,0.41517,-0.536984,0.76719,-0.2190474,1.34944,-0.68946,0.150734,2.58617,-0.29565,0.787697,-0.27115,0.6159,0.68611,0.468288,-0.24457,0.4424,-0.280375,0.891314,-0.87515,-0.44615,-0.57773,-0.171439,0.67068,1.40087,0.251345,-0.00103,0.191037,-0.325487,0.10506,-0.489378,0.40196,-0.24418,0.01658,-0.357446,0.69389,-0.509247,-0.092686,-0.68526,0.57867,0.530946,0.70418,0.47051,-0.669,-0.262298,-0.32332,0.79634,-0.01154,0.067504,-0.75773,-0.3336128,0.8993806,0.41742,-0.68896,-0.85674,0.55309,0.54294,0.472006,0.15444,-1.12758,0.27751,0.7428,0.05644,-0.565878315,0.3094766,0.67461,0.6845,0.026963,0.13971,-0.18743,0.323432,0.465354,0.2218,-0.72587,-0.14965,-0.60901,-0.263596,0.311695,0.526838,-0.0830823,-0.29709,0.04326,0.225107,-0.0542914,1.06482,-0.06002,0.580117,0.66416,-0.80075,-0.010336,-0.2526,-1.23189,0.151944,0.62195,-1.94692,1.05762,0.06409,0.03728,1.88412,-0.83511,-0.79486,0.72059,0.19392,-0.376581,-1.69511,0.448785,0.473729,0.70802,-0.10363,0.89888,-0.1065603,-0.67863,0.220992,-0.179131,1.03058,-0.019238,-0.02737,-0.54839,-0.34482,0.04626,0.23335,0.15021,-0.08541,0.242231,-0.4464889,-0.881745,0.094592,0.040165,0.834168,-0.05115,-0.0001,0.6532,-1.145519,0.61865,-0.88158,0.649,-0.49481,0.63038,-0.10589,-3.489,0.724067,0.23684,-0.50849,-0.53268,1.00126,1.5234,-0.43588,0.007084,-0.48949,-0.11503,1.20575,0.194751,0.71895,-0.272699,-0.421913,0.80434,0.59022,-0.298647,-0.87594,0.14473,0.19703,0.501025,-0.83612,0.341093,-0.63745,0.43953,0.83086,-0.61221,0.60214,-1.1931,0.19679,-0.6346,-0.043136,0.24279,-0.67655,-0.44779,0.166439,0.10177,0.218096,-0.427758,0.244784,-0.178675,-0.1773471,-0.58434,-0.307994,-0.88704,0.240043,0.875385,0.02953,0.202221,-0.30954,0.79952,-0.14553,-0.22866,-0.25043,0.33932,0.50104,0.381367,0.313721,1.87164,0.00123,0.68007,0.0963,0.154362,-0.0179124,-0.32207,0.089987,0.229112,-1.163316,-0.262167,-0.19497,1.12536,-0.87664,-0.14852,0.91441,0.003798,-0.281646,-1.58165,-0.1521276,-0.07405,-0.08117,0.24414,-0.32403,-0.500966,-0.212348,0.35626,0.06626,1.47342,1.08334,0.34674,0.3753,-0.060064,0.565915,-0.738379,-0.444,-0.384362,2.01791,-0.11998,0.527,0.22127,0.02182,-0.09276,-0.19193,-0.87721,0.174975,-0.1026,-0.1582116,-1.2992,0.83357,0.98786,-0.41723,0.59524,0.330018,0.379149,-0.2402539,-0.04003,-0.233567,-0.62004,-0.5663,1.28723,0.3573603,0.318314,0.06582,-1.43198,0.212924,-1.12387,0.285264,-0.02574,-0.2446446,-0.01282,-0.02157,0.6051443,1.34332,-0.14598,0.61968,0.66858,0.090266,-0.69984,-0.322067,-0.69794,0.477779,-0.79829,0.08482,-0.33229,-0.69779,-0.52899,-0.69141,0.379019,-0.466728,0.22653,-0.90478,-0.31766,-0.49355,0.86487,0.72133,-0.00034,-1.56772,0.5742,0.43172
http://dbpedia.org/ontology/BaseballPlayer	0.74556,0.74448,-0.30992,-0.245884,0.97633,-0.04293,0.68142,0.1312,0.530774,4.5467,0.14407,0.89124,-0.02444,0.69587,0.73872,-0.240242,-0.33524,1.00642,-0.065408,0.061969,-0.325358,-0.79297,0.39174,-0.35688,0.362232,0.65693,-0.690545,0.56704,-0.1946,0.02553,-0.216845,-0.76856,-0.21256,0.197539,-0.160078,-0.32529,0.52515,-0.465897,-0.149676,-0.04068,0.34843,0.89893,0.9111,0.86281,-0.53884,-0.53221,-1.15974,0.90576,-0.53838,-0.229076,-0.75402,-0.16536,0.4578106,-0.38333,-0.78383,-0.3040589,0.75651,0.85646,-0.155744,-0.7322,-0.73309,1.14823,0.236483,1.03688,-0.207128315,0.0821366,0.10555,0.74319,-0.0650736,0.402056,0.201487,0.13267,0.23033,-0.294159,-0.68131,-0.22944,0.04299,-0.153631,0.45387,0.520292,-0.1926523,0.1325,0.50265,0.12602,-0.04542673,0.90712,0.04163,0.983207,0.3575,-0.75293,-0.47849,-0.56202,-1.00322,-0.617706,0.87245,-2.12339,0.7792479,-0.286361,0.40637,1.28441,-0.410169,-0.34806,-0.04495,0.59392,-0.308371,-0.73668,0.258575,0.32965,0.61795,-0.21686,0.80447,0.3497197,-1.11054,-0.153562,-0.427541,1.55608,-0.038307,-0.046521,-0.87054,-0.263308,0.71069,-0.284066,0.08676,0.59028,-0.085602,-1.00652,-0.859546,0.78179,-0.010476,0.071067,0.17421,0.206044,0.327921,-0.342019,-0.02131,-0.72276,0.355524,-0.312246,0.54826,-0.619381,-4.2651,0.89235,0.42754,0.79466,-0.473923,0.85477,1.56749,-0.37132,0.063212,-0.07723,-0.08687,0.7324,-0.399629,0.88398,-0.45221,-0.056117,0.28816,0.42026,-0.63503,-0.677008,0.308874,0.09507,0.7629,-1.12545,-0.197157,-0.1073,0.82972,0.34784,-0.12571,-0.182765,-0.95208,0.55412,-0.43572,0.349049,0.99837,-0.111836,-0.73507,0.181769,-0.15785,-0.398024,-0.587908,0.181194,-0.372225,-0.4638,-1.26038,-0.102214,-0.0324,-0.062967,0.217155,-0.124044,0.264851,-0.14403,0.31529,-0.16853,-0.26798,-0.35175,0.23116,1.26837,0.133957,0.40717,1.82954,-0.408776,0.211257,-0.235504,-1.129318,-0.8856434,0.24637,-0.145287,-0.158858,0.149444,-0.75785,-0.22564,0.78088,-0.29374,-0.03148,1.05772,0.323216,0.113464,-2.07284,-0.53865,-0.324256,-0.52705,-0.79649,-0.57586,-0.408896,-0.290003,0.1521,0.82093,1.52242,1.45979,-0.265855,0.06935,-0.182682,0.66276,-1.16417,-0.60676,0.012037,0.9354203,-0.57138,0.81179,0.75809,-0.40858,0.30326,0.22476,-0.62579,0.75748,0.038342,0.1022084,-0.49989,0.3796,1.0027,-0.91064,0.05339,0.137088,0.210299,-0.94453,-0.63047,-0.55215,-0.15330338,-0.34833,1.30051,0.4782703,0.06487,-0.237876,-0.7869857,0.94742,-0.78679,-0.066611,-0.12914,-0.2899746,-0.26741,0.84192,0.74584,0.69427,-0.09992,-0.07894,0.45958,0.108966,-0.98401,-0.81056,-1.01373,0.634734,-1.48604,-0.44575,-0.45228,-0.58224,-0.45902,-0.77491,0.18766,-0.186738,-0.58023,-0.251239,-0.493604,-0.03058,0.37261,-0.52184,-0.2959805,-1.24279,0.23334,-0.286389
http://dbpedia.org/ontology/BasketballPlayer	0.72193,0.77663,0.44986,-0.583094,1.69777,-0.292547,0.78939,-0.22458,0.363564,4.588,-0.09031,0.689414,0.16769,0.66125,0.56168,0.159348,-0.11011,1.10446,-0.311565,0.486284,-0.61233,-0.83579,0.09548,-0.37932,0.24472,1.23808,-0.606565,0.43602,0.14989,-0.3909267,-0.235363,-0.5340327,-0.57904,-0.07943,-0.191423,-0.64975,0.6632,-0.398547,-0.110827,-0.494612,0.11096,0.81315,1.02663,0.312769,-0.67692,-0.95376,-0.70582,1.11508,-0.75036,-0.266366,-0.77848,-0.258215,0.2738806,-0.52117,-1.05343,-1.06778,0.38677,0.87524,0.378576,0.10157,-0.43984,1.07416,0.51038,0.240384,-0.030266315,0.3534566,0.63857,0.83806,0.05743,0.497376,0.209773,-0.13762,0.586,-0.267178,-1.05077,-0.30818,-0.57983,0.29267,0.65693,0.48092,0.1924377,0.26527,0.13611,0.65584,-0.151694,0.8016,0.00215,0.965757,-0.00319,-1.09189,-0.178514,-0.439143,-0.73037,-0.130776,0.4044304,-2.5442,0.739231,-0.001776,0.09917,1.51861,-0.484451,-0.5601545,0.7242,0.01035,-0.370861,-0.523658,0.814155,0.28049,0.43412,-0.6181,0.0618,0.0917137,-1.03105,-0.348918,-0.641661,0.97783,-0.061427,0.099197,-0.80594,-0.08517,0.54793,-0.346423,0.0319,0.180271,0.174471,-0.76,-0.839044,0.48624,0.236969,0.131489,0.214577,-0.1812,0.48951,-0.761399,0.291596,-0.82241,0.15537,-0.52677,0.46571,-0.86208,-4.0047,0.97615,0.171056,0.30502,-0.458737,0.503821,1.97532,-0.308593,0.114184,-0.17004,-0.26663,0.260167,-0.652679,0.64485,-0.99188,-0.485783,0.446944,0.22581,0.11121,-1.2875,0.33558,0.365012,0.379179,-1.31108,-0.205037,-0.03871,0.91687,0.87463,-0.43938,0.27965,-1.19483,0.90491,-0.26998,0.168209,0.48405,-0.42188,-0.73323,0.272099,-0.24057,-0.191624,-0.541528,0.309324,-0.176755,-0.01169,-1.014104,-0.425594,-0.59982,0.736973,0.489425,-0.295532,0.313511,-0.45562,0.54444,-0.0668,-0.19659,0.05808,0.08251,1.06406,0.101179,0.64101,2.01213,-0.296604,0.081,-0.276235,-0.640628,-0.6157434,-0.3977,-0.225953,-0.044947,-0.106947,-0.217951,-0.05005,0.81865,0.00896,0.12584,1.00994,0.139926,-0.176506,-1.68074,-0.33495,-0.300535,-0.05993,-0.73152,-0.46416,-0.511036,-0.234727,0.549732,1.01378,1.54433,1.80293,-0.298228,0.03742,-0.347722,0.85384,-1.11151,-0.63752,0.030528,1.47099,-0.1667,0.88596,0.44881,-0.3036,0.195661,-0.12067,-1.04364,0.136981,-0.37751,-0.0277316,-0.6509125,0.66371,0.87289,-0.10668,0.315808,-0.378822,0.020761,-0.69745,-0.39093,-0.70248,-0.3454,-0.96051,1.14744,0.1681303,0.59965,0.06893,-1.18102,0.4828,-1.11824,0.098664,-0.29746,-0.0929876,-0.03247,0.90621,0.30502,0.06409,-0.328376,0.04859,-0.05594,-0.376574,-0.83394,-0.91075,-1.11976,0.46056,-1.95141,-0.106906,-0.66375,-0.13558,-0.9055,-0.471338,0.241365,-0.229478,-0.15478,-0.75834,-0.80317,-0.3003,0.70545,0.09909,-0.71794,-1.05893,0.61993,-0.311717
http://dbpedia.org/ontology/Bodybuilder	-0.32497,0.21655,-0.33957,0.51382,0.47156,0.49579,0.15494,-0.47969,-0.0063584,0.6511,0.10389,-0.029187,-0.11382,0.47837,0.49708,0.42698,0.47072,-0.26008,-0.60861,0.2975,0.25769,-0.20115,-0.16942,-0.44391,-0.96417,-0.12935,0.50226,0.095971,0.013959,0.1206,-0.33094,-0.026842,-0.19888,-0.17052,0.68783,-0.25503,-0.069118,-0.11403,-0.69797,0.34742,-0.167,-0.4675,0.22271,0.033098,-0.20088,0.58401,0.2101,-0.010685,0.44114,0.047344,-0.31768,-0.10099,0.36406,-0.37427,-0.03566,0.61569,0.55538,-0.048492,0.24247,-0.38535,-0.65654,-0.72866,0.21182,0.03756,0.030792,-0.43609,0.1356,-0.1257,-1.1343,0.052032,-0.35155,-0.13101,0.34525,0.15627,-0.17582,-0.12585,-0.48753,-0.40601,-0.12388,-0.15327,0.84207,-0.49119,0.45645,-0.22887,0.43196,-0.0086351,0.9417,0.054746,-0.11309,-0.38453,-0.28937,0.092312,-0.51268,-0.043097,0.27442,-0.97068,-0.22568,0.24297,-0.17283,0.23874,0.29342,-0.053852,0.47254,-0.3479,0.406,-0.86862,0.23088,-0.19108,-0.17557,-0.42281,0.037385,-0.30007,-0.22323,-0.10161,-0.02797,-0.38524,0.22622,0.5041,0.19446,-0.016127,-0.11773,0.06691,0.30693,0.20782,0.019192,0.43524,0.26554,0.040505,-0.12082,0.11497,-0.36227,-0.033219,0.88314,-0.17699,0.30318,-0.48957,0.076564,-0.18674,0.34075,-0.0040263,-1.2533,0.05516,-0.44159,0.45429,-0.38767,-0.2701,1.1034,-0.33488,-0.38941,0.20142,-0.29539,0.18246,-0.083117,0.43518,0.122,0.0028866,0.68742,-0.60592,-0.59038,0.2304,-0.064153,0.17073,-0.57808,-0.15378,0.081985,-0.56761,0.28817,0.21278,-0.099009,0.1804,-0.0098818,-0.5883,0.48264,-0.26384,-0.43159,-0.26449,-0.41848,0.53319,-0.47975,0.92352,0.51721,0.88862,-1.0308,-0.083733,-0.066022,0.01757,0.10135,0.48633,-0.012208,-0.68142,-0.23984,0.16442,0.25515,-0.046234,-0.0097471,-0.16038,-0.14242,0.69151,0.84196,-0.15313,-0.011038,0.12052,0.38986,-0.39049,-1.0911,0.58489,-0.58173,-0.17701,-0.44317,-0.43343,-0.095679,-0.15302,-0.22155,0.36394,-0.4833,-0.1209,-0.22073,0.28088,0.1531,-0.21941,0.20119,-0.14313,0.1781,0.33782,0.43452,0.30398,0.070449,0.40663,0.20158,0.69775,-0.65351,-0.16697,-0.11293,-0.41401,-0.32868,0.11615,-0.8298,0.46659,-0.7076,-0.045356,0.28803,-0.47573,0.20572,-0.019561,0.25489,0.6537,0.42114,0.47566,0.25903,0.61354,0.064745,0.33414,0.43096,0.28087,0.34485,-0.44329,0.3306,-0.17091,0.25137,-0.44206,0.2839,0.12753,0.17382,0.60817,-0.62934,0.79854,0.43103,0.18493,-1.3074,0.35342,-0.12505,-0.7047,0.43256,0.41681,0.25701,-0.16,-0.018911,-0.5774,-0.051698,-0.12143,-0.22111,-0.010289,0.3247,0.65929,-0.22023,-0.19939,-0.70136,-0.52839,-0.31333,0.099715,0.71086,-0.1001,0.17782,-0.72471,-0.026152,0.085484,0.49467,-0.61326,0.15349,-0.25957
http://dbpedia.org/ontology/Boxer	0.094804,0.060926,0.072271,0.58318,0.15636,-0.17437,-0.1138,-0.54385,-0.19299,1.2681,0.24057,0.20857,-0.24975,0.037193,0.17034,0.33064,0.96855,-0.30066,0.087436,-0.4517,-0.55222,-0.97382,0.20007,-0.87574,0.036258,-0.22497,-0.20546,-0.22689,0.47479,0.17829,-0.13754,-0.10966,-0.15975,-0.43617,-0.12735,-0.71765,0.31382,-0.49338,-0.56255,0.66532,0.43341,0.090543,-0.062888,-0.40024,-0.1694,-0.17768,0.12383,0.026755,-0.11211,0.31025,0.1202,0.80956,0.35183,-0.62713,0.15482,1.1201,0.52084,-0.30646,0.41983,0.046005,-0.45933,-0.53887,0.32385,0.10493,-0.51907,-0.35225,0.3452,0.35756,-0.39216,-0.34891,-1.1335,0.49862,0.44142,0.12308,-0.51305,0.15468,-0.27819,-0.51093,0.70859,-0.21791,-0.078752,0.12045,-0.092064,-0.15958,0.31273,-0.1454,0.82716,0.23407,-0.31737,-0.34932,-0.17685,0.5463,0.21891,0.05464,-0.099715,-0.77352,0.15658,-0.39361,0.34989,-0.17183,0.31178,0.18358,-0.37016,-0.26205,0.2101,-0.46291,-0.20133,0.23041,0.31596,-0.03635,0.07399,0.10504,-0.0094562,0.16666,-0.44758,0.22717,0.37388,0.0040966,0.35029,0.21115,-0.55313,0.15524,0.1027,-0.19521,-0.091785,0.11769,-0.052516,0.30409,-0.035466,-0.38371,-0.70767,0.33909,0.072316,-0.54761,0.65994,-0.06824,0.3737,0.51407,0.088648,-0.027173,-2.1002,-0.29311,-0.31271,0.38397,-0.071178,-0.34472,0.97528,0.42594,0.34577,0.22907,-0.43065,-0.28224,-0.25511,-0.061963,-0.5668,-0.31865,0.29753,-0.03192,-0.15004,-0.28586,0.16286,-0.0081837,-0.20405,-0.7919,-0.067183,-0.48123,-0.29633,-0.069282,0.40484,-0.13175,-0.30941,0.35644,-0.31351,-0.028078,0.13237,-0.18461,0.025399,0.89194,0.32414,0.75437,-0.21246,0.41218,-0.17247,0.1279,-0.38971,0.2824,0.68258,0.56922,0.19542,0.17681,-0.34603,0.63442,-0.065458,0.118,0.19601,-0.58545,-0.16802,-0.50987,0.45947,-0.17701,-0.053194,0.44281,-0.084267,-0.58039,-0.35065,0.13401,-0.042126,-0.41069,-0.97833,0.3639,-0.13093,0.016333,-0.35346,0.4111,-0.27854,0.014669,-0.046436,0.23291,-0.48939,-0.36874,0.18046,0.24972,1.0959,-0.33174,-0.31084,-0.11413,-0.23864,0.32227,0.54339,0.4723,-0.15891,-0.11278,-0.23622,-0.45149,-0.55614,-0.33673,-0.75612,0.21884,0.46125,-0.26938,0.20706,-1.034,-0.041643,0.72269,0.05387,0.60629,0.42221,0.30902,0.096452,0.52383,0.28336,-0.17729,-0.2227,0.62804,0.34307,-0.10145,-0.23921,-0.29843,0.37348,0.098332,0.42102,-0.040132,-0.47848,-0.19426,-0.61952,0.46573,0.085915,0.53847,-0.75701,0.27708,-0.074372,0.25017,-0.062389,0.69189,0.33083,0.11849,0.0066045,-0.0059578,0.28689,-0.068187,-0.11616,-0.23477,0.093295,0.15858,0.049995,-0.21273,-0.61468,-0.077384,-0.5085,-0.60486,0.23595,0.068228,-0.16801,0.0095455,-0.50816,0.54065,0.35863,-0.19132,0.20057,0.65498
http://dbpedia.org/ontology/Canoeist	0.50431,-0.021427,-0.55474,-0.036853,0.45988,0.68578,0.32313,0.13025,-0.97015,-0.22389,0.25286,-0.072682,0.28084,0.85362,0.1957,-0.17818,0.75611,-1.6639,0.42572,0.22747,-0.06915,-0.14474,-0.0058342,-0.51442,0.21828,0.065797,0.13443,0.093996,0.33106,0.22024,0.068389,-0.30006,0.41835,-0.19989,0.12061,-0.27966,0.58021,-0.41237,0.10921,0.28237,0.321,-0.075924,0.88823,-0.070666,0.35658,0.42944,-0.047483,-0.53242,1.1116,0.1425,0.082738,-0.62662,0.26073,0.068952,-0.82915,-0.19494,-0.58281,-0.39765,0.17815,-0.0046396,-0.23144,0.056568,0.34529,-0.0028901,-1.3069,0.012266,0.81298,-0.065402,-0.40539,-0.34682,-0.33622,0.22065,-0.27843,0.49642,-0.2743,-0.46299,-0.32235,-0.085884,-0.29209,0.37415,0.6088,0.25168,0.40633,-0.37692,0.36152,-0.017651,0.50961,-0.91701,-0.32473,0.18756,0.099288,-0.1635,0.27583,0.36609,0.29339,-0.47358,0.014973,0.32332,0.53228,-0.20923,-0.11655,-0.73714,0.096694,-0.56731,-0.61356,-1.3278,-0.3635,0.52616,0.68446,-0.074306,0.371,0.19076,-0.013355,-0.0058354,0.054801,0.26125,0.30853,0.70108,0.052561,-0.17991,-0.024656,-0.47694,-0.43793,-1.0658,0.34814,0.55683,-0.38831,0.30859,-0.13544,0.16693,0.011297,0.29685,-0.11727,-0.598,0.28289,-0.58037,-0.32429,0.21261,0.444,0.32967,-0.15467,0.22793,-0.21659,-0.5719,0.8484,0.37363,0.12485,-0.22819,-0.16021,0.35938,-0.22894,0.18575,-0.063856,0.46003,-0.063559,-0.16081,-0.15745,0.77001,0.077672,0.064385,-0.59514,0.028168,-0.24685,0.28402,1.0709,0.20538,-0.76425,0.34262,-0.22638,0.78905,-0.31878,-0.84071,0.45664,-0.18721,-0.062778,0.48826,-0.0083658,-0.66212,0.076467,0.62297,0.43735,0.0019129,0.30175,-0.0022626,0.24875,0.12569,0.17704,-0.10038,-0.53073,-0.16723,-0.53008,0.087127,0.36448,-0.18481,0.17057,0.093989,0.067383,0.22916,0.5717,-0.37926,-0.32394,0.4789,-0.15184,0.0093387,-0.37179,0.12853,-0.48463,-0.47434,0.00035638,-0.42873,0.51636,-0.43504,-0.19831,0.63152,-0.30189,-0.097772,0.17743,0.28117,0.31276,0.016511,0.39544,0.38577,0.97502,0.12821,0.22536,-0.23604,-0.12161,0.15231,-0.56863,0.44379,-0.079527,-0.073991,0.53899,0.60831,-0.14627,-0.21737,-0.15745,0.53355,-0.38666,0.020641,-0.074354,-0.065039,-0.54894,0.1154,0.26716,0.19065,-0.69705,-0.006655,0.65314,-0.060045,-0.0023573,-0.77497,-0.068611,0.4626,-0.061271,-0.23315,0.63675,-0.81378,0.44476,-0.50279,-0.0063154,-0.03644,0.46596,-0.1269,0.27948,0.47348,0.78069,0.048603,-0.81048,-0.20704,-0.23142,-0.22191,-0.16752,0.84566,0.3056,-0.032314,0.27518,0.023352,0.057626,-0.36044,-0.33799,0.14765,0.13143,0.36652,0.069136,-0.74732,-0.25851,0.010376,-0.41436,0.1215,0.55851,0.029077,-0.16794,-1.1366,0.3138,-0.028891,-0.77917,-0.27308,-0.30333,-0.55282
http://dbpedia.org/ontology/ChessPlayer	0.40574,0.332955,0.11094,-0.405324,0.49003,-0.0725,0.5096969,-0.26378,0.263454,3.2581,-0.14117,0.7302517,-0.496187,0.506,0.69809,0.127408,-0.17643,1.23815,-0.406105,0.10474,-0.237233,-0.66694,-0.095768,0.10536,0.91184,0.48438,0.310715,0.21457,0.0907,-0.471638,-0.4551,-0.434096,-0.00802,-0.20218,-0.04368,-1.00716,0.43632,0.039753,-0.0638,-0.550461,0.16493,0.717,0.94408,-0.00668,-0.388159,-0.21523,-0.7711,0.623025,-0.687285,-0.134706,-0.51261,-0.49636,0.0912016,-0.26627,-0.82482,-0.7613,0.07982,0.338237,0.232476,-0.341066,-0.44431,0.7986,0.76604,-0.27083,-0.186378315,0.5805566,0.80601,0.78774,0.09707,0.126581,0.66393,0.10865,0.53282,-0.384149,-0.25985,-0.06069,-0.40653,-0.8357,0.02624,1.34367,-0.3814223,-0.65738,0.74233,0.46116,0.006528,1.09129,-0.44418,0.523617,-0.19464,-1.56758,-0.153406,-0.24005,-0.86804,0.275404,0.86113,-2.23002,1.04729,-0.218281,0.20154,1.70149,-0.26964,-0.502222,0.451732,0.17089,-0.075253,-1.55881,0.106876,0.87607,1.19896,0.17403,0.86422,0.7653097,-0.8324,-0.0707589,-0.334371,0.492898,-0.394687,0.015902,-0.1045,-0.81428,-0.17736,-0.65168,0.431,0.071942,-0.157339,-0.06751,-0.697321,0.52605,0.213999,0.721278,0.362466,-0.11943,0.396108,-0.740559,-0.14863,-0.46568,0.82266,-0.47365,0.34335084,-0.83717,-3.8726,0.58657,-0.21515,-0.28127,-0.465893,0.441313,1.29628,-0.52056,0.174754,-0.365832,0.65326,0.232432,-0.185449,0.66393,-0.64915,-0.305253,1.12083,0.7912328,-0.63911,-1.07688,0.167805,0.427627,0.63975,-0.6111,0.0058374,-0.82205,0.50728,0.473129,-0.90999,-0.024392,-1.12008,0.57131,0.24699,-0.251551,0.40466,-0.055125,-0.086385,-0.104041,0.11761,0.165426,0.003232,0.225284,-0.091767,0.01623,-1.30241,-0.158384,-0.96048,-0.215667,0.369865,-0.02014,-0.731179,-0.273,0.87002,-0.13166,0.292792,-0.79423,0.25951,0.86859,0.243737,0.393405,1.91681,-0.27963,0.80572,0.0905,-0.180318,-0.4841434,-0.164367,-0.0523023,-0.188208,-0.776506,-0.44227,-0.425339,0.5532,-0.48972,0.37786,0.724774,0.018998,-0.315566,-1.36118,0.05426,-0.13341,-0.14162,0.24968,-0.41147,-0.333326,0.39818,0.73512,1.21695,1.2058,1.67471,-0.59238,0.17121,-0.191252,0.16758,-1.05534,-0.43531,-0.324222,1.20141,0.2159,0.247374,1.29684,0.315338,-0.44715,-0.30146,-0.83302,0.05065,0.183098,0.2974884,-0.93849,0.08556,0.85318,-0.31493,0.4189,0.133628,0.467239,-0.76235,-0.8251,-0.50287,0.26335,-0.65873,1.88449,0.5876503,-0.37144,0.27763,-1.30959,0.06281,-1.17009,0.217514,0.05529,0.3504854,-0.47008,-0.12173,0.672121,0.82975,-0.77834,0.30902,0.2801,-0.150724,-0.65583,-1.18383,-0.29778177,0.44375,-0.42369,-0.55228,0.49294,-0.92273,-0.57262,-0.96615,-0.16344,-0.206258,-0.26113,-0.98849,-0.70136,0.36789,0.93953,0.8686,-0.19412,-1.14917,0.31246,0.14528
http://dbpedia.org/ontology/Cricketer	0.17978,0.28946,0.67247,0.034061,0.29072,0.44196,0.56162,-0.13156,0.45326,1.203,0.1846,0.57885,-0.25494,0.16676,0.46148,-0.1536,0.093375,-1.7067,0.76334,0.40622,-0.86142,-0.45439,-0.51395,-0.2891,0.60986,0.22802,0.36951,-0.2421,-0.66389,0.2233,0.025193,0.13144,0.6617,-0.21933,0.13452,-0.020312,0.30582,-0.15057,-0.54929,0.48793,0.5214,-0.46511,0.69232,0.23425,0.080484,-0.49998,-0.02114,0.47494,-0.11477,0.52202,0.11481,-0.36671,0.15542,0.05863,0.09924,0.25129,0.2625,-0.11766,0.59133,-0.41412,-0.32178,0.33726,0.051462,0.038494,-0.62171,0.15362,-0.22246,-0.073209,0.39907,-0.046181,-0.07767,0.52711,-0.52421,0.33982,-0.14117,0.17986,0.062708,-0.17321,0.78965,-0.5378,0.58465,0.32513,0.096118,0.53001,0.1142,-0.37879,0.64287,-0.39044,-0.11264,0.14644,0.11794,0.089763,-0.70814,0.13681,0.127,-1.0614,0.5247,-0.1096,-0.15288,-0.054363,0.67567,0.27872,0.51775,-0.74084,-0.31715,-0.59491,-0.51892,0.4532,0.52117,-0.3662,0.18625,0.55048,-0.48769,0.41396,-0.17541,0.638,0.035723,0.048557,0.032206,-0.55706,-0.43807,0.17729,-0.33776,-0.31192,0.30166,0.29273,-0.50293,0.19879,-0.22286,0.63477,-0.28483,0.31485,-0.44181,-0.34248,0.22176,-0.4778,0.46913,0.092183,0.35495,0.017358,-0.58195,0.63089,-0.15974,0.29209,-0.16116,-0.47512,0.61171,-0.082005,0.36903,0.17426,0.14498,0.73075,0.16342,0.101,0.23468,-0.12746,0.77424,0.48024,-0.16057,-0.41888,0.10855,-0.24607,1.2577,-0.070622,0.59342,-0.38554,-0.080326,-0.57679,0.24872,-0.14186,-0.19173,-0.98011,0.088592,-0.063051,-0.020359,-0.19704,-0.34285,-0.3164,0.31721,0.50516,-0.50175,0.36153,0.31911,-0.56179,-0.54812,0.0016593,-0.26827,0.63117,0.63712,-0.25327,-0.32985,0.59483,-0.16389,-0.30333,0.24968,-0.59218,-0.037147,0.77179,0.7439,-0.17855,0.14057,-0.059338,0.33269,-0.38868,0.22609,0.059098,-0.083808,-0.36702,-0.70614,0.012089,-0.20196,0.011142,0.47525,0.15274,-0.03419,0.31015,-0.28288,0.11719,0.022577,-0.053904,0.30706,0.059018,0.60946,0.47654,0.34612,0.19481,-0.55643,-0.68198,0.096578,0.2935,0.28945,-0.14425,0.13975,0.071499,-0.11461,-0.15138,-0.37477,0.92155,-0.40854,0.65412,0.053275,0.19672,0.33783,-0.072528,0.76928,1.0661,0.86051,0.46434,-0.45886,0.0054912,-0.013688,-0.97002,-0.18909,-0.1712,0.2432,-0.86817,0.27325,-0.20385,0.049905,0.018146,0.56117,0.49377,0.62438,-0.2131,-0.65759,0.64094,-0.1173,0.59329,0.30972,-0.39399,0.14484,0.20537,-0.30873,1.0991,-0.24405,0.16895,0.12103,-0.17769,-0.29494,-0.03222,-0.35773,-0.16517,-0.396,0.41381,-0.29741,-1.035,0.2284,-0.051242,-0.69168,0.26507,0.28711,-0.1598,-0.6254,0.13755,-0.1222,0.27697,-0.36641,-0.32496,0.12303,-0.30544
http://dbpedia.org/ontology/Cyclist	0.53658,0.25751,-0.48658,-0.14745,-0.034129,0.57207,0.33921,-0.25955,-0.8392,1.9159,-0.096579,0.30506,-0.28378,1.0929,-0.58008,0.17182,0.49309,-0.35147,0.81887,-0.26552,-0.31264,-0.27409,0.37377,-0.7991,0.33757,0.27433,0.0050776,-0.12753,0.7707,0.31995,-0.011405,-0.22852,-0.025731,0.027349,-0.077159,-0.62624,0.2459,-0.40099,0.48699,0.55824,0.43683,0.15509,0.24995,0.77444,-0.346,-0.21807,0.17056,-0.25743,0.25536,0.65273,-0.045255,-0.43197,0.061354,0.30519,-0.3754,0.54107,-0.21556,0.11649,0.55044,-0.054744,-0.38587,-0.45302,0.048968,0.39305,-0.48839,-0.44071,0.30598,-0.28512,-0.0051277,0.48294,-0.37588,-0.26974,0.0078632,0.43132,-0.20282,-1.0481,-0.070387,-0.24358,0.19717,0.44228,0.42009,-0.20588,0.28605,0.284,0.38094,0.18502,0.57989,-0.080736,-0.24395,-0.21748,0.2726,0.099108,-0.046926,0.14182,-0.41525,-0.92366,-0.14355,-0.038368,0.28321,0.42356,0.31735,-0.58201,0.42263,-0.55423,0.14456,-0.88167,-0.039259,0.40231,0.30571,0.16914,0.16229,-0.42228,0.26163,0.32382,-0.27807,-0.12158,0.23528,-0.46075,0.21039,-0.12095,-0.10333,-0.6677,0.5936,-0.69184,0.42374,0.27859,0.074595,0.2639,-0.072011,-0.13826,0.040485,0.25754,0.2033,-0.55878,0.21782,-1.0698,0.048267,0.10694,-0.046735,0.12143,-0.88847,0.11173,0.29618,0.48144,-0.25066,-0.18796,-0.28066,-0.24259,-0.36497,0.055235,-0.3134,0.29297,0.075917,0.20259,0.065114,-0.21816,0.31787,0.066892,-0.28809,-0.13591,-0.39561,0.39343,0.16959,0.089741,0.42422,-0.33742,-0.18,0.30165,-0.82672,0.57637,0.44325,-0.71953,0.38222,-0.066785,0.1942,-0.14215,-0.087205,-0.33169,-0.25692,0.54773,0.16984,0.78025,-0.14284,0.21982,-0.29709,0.20552,0.27116,0.44054,0.029716,0.10858,-0.19107,0.054948,0.3102,-0.033315,0.20422,0.27584,0.4195,0.34799,0.24037,0.040989,-0.32286,0.40506,-0.15123,-0.30019,-0.32803,0.58845,-0.16794,-0.49596,-0.34997,-0.91966,0.57295,-0.4476,-0.080163,0.36918,-0.11632,0.1939,-0.66233,0.51416,-0.058836,-0.07211,0.45267,0.48791,0.36309,0.11051,0.22621,-0.39106,0.15347,-0.45801,-0.39817,0.37338,-0.10793,0.35658,0.29963,0.097632,-0.40515,0.064606,-0.10186,0.40365,0.22393,0.25773,0.3672,-0.1274,0.17227,-0.31291,-0.13083,0.93445,0.30498,0.030151,0.49801,-0.16979,-0.15849,-0.35494,0.34935,0.1323,-0.39739,-0.41573,0.37859,-0.52273,0.31826,0.48998,-0.17056,0.47488,-0.030469,-0.16922,0.35054,0.60925,0.26659,0.94977,-0.55513,-0.65408,-0.081151,-0.34913,-0.10519,0.63365,0.25679,-0.060114,0.38962,-0.042432,-0.16032,0.51489,-0.60064,-0.067892,0.094111,0.7086,0.1503,-0.64643,-0.5771,-0.40239,-0.16061,-0.20436,0.058219,0.12149,0.64426,-0.80968,-0.28247,-0.35585,0.29368,-0.39156,0.39328,0.015103
http://dbpedia.org/ontology/DartsPlayer	0.91828,0.7155,-0.226442,-0.238834,0.91812,-0.58745,0.82976,0.06972,0.295674,2.39341,0.01924,1.02844,-0.20766,0.337041,0.87807,-0.295972,-0.23576,0.54246,-0.094491,-0.682286,-0.75618,-0.253375,-0.54243,-0.49565,0.67318,1.0888,-0.068835,0.50697,-0.05767,-0.83582,-0.338852,-0.99002,-0.36537,0.44925,0.06468,-0.482224,-0.28611,0.017007,-0.213847,-0.34118,0.03013,1.08916,0.34159,-0.14991,-0.48533,-0.49682,-0.76541,0.81993,-0.76008,0.629774,-0.35577,-0.10675,-0.6921994,-0.059651,-1.05961,-0.45949,0.53305,0.58848,0.422846,-0.350262,-0.38329,0.16079,1.03847,0.60603,0.057813685,0.3189066,0.26515,0.00609,-0.107557,-0.046364,0.380321,0.3514519,0.63484,0.0749,-0.85828,-0.72734,-0.11506,-1.1029,-0.04293,0.80166,-0.2218323,-0.2849,0.10841,0.06976,0.279136,0.68223,0.60133,0.994537,0.62871,-0.567609,0.46252,-0.01443,-0.57395,-0.191786,0.7324,-1.76609,0.827399,0.311119,-0.48083,1.43121,-1.0313,-0.25935,0.551474,0.368655,-0.414681,-1.70581,0.368675,0.62182,0.4087,-0.56094,0.49322,0.0200847,-0.84762,-0.197568,0.052559,0.53442,-0.111247,-0.096191,-0.91243,0.05123,0.132842,-0.50939,0.66256,0.52799,-0.221729,-0.59581,-1.34497,0.77886,-0.769651,0.283428,-0.07852,-0.17214,0.400965,-0.473039,0.66123,-0.41665,0.97956,-0.59513,0.22802,-0.4629,-3.8288,1.00418,0.61316,-0.84983,-0.22502,0.437665,1.38035,-0.36975,0.376514,-0.62105,0.33026,0.19866,0.156433,1.1692,-0.47305,-0.018058,0.7906,0.99678,-0.52966,-0.93946,-0.16079,-0.42368,0.71784,-0.6402,0.687093,0.11182,0.09687,0.24585,-1.06562,0.27749,-0.57928,0.76068,-0.53327,-0.168001,0.736275,-0.34309,0.00639,0.407749,0.23473,-0.132834,-0.468518,-0.344106,0.082855,0.46392,-1.08326,0.032229,-0.63443,-0.154747,-0.009135,-0.145488,-0.512699,-0.10691,0.66243,-0.05307,-0.52994,-0.435857,-0.063409,0.595009,0.710237,0.228678,1.64147,0.0406,0.73035,0.16008,0.349852,0.4038166,-0.056746,-0.108226,-0.370138,-0.673966,-0.49549,-0.442541,0.61377,0.1838,0.152538,0.79165,-0.303784,0.336304,-1.64448,-0.25435,-0.27105,-0.07736,-0.4492,-0.19175,-0.219816,0.00355,0.486745,0.07665,0.99745,1.41111,0.21173,-0.36943,-0.489952,0.490903,-0.36555,-0.160151,-0.1622,1.49187,-0.34501,0.47645,0.596278,0.11438,-0.21769,0.063428,-0.50052,0.172604,-0.01101,0.0059654,-1.31538,0.90546,0.69647,-0.39018,0.13336,-0.026806,-0.068055,-0.09338,-0.272285,-0.80322,-0.58793,0.14112,0.08209,0.3395403,-0.55959,-0.48122,-0.92806,0.73533,-0.79063,0.520774,-0.64135,-0.1455046,0.01723,-0.4266,0.99947,0.49342,0.42376,0.25645,0.146545,-0.145134,-0.67539,-1.12742,0.32378,0.71943,-1.2886,-0.235935,-0.48619,-1.11602,-0.14203,-0.64969,0.51691,-0.141529,-0.521588,-0.87689,-0.90429,0.225303,0.42908,0.58662,-0.50697,-0.87702,0.78161,0.25427
http://dbpedia.org/ontology/GaelicGamesPlayer	1.26423,0.41124,-0.78131,0.150356,1.65584,-1.34582,1.33089,-0.068248,0.572134,4.79122,-0.21803,1.614537,-0.424046,0.79449,1.60518,0.066508,-0.202629,0.2037,0.119015,-0.692296,-0.61549,-0.72663,0.43803,-0.241499,1.1016528,1.22161,-0.459952,0.95494,0.12164,-0.31146,-0.594538,-0.80382,0.14147,0.187981,-0.078802,-0.285606,-0.17211,0.310298,0.035403,0.17916,0.320795,1.4338,0.370688,0.23064,0.07945,-0.14053,-0.99038,1.90237,-0.341019,0.522094,-0.57956,0.43043,0.0058506,0.678922,-0.75204,-0.28302,0.162588,0.468298,-1.004094,0.70085,0.37503,1.204546,0.6469926,0.989451,0.208311685,0.6264096,0.512439,0.3944,0.57124,-0.406354,0.856669,1.20783,0.3050354,-0.93035,-0.58684,-0.112492,0.06256,0.7038351,0.28381,1.30472,-0.2025723,-0.82205,-0.139595,-0.070313,-0.022574,0.61173,-0.803083,1.013917,0.665961,-0.84675,-0.30992,-1.05503,-1.25366,0.382119,1.01802,-2.10787,1.28514,-0.272821,-0.465722,1.06791,-1.18918,-1.639216,-0.37516,1.27607,-0.269461,-0.989847,-0.15173,0.31878,0.294719,-1.00669,0.60459,-0.8576203,-1.75684,-0.273238,-0.695916,0.57954,-0.601547,1.512769,-1.02212,-0.341,1.03907,-0.45253,0.06429,0.037703,-0.415189,0.007763,-0.297617,0.70876,0.424114,-0.03822,1.50065,-0.08472,0.52983,-0.098259,0.40256,-1.35465,1.10134,-0.53008,0.86916,-1.8087,-4.94273,1.040733,0.340781,-0.31767,-0.702331,0.3186,0.67175,-0.39,-0.375446,-0.19638,0.32205,0.74696,0.36297,1.42255,-0.864925,-0.376953,0.5397973,0.403,-0.03022,-1.043984,0.88482,0.267204,0.48739,-0.9075,-0.61473,-0.46097,0.51061,0.27854,-1.0208088,-0.42995,-0.94902,2.33753,-0.01183,-0.032158,0.7770315,0.0119593,-0.22532,-0.075371,0.004011,0.205847,-0.791578,0.403814,0.205353,-0.33311,-2.44343,0.21307,-0.837642,0.655681,1.185125,-0.866044,-0.681239,0.200832,0.69141,0.420952,0.17133,-0.0923,-0.27204,0.10037,-0.386573,0.66581,2.51839,-0.02064,1.57901,0.6668,-0.707538,-0.6949634,-0.66356,-0.274063,0.178752,-0.257516,-0.86846,-0.9914,1.04246,-0.613452,-0.23534,1.027853,0.546833,-0.264199,-1.954589,0.204109,0.1032,-1.59717,-0.87423,-0.25143,-1.596386,-0.74066,1.17523,0.81157,1.37566,1.302468,-0.581617,-0.48302,-0.501512,0.741312,-0.25265,-0.081364,0.247246,1.354757,-0.414191,0.08646,0.416176,0.88456,0.16187,-0.09841,-1.176122,-0.309522,-0.02121,-0.1867916,-1.366527,-0.32829,2.12501,-0.495772,0.37222,0.459258,1.041889,0.57727,-0.56686,-0.626668,-0.537767269,-1.00173,1.271307,0.6579303,-0.76898,0.8698,-0.893376,-0.2424,-1.70901,-0.010746,1.26465,-0.2259146,-0.91312,0.53383,0.82237,0.5574,-1.37198,-0.081972,0.242726,-0.239924,-0.358922,-0.72923,-0.383591,1.0435,-1.309221,-0.480508,-0.199084,-0.72583,-0.66236,-0.79717,1.10792,-0.605848,-1.19851,-1.34273,-1.88917,0.10525,1.170818,1.32996,-1.006998,-1.1686,0.54265,-0.72931
http://dbpedia.org/ontology/GolfPlayer	0.85783,1.10844,0.50186,-1.302794,1.28821,-0.60305,0.77564,-0.61779,0.348784,4.1812,-0.71322,0.776536,-0.468568,0.38516,0.302774,-0.488372,-0.76953,1.92798,0.075675,0.053873,-0.89755,-0.51208,-0.27297,-0.01963,0.7125,1.1845,-0.825615,0.63868,-0.02538,0.3708,-0.363871,-0.99284,-0.08902,0.206336,-0.29799,-0.87584,0.56088,-0.754887,-0.0173,-0.21441,0.30883,0.3693,0.66669,0.43406,-0.85706,-0.307061,-0.4752525,0.93111,-0.07111,0.271074,-0.74767,-0.351661,0.2651106,0.15455,-0.30673,-0.72563,0.40663,1.13949,0.367636,-0.16794,-0.83304,1.22367,0.18458,0.71797,0.171571685,0.4784666,0.332541,0.5685,-0.20617,-0.127074,0.59787,-0.06845,0.61359,0.01373,-1.11534,-0.03964,-0.47786,-0.2184987,0.19535,0.12357,-0.3588323,-0.20385,0.5387,0.41502,-0.084122,1.1573,0.03634,1.853517,0.394875,-0.486361,-0.41575,0.12638,-0.9435,-0.330226,0.77524,-1.63925,1.75603,0.157409,0.02337,0.89064,-1.3345,-0.604552,0.02557,0.6241,0.130809,-0.93392,0.380445,0.70309,0.214972,-0.14802,0.7155,-0.0257423,-0.78288,0.339682,0.189569,-0.10534,0.273673,0.076353,-0.68995,0.01017,1.24284,-0.04415,-0.16949,-0.26302,-0.035274,-0.431023,-1.30233,0.079457,-0.188921,0.119118,0.21097,-0.19832,0.03423,-1.117319,-0.20468,-0.68884,0.70143,-0.4433,0.89714,-0.73659,-3.6929,0.41165,0.69308,-0.23343,-0.22419,0.59613,1.73063,-0.170159,0.054626,-0.309042,0.093445,0.20797,-0.764609,0.45138,-0.348454,0.113818,0.417799,0.754583,-0.72731,-0.6698883,0.76938,0.61119,0.85483,-0.27875,0.304073,-0.01739,0.24476,0.4527,-0.211501,0.13831,-1.25245,0.54251,-0.4338,0.190209,0.35733,-0.59225,-0.074464,-0.03416,0.10833,0.098566,-0.545238,-0.056111,-0.246835,-0.284598,-0.978636,-0.540774,0.13831,0.013642,0.161852,0.00289,0.065597,-0.38691,0.59948,0.13298,-0.04517,-0.28419,-0.1195224,0.44936,0.453527,0.98335,1.57177,-0.263041,0.332137,-0.16203,-0.608678,0.3740766,0.23451,0.063827,0.152282,-0.620686,-0.73505,-0.35455,0.42932,-0.21314,-0.0265,0.92008,0.402316,-0.10281,-1.6105,-0.183354,-0.55512,-0.43226,-0.21426,-0.21353,-0.472346,-0.241721,0.07801,0.488108,1.07229,1.70955,-0.05156,-0.316193,0.303558,0.22046,-1.19677,0.43172,0.209088,1.07916,-0.24528,1.14998,0.670742,0.04122,-0.15876,0.051416,-0.8565,0.83153,0.139439,0.2910084,-0.93685,0.346293,0.63506,-0.59116,0.69929,0.023733,-0.023852,-0.09259,0.04149,-0.14078,0.13691,0.01972,1.07208,-0.1648597,0.07832,-0.94764,-0.64489,-0.08705,-1.27428,0.314354,-0.56386,-0.2950046,-0.61347,-0.06732,0.79599,0.2767483,-0.261362,0.41254,-0.12813,-0.588494,-0.67832,-0.99992,-0.67336,0.4399,-0.46579,-0.154726,0.0468479,-1.15795,-0.5573,-0.92084,0.79786,-0.238618,-0.351365,-0.62997,-0.77284,-0.60301,0.627401,0.1353,-0.17844,-0.8142,0.57783,-0.00562
http://dbpedia.org/ontology/GridironFootballPlayer	1.36028,0.724522,0.2838867,-0.518174,1.48443,-0.463035,1.21126,0.44878,0.059969,5.36826,-0.18485,0.956464,0.78738,0.571283,0.71772,0.374075,0.74336,0.19355,0.903665,0.43771,-0.7856,-1.46309,0.23333,-0.59956,0.18148,1.39882,-0.967355,1.50858,-0.74123,0.1979,-0.116215,-0.75049,-0.63992,0.187718,0.021411,-0.07127,0.07013283,-0.232777,-0.19180339,0.44819,0.6088016,0.90091,2.07905,0.943104,-0.84533,-0.970872,-0.84995,1.39961,-1.83841,0.301852,-0.401934,0.17199,0.5197606,-1.10977,-0.373155,0.08859,0.559932,1.23549,0.537653,0.0974,-0.31245,1.66129,0.519081,0.65968,-0.300520315,0.8504166,0.725497,1.03305,-0.407473,0.477865,0.3700033,-0.51017,0.46689,-0.075239,-1.24633,-0.217668,-0.167881,0.29403,1.39722,0.183872,-0.5392423,-0.61574,0.75151,0.79577,-0.365024,1.074633,-0.31085,1.521597,0.55145,-1.03899,-0.87764,-0.3414,-0.611418,0.031394,0.77677,-2.5678,0.06039,0.282331,0.58451,1.2124,-0.659884,-0.86818596,0.92969,0.087237,-0.730621,-2.01424,1.165175,0.68603,0.66869,-0.62706,-0.88049,-0.7716603,-1.3606,-0.202128,-0.627291,1.4485,-0.281747,0.417449,-1.03585,-1.03831,0.500906,-0.752396,-0.69619,1.043033,0.092216,-1.14726,-0.27005,0.90808,-0.058373,0.793318,0.70791,-0.99706,0.326174,-0.3016403,0.35807,-1.38509,0.26946,-0.491711,0.75484,-0.974656,-5.3285,0.962052,0.71661,0.320572,0.14979,0.11342,1.91976,0.1823,0.415749,0.27034,-0.6043,0.21473,0.101581,0.217341,-1.40732,-0.301093,0.613272,0.39632,-0.343044,-1.45434,0.23337,0.4526577,0.61862,-1.08799,-0.131177,-0.65726,0.791003,0.771744,-0.57323,0.22809,-1.143488,1.04584,-0.1141,-0.139926,0.66643,-0.22977,-0.717603,-0.24134,-0.32176,-0.366917,-0.338588,0.425184,-0.107674,-0.12842,-1.598855,-0.524544,-0.672788,0.574619,0.158325,-1.16361,0.209479,0.13154533,0.402285,0.857029,-0.45925,0.05013,0.74452,0.93117,0.947697,0.503559,2.60837,0.03354,1.33233,0.24362,-1.108868,-0.6288134,0.25141,-0.616543,-0.485628,-0.012126,-0.347652,0.60001,0.762055,0.16211,-0.69479,1.78153,0.353936,-0.365766,-1.966197,0.53796,-0.22676,-0.420951,-1.87174,-0.553249,0.187034,0.30392,0.352819,0.42104,2.21065,1.79561,-1.13235,0.70233,-0.938152,0.639277,-1.41309,-1.20461,0.228913,1.63366,-0.37866,1.16427,1.30965,-0.16616,0.75328,-0.288381,-1.51741,0.59624,0.114372,0.3877844,-0.32934,1.34735,1.60378,-1.13864,0.24317,-0.683712,0.511979,-1.06293,-0.65684,-0.858505,-0.73158,-1.33017,1.25801,1.0840503,0.7689,0.238698,-0.9987942,1.58034,-0.912064,-0.176219,-0.74854,-0.0399536,-0.022356,1.43249,0.898801,0.514121,-0.79223,-0.088939,-0.01986,0.324106,-1.09772,-1.41764,-1.55796,-0.50118,-3.13541,-0.58365,-0.164535,-0.83971,-0.79912,-0.98045,0.140005,0.145062,-0.04124,-0.90599,-1.6796,-0.30142,0.27755,0.188727,-0.303487,-0.88776,0.631095,-0.62568
http://dbpedia.org/ontology/Gymnast	0.22641,0.26136,0.25085,0.54177,-0.023135,-0.50115,0.25046,0.035651,-0.34203,0.90499,0.41407,0.46771,-0.14027,0.41192,0.35069,0.54625,0.82895,-0.85482,-0.80899,0.61859,0.24416,-0.13228,-0.25484,-0.815,-0.9292,0.29707,0.12563,-0.57493,0.16038,-0.19936,0.01632,-0.19033,0.66199,-0.20714,0.82682,-0.26966,0.55506,-0.79267,-0.1144,-0.21754,-0.0078746,0.44995,0.35055,0.46395,0.045254,0.14563,0.21314,0.025046,0.38512,0.24629,-0.62384,-0.49098,-0.023607,-0.29154,-0.14883,0.078355,0.40007,-0.10585,0.60942,0.50926,-0.089475,-0.36067,0.37009,-0.13645,-0.82238,0.12595,0.28286,0.22238,-0.23047,0.44326,-0.43242,0.0074081,-0.67393,0.29374,-0.31128,-0.1036,-0.57226,-0.31291,-0.11715,0.11783,0.34546,-0.36974,-0.19451,0.60266,0.11957,0.3128,0.89469,0.062539,-0.65362,-0.13193,-0.076006,0.14618,-0.6894,-0.099967,0.16682,-0.59711,-0.62777,0.16044,0.10147,-0.0041654,0.13539,-0.051075,-0.042943,-0.61156,-0.16019,-0.57007,-0.38577,-0.17386,0.31986,-0.78452,-0.11885,0.078746,0.13096,-0.19968,-0.39462,0.12757,0.27128,0.49434,-0.12352,-0.040511,-0.22741,-0.3749,0.16615,0.2043,-0.1088,0.21565,0.11588,0.1604,0.25233,0.086673,-0.25596,0.1272,0.55962,0.0025619,0.26871,-0.843,-0.078346,0.44302,-0.032978,0.24188,-1.1812,0.36114,-0.016201,-0.12636,-0.048916,-0.096593,1.2124,-0.82971,-0.063401,0.11518,-0.70572,0.33928,0.13363,0.45792,0.13318,-0.012772,0.5208,0.17308,0.018026,-0.98575,-0.45528,0.31525,0.06446,-0.020331,0.17537,-0.64525,0.3458,-0.1077,0.07032,0.48201,-0.11813,-0.78734,-0.15061,-0.63034,-0.16608,-0.43835,-0.8737,0.28518,-0.72169,0.52246,0.72954,0.99679,0.084971,0.28564,-0.3646,0.17011,-0.094086,0.72161,-0.26626,-0.18373,-0.26828,-0.22395,0.60082,-0.75583,0.065624,-0.013932,0.13099,0.17258,0.51218,-0.25066,0.16196,0.1554,-0.77857,-0.051779,-0.33575,0.44915,-1.0017,0.09414,-0.31999,-0.32716,0.074635,-0.13862,-0.23082,-0.26029,-0.47297,0.6686,-0.51743,0.0047183,0.071809,-0.34177,0.039622,0.43982,0.18832,-0.39569,0.090769,0.0030626,0.7101,0.39533,0.37221,0.54913,-0.56825,0.0023294,-0.067821,0.58705,0.046462,-0.018687,-0.049092,1.0164,-0.1492,-0.27559,-0.017859,-0.22892,0.10849,0.21677,0.46569,-0.36103,-0.67569,0.40159,0.2091,0.73871,0.4244,0.4116,0.15405,-0.096043,0.051136,-0.15933,0.12778,-0.10566,0.30716,-0.022566,0.48283,0.083098,-0.1713,0.21369,-0.35835,0.31376,-0.42881,0.51561,-0.56525,0.13474,-0.54176,-0.11109,0.021196,0.66455,-0.10743,-0.20872,0.26563,-0.25802,-0.22561,-0.41125,-0.28659,-0.4407,-0.28223,0.46205,-0.042049,0.015178,-0.92351,0.40376,0.17038,0.0427,0.74707,0.11847,0.37722,-0.49076,0.35963,-0.47974,0.14158,-0.46618,0.26884,0.029394
http://dbpedia.org/ontology/HandballPlayer	0.69167,0.63195,-0.03916,-0.252844,1.14647,-0.293871,1.17201,0.00779,-0.886776,2.90235,-0.20965,0.85912,0.23143,0.89851,0.4397,-0.088722,-0.19003,-0.0487,0.377625,0.132323,-0.72337,-0.74393,0.1934,-0.43139,0.474454,0.33324,0.677545,0.67939,0.34762,-0.491218,0.39504,-0.32335,0.069783,0.161508,0.21437,-0.96482,0.45596,-0.773297,0.08509,-0.572158,0.404252,1.07373,0.6716,0.08219,-0.84725,-0.77696,-0.5862,0.87678,-0.829705,0.268784,-0.237293,0.01638,0.1189106,0.13077,-0.5321915,-0.91931,0.65433,0.19681,0.355516,0.22198,-0.61058,1.02738,0.53729,0.30503,-0.461088315,0.7539566,0.9813,0.52613,0.003445,0.177161,0.57117,0.51364,0.67034,-0.72952,-0.55174,-0.79646,-0.39852,-0.42888,0.69569,0.501302,-0.1491223,-0.45354,0.36632,0.2477882,-0.004411,0.66697,0.16067,0.214667,0.08036,-0.36483,0.24407,-0.315592,-0.47614,0.008324,0.60497,-1.71817,0.41489,-0.10336,0.24028,1.36893,-0.429612,-0.8555,0.3904,0.247908,-0.187011,-1.62551,0.532925,0.432376,0.36825,-0.51728,0.06531,0.1254497,-1.27255,-0.393178,-0.396351,1.28713,0.539923,0.463509,-0.57287,-0.69866,0.34419,-0.81586,-0.14419,-0.37662,-0.224059,-0.04433,-1.19591,-0.03298,-0.170821,0.554448,0.20315,0.48858,0.61689,-1.130319,0.52583,-0.60983,0.90433,-0.89588,0.324365,-0.657139,-3.04715,1.1482,0.73642,-0.039454,-0.48095,0.86977,1.37702,-0.62599,-0.065465,0.1168,0.020513,0.53546,0.022434,0.06681,-0.39342,-0.363313,0.59063,0.861948,0.02452,-0.9341,0.275637,0.53581,0.96366,-0.45606,0.341723,-0.42101,-0.18411,1.31567,-1.11899,0.73646,-1.11261,0.23531,-0.49729,-0.068131,0.6375462,-0.60553,-0.43029,0.0562273,0.13323,0.435116,-0.294748,0.203504,-0.291345,0.03867,-1.11405,-0.602644,-0.54398,0.622933,0.393785,-0.42968,0.095042,-0.2011,0.71211,0.16544,0.169252,0.17716,0.7092,-0.15211,0.953277,0.93769,2.1726,0.18543,0.78476,0.05367,0.001133,-0.2307734,0.25479,-0.250963,-0.0675176,-0.179821,0.06911,-0.22606,1.06623,-0.25086,0.09734,0.98711,0.248556,0.098154,-1.57134,0.14724,-0.29451,-0.34936,-0.25029,-0.63156,-0.929536,-0.60579,1.06841,-0.32131,1.63828,1.37556,-0.09403,0.52592,-0.154892,0.62092,-0.63507,-0.5982,-0.235402,1.57296,0.4654,-0.38994,0.598785,0.13224,-0.27635,-0.08768,-0.59805,0.43401,0.48719,0.0034174,-1.05042,1.441,0.58558,-0.176805,0.71073,0.022506,0.592649,-0.67209,-0.61593,-0.5392,-0.21922,-0.448048,1.0217,0.3226403,0.62751,-0.28144,-1.23698,0.98641,-0.68328,-0.019289,-0.39883,-0.4591346,-0.49104,0.132634,0.86438,1.12529,-0.28636805,0.63906,0.46144,0.102966,-0.241826,-0.328088,-0.61581,0.88219,-1.00837,-0.137934,0.0426052,-0.353082,-1.01177,-0.373297,0.271137,-0.023573,0.11137,-0.35895,-0.26782,-0.35791,0.89715,1.14193,-0.15852,-1.14339,0.65807,0.00845
http://dbpedia.org/ontology/HorseRider	0.07556,0.313739,-0.72937,-0.28495,0.62341,-0.54374,-0.317852,-0.313495,-0.73706,3.8281,-0.500004,0.8692,-0.37856,1.50996,-0.194734,-0.05502708,0.26826,1.14449,0.564414,-0.172264,-1.03791,-0.4175,0.25922,-0.46196,-0.37323,0.63995,-0.053102,-0.47738,0.49776,0.326457,-0.42124,-0.77164,0.34319,0.208111,-0.31472,0.203397,0.43603,-0.77528,0.52916,-0.2521,0.07968,0.154335,-0.281813,0.247337,0.18029,-0.40655,0.227899,-0.80195,0.80299,-0.058864,0.134429,-0.39555,0.118556,0.76349,-0.10932,1.36643,0.474801,0.28599,-0.64206,-0.14108,-0.60347,1.2962,0.76827,1.62745,-0.74383,-0.58776,0.86057,-0.98632,0.4723,0.069742,-0.47564,-0.90008,0.04263,0.11007,-0.28682,-0.98495,0.18749,-0.196436,0.355326,-0.07367,-0.220499,-0.535948,0.44214,0.388696,0.53254,0.69573,2.168,1.5751,-0.19953,-0.3825631,0.185099,0.212035,-0.90234,-0.6091,-0.1529757,-0.98246,-0.26443,-0.39886,-0.68287,0.79366,0.251944,0.0474,-0.41157,-0.67,0.172278,-1.15512,-0.58848,-0.207119,0.01051,-0.82098,0.98235,-0.738195,0.546908,-0.2474,-0.018473,0.159603,0.41543,-0.58742,1.09155,0.050955,-0.239,-0.34064,1.52807,0.32973,-0.437031,1.1925,-0.015937,0.267626,-0.276815,-0.62453,-0.368363,0.6271,0.42369,-0.68128,-0.05432,0.1095961,-0.03101,-0.0354199,0.186436,0.525064,-4.1729,-0.63788,1.08581,0.59111,0.83153,-1.4453,-0.5415,0.09209,-0.118285,0.257994,0.20265,-0.48279,-0.098366,0.061388,0.69603,0.179604,0.397019,-0.054644,0.090238,-0.07262,-0.24482,0.667959,-0.30128,-0.5862135,0.77935,-0.265654,0.69951,-0.14999,-0.89089,-0.181453,0.62729,-0.0078,0.198038,-0.50972,-0.179187,0.26583,-0.285653,0.99374,0.07183,1.7509,0.1949749,0.43544,-0.09731,0.62546,-0.87926,-0.282551,-0.07946,1.45478,-0.202777,-1.03423,0.226764,0.035332,0.470687,0.178864,0.009358,0.52028,0.111742,-0.318624,-0.302732,-0.168297,-0.63196,-0.12114,-0.92185,-0.17535,-0.53484,1.83347,0.00204,-1.22932,-0.32869,-0.80654,0.503156,-0.305818,0.243417,1.1097,-0.53947,-0.0893,-0.75305,1.08315,-0.307502,1.10217,0.43075,-0.089426,1.19071,-0.395291,0.00234,0.525011,0.39132,0.819649,-0.26657,0.82941,-0.218561,0.308729,0.061867,0.45005,-0.37738,0.63257,-0.76843,0.436133,0.143916,-0.381542,-0.543206,-0.077136,-0.136497,-0.099309,0.203342,0.209096,-0.78908,-0.179912,0.333724,-0.8758,0.234762,0.33091,0.0498196,0.256838,-0.86929,0.304131,0.52436,0.35401936,-0.457473,0.39285,0.56178,0.209791,-0.306417,-0.48784,0.55777,-0.87102,-0.064394,0.653531,-0.1377522,-0.44808,0.30613,-0.09368,-0.67257,0.05259,0.19044,0.18703,0.97628,-0.2553612,-0.127206,-0.31381,-0.83817,0.2385596,-0.12447,0.82319,1.28854,-0.342929,-0.79403,-0.017319,0.26437,-0.90356,0.2730691,-0.4348,-0.09677,-1.91813,-0.28568,0.10153,1.18208,0.210684,0.56636,-0.319102
http://dbpedia.org/ontology/Jockey	0.21699,-0.19329,-0.3994,-0.2617,0.65998,-0.45746,-0.25379,-0.59734,-0.15348,1.3573,0.33808,-0.18129,-0.21541,0.55836,0.040453,-0.2357,0.072254,-0.68518,0.15561,-0.46053,-0.31328,-0.7626,-0.18316,-0.52756,0.38578,-0.16713,-0.25168,-0.18716,0.97823,0.060545,-0.23671,-0.5835,0.46131,-0.12451,-0.22617,0.072319,0.080428,-0.3481,0.25318,-0.13077,0.57724,0.071996,-0.26512,0.22647,0.16335,-0.49268,-0.48495,-0.35006,0.023652,0.067283,0.47195,-0.35925,-0.080134,0.86383,0.084652,0.29324,0.92774,0.15521,0.17007,-0.40922,-0.64023,0.054544,0.3779,0.9291,0.0063838,-0.19242,0.070421,-0.2947,0.021963,-0.37124,-0.32314,0.60325,0.055255,-0.15443,-0.67097,0.017042,-0.37225,0.059567,0.52576,-0.38756,-0.33846,-0.0038013,-0.22226,-0.37885,0.090094,0.80436,0.72829,0.67639,-0.27653,-0.65703,-0.29458,-0.49022,-0.43618,0.063556,-0.16507,-0.82885,0.042322,-0.35937,-0.43035,-0.35307,-0.28721,-0.10098,0.046403,-0.33935,-0.049178,-0.40004,-0.10772,-0.35695,0.47103,-0.18437,-0.10344,-0.24536,0.34238,0.92949,-0.12963,0.28093,0.12558,-0.14852,0.58712,-0.16567,-0.33908,0.38038,0.41726,0.42614,-0.1563,-0.33093,-0.079182,0.21371,0.28193,0.14772,-0.19421,0.41039,-0.2311,-0.30399,0.32803,0.027443,0.36308,-0.097066,0.075308,-0.235,-1.4399,-0.28949,0.32071,0.18013,0.28034,-0.70663,0.38277,-0.10341,0.15668,0.23959,0.33451,-0.11721,-0.13552,-0.31162,0.26167,0.15704,0.6422,-0.26043,0.31631,0.55267,-0.46333,-0.092275,0.46354,-0.06206,0.30663,-0.25571,0.16576,0.15328,-0.033913,-0.42183,0.20856,0.17283,0.057016,0.29999,0.19545,0.16456,0.16258,0.20002,-0.018512,0.83021,-0.060449,0.034765,0.50987,-0.036669,0.22411,0.02256,0.45426,0.94465,-0.2202,-0.37022,0.048305,0.3,0.22436,-0.13504,-0.17587,-0.11819,-0.19857,-0.20401,-0.26059,-0.39265,0.047631,-0.31333,-0.15293,-0.4343,-0.15916,0.12886,0.076065,-0.61112,-0.31626,-0.013807,-0.14482,0.135,-0.25786,0.65763,-0.33661,-0.088102,-0.66825,0.095726,-0.12446,0.15787,0.11626,-0.19983,0.3159,0.10864,-0.077903,0.31491,0.26662,-0.25025,-0.54411,0.74941,0.031519,0.41175,-0.034412,0.26738,-0.19244,0.09086,-0.95477,0.61396,-0.18425,-0.16247,0.34278,-0.45978,0.10537,0.37979,-0.45386,0.0030832,-0.22383,0.069994,0.18261,-0.12828,0.10146,0.0020413,0.09991,0.083804,-0.63672,-0.47961,0.14617,0.22806,0.13239,-0.01048,0.2556,0.32828,-0.7441,-0.46523,-0.29194,-0.12803,0.19537,0.0058048,-0.17658,-0.082087,-0.40881,0.2718,0.15748,0.72879,-0.11591,-0.40193,0.21666,-0.37748,-0.071177,-0.26219,-0.26693,-0.042743,0.038485,0.59643,0.28536,-0.82772,-0.14282,-0.50682,-0.11517,0.041963,0.37107,-0.14555,0.35536,-0.32371,-0.17498,-0.10777,0.54908,0.39845,0.54186,-0.30448
http://dbpedia.org/ontology/LacrossePlayer	0.68847,0.71029,-0.37309,-0.177824,1.20089,0.04404,1.13227,0.05483,0.379254,3.7576,-0.0333,0.63061,0.40876,0.53216,0.369643,-0.189372,0.00912,0.37857,-0.181195,0.540194,-0.385291,-1.14253,0.36992,-0.17753,0.28042,1.3806,-0.813305,0.53675,0.58158,0.09343,-0.263006,0.15614,-0.27954,-0.28634,0.12478,-0.13464,0.28378,-0.270517,-0.24077,-0.514044,0.31161,0.73275,1.2001,-0.0208,-0.04102,-0.52963,-0.558291,1.0015,-0.753631,-0.298836,-0.47302,-0.282337,0.5611306,-0.24254,-0.78505,-0.72646,0.27506,0.76493,0.229886,-0.1408,-0.673,1.04092,0.70854,0.79662,-0.204818315,0.0480956,0.24037,1.10376,0.03302,-0.193584,0.08097,-0.08812,0.56793,0.21785,-0.9583,-0.72676,-0.47859,0.07889,0.394161,0.37384,-0.4106823,0.013763,0.44263,0.77633,0.173616,1.13493,0.234,1.163717,0.02038,-0.585054,-0.1059064,-0.10877,-0.381728,-0.399236,0.22326,-2.29109,0.95343,-0.324861,0.28799,1.39456,-0.418848,-0.56278299,0.79483,0.342847,-0.634521,-1.08153,0.003585,0.63387,0.06501,-0.58427,0.14985,0.1981597,-0.66417,-0.016754,-0.517561,1.28363,0.097893,0.048627,-1.21068,0.1229,0.59751,-0.239085,-0.15417,0.35336,0.186651,-0.73648,-1.05076,0.63511,-0.060714,0.215348,0.287036,-0.09575,0.03537,-0.413619,0.09538,-0.72245,0.195947,-0.217134,0.55992,-1.19122,-2.92609,0.753317,0.72722,0.32672,-0.4957,0.505912,1.14766,-0.163794,-0.202286,-0.306392,-0.4558,0.12334,0.100909,0.3436479,-0.63706,-0.300183,0.370143,0.38174,-0.40679,-0.8836,-0.2041,0.453695,0.68838,-1.27478,0.138923,0.06735,0.30568,0.576977,-0.5609,-0.172084,-1.02864,0.56131,-0.05097,0.06874,0.74727,-1.00227,-0.80473,-0.091401,-0.48129,0.188826,-0.329498,0.330244,0.116395,-0.07803,-1.002476,-0.380244,-0.20387,0.829743,0.051517,0.10085,0.279861,0.012162,0.63687,0.18171,-0.16403,0.05674,0.28605,0.6824,0.205777,0.58148,1.75139,-0.65947,0.214447,-0.241749,0.023901,-0.8690334,-0.45029,0.161267,0.054252,-0.700456,0.00573,-0.525048,1.01429,-0.67088,-0.4192,0.92011,0.520116,-0.433426,-1.51494,-0.46712,-0.305293,-0.287596,-0.69831,-0.55603,-0.560026,0.0432,0.72082,0.16605,1.19259,1.44697,-0.47602,-0.66085,-0.055589,0.580258,-1.14039,-0.60658,-0.313892,1.39044,-0.57684,0.4594,0.527128,-0.27271,0.27855,-0.30618,0.16676,0.259822,-0.21606,0.1654584,-0.673517,0.72399,0.68253,-0.38716,0.64403,0.071828,-0.204481,-1.08136,-0.60418,-0.70107,-0.40382,-0.436536,1.31126,-0.0489857,0.398234,-0.26172,-1.09317,0.72018,-1.32739,-0.310876,-0.63595,-0.2179446,-0.05272,0.50095,0.10866,0.61564,0.08483,0.1198064,0.37285,-0.0446422,-0.3665,-0.73768,-1.02767,0.8163,-1.5793,0.30047,-0.54675,-0.402389,-1.21008,-0.5555,0.41335,-0.408338,-0.50972,-1.1348,-0.94302,-0.5537,0.13529,-0.17625,-0.94344,-0.71077,0.47973,-0.15173
http://dbpedia.org/ontology/MartialArtist	0.06396,0.229324,0.213332,0.045952,0.462789,0.161166,-0.468,-0.14330125,-0.77282,4.4167,0.256068,0.41018,-0.28632,0.03121,0.99363,0.63866,0.08876,0.340581,-0.90226,0.30273,0.58126,-0.18089,-0.53351,-0.76185,-0.18134,-0.65054,0.14144,0.380491,-0.35875,-0.53145,0.176471,0.182185,0.02169,-1.15654,-0.30625,-0.258059,0.305981,-0.287165,0.47556,-0.41863,0.4432912,0.299002,0.556048,0.116873,0.37009,-0.12775,0.54106,0.62951,0.91923,-0.261595,0.71725,-0.604181,0.65196,0.69722,-0.640729,0.640637,1.18355,-0.25714,0.378255,-1.004615,-0.63703,-1.16273,1.02531,0.17929,-0.40538,-0.35848,-0.170788,0.194224,0.02738,-0.98781,-0.7863,-0.9931,-0.65067,-0.075155,-0.31838,0.194738,-0.58714,-1.24913,-0.77633,0.9934,0.21728,-0.46748,-0.53142,-0.4349,0.09804,0.30094,-1.55016,0.235915,-0.220133,-0.47707,-0.326202,-0.18325,-0.80532,1.03407,0.6852,-1.19119,-0.112872,1.46266,-0.26475,0.04832,-0.086284,-0.01551,-0.74472,0.129851,0.105621,-1.12854,-0.86486,0.560045,0.60216,0.094478,-0.86188,-0.234048,0.9359313,-0.20425,-0.65836,1.03924,0.19062,0.281658,0.667293,0.361026,-0.64534,0.31473,0.0518,-0.017831,1.12602,0.79869,-0.166143,-0.0860058,0.9118,0.5582,0.292588,-0.46353,0.086357,-0.50004,-0.31677,0.41511,-0.73757,-0.30293,0.436724,0.20871,-3.7786,-0.60103,-1.11287,-0.0195067,-0.3321,0.578698,1.265557,-0.47518,-0.5267618,-0.593615,-0.16621,0.64943,-0.50283,0.4383,-0.20614,-0.648806,0.317401,-1.10856,-0.57593,-0.215259,0.25224,0.150662,0.19411,0.28219,-0.123811,-0.176502,-0.305805,-0.364688,-0.106144,-0.0880712,-0.280455,0.348229,-0.59866,0.352679,-0.136217,0.331642,-0.503808,0.37636,-0.38868,-0.0173296,1.15801,1.38582,0.31734,-0.14482,-0.6966,0.03344,-0.71411,0.72198,-0.31924,-0.0292,-1.01233,0.45775,-0.46188,-0.66061,0.90686,0.52203,-0.04401,-0.78341,1.30082,-0.090137,0.3873749,-0.39781,0.18366,-0.340925,-0.24077,0.3219698,-0.41498,0.02893,-0.0948,-0.08116,0.85724,0.035157,0.13252,0.35347,-0.75756,0.86008,0.74365,-0.228913,0.320976,0.4193,0.5478,0.09205,1.19717,-0.23943,0.09113,-0.1476616,-0.725754,0.50525,0.72476,0.86284,-0.469506,-0.626606,0.20648,-0.5474,-0.720837,-0.64848,-0.92353,0.78849,-0.13231,-0.363603,-0.35023,-0.12261,0.90446,0.00698,0.271112,0.84855,0.042512,-0.1732754,0.28188,-0.06926,0.703518,-0.066015,0.188495,1.11036,0.02503,-0.0687,0.332194,-0.584115,0.63603,0.0841,0.68967,0.164909,0.53669,0.4181745,-1.44128,0.01092,0.12517,-0.470017,0.270697,0.377917,-1.27387,-0.152344,-0.646298,0.21132,1.29629,-0.14797,0.194871,-0.266813,-0.443406,0.060332,-0.183902,-0.01457,0.08396,0.57217,0.097263,-0.206564,-0.29736,0.24211,0.03148,-0.97754,0.796233,-0.35223,-0.605649,0.653428,-0.47482,-0.03545,0.294442,-0.116962,0.685523,0.92464
http://dbpedia.org/ontology/MotorsportRacer	1.69843,0.18974,0.17971,-0.118589,0.81353,-0.49092,0.375599,0.10466,-0.92295,1.36154,0.050518,-0.07183,-1.02933,1.34844,0.74261,-0.1126708,0.234274,0.011527,1.02944,-0.384308,-0.80861,-1.29734,1.40633,-0.93431,-0.08427,0.94824,0.55091,0.49488,1.16584,1.436,0.462662,-1.21464,0.43743,0.09465,0.166365,-0.52443,0.06815,-0.216708,0.2725849,1.21807,0.89922,0.24874,1.08384,0.541221,-0.87605,0.133486,0.280926,0.160854,0.609108,-0.21059,0.70856,-1.10157,0.49343,0.62158,0.20318,0.34113,0.0219636,-0.51169,0.79325,-0.067982,-0.98462,0.77794,0.94681,1.23498,-0.479916,-0.275811,0.49907,-1.12789,0.81764,-0.86793,-1.08242,-0.14548,-0.48137,1.06766,-1.73292,0.10818,0.275147,0.501925,-0.071156,0.89337,-0.301759,-0.89679,0.19057,0.62588,0.664979,-0.65887,0.863647,0.95507,-0.67221,-0.185057,-0.59441,-0.28094,-0.54682,-0.22791,0.028063,-1.033,-0.1559144,0.242487,0.422518,0.57676,-0.053188,-0.216381,-0.192132,-0.32875,0.46306,-1.61494,0.331643,0.280002,-0.63163,0.2836,-0.92364,-1.08773,-0.161461,1.01034,0.400689,-0.2355322,0.30833,0.229553,0.66652,-0.88697,-0.52384,-0.73964,0.38427,-1.35751,1.62673,1.38549,0.31567,0.079636,-0.08482,-0.09159,0.432138,0.88941,-0.07728,-0.95866,-0.419224,-1.71304,-0.47995,-0.75296,0.37438,0.48456,-2.64071,-1.0901,1.27174,-0.42246,0.46355,-0.58676,0.230409,0.347287,0.48226,0.128378,0.270503,-0.59965,-0.023437,0.96611,0.197233,-0.174539,0.105484,0.81348,-0.135083,0.241438,0.551858,-0.555274,0.4964,-1.08504,0.8133,-1.10825,-0.386246,0.319134,-0.341612,-0.307658,0.0487765,0.283612,-0.433667,0.55856,-0.93233,-0.37222,-0.181877,0.85666,-0.65936,1.81392,0.290835,0.8323,0.3480711,0.287206,-0.32253,-1.01742,0.35896,0.82479,-0.187773939,0.234029,0.390089,0.1644902,0.85819,-0.209775,0.04774327,0.034932,0.63577,0.37584,0.70381,0.122093,-0.39868,0.29107,1.25316,-0.53844,-0.80302,0.372227,-0.3455414,-0.139108,-0.99144,-0.839416,-0.34409,0.35774,0.7081,0.88176,-0.03526,1.42207,0.04949,0.6475,-0.05246,0.215496,0.33772,-0.1767008,0.82074,0.75661,-0.54363,0.35104,0.23148,0.51184,0.0495,1.02366,-0.81092,0.303651,-0.91034,0.33626,-0.248588,0.1988157,-0.89314,1.64589,0.164309,0.94752,0.2577,-0.169705,0.44908,0.68183,-0.45225,0.24152,0.392947,0.656715,0.3582,-0.348525,0.819032,-0.484137,-0.78154,-0.29209,-0.7967,-0.28867,-0.034015,-0.364631,-0.58038,0.1231393,0.6346,0.228983,-0.4865,-0.37977,0.313861,-0.261694,-0.036597,0.323396,0.384849,-0.069268,0.38726,-0.86525,-0.145221,-0.29596,-0.234822,-0.18663,1.066935,-0.346562,-0.64679,-0.55395,-1.11254,-0.83183,0.272585,0.598028,0.00286,-0.527247,0.00794,-1.20971,-0.84056,-0.99618,-1.00415,-0.45774,0.6895,-1.49896,-0.2707463,-1.07102,0.81242,0.82779,0.398426,0.26865
http://dbpedia.org/ontology/NationalCollegiateAthleticAssociationAthlete	1.414701,1.73588,1.15614,0.113674,1.34865,0.36334,2.10622,1.071754,0.1355471,12.4394,-1.79713,0.382689,1.16495,0.610038,2.29627,1.076769,3.36798,3.057443,-0.64705,1.82089,-0.36391,-1.189679,0.685144,-0.967888,-0.69988,1.97075,-1.42031,0.736231,-0.032773,1.688827,1.416144,0.133303,1.202642,-0.50611,-0.648093,-0.904322,0.121961,-1.91454,-0.3192192,1.67323,0.671397,1.558255,0.703757,1.333334,-0.246201,-1.858263,1.2535683,1.914377,0.1016085,-1.0429307,-1.76166,-0.896086,1.81264,-1.94959,0.6353723,-0.460195,1.541865,1.4006,0.14701,0.895604,-0.4976183,0.980563,1.410932,0.4625575,-1.34305,-0.163328,0.842429,0.37809,-0.67475,0.857525,-0.594293,-0.62449055,0.1180969,0.321338,-1.392159,0.56887,-1.73603,0.5752549,-0.66148,-0.675208,0.440737,-0.37257,-0.581965,2.2606653,-0.337128,-0.047047,-1.69327,2.989233,-1.036092,-1.820799,-0.3909852,-0.045018,-0.928764,-1.75256,-0.520268,-2.71543,-0.524767,-0.42019,0.329253,0.236,-0.32073,-0.82094,-0.68193,-0.253055,-1.3662716,-5.90738,0.280698,0.297811,0.64073,-0.98183,0.3762003,0.729309,-1.218359,-0.091509,-1.495219,1.6477,1.091859,0.86467,1.009482,0.501729,0.71458,0.4041196,-0.961431,0.375559,0.27724,1.60455,0.35438,1.34688,0.40376,-0.346635,-0.5131351,0.245114,0.579214,-0.393139,1.071972,-1.1875307,0.059859,-0.923683,1.446077,-0.734893,-2.58045,1.18977,1.70427,1.926737,0.7668606,-0.69283,3.33134,-0.422092,-1.3504,2.110531,-1.71661,0.84382,-1.149799,1.441793,-0.0227662,0.521529,-0.11252,0.002119,-0.798612,-1.335435,-0.389389,0.3313469,0.641009,-2.62395,-0.927499,-1.092375,0.511675,-0.05359,-1.36275,-0.02756819,-0.75356,-0.096752,0.248205,0.489303,-0.19217,-0.604694,-0.74785,0.70953,-0.054952,2.36103,-0.607128,2.5391,-1.30425,-0.5340637,-0.591382,0.595582,0.2612374,3.41591,0.749825,-0.20041,-0.532557,-0.795439,1.180372,-0.276408,-0.680696,1.692921,1.320489,-0.30604,2.77562,1.474252,2.112198,0.530478,-0.696694,0.460514,-2.11752,1.46366,-0.325254,-0.153638,-0.312864,-0.76738,-0.86609,1.716269,0.350023,-0.0601187,-1.4086642,1.86206,-0.240482,-1.20437,-0.85101,-0.068689,-0.138774,0.206672,-0.951885,-0.876045,1.011711,0.6874373,0.88678,-0.261433,1.787598,2.55009,-1.01262,0.2412198,-0.704528,-0.330367,-1.213087,-0.926362,-1.73644,0.440883,-0.081187,2.27105,-0.861212,-0.890249,1.62699,0.37716,-1.162256,0.382663,0.194582,0.4177246164,0.332492,0.1295,0.864876,0.80939,-1.56683,0.433774,-0.39062,-1.05314,0.206306,-0.7781744,-0.01367,0.421785,0.337385,0.029063,0.775869,1.1183393,-0.501237,1.45092,0.029168,-0.08514,-0.92269,-0.55122,-0.60393,1.0634072,0.212996,1.25622,-0.21847,-0.494166,0.59112,-1.272716,-1.773036,-1.299326,-2.95966,-0.462018,-1.95283,1.793658,-1.580628,-0.989566,-1.143365,-0.9439111,0.767212,0.05422,1.05384,-1.07064,-0.026598,-1.355038,-0.726904,-0.798099,0.317846,-0.99984,0.8127642,-0.00885
http://dbpedia.org/ontology/NetballPlayer	1.18357,0.8649,0.03502,-0.841614,1.46431,-0.140637,1.09605,0.10046,-0.160716,2.35773,0.00026,1.12533,0.6175,0.41353,0.70938,0.413668,-0.505922,-0.07969,0.103425,0.0818024,-0.56063,-0.82766,0.61455,-0.109244,0.7761,1.58669,0.0325083,-0.09134,0.198051,-0.62495,0.1447,-0.18235,0.82787,0.07325,0.22995,-0.443952,0.88009,0.047373,-0.119177,-0.64608,0.544913,1.01998,0.19577,-0.04758,-0.306834,-0.59796,-0.539115,1.11848,-0.25404,0.210894,-0.07761,-0.60843,0.4473906,-0.38673,-0.583125,-0.34245,-0.09343,0.60379,0.336886,0.43078,-0.97144,0.69326,0.52296,-0.13601,-0.897488315,0.2527366,0.68059,0.81144,0.33017,0.103218,0.15636,0.65126,0.93238,0.15782,-0.33992,0.2892,-0.40498,0.22777,0.57963,0.66808,0.1142277,0.27955,0.03004,0.86917,-0.146724,0.76935,0.29851,1.136517,0.08242,-0.71803,0.13007,-0.292962,-0.83311,-0.249526,0.60959,-1.69352,1.01005,0.625069,-0.04056,1.60311,-0.15211,-0.92096,1.03029,0.0678,-0.799691,-1.77291,0.267725,0.60121,0.261928,-0.06363,0.30067,-0.2397603,-0.81374,0.011302,-0.064574,0.82046,0.118746,0.218739,-0.77294,0.02413,0.07943,-0.14961,-0.33068,-0.19522,0.115181,-0.58062,-0.92887,0.49297,0.009151,0.794068,0.384234,0.139975,0.16794,-0.338319,0.72077,-0.71751,0.53544,-0.13544,0.76745,-0.46089,-2.85918,0.7055945,0.11707,-0.62815,-0.299629,0.58454,1.49729,-0.160403,-0.274076,-0.43949,-0.60828,0.72908,0.224671,0.82894,-0.23858,-0.329903,0.5886,0.803436,0.16926,-1.17146,-0.03987,0.438574,1.15693,-0.64854,0.225913,-0.216295,0.79814,0.6756,-0.64076,0.09689,-1.21309,0.77935,-0.17945,-0.275911,0.46588,-0.118211,-0.67926,0.076922,-0.077735,0.625676,-0.428838,0.160634,-0.413515,0.02541,-0.968836,-0.564764,-0.769,0.573553,0.639335,-0.07643,0.242101,-0.125283,0.4226554,-0.12105,0.174805,-0.72218,0.42992,0.39706,1.037917,0.70776,1.54394,-0.228368,1.21564,0.59423,-0.371758,0.0174416,-0.32237,-0.135184,-0.218938,-0.818676,-0.16771,0.16379,1.27378,-0.02252,-0.01856,0.96854,-0.007017,-0.529936,-1.20592,0.0834,-0.61004,-0.41994,-0.57863,-0.56063,-0.469666,0.43373,0.00166,-0.46855,1.08255,1.00857,-0.230061,0.26251,-0.374742,0.75356,-0.25558,-0.71534,0.196998,1.81317,-0.069985,0.12653,-0.19024,-0.25881,0.3012,0.01662,-0.63937,0.36516,0.23752,0.3060884,-0.77458,0.49915,0.9784,-0.49246,0.329396,-0.389002,0.352209,-0.65194,-0.269972,-0.4222,-1.0056,-0.4679328,1.25043,0.7663603,0.18886,0.00698,-0.62083,0.34759,-1.04598,0.226424,0.05182,-0.4729546,-0.07589,0.36541,-0.19717,0.81087,-0.11069,1.09078,0.26228,-0.056439,-0.58504,-0.1939,-0.387924,0.74367,-1.60919,0.3183,-0.57358,-0.55356,-0.66048,-0.72291,0.57315,-0.273228,0.15498,-0.89111,-0.601914,-0.41414,0.532599,0.54083,-0.280022,-1.46979,0.65166,-0.03069
http://dbpedia.org/ontology/PokerPlayer	-0.1852,0.401627,-0.47005,-0.791474,1.30967,0.08528,0.5121615,-0.08081,0.609564,3.5725,0.16848,1.09428,-0.81285,-0.07635,0.78372,-0.0208,-0.95959,1.6574,0.522195,-0.242306,-0.09121,-0.6097,-0.25114,0.20861,0.68354,0.81444,0.376605,0.237595,-0.03024,-0.63592,-0.10474,-1.08349,0.099831,0.29757,-0.50506,-0.500637,-0.13009,-0.088144,-0.59783,-0.34003,0.528934,0.447273,1.56988,-0.49004,-0.79015,0.39012,-0.88006,-0.02688,-0.52777,0.176094,-0.54531,0.61025,0.2187306,-0.36774,-1.21268,-0.6032,0.72609,0.30299242,-0.010318,0.2385,-0.266656,1.25712,0.86466,0.20739,0.502931685,0.4905366,1.11005,0.37224,-0.045448,-0.425034,0.91403,0.15413,1.16047,-0.384409,-0.4741379,0.12019,-0.15978,-0.275611,0.91469,1.24059,-0.3584123,-0.56378,0.49422,0.04173,0.085196,1.1451,0.16747,0.553267,0.3156691,-1.06364,-0.0725,-1.08614,-0.86273,0.0911843,0.77427,-1.74398,1.09162,-0.611561,-0.84428,1.9045,-1.14143,-0.84492,0.12856,0.62811,-0.141841,-1.52721,0.407015,0.59461,0.82564,0.08765,0.40997,0.0863957,-0.75586,0.154612,-0.223511,0.12375,-0.184247,-0.525171,-0.442638,-0.788,0.79648,-0.44919,0.36081,0.26743,-0.534459,-0.34015,-1.66109,0.128308,0.272639,-0.074302,0.10231,-0.43271,0.08569,-0.405619,0.326,-0.56739,0.56307,-0.81681,0.71923,-0.88606,-4.3335,0.255,0.33453,-0.68868,-0.20474,0.445187,0.857483,0.16238,-0.463956,-0.428864,0.31881,0.09616,0.055325,0.421227,-0.203454,-0.04541,1.28017,0.7868717,-0.66489,-0.712002,0.75382,-0.4097,0.72349,-0.305211,0.117203,-0.12369,1.17173,0.74425,-1.06087,-0.1213051,-0.718519,0.73564,0.45473,0.0458817,0.606901,0.18416,-0.26075,0.160579,0.03557,1.105026,-0.593658,0.665014,0.334835,-0.41934,-1.59633,0.479686,-0.90434,-0.127377,-0.429325,-0.82332,-0.339389,-0.2494,0.79447,0.21065,0.43325,-0.62087,-0.55761,1.35632,-0.266733,0.41168,1.68921,-1.09372,1.31928,-0.143513,-0.972588,-0.8699334,-0.170857,-0.181743,-0.662448,-0.370856,-0.248634,-0.17394,-0.11021,0.04951,0.37194,0.8706,0.062166,0.259134,-1.64973,-0.01535,-0.466144,-0.01614,-0.67164,-0.49432,-0.892646,-0.14178,0.25508,0.69921,1.06682,1.52861,0.35616,0.31114,-0.142992,0.2707,-1.72276,-0.51152,-0.455842,0.880168,-0.0106888,0.51664,1.48533,0.71881,0.120637,-0.01257,-0.68244,-0.15661,-0.20426,-0.2529716,-0.98481,0.405127,0.537953,-0.288747,0.283636,-0.327612,-0.481071,0.29643,-1.01942,-0.2536667,-0.068282,-0.535079,0.91721,0.4644403,-0.79945,-0.31791,-0.57992,-0.75117,-0.53287,-0.207816,0.36867,-0.0793356,-0.62272,0.08609,1.09124,0.32688,-0.366012,-0.02311,0.1182,0.043293,-0.08145,-0.70681,-0.42028,0.22358,-0.693196,-0.60341,0.11878,-0.431136,-0.95313,-0.29439,0.87428,0.232032,-0.48454,-0.3169,-0.96035,0.189668,0.80498,1.21981,0.25599,-1.40979,0.37655,0.05549
http://dbpedia.org/ontology/Rower	0.72884,-0.19365,-0.26837,0.089542,0.31917,0.47101,-0.0031167,-0.38986,-0.58078,0.27347,0.427,-0.0090117,0.15074,0.43316,0.053549,0.58742,0.087313,-0.67415,0.059195,-0.13172,0.031255,-0.2076,0.41946,-0.69971,-0.21633,0.06415,0.42872,-0.29457,0.23156,0.90638,-0.25488,0.14619,0.48423,-0.15758,0.49235,-0.34529,0.8621,-0.72454,-0.20503,-0.39076,0.12804,0.2233,0.39243,-0.30491,0.28426,0.18749,-0.51109,0.39855,0.219,0.53958,0.16779,-0.0058408,0.62492,0.032586,-0.42228,-0.19017,-0.01308,-0.065802,0.67671,0.14702,-0.23206,-0.13769,0.64838,0.39219,-0.71652,0.32339,0.28015,0.58247,-0.74624,0.5402,-0.541,0.39542,-0.20511,0.059364,-0.36956,-0.15849,-0.10237,-0.23436,-0.010053,-0.094783,0.16447,-0.38746,0.57792,-0.014511,0.089475,0.28679,0.86856,0.14575,-0.29457,0.15464,0.26953,0.13492,-0.25124,0.77365,-0.84386,-0.72517,0.13428,0.28047,-0.39622,0.17984,-0.30261,-0.98887,0.050047,-0.48086,-0.41375,-0.98419,-0.27373,0.26216,0.010586,-0.37055,0.63341,-0.6569,0.0034656,0.45143,-0.1889,-0.18469,0.19607,0.32658,0.33574,0.3574,-0.12823,-0.41721,0.42402,-0.0051176,-0.3441,-0.39539,0.16753,0.42057,0.3158,0.28333,0.30709,0.26701,0.2101,-0.080146,0.60299,-0.83591,-0.0073144,0.16537,0.32567,-0.27901,-0.23969,-0.20709,0.13683,-0.055894,0.82274,-0.65703,0.76155,-0.080362,-0.2426,0.24848,-0.49306,-0.14872,0.49537,1.1319,-0.10764,-0.24701,0.28583,0.58277,-0.12133,-0.0031912,-0.0087413,-0.044754,0.24405,-0.38961,0.7117,0.071855,0.034128,0.14965,-0.16942,0.47062,-0.53315,-0.81744,0.57906,-0.74558,-0.23554,-0.25083,-0.086794,-0.096948,-0.6152,0.57343,0.09578,0.36714,-0.13478,-0.23893,-0.079337,0.3841,0.065275,0.65978,-0.18259,-0.18434,-0.56464,-0.43925,0.1841,-0.44261,0.10854,-0.36847,0.5187,-0.44662,0.46413,0.092221,0.23806,0.55036,0.45662,-0.07782,-0.37184,0.24971,-0.3442,-0.12897,0.14297,-0.38786,0.64089,-0.18909,-0.25613,-0.18884,-0.14721,0.58376,0.28935,0.60263,0.24657,-0.15317,-0.024484,0.60469,0.37316,-0.14965,0.43039,-0.19439,-0.010971,-0.21061,0.20552,-0.083508,0.56807,-0.1635,0.43248,0.13664,-0.23441,-0.70915,-0.26379,0.96173,-0.55755,0.069873,0.0087819,0.0011422,0.23456,0.013017,-0.41885,-0.15586,-0.3009,-0.36282,0.48169,0.23164,0.37819,-0.21908,0.16006,-0.15218,0.01089,-0.31361,0.12125,-0.37149,-0.25653,-0.14282,0.31946,-0.49722,0.31255,0.39575,-0.60424,0.31899,-0.066841,0.89518,-0.59803,-0.23491,0.49343,-0.71762,-0.047409,0.59425,-0.014505,-0.13418,0.97413,-0.076228,-0.29691,0.020602,-0.75491,-0.07835,-0.14196,0.3142,-0.062602,-0.29616,-0.35803,-0.17436,0.06552,0.011004,0.37577,-0.30809,0.47306,-0.56482,0.15415,-0.047992,-0.16845,0.09116,-0.34592,0.11198
http://dbpedia.org/ontology/RugbyPlayer	0.91089,0.76034,-0.38795,-0.303764,1.43177,-0.54697,0.89398,-0.29029,0.183044,3.8604,-0.02171,1.2573,-0.04938,0.63455,0.90861,-0.188872,-0.382781,0.39341,0.755435,-0.094046,-1.06051,-0.8243,0.42825,-0.53412,0.32515,1.21421,0.132129,0.50586,0.12562,0.04781,-0.329035,-0.0964,0.74714,0.03299,-0.175219,-0.516997,0.29394,-0.083226,-0.39468,-0.445375,0.3355,0.543417,0.85744,0.80141,-0.342875,-0.67799,-0.15632,1.05328,-0.62545,0.263684,0.00629,-0.7405,0.5934806,-0.87234,-0.05001,-0.15986,0.67419,0.53568,0.492056,0.04894,-0.84473,0.97795,0.47115,0.413194,-0.492118315,0.4380066,0.3975669,0.62193,-0.0781381,0.486906,0.34254,0.46115,1.28206,-0.257591,-0.866,-0.1841,-0.01456,0.03607,0.7904,0.58865,-0.3547023,-0.087098,0.71931,0.178846,-0.335984,0.18536,-0.177679,0.739357,0.46044,-0.36342,-0.128805,-0.382732,-0.64784,0.015143,0.451633,-1.81198,0.66649,0.240109,0.10215,1.32663,-0.520934,-1.08718,0.97736,0.390166,-0.798221,-1.38827,-0.026395,0.386185,0.35236,-0.44635,-0.10743,-0.7383703,-1.20002,-0.0736867,-0.274971,0.542105,0.331293,0.475409,-1.00079,-0.11188,-0.07501,-0.42714,-0.58836,-0.25659,0.047191,-0.65736,-0.97889,0.69645,-0.253871,0.496048,0.412299,0.145308,0.19235,-0.489479,0.66747,-0.60705,0.228425,-0.375702,0.7075,-0.681952,-3.8017,0.5035,0.77125,-0.25734,-0.18315,0.13667,1.67085,0.14667,-0.145686,-0.6201,-0.28606,0.57374,0.534501,0.6009,-0.78315,-0.305783,0.500418,0.75963,-0.57449,-0.731766,0.52047,0.2759,1.07953,-0.56246,0.312073,-0.166853,0.54315,0.477362,-1.02286,-0.023745,-1.21365,0.66867,-0.60781,-0.093151,0.97268,-0.23209,-0.71234,0.383979,0.34174,0.409366,-0.423638,-0.349706,0.321065,-0.29312,-1.15454,-0.450274,0.07712,1.041333,0.470585,-0.96958,0.039985,0.27374,0.532614,0.360936,0.01519,-0.8608,0.56318,0.11533,0.943447,0.341691,1.75752,0.06879,1.44148,0.04073,-0.450158,0.0093376,-0.164896,-0.608063,-0.633048,-0.433586,0.06177,-0.08558,0.8967,-0.058157,0.11902,1.35833,-0.197754,-0.220076,-1.44514,-0.044352,-0.61682,0.00891,-0.63089,-0.24426,-0.14926,0.08425,0.12644,0.03708,1.57823,1.4006,-0.44355,-0.05723,-0.503892,0.3832,-0.6502,-0.283656,-0.690102,1.42195,0.1615,0.48578,0.65951,0.07617,0.35545,-0.35171,-0.310319,0.35165,0.92427,-0.0401806,-1.15798,0.63062,1.03427,-0.51417,0.344611,-0.175882,0.526929,-0.59189,-0.69361,-0.508,-0.29331,-0.12707,1.24402,0.6480903,0.23683,0.13585,-0.68689,0.54497,-0.70859,0.414924,-0.0677,-0.1490346,-0.10776,0.60695,0.46439,0.84355,-0.4575,0.46519,0.182712,-0.126666,-0.6385,-0.10689,-1.01466,0.20425,-1.66231,0.43726,-0.09831,-0.78957,-0.46504,-0.82706,0.401221,-0.303708,-0.433506,-0.92628,-1.01122,-0.23253,0.617779,0.79805,-0.61253,-0.7444,0.43145,-0.27206
http://dbpedia.org/ontology/SnookerPlayer	0.5746,0.7111,0.01408,-0.09904,0.74586,-0.60683,0.99492,-0.16382,0.112667,2.24075,-0.01889,1.18198,-0.62357,0.61836,0.35816,0.101327,-0.14668,0.03215,0.342245,-0.234756,-1.42529,-0.90507,-0.104014,-0.18495,1.01747,0.66075,-0.204005,0.35777,0.350414,-0.11669,-0.02266,-0.74396,0.222469,0.130133,-0.35831,-0.63168,0.001367,-0.008415,-0.65506,-0.575249,0.31606,0.528998,0.81805,-0.06436,-1.12902,0.23673,-0.72285,0.573468,-0.56562,0.383664,-0.268307,-0.48024,0.4426506,0.10325,-1.02457,-1.01575,0.300356,0.31089,0.498116,0.53372,-1.06307,0.30932,0.72113,0.04759,-0.207558315,0.9853466,0.71891,0.58522,-0.21212,0.065207,1.094,0.314492,0.86103,-0.5196,-0.68112,-0.11651,-0.281229,-0.63884,-0.19247,0.494682,-0.1950623,-0.4334,0.325305,0.318237,-0.170904,0.552269,0.34929,0.611417,0.45776,-0.636926,0.0382,-0.3659788,-1.02448,0.132883,0.65646,-1.823,1.32886,-0.067579,-0.50284,1.77474,-0.85894,-0.585647,1.08455,0.370185,0.068969,-1.60231,0.634955,0.84597,0.76226,-0.409361,0.14363,0.5885397,-1.25687,0.124142,0.219779,0.598651,-0.307917,0.206249,-0.302512,-0.57088,0.224069,-0.13477,0.04969,0.24842,-0.339349,-0.17373,-0.91588,-0.04572,0.297099,0.544328,0.286209,0.43917,1.10788,-0.866429,0.74102,-0.44801,1.05396,-1.08191,0.15181,-0.553436,-3.6163,0.25505,0.44012,-0.66056,-0.297526,0.406288,1.71408,-0.75221,0.278064,-0.07461,0.48536,0.369319,0.382741,0.83156,-0.218805,0.108885,0.99905,1.14793,-0.65533,-0.5089,0.36635,0.01674,0.82956,-0.74779,0.483613,-0.37354,0.683976,0.560141,-0.71841,-0.1129771,-0.8919,0.0294,-0.4193,-0.314461,0.17801,-0.41477,-0.45207,0.684529,0.12151,0.401096,-0.582498,0.542524,0.157285,-0.02702,-0.958905,-0.396764,-0.352046,0.587863,0.349255,-0.61623,-0.302789,-0.065093,0.91305,-0.06126,-0.43908,-0.82715,0.41558,0.589883,0.667397,0.383743,1.69551,-0.0212,0.84192,-0.33647,0.017531,0.0483626,0.10431,-0.155943,-0.211438,-0.910656,-0.30199443,-0.58265,0.85041,-0.189347,0.59599,0.81572,-0.091679,0.069094,-1.49563,0.07307,-0.21869,-0.06202,0.08278,-0.64772,-0.821046,-0.08311,0.24977,0.20134,1.09955,1.42656,0.15494,-0.02792,-0.508162,0.429193,-0.65934,-0.40716,-0.514122,1.60469,0.080705,0.42939,1.3243,0.09417,0.063424,-0.17894,-1.10849,-0.12578,0.223805,-0.1635716,-1.84244,0.19212,1.07528,-0.54488,0.43531,-0.167982,0.004276,-0.149731,-0.50809,-0.65617,-0.33363,0.00365,0.98311,0.5621403,0.0227,-0.074577,-1.04742,-0.00312,-0.69468,0.214044,-0.01481,0.2333354,-0.56091,-0.08734,1.02572,0.6539,-0.05205,0.1212941,0.39898,0.024159,-0.67374,-0.82251,-0.12107,0.482045,-1.71991,-0.170112,-0.09771,-0.83082,-0.4767,-0.92841,0.48452,-0.112421,-0.31091,-0.80973,-0.524288,-0.13818,0.502146,0.95384,-0.76738,-1.09444,0.70665,0.25433
http://dbpedia.org/ontology/SoccerPlayer	0.58426,0.62465,-0.138076,-0.161995,1.32532,-0.282529,0.92345,0.13407,0.010507,4.315,-0.52603,0.87812,0.0863,0.43764,0.67329,-0.085721,-0.29756,0.95559,-0.062459,0.371014,-0.49271,-0.95863,0.33853,-0.1350934,0.28143,1.13776,-0.512115,0.37392,0.41576,-0.1368,-0.01731,-0.503075,0.041438,-0.09434,0.05354,-0.344445,0.70407,-0.482337,0.15744,-0.459369,0.55794,0.87031,1.02143,0.40681,-0.73383,-0.94142,-0.570391,0.93395,-0.9618,-0.062764,-0.64447,-0.20305,0.1458606,-0.32132,-0.81979,-0.6698,0.3928,0.70887,0.509256,-0.08345,-0.40879,1.08532,0.15649,0.5168,-0.342138315,0.2645266,0.88861,0.74933,0.15909,0.294846,-0.19654,-0.01413,0.458329,-0.229609,-0.96817,-0.479475,-0.69393,0.28215,1.09408,0.73646,-0.2561523,0.26637,0.50706,0.51531,-0.078846,0.80992,-0.186023,1.094517,0.57168,-0.487468,-0.51076,-0.00304,-0.64891,-0.551866,0.4065946,-2.07943,0.66322,0.152659,0.24049,1.00433,-0.445066,-0.82928,0.79943,0.07453,-0.157831,-0.96607,0.323405,0.480726,0.287892,-0.48717,-0.02646,-0.3796103,-1.39793,-0.097407,-0.130079,0.80548,0.263803,0.343669,-1.22379,-0.270145,0.167649,-0.370498,-0.16949,-0.11046,-0.065746,-0.33271,-0.856234,0.47635,-0.005611,0.672038,0.50673,-0.2321,0.12545,-0.664779,-0.01899,-0.7658,0.41783,-0.49859,0.341899,-0.36483,-4.0798,0.724996,0.394,0.1249,-0.56456,0.80886,1.39841,-0.47353,-0.553276,-0.330313,-0.03245,0.59361,-0.298889,0.411633,-0.72136,-0.244783,0.28182,0.871954,-0.43135,-1.41426,0.295868,0.3933058,0.484293,-0.71973,0.290173,-0.10761,0.7541,0.93632,-0.69182,0.03821,-1.18745,0.65746,-0.41611,0.058203,0.735062,-0.67231,-0.72431,-0.067461,-0.075887,0.393566,-0.114102,-0.0047417,-0.015987,-0.08265,-1.40544,-0.497234,-0.368796,0.726823,0.423235,-0.43138,0.138341,-0.115461,0.510789,0.04505,-0.12716,-0.496205,0.4205,0.478289,0.415827,0.68768,2.2804,-0.10075,0.88561,-0.04846,-0.606108,-0.2203234,0.22461,-0.215453,-0.072791,-0.416916,-0.16143,-0.29148,0.88901,0.01973,-0.11738,0.92488,0.152506,-0.232916,-1.72535,-0.183988,-0.71656,-0.50125,-0.69119,-0.74767,-0.506336,0.11117,0.81698,0.67791,1.65859,1.60458,-0.52357,0.14511,-0.495042,0.540381,-0.830777,-0.40139,-0.031237,1.39474,0.13488,0.39825,0.566702,-0.19786,0.01304,-0.02193,-0.67121,0.152486,0.057867,-0.0932356,-0.6470325,1.1251,1.03246,-0.48726,0.68448,0.011532,0.446409,-0.43549,-0.65782,-0.76851,-0.62655,-0.63341,1.53649,0.4797703,0.11592,-0.28927,-1.03668,0.71731,-1.05011,-0.230016,-0.26847,0.0562624,-0.35541,0.48449,0.3479,0.75692,-0.37264,-0.03098,0.27996,0.249416,-0.66696,-0.20178,-0.64919,0.594637,-1.39411,-0.00256,-0.4717,-0.56996,-0.6555,-0.28694,0.335406,-0.04115,0.00157,-0.62546,-0.77515,-0.23629,0.72408,0.08692,-0.16427,-1.3173,0.51398,0.08272
http://dbpedia.org/ontology/SquashPlayer	0.02547,0.382085,0.17151,-0.393534,0.98945,0.35645,0.12424,-0.49408,0.177974,2.90592,-0.1893,0.668409,-0.08347,0.302704,0.40346,-0.268262,-0.55875,0.7744332,-0.068511,0.616224,-0.272728,-0.66483,-0.6627,0.67549,0.337791,0.497601,-0.461205,0.68362,0.349874,-0.83267,-0.49331,-0.05273,0.75104,-0.62223,0.15227,-0.53718,0.73676,0.098433,-0.3947,0.38141,0.43369,0.93421,0.68454,0.12043,-1.01491,0.10535,-0.13934,1.60381,-0.740406,0.179244,-0.89045,-0.65139,0.9442406,-0.23131,-0.3499,-0.96456,0.51303,0.95082,0.197366,0.17722,-0.20135666,0.4453986,0.62584,0.316938,-0.136538315,-0.4624734,0.09289,0.62415,-0.0738526,0.921766,0.39585,1.1263,0.305414,0.1047,-0.92842,-0.33005,-0.5157,-0.250047,0.1041,0.21305,-0.1560323,-0.47677,0.54454,0.26169,-0.186524,0.83122,0.32092,0.732937,0.50458,-0.3701,0.41127,-0.62756,0.10639,-0.151076,0.413848,-1.07575,0.850163,0.494659,-0.174523,1.33738,-0.421541,-0.605455,0.99088,-0.44436,-0.505381,-1.89481,0.869775,0.75576,0.39354,0.05386,0.51572,-0.4633803,-0.89713,-0.13376,-0.025425,0.496816,-0.045587,-0.164311,0.26118,0.24843,0.26483,-0.06069,-0.09143,-0.13592,-0.015353,-0.530635,-0.0379,-0.0177,-0.397441,0.182298,-0.73958,-0.05544,0.50385,-0.336789,-0.02383,-0.45887,0.296341,-0.40738,0.53129,-0.549875,-3.8853,1.01138,0.271688,0.10165,-0.25491,0.71481,1.01885,0.2109,0.032574,-0.00061,0.098853,-0.10946,0.771931,1.00403,-0.98672,-0.329713,0.565605,0.38523,-0.272974,-0.50308,0.13108,0.82283,0.86769,-0.65879,-0.047075,-0.40767,0.667505,-0.11207,-0.54586,0.39744,-0.640702,0.354497,0.02988,-0.626761,0.06101,-0.32673,-0.170524,-0.364251,-0.110213,-0.06297,-0.554508,0.124644,0.088575,-0.06908,-1.14072,-1.074634,-0.2396,0.316383,-0.233505,-0.165713,-0.271979,0.07868,0.520454,0.28073,-0.17826,-0.396768,1.01251,0.579472,-0.232033,0.92903,1.34589,-0.6419,0.44693,-0.137117,0.165232,0.1830566,-0.008003,0.380867,1.130852,-0.586606,-0.5263,-0.35372,1.01122,-0.43448,-0.24462,0.588264,-0.119873,0.133764,-1.53463,-0.34209,-0.56632,-0.195885,0.44941,-0.103851,0.284414,-0.195273,0.514926,0.40943,0.8154,0.86877,0.11286,-0.04862,-0.484152,0.88942,-0.696915,-0.79676,-0.339742,0.88004,0.020845,0.33689,0.43685,0.00644,-0.7357,-0.13724,-0.42471,0.37533,-0.26691,0.2217284,-1.23465,0.87385,0.33627,-0.51775,-0.04529,-0.132686,-0.111834,-0.08392,-0.02413,-0.3777,-0.03606,-0.16613,0.62229,-0.1498197,0.405428,-0.45834,-1.55994,0.39302,-1.27334,-0.642116,-0.83685,-0.2133646,0.87114,-0.45711,0.78952,0.328475,-0.68447,0.6673,-0.20295,-0.138358,-0.6827,-0.03846,0.23587,0.7853,-0.96255,-0.141067,0.00328,-0.03261,-0.17959,-0.04764,0.87802,-0.891838,-0.16074,-0.214567,-0.91051,-0.51386,0.24783,0.69771,-0.9418,-1.74082,0.53022,0.64469
http://dbpedia.org/ontology/Swimmer	0.72285,0.27793,-0.053722,0.61765,-0.00053002,-0.13997,0.64524,-0.2808,-0.33269,1.633,0.36243,0.043168,0.083051,0.34282,0.12799,0.5774,0.59084,-0.25324,-0.24797,0.10881,-0.34645,-0.11821,-0.20307,-1.0664,-0.58282,0.051209,-0.0054579,-0.8298,0.50183,0.35962,-0.069168,-0.16529,0.35072,-0.8089,-0.025772,-0.61773,1.1157,-0.58686,0.43002,0.21426,0.50878,-0.12113,0.11392,0.20934,0.44152,0.11628,0.29793,0.24489,0.28072,-0.0021055,-0.089067,-0.39069,0.17731,0.25493,-0.31074,0.29783,0.10117,-0.24927,0.94221,0.62067,-0.1829,-0.37592,0.60047,-0.14727,-0.83558,-0.2903,0.66104,0.39369,-0.40082,0.34344,-0.4333,0.33286,-0.4534,0.22089,-0.44764,-0.70334,-0.71524,-0.11281,0.10288,-0.42305,0.73017,-0.052732,0.22527,0.18809,0.68789,-0.39295,0.80796,0.30544,-0.4676,0.1215,0.035482,-0.087385,0.20455,-0.0084191,-0.18329,-1.0405,-0.18502,-0.1395,0.26044,-0.038403,0.044656,-0.59682,0.12327,-0.84886,-0.33857,-0.67679,-0.073342,-0.18158,0.16933,-0.61417,0.1179,-0.14092,0.032848,0.4106,0.094869,0.19678,0.35254,0.41799,0.12927,0.19543,0.1234,-0.34055,0.27297,-0.38978,0.27561,0.26234,-0.30706,0.21268,-0.0052782,0.39868,-0.11933,-0.19482,0.80129,-0.44424,0.48096,-0.59922,-0.21354,-0.087189,0.61038,0.57071,-1.0925,0.56977,0.33879,0.57196,0.16008,-0.012794,0.78133,-0.21239,-0.5108,0.56319,-0.14994,-0.037883,-0.17423,0.94692,-0.080874,-0.1092,0.11361,0.65136,0.27453,-0.29903,-0.105,-0.29246,0.13558,-0.17853,0.70844,-0.21662,0.53863,0.34781,-0.48823,0.20336,-0.12082,-0.50003,0.33179,-0.59772,-0.10221,-0.1154,-0.2957,-0.054989,-0.70062,1.0667,-0.22376,0.32522,-0.10738,-0.26117,0.075424,0.090548,0.19757,0.47857,-0.4952,-0.48462,-0.075812,-0.13186,0.17166,-0.032753,-0.0041659,-0.061137,0.46403,0.16259,0.87434,-0.083942,0.26096,0.29583,-0.20878,0.33233,0.015545,0.10427,-0.30746,0.054548,-0.22853,-0.13067,-0.055506,0.08062,-0.51479,-0.48915,-0.46973,0.44553,-0.22333,0.24416,-0.41827,-0.20526,0.039745,0.62922,0.50581,-0.58397,0.22584,-0.25141,0.26998,0.06316,-0.10983,0.35078,0.039367,0.30229,0.32371,0.0096999,-0.2204,0.22331,0.01453,0.92232,-0.55946,-0.31492,-0.40832,-0.76584,-0.042791,-0.19646,0.010258,0.00385,-0.42741,0.32283,0.35194,0.56597,0.10846,0.18495,-0.22555,0.16578,0.095625,-0.13911,0.52749,-0.75562,0.27628,-0.070889,0.21837,0.06363,0.12711,-0.11518,0.15098,0.16517,-0.32918,0.34078,-0.6607,0.011353,0.26665,0.13565,-0.0065693,1.1303,0.0080424,-0.24702,0.1474,-0.5213,-0.50071,-0.16523,-0.48403,0.11831,-0.48345,0.35769,0.29649,-0.44381,-0.55902,0.092988,0.054173,0.04416,0.2338,0.20167,0.083718,-0.60353,0.45797,-0.06533,-0.32958,-0.41057,0.10042,-0.24859
http://dbpedia.org/ontology/TableTennisPlayer	1.0147,0.30881,0.29492,-0.465166,1.40322,-0.21716,0.94428,-0.393918,0.421514,5.2997,-0.5235,1.295208,-0.251094,0.42696,0.79957,0.058802,-0.83795,3.46654,-0.167905,-0.184316,-1.26686,-0.5685,-0.759467,-0.3894536,0.96881,1.145862,-0.45737,0.262717,-0.59133,-0.23963,-0.17201,-0.352309,0.317239,-0.01067,0.287976,-0.90835,0.49165,-0.759917,-0.42866,-0.883949,0.71413,1.28221,1.57875,0.103641,-1.60209,-0.326623,-0.730642,0.73979,-0.536464,0.350564,-1.44814,-0.474239,0.5787037,-0.02147,-1.278764,-1.37226,0.32029,0.47617,0.2723815,0.57014,-0.665509,1.41103,0.549393,0.39973,-0.095128315,0.9351966,0.58108,0.4533202,0.25406,0.733866,0.54153,0.4819,1.198589,0.31244,-0.21266,0.38384,-0.426949,-0.91738,0.161132,0.32995,-0.3775083,0.041785,0.97071,0.58917,-0.836264,1.827,0.68588,2.150217,0.297035,-0.57812,-0.66236,-0.55389,-1.18328,-0.270316,0.85037,-2.70826,1.10577,0.284593,0.62317,2.38645,-0.98054,-0.23888,0.255805,-0.186515,-0.654621,-1.83206,1.352715,0.50361,0.80907,-0.213876,0.642858,-0.0746603,-0.78818,0.252732,0.221007,0.37662,-0.309857,-0.426931,-0.38023,-0.554604,-0.30546,-0.534,-0.601574,0.59879,-0.393066,-0.950893,-0.80996,-0.1417,0.403899,0.817698,-0.17201,0.17416,-0.016026,-1.174006,0.54133,-0.22434,0.521519,-0.7108045,0.547221,0.127093,-5.3068,0.553245,-0.127647,-0.306975,-0.725061,0.60179,1.49549,-0.1240345,0.058284,-0.52751,0.418774,0.419915,-0.104937,0.799281,-1.27623,-0.871593,0.99645,1.22757,-0.71322,-0.43324,0.0758,-0.2578751,0.4405,-1.32228,-0.106704,-0.56933,0.559822,1.00346,-1.12062,0.62868,-1.8712,0.183435,-0.68341,-0.392601,0.227293,-0.267095,-0.11021,0.555629,-0.4703,0.204526,-1.343988,-0.393806,-0.159275,-0.329058,-1.185592,-0.563441,-0.24814,1.159773,0.18915,-0.264643,-0.8053423,-0.46036,0.593538,-0.51999,-0.86861,0.02575,0.10058,0.506721,0.354781,0.89514,2.22782,-0.03324,0.533641,0.191781,-0.1729824,-0.0618223,0.45448,0.346452,0.169602,-1.356236,-1.00703,-0.362576,1.09904,-0.880193,0.523738,1.27451,-0.170454,-0.086066,-2.25742,0.016101,-0.214157,0.59982,0.108727,-0.01212,-0.564709,0.03559,0.811222,0.477651,1.579832,1.6649,0.03536,0.11953,-0.251781,0.8331677,-1.184466,-1.063222,-0.476728,1.83586,-0.412501,1.17366,0.415666,0.31161,-0.77202,-0.012772,-0.86626,0.0112,-0.07963,-0.4964931,-1.71173,1.19741,1.350967,-0.525493,1.06362,0.065736,0.095271,0.597689,0.2004,-0.274629,-0.56545,0.22396,1.487825,0.3929733,-0.5268,-0.306427,-0.80884,1.06725,-1.14092,0.191496,-0.29152,-0.7913046,-1.24494,-0.09002,0.931143,0.31351,0.010761,-0.067566,-0.150181,0.343626,-0.68617,-0.359251,-0.50269,0.42887,-1.33822,-0.63365,0.16992,-1.41746,-0.0841,-0.322107,0.512127,-0.223678,0.98548,-1.006213,-0.2513,-0.04881,0.922819,0.5044757,-0.238002,-1.74821,0.882175,-0.19251
http://dbpedia.org/ontology/TennisPlayer	1.16438,0.7306,0.43655,-0.516294,1.06688,-0.47914,0.81639,-0.500118,0.244294,3.9952,-0.27542,0.627798,-0.15912,0.61323,0.75862,0.001629,-0.60873,1.18944,-0.280445,0.205444,-0.7515,-0.75578,-0.70974,-0.38394,0.79004,1.15812,-0.468555,0.249368,0.14039,0.06261,0.03873,-0.42541,0.089349,-0.12724,-0.035084,-0.63939,0.84526,-0.615977,0.02527,-0.397669,0.57519,0.92955,1.04941,0.389541,-1.09163,-0.25794,-0.75132,1.06922,-0.56995,0.054334,-1.11806,-0.283389,0.5697606,0.03404,-0.601564,-0.65942,0.56557,0.78377,0.262576,0.36418,-0.75711,0.75081,0.56549,0.420121,-0.213168315,0.3417166,0.80885,0.447858,0.06613,0.303036,0.12114,0.10364,0.431739,0.1874,-0.76738,-0.27821,-0.5051,-0.24108,0.313522,0.19923,0.0120317,-0.075285,0.5261,0.73235,-0.338864,1.329,0.00534,1.438717,0.26124,-1.04739,-0.38534,-0.11595,-0.83626,-0.073086,0.58471,-2.23757,1.2349,0.244739,0.11113,1.63964,-0.85981,-0.12083,0.27478,-0.22905,-0.418931,-1.02784,0.665155,0.61315,0.06448,-0.337726,0.67337,-0.1852503,-0.65389,0.059112,0.006157,0.70425,0.015283,-0.145621,-0.61449,-0.215334,0.58329,-0.21993,-0.61389,-0.3699,-0.118826,-0.411643,-1.23517,0.55416,0.104599,0.388118,0.03462,-0.04169,0.389144,-1.159219,0.4519,-0.38269,0.377779,-0.71588,0.59383,0.19138,-3.8295,0.59989,0.140443,-0.24575,-0.492531,0.77217,1.33236,-0.1192,-0.321856,-0.22481,0.033764,0.41264,0.055633,0.74649,-1.05928,-0.302813,0.67797,0.64675,-0.47446,-0.95505,0.47725,-0.26581,0.7053,-0.85634,0.048316,-0.37173,0.51895,0.82955,-0.9185,0.2603,-1.39924,0.16479,-0.55458,-0.084571,0.583383,-0.30057,-0.31514,0.237669,-0.24658,0.365346,-0.547768,0.065664,-0.450425,-0.211558,-0.880072,-0.501414,-0.07557,0.634043,0.209455,-0.151163,0.0206677,-0.68796,0.63181,-0.15026,-0.5146,-0.20346,0.02848,0.582722,0.259187,0.59653,1.84762,-0.15332,0.4399,-0.111699,-0.170142,-0.0700434,0.27425,0.021952,0.066022,-0.824276,-0.82473,-0.540256,1.21558,-0.78846,0.314988,1.0028,0.117256,-0.253236,-1.76015,-0.128779,-0.16138,0.15392,0.15915,-0.28669,-0.515316,-0.37425,0.72501,0.340851,1.52636,1.43432,-0.09902,0.01627,-0.202212,0.83628,-0.841126,-0.332522,-0.141848,1.50226,-0.35773,0.7347,0.588586,0.06659,-0.54106,-0.04629,-0.65456,0.5056,-0.21576,-0.0108231,-1.17764,0.99264,1.38377,-0.45993,0.76933,0.015958,0.019478,-0.249661,0.02876,-0.330714,-0.25287,-0.1113,1.44851,-0.0904167,0.22294,-0.36818,-1.02171,0.72181,-1.03691,0.171984,-0.58767,-0.6656046,-0.6034,0.07543,0.580703,0.79726,-0.08903,0.00787,-0.17286,-0.188584,-0.56321,-0.324336,-0.6178,0.29128,-0.84151,-0.07733,-0.15423,-0.83754,-0.64424,-0.539327,0.257807,-0.547178,0.365,-0.96863,-0.49996,-0.4373,1.01334,0.3758257,-0.17235,-1.55502,0.89292,-0.02105
http://dbpedia.org/ontology/VolleyballPlayer	1.00247,0.64088,0.23348,-0.463344,1.30953,-0.168977,0.95269,0.09118,0.169824,3.9023,0.382534,0.42903,0.08702,0.54876,0.59147,-0.079581,0.00174,0.857867,-0.775855,0.617844,-0.66633,-0.56717,-0.210613,-0.38951,0.45754,1.43822,-0.409155,0.09278,0.33038,-0.09929,0.18313,-0.70994,-0.2553,-0.26137,0.20907,-0.5442,0.93673,-0.758367,-0.03843,-0.33753,0.484178,0.78802,1.12606,0.266629,-0.60043,-0.411808,-0.546815,1.06211,-0.3303,-0.383806,-0.84582,-0.22147,0.5156406,0.00761,-1.12448,-0.74921,0.13461,0.53303,0.357886,0.44317,-0.74124,0.78384,0.88152,0.57182,-0.398838315,0.3267666,0.63207,0.69421,0.03704,0.198506,0.10929,0.5237,0.344591,-0.066,-0.77714,-0.35787,-0.91709,-0.02777,0.45535,0.17534,0.1529477,-0.007638,0.52731,0.56626,-0.148914,1.23291,0.16525,1.410517,-0.09902,-0.71986,-0.036244,-0.03858,-0.50147,-0.430816,0.51516,-1.91249,0.90354,0.159069,0.18349,1.66327,-0.32815,-0.45452,0.513326,-0.09268,-0.389861,-0.70123,0.828025,0.2516,0.213402,-0.77091,0.519,-0.1469203,-1.17854,-0.0732056,0.010139,0.601853,0.255873,0.478139,-1.15863,-0.05584,0.55273,-0.50148,0.161826,0.2401,-0.086709,-0.537644,-0.883632,0.58326,0.106649,0.536538,0.00634,-0.20573,0.274158,-0.703329,0.332454,-0.77405,0.373167,-0.56789,0.52365,-0.503743,-3.5238,0.788637,0.181879,-0.078815,-0.345862,0.84202,1.6216,-0.38722,-0.233556,-0.346223,-0.66595,0.25884,-0.151729,0.92194,-0.90389,-0.387913,0.71549,0.47292,-0.179694,-1.09986,0.34967,0.495555,0.61766,-1.2194,-0.01112,0.05578,0.45863,0.99797,-0.54493,0.25062,-1.07683,0.70283,-0.203246,-0.216611,0.28391,-0.6252,-0.92736,0.102272,-0.40972,0.309636,-0.478738,0.358294,-0.566655,0.1559,-0.55605,-0.511754,-0.61292,0.697363,0.355355,-0.245595,0.251841,-0.23827,0.79562,-0.14667,-0.42091,-0.26517,0.03733,0.77548,0.383987,0.56916,1.8905,-0.06575,0.210603,-0.130105,-0.0744013,-0.3996834,-0.062845,0.110717,0.183902,-0.750426,-0.57142,-0.17107,0.87363,-0.46677,-0.40882,1.01733,0.009816,-0.181156,-1.70113,-0.112503,-0.400159,0.08547,-0.21137,-0.68516,-0.291826,-0.63302,0.622749,0.21247,1.5873,1.36085,-0.393289,0.02274,-0.413292,0.38339,-0.716637,-0.45397,0.118398,1.66025,-0.32949,0.55766,0.29687,-0.35603,0.02119,-0.32121,-0.48021,-0.02391,-0.42211,0.0115254,-0.31144,0.74127,1.08833,-0.41532,0.294996,-0.038598,0.137989,-0.49117,-0.17039,-0.64537,-0.58179,-0.414769,1.39531,0.3582303,0.278824,-0.249285,-0.94361,0.56053,-1.20509,0.150204,-0.46392,-0.4604546,-0.38969,0.282618,0.20629,0.76025,0.04771,0.192033,0.187687,-0.130008,-0.6631,-0.54365,-1.00545,0.34479,-1.49841,-0.100332,-0.26998,-0.66416,-1.0583,-0.01187,0.65595,0.061132,0.13215,-0.99338,-0.68831,-0.31924,0.7749,0.303405,-0.332783,-1.47799,0.67738,-0.48456
http://dbpedia.org/ontology/WinterSportPlayer	1.31481,0.469116,0.07873,-0.663971,0.72936,0.230148,1.54855,0.40804,-0.934528,4.05597,-1.07942,0.046983,-0.69792,-0.0293,0.510804,0.111912,-0.9009,2.58696,0.48684,0.327513,-1.232445,-1.44738,0.17705,0.83604,-0.584533,0.45729,-0.77973,0.457274,0.33352,-0.29096,-0.58993,-1.47595,-0.1147089,-0.104355,0.34137,-1.00511,0.82011,-0.80215,0.06849,0.4215,-0.05307,0.82865,0.09214,1.41924,-0.25803,0.258552,-0.346189,1.55515,-0.19506,-0.17254,-0.77711,0.007796,0.574977,-0.730208,-0.01357,-0.268014,0.701786,0.83843,-0.221195,0.05513,-0.343281,0.787884,0.94528,1.15272,-0.156328,0.53566168,0.093463,-0.076948,0.04595,-0.15063,-0.23477,0.19623,0.62654,-0.38571,-0.32447,-0.08927,-0.180491,1.008297,-0.60836,0.86538,-0.06337,-0.25272,0.3509,0.628918,0.295065,0.14527,-1.182223,1.97655,0.54855,0.332855,0.92673,0.114348,-0.570063,0.413797,-0.231087,-2.0117,0.3636547,-0.521274,1.078493,1.50466,-0.23934,-0.06708,0.24763,0.208903,-0.332153,0.41816,0.6272,0.84249,0.09423,-0.72139,0.369345,-1.418187,-0.491313,-0.551992,-1.002267,0.109331,0.717494,-0.092503,-0.08375,-0.391716,0.233953,-0.02735,-0.58914,-0.56033,-0.4071,-0.060541,-0.45332,0.6285947,1.81849,-0.260381,0.906689,-0.489594,0.56748,-0.4171868,0.27226,0.06081,-0.4695,-1.01498,0.79788,0.026713,-4.31352,0.490056,1.81244,0.42873,0.02899,1.11818,1.06703,0.418271,-0.07185,0.37858,-0.96947,0.859726,0.71377,0.82276,-0.774311,-0.293306,0.17998,1.66582,-0.97889,-1.031675,0.579329,-0.321356,0.797,-0.6877002,0.0252383,0.57354,0.50066,0.50546,-0.052101,-0.81361,-1.162247,0.827662,0.090358,-0.16264987,0.99574,0.093624,0.73949,-1.06971,0.32337,0.67184,-0.241158,-0.010232,-0.56966,0.395103,-1.07964,-0.21867,-0.1203,0.781707,0.45389,-0.74477,0.660676,-0.00817,0.667016,-0.79086,0.47269,0.18042,0.64572,-0.24601,0.313038,1.51016,0.95383,-0.12063,0.555976,-0.4560604,-0.79876,-0.236606,0.53843,0.3316364,-0.062092,-0.638246,-0.68247,-0.1725,0.30723,-1.028109,0.213866,1.17559,-0.081149,0.078404,-2.37394,-0.475555,0.41226,-0.456285,0.37051,-0.36288,-1.41491,0.053361,0.6551,-0.1002245,1.12447,1.32444,-0.73939,0.53405,-0.06614,1.07413,-0.18428,-0.62102,-0.1404,0.54758,-0.153976,0.942107,-0.35828,0.0651,0.189788,0.5113663,-1.00027,1.2794,0.135964,0.34981,-1.31578,0.45782,0.18837,-1.11329,-0.063546,-0.191733,-0.342955,0.68955,0.085354,-0.346011,-0.05711,-0.196306,1.69464,0.58096,0.35871,0.26773456,-0.611497,-0.3577046,-0.541817,0.24892,-0.770176,0.055426,0.36591624,0.16917,0.177372,-0.079534,-0.08686,0.574619,0.962957,0.3158,-0.68988,0.074679,0.04009,-0.21159,-1.409373,0.35855,0.02616,-1.11458,-0.20278,-0.610432,0.515872,-1.28775,-1.42249,0.0967,-0.829361,-2.242104,0.669419,-0.423965,-0.60681,-0.97613,0.501046,-0.84942
http://dbpedia.org/ontology/Wrestler	-0.64676,0.023554,-0.31575,0.36489,0.10914,0.33273,0.39671,-0.47416,-0.15857,1.7038,0.045214,-0.24268,-0.0033474,0.56227,0.85614,-0.21188,0.88608,-0.79291,-0.49436,0.33636,-0.42694,-0.23728,-0.35749,-0.22593,-0.78209,0.098487,-0.22625,-0.24313,-0.27876,0.37094,0.18445,-0.050664,-0.15771,-0.81953,-0.19449,-0.50926,0.12096,-0.72972,-0.96166,0.34617,0.25642,-0.29476,0.28199,0.19102,-0.073507,0.054984,-0.11357,-0.32274,-0.42345,-0.33358,-0.05308,-0.047435,0.99291,-0.67557,-0.45308,0.71246,0.52619,-0.23983,0.1916,-0.22169,-0.46775,-0.34971,0.44164,-0.060998,-0.15297,-0.21167,0.00080862,0.054359,-0.21252,-0.020671,-0.26176,-0.16412,-0.30329,0.037604,-0.6202,-0.14617,-0.34916,-0.44387,0.27386,0.050741,0.78837,-0.12796,-0.042325,0.22693,0.41853,0.28358,0.6027,-0.28835,-0.80772,-0.44542,-0.41906,-0.38425,-0.44269,0.15435,0.37833,-1.1266,-0.024975,0.32107,0.39478,0.037277,0.014194,-0.12081,0.097601,-0.59576,0.046333,-0.18738,-0.4974,0.2711,-0.27876,-0.48033,-0.12105,-0.054014,-0.080596,0.34683,-0.35584,0.25877,0.47669,0.25512,-0.087574,0.080469,-0.34626,-0.15979,-0.075267,0.26567,-0.39205,0.10415,0.011774,0.30151,-0.15857,0.26672,-0.82448,-0.073997,0.22566,-0.14219,0.32638,-0.34021,0.25468,0.18274,0.20521,-0.17267,-1.9177,0.4121,-0.59114,0.84192,-0.14625,-0.066713,0.781,-0.38412,0.65568,0.16929,-0.70837,-0.37825,-0.05354,0.31841,-0.29387,-0.29904,0.60373,-0.13362,-0.12864,-0.14581,-0.1243,0.43282,0.015303,-0.29922,-0.029421,-0.41602,-0.5599,0.009792,0.039412,0.0026795,-0.5657,-0.57001,-0.29663,-0.18125,-0.11985,-0.22334,-0.16439,0.52207,-0.73176,0.4396,0.80969,0.39394,0.14783,-0.10896,0.041973,0.0080149,0.090286,0.70345,-0.14032,-0.041368,0.097115,0.26382,0.44891,0.25676,-0.041201,-0.2882,-0.17972,-0.12862,0.1353,-0.0082788,0.64653,0.096447,-0.07156,-0.062487,-0.61156,-0.13995,-0.15036,0.081602,-0.026253,0.1105,-0.10112,0.15043,-0.32956,0.12238,-0.58888,0.071784,-0.44567,0.16606,0.0027329,-0.001853,0.44809,0.024799,0.51914,-0.076564,0.0874,-0.10919,-0.016535,0.69751,0.23002,0.8333,-0.31496,-0.25038,-0.17587,-0.63184,-0.076094,-0.4276,-0.81634,0.33767,-0.31842,0.31543,0.19997,-0.31743,0.40649,0.40942,0.48426,-0.12029,-0.34913,0.22274,0.37734,0.62738,-0.093986,0.32153,-0.39231,0.084785,0.10385,-0.18612,0.068002,-0.2484,0.31131,0.54098,0.038253,-0.025546,0.24531,0.20097,-0.48207,0.45735,-0.62589,-0.28846,-0.33022,0.35098,0.46752,0.1908,0.33734,0.65851,0.38627,-0.48398,-0.38734,-0.48692,-0.41029,-0.28727,-0.28867,-0.11323,-0.63833,0.15251,0.40004,-0.21377,-0.89883,0.13365,-0.17133,-0.41178,0.47186,-0.37523,-0.56532,-0.37596,-0.40536,0.093002,-0.26699,-0.74204,0.44038,-0.0053373
http://dbpedia.org/ontology/Athlete	0.43455,0.57603,-0.15886,0.35071,0.21128,0.23233,0.49261,-0.19765,-0.0018139,2.5527,-0.13536,0.49524,0.01331,0.86014,0.41394,0.70401,0.76881,0.068933,-0.13944,0.44772,-0.4204,-0.38575,0.026323,-0.58519,-0.71828,0.21857,0.037734,-0.057032,0.071737,-0.04568,0.073354,-0.10299,0.29554,-0.28802,-0.094223,-0.27388,0.51766,-0.55057,0.12587,0.29638,0.23407,0.052265,0.15067,0.48052,-0.48406,-0.34786,0.0016183,0.59054,-0.0045015,-0.0040007,-0.44945,-0.38504,0.23573,-0.34203,0.060442,0.094775,0.44633,0.24015,0.34341,-0.084386,-0.0080203,-0.024747,0.44531,-0.0024535,-0.31396,-0.55082,0.0033399,0.11546,-0.36192,0.39648,-0.59204,-0.00085655,-0.10657,0.049873,-0.51517,-0.23087,-0.46013,-0.325,-0.11001,-0.1512,0.48989,-0.33332,0.092355,0.33836,0.18802,0.050333,0.42602,0.3251,-0.54521,-0.68351,0.14225,-0.024168,-0.63052,-0.10978,-0.065431,-1.5229,-0.29134,-0.37045,0.25121,0.35784,0.22218,-0.11287,0.32978,-0.63756,-0.0065166,-0.86488,0.15467,-0.12959,0.29142,-0.52194,-0.35297,-0.35484,-0.058379,0.14227,-0.63626,0.26108,-0.10852,0.1173,0.35328,0.05896,0.034666,-0.18319,-0.16447,-0.0619,0.35946,0.70333,-0.1726,0.13861,0.23717,0.073389,-0.11987,-0.015581,0.29981,-0.24026,0.41325,-0.83575,-0.070368,0.035433,0.27174,0.13455,-0.80622,0.46745,0.12849,0.69697,0.10104,-0.27363,1.2575,0.04475,-0.11354,0.44489,-0.24798,0.47192,-0.23761,0.85004,-0.11036,0.36822,0.46431,-0.27802,0.075064,-0.59855,-0.12605,-0.12844,-0.081672,-0.33225,0.20681,-0.53706,0.60453,0.13227,-0.40102,0.047713,-0.48677,-0.72759,0.19525,-0.25554,-0.092914,0.1466,-0.50301,-0.23515,-0.39155,0.79087,0.048462,1.0304,-0.19483,-0.053081,-0.11111,0.092624,0.20523,0.81697,-0.12606,-0.11079,-0.026594,-0.23969,0.16094,0.030965,0.012602,0.22952,0.19845,0.025167,1.0095,0.18559,0.40086,-0.10152,0.015626,0.045219,-0.77134,0.40744,-0.20645,-0.089551,-0.29607,-0.45088,-0.02437,-0.30599,-0.10509,-0.0082667,-0.58649,0.39374,0.06795,-0.12318,-0.3652,-0.3557,-0.012957,0.087086,-0.057994,0.031655,0.16213,0.033896,0.45715,0.083586,0.34939,0.81499,-0.32068,0.21032,0.046905,0.069381,-0.35707,-0.52843,-0.37451,0.57817,-0.52773,0.36482,-0.26921,-0.048689,0.21461,0.11467,0.011504,0.38124,-0.26374,0.22422,0.076307,0.58623,0.026586,0.16953,-0.18981,-0.031161,-0.22037,-0.11987,0.36062,-0.48387,0.20981,0.073784,0.12951,-0.27258,0.38936,0.0067463,-0.078202,0.91479,-0.099393,0.33543,-0.19011,0.31091,0.37217,0.0066012,-0.013994,0.17369,-0.11866,-0.064814,0.11157,-0.25671,-0.63374,0.036204,-0.82982,-0.088639,-0.49343,0.38408,0.043718,-0.27484,-0.81115,-0.42594,-0.078277,0.013631,0.27378,0.17798,-0.20627,-0.80999,-0.1544,-0.11667,0.049727,-0.2011,0.33896,-0.20478
