http://dbpedia.org/ontology/Broadcaster	0.67676,0.23061,-0.37109,0.70935,-0.015909,-0.25853,0.29339,-0.2311,-0.60006,1.8827,0.312,0.081791,0.038654,0.30675,0.59898,-0.29311,0.28674,-0.95909,0.27308,-0.66635,0.13435,0.2283,-0.079048,-0.10919,0.60053,0.0052647,-0.56811,-0.07667,0.14957,-0.18046,-0.48564,-0.36025,0.56269,0.00095834,-0.064011,-0.1437,-0.33628,-0.18115,-0.0018513,0.10151,0.95149,0.1451,0.47731,0.95208,-0.27705,-0.30835,-0.33705,-0.1946,-0.12136,-0.20771,0.1211,-0.51392,0.1104,0.022955,0.077043,-0.14128,0.201,0.40363,0.15242,-0.2083,-0.54582,0.63042,0.12488,0.20351,0.057471,-0.28459,0.36952,-0.14536,-0.28715,-0.28855,-0.15238,0.1345,-0.60028,-0.020869,-1.1134,0.056459,-0.2067,0.52357,-0.34713,0.52404,0.53176,-0.042981,-0.7126,-0.23587,-0.065715,0.22144,-0.69703,-0.39738,0.059835,-0.53474,-0.50497,0.05352,0.010507,0.64644,0.53133,-0.6336,-0.067504,0.026099,0.31846,-0.15,-0.21031,-0.25717,-0.062381,-0.08031,-0.38469,-0.9351,0.072735,-0.038581,0.3338,-0.075203,-0.82632,0.1998,-0.41403,0.69682,-0.52489,0.057878,-0.21447,0.75238,0.5396,-0.173,0.0025227,0.16758,0.1459,-0.29384,-0.30189,-0.11904,0.49515,0.1814,-0.50074,0.23361,0.1766,0.7022,0.45237,-0.39421,0.21078,-0.31415,-0.41866,0.026075,0.43004,-0.41951,-0.43066,0.46216,0.3354,-0.394,-0.24173,0.046433,0.39522,-0.75742,-0.352,-0.39735,-0.00259,0.38881,-0.25251,-0.11545,-0.30054,-0.19769,0.27843,-0.12847,-0.09744,0.54902,-0.28873,-0.84589,0.2865,-0.29507,-0.095123,0.54372,0.1588,0.26334,0.12143,-0.78774,-0.7921,-0.50977,0.16242,0.095381,0.8518,0.21146,-0.075279,0.051672,-0.070661,0.45567,-0.049155,-0.42931,-0.13105,-1.0444,-0.2646,-0.13272,0.089391,0.23914,0.4411,-0.82157,-0.13843,0.45413,0.42246,-0.60957,-0.48319,-0.42768,0.092054,0.45464,0.21785,-0.38573,-0.045602,0.33217,-0.28543,-0.45061,-0.33545,0.0046645,0.10077,-0.36322,-0.58868,-0.35485,-0.2624,-0.60739,-0.0060282,0.49922,-0.2155,0.08592,-0.54233,-0.36519,-0.60384,0.35653,-0.11127,-0.054249,0.40621,0.10052,-0.0060131,-0.71703,0.50923,-0.83452,0.24977,0.93259,-0.11674,0.11634,-0.052733,-0.29945,0.3394,-0.22424,-0.61341,-0.15755,-0.16138,0.17318,0.88034,-0.15005,0.57351,-1.0208,0.059965,0.14309,0.2875,-0.11623,-0.47981,-0.29296,0.22279,0.40164,-0.32878,-0.25515,-0.23099,-0.33621,0.40596,-0.10194,0.27019,-0.8367,0.33232,0.21018,-0.17614,0.15476,-0.1188,-0.24094,0.29344,0.093923,0.34153,0.18862,0.41995,0.27065,0.33605,0.97066,-0.21171,0.14965,0.18179,-0.12643,-0.44355,-0.40969,-0.011709,0.24204,-0.57325,0.35011,-0.2004,0.066686,0.22823,0.024039,-0.61778,0.75443,0.16212,-0.16092,-0.44418,0.17954,0.43193,-1.1783,-0.30442,-0.30455,0.15674,-0.17517
http://dbpedia.org/ontology/EducationalInstitution	0.0167,-0.88348,0.81374,0.1510871,0.073987,-0.57598,-0.97034,-0.63282,0.49823,5.9114,-1.28017,0.37542,0.24025,0.084004,1.06811,0.2841737,0.25155,2.31524,-0.00267,0.08505,0.091931,-0.61468,0.09606,0.82009,0.72048,0.73149,0.21887,0.37413,-0.37421,0.53444,0.35729,0.08585,0.95325,-0.17278,-0.64673,-0.4602,-0.50335,0.32942,0.10075,0.93681,0.82672,0.105439,-0.151,0.102599,0.49708,0.21155,0.05099,-0.149058,-0.30305,-0.92464,-0.6605,-0.299833,0.84179,-0.09359,0.17427,-0.42069,1.13138,-0.1537,-0.00711,0.207109,-0.1125095,0.01642,0.52267,-0.39751,0.196602,0.204968,0.12145,0.57175,0.39749,-0.96942,0.182201,-1.06757,-0.474501,-0.76759,-0.279052,0.91391,0.275612,0.85358,-0.19289,0.486225,0.328905,0.180123,-0.0254489,0.87279,-0.212143,0.82319,-2.47252,0.45703,0.09581,-0.435247,-0.673,0.452972,0.2898,-0.5311,-0.263453,0.100057,-0.211459,0.47737,0.54455,-0.152585,-0.139044,-0.68111,-0.2991851,-0.355193,-0.104059,-3.3026,-0.38932,0.3633,-0.147414,-0.422822,0.428867,0.77248,-0.77609,-0.63148,0.3374502,-0.12421,-0.073586,-0.403862,-0.185868,0.105765,0.299727,0.39795,0.532435,0.273176,-0.42928,0.691002,0.87868,-0.36965,0.491185,0.081467,0.40174,-0.18847,-0.5751,0.545169,-0.356874,0.542208,-0.504183,-0.1146012,0.149987,-0.43572,0.89902,0.226734,0.47228,0.022,-0.32864,-0.92931,0.522807,0.0621,-1.26076,-0.0764016,-0.133986,0.34937,-0.48743,-0.14963592,0.44985,0.134923,-1.20198,-0.9242,0.70671,-0.80483,0.46373,-0.0232,0.80701,-0.44824,-0.74917,0.02148,-0.180069,-0.43343,0.008815,-0.309976,0.193813,-0.67698,1.18203,0.225328,0.285611,0.003833,-0.40758,0.72763,0.219346,0.092792,0.52952,0.98387,0.67929,-0.18523,-0.05898,0.10178,-0.67815,0.86835,0.400977,-0.319252,-0.72309,0.046653,-0.43292,-0.3896,-0.39753,0.58966,0.36101,0.013327,0.883872,0.29804,0.99065,0.035439,-0.274611,0.01777,-0.24896,-0.3275482,0.067443,-0.100042,0.7857,0.090622,-0.414589,0.74827,-0.445799,-0.291444,-0.01554,-0.258984,0.00241,-0.204757,-0.1982985,0.225714,-0.61179,0.03443,-0.230146,-0.148614,0.81328,-0.06756,-0.095178,0.25199,0.56726,-0.451628,-0.291682,0.027718,-0.07184,-0.54901,0.22351,0.4088663,-0.762683,-0.76092,-0.49336,0.466146,-0.011037,0.14565,0.027108,0.36651,-0.050422,-0.255561,-0.02619,0.207755,-1.31184,-0.39433,0.5622,0.60689,-0.174036,0.35903,0.26754,-0.136023,0.360303,-0.63885,0.680457,0.213622,-0.61269,-0.42473,0.198703,0.72486,-0.24797,-0.90177,-0.379529,-0.5346,1.14952,0.143934,-0.848239,-0.012301,-0.0936225,0.026342,-0.60299,0.31098,-0.039038,-0.21961,-0.18275,-0.72683,-0.66268,-0.575569,0.092712,0.247039,-0.410817,-0.466618,0.48425,0.41281,0.009127,-0.41612,0.4962,0.017442,-0.194442,0.439061,-0.2237467,-0.36945,0.038215,-0.1914183,-0.140816,-0.20235
http://dbpedia.org/ontology/GovernmentAgency	-0.90223,-0.05463,0.521569,-0.2091375,-0.18457,-0.01782,-0.59361,-0.58929,0.517274,7.1489,-1.63586,-0.331278,-0.10023,-0.677974,-0.6414,-0.53794,-0.45591,1.36171,0.244598,0.39355,1.28122,0.1024434,0.056,0.03425,-0.308223,0.36948,-0.4994,0.31465,0.269167,-0.32976,-0.382886,-0.293507,0.808077,0.44337,0.7364,-0.04673,-0.26108,-0.294699,-0.076735,-0.193083,1.18667,0.13029,-0.23409,-0.41553,0.01125,-0.921,0.274554,0.58337,-0.050536,-0.202002,-0.135642,0.04767,-0.50754,0.04606,-0.334684,-0.001713,0.09457,-0.28723,0.77797,-0.386918,-0.17291,-0.94953,0.028958,0.13956,0.52415,0.40585,-0.73231,0.37501,-0.146472,-0.20007,-0.68873,-0.082516,-0.3728,0.05921,-0.07596,-0.2201061,-0.1545,-0.493474,-0.2803,0.24781155,0.94573,0.73785,-0.9883265,0.255117,-0.145881,0.213339,-1.27681,-0.876429,0.90497,-0.43459,1.10293,-0.453827,-0.443206,-1.10902,0.355861,-0.04872,-1.24038,0.22412,0.26992,-0.59031,0.265704,0.5501,-0.429600516,0.80675,0.161991,-3.3646,-0.54132,0.16167,-0.76529,0.125,-0.289621,0.74871,-0.95949,-0.193979,0.00891,0.29504,-0.04422,-0.19381,0.588071,-0.123666,-0.262793,0.40692,-0.318203,-0.59494,-0.645522,0.15125,0.30932,0.2453292,-0.194057,-0.04121,-0.198873,0.13944,0.033437,-0.77815,0.222789,0.54945,-0.40565,-0.05356,0.161363,-0.75084,0.62806,0.57197,0.55157,-0.83733,-0.13379,-1.10489,0.0966799,0.139196,-0.69814,-0.21675,-0.18378,-0.06041,-0.297306,0.04956,1.21488,0.61684,-0.6919984,0.142395,-0.0058259,1.55031,0.344538,0.08414,-0.254192,0.685704,-0.79781,-0.071114,-0.04647,-1.42397,0.352906,-0.0444529,-0.322778,-0.259827,-0.196688,0.00489,0.402976,0.0759666,-0.07049,0.23974,0.686914,0.71258,-0.146278,0.262029,-0.80563,-1.00611,-0.197724,0.95102,-0.283372,0.328427,-0.10311,0.327143,-0.11436,-0.03244,0.38377,0.03827,-0.82187,-0.53569,0.09764,-0.068398,-0.33102242,0.55439,0.235277,-0.1726,0.53999,-0.043579,0.754533,0.218056,0.24028,0.416941,0.58086,0.338902,0.3058368,-0.10596,-0.01522,0.93735,0.05093,-0.18019,-0.41221,-0.620496,-1.11738,0.68747,-0.193995,-0.09737,0.05911,0.55556,0.359061,0.15972289,0.1578673,0.63464,0.7767,-0.32244,0.03174,0.208784,0.04672,-0.72283,0.42895,0.63261,-0.108602,-0.51936,0.85474,0.12586,-0.277103,-0.27505,0.62036,0.47626,-0.63286,-0.2453872,0.461584,-0.267643,-0.47764,-0.87146,0.274223,0.777198,-0.588813,-0.2784045,0.1013,0.79534,-0.611923,-0.161151,-0.393111,-0.55062,-0.156665,1.03242,-0.55642,0.31251,-0.26655,-1.29612,-0.36759,-0.51028,0.80108,-0.139427,0.520678,0.189155,0.4149224,-0.0599,0.74964,-0.261173,0.29286,-0.34413,1.04182,-0.36803,-0.30492,0.0134589,0.19101,1.3513,-0.045398,0.58933,-0.139199,0.77167,0.2496,-0.2016517,-0.2108736,0.00964,1.03999,0.399951,0.091416,-0.60951,0.110887,-0.60705,0.22628,-0.206521
http://dbpedia.org/ontology/Group	-0.21291,0.22692,-0.0038332,0.19456,0.36246,-0.17149,-0.43916,0.097728,0.30465,2.5894,-0.65459,-0.22335,0.15245,-0.25604,0.5671,-0.11116,-0.10057,1.0935,-0.39962,-0.1077,-0.048415,-0.11166,-0.25438,-0.19361,-0.12801,0.44579,0.32122,-0.083002,0.47266,-0.11748,0.35377,0.25984,0.5093,0.21906,0.49593,0.14498,-0.17804,-0.46774,-0.068496,-0.46408,0.10693,0.11155,0.026597,0.23949,-0.27259,-0.38985,0.49542,0.043512,0.2686,-0.11321,-0.40385,-0.12105,0.2038,0.13947,-0.77984,0.30123,-0.79443,-0.30709,-0.16359,-0.32378,-0.14615,0.40256,-0.11356,0.060418,-0.44612,-0.59268,-0.3294,0.52372,-0.50322,0.37795,-0.075288,0.048241,0.064054,-0.16375,0.10669,-0.49852,-0.40388,-0.026683,0.54668,0.21217,-0.034903,-0.052947,-0.38115,-0.18226,-0.050936,0.47307,-0.75683,-0.076821,-0.23253,0.2905,0.40687,0.28639,0.70271,-0.20933,0.007605,-0.2598,0.31433,0.16452,0.24151,0.44724,-0.10017,-0.017506,0.018997,-0.2274,-0.074478,-0.86271,0.50785,0.1164,-0.1955,0.80495,0.57496,0.0064824,-0.075628,0.50493,-0.096366,-0.15367,0.37589,0.41872,-0.34794,0.12272,0.30727,-0.49755,0.46233,-0.41451,0.2085,0.30469,0.53686,-0.35238,-0.3987,0.28685,0.17041,0.48537,-0.11169,0.27256,0.16007,0.037142,-0.1942,-0.23605,0.5557,-0.12225,-0.58292,-0.58254,-0.20346,-0.16874,-0.017557,-0.28067,-0.12554,-0.11058,-0.52438,-0.4195,0.07956,-0.0024528,-0.52806,-0.26113,-0.018501,0.18357,0.13488,0.31626,-0.58742,0.10117,-0.13596,0.1228,-0.0577,-0.19684,-0.16288,0.081795,-0.3884,-0.033522,-0.41235,-0.26582,0.49981,0.26801,0.050331,0.42637,-0.067345,-0.31952,-0.010211,0.027598,-0.16926,-0.17869,0.23184,0.4419,-0.23303,-0.28471,-0.3447,0.11876,-0.4708,0.14626,-0.19477,-0.28751,0.015018,0.034721,-0.42196,0.54378,0.13619,0.032221,-0.12758,-0.29093,-0.13775,0.13617,0.28928,-0.036804,0.34809,-0.11946,0.32266,0.49763,-0.53041,-0.39213,-0.13842,-0.45824,-0.51021,0.89958,0.037624,0.091594,0.010543,0.054086,0.34347,-0.36979,0.057996,-0.058376,-0.26772,0.058803,-0.4441,0.52894,0.035126,0.16098,-0.10813,0.24463,-0.14462,0.098152,0.086974,-0.21726,0.2957,0.085308,0.16816,-0.12719,-0.66583,-0.0069769,0.18761,-0.18601,-0.82964,0.32168,0.3811,-0.13146,-0.4506,-0.12222,-0.55497,-0.25557,-0.12879,-0.39872,0.41778,0.40793,0.14942,0.00043426,0.58489,-0.1208,-0.073499,0.019509,0.0075215,-0.083353,-0.054291,0.081975,-0.28252,0.50742,0.22746,0.05328,0.56204,-0.13941,0.46249,0.071312,-0.44051,-0.21676,-0.36833,-0.37137,-0.023746,-0.034532,0.15994,-0.12677,0.15406,0.213,-0.37516,0.27609,0.052118,0.0038736,-0.28793,0.067389,0.51207,0.0055463,0.49949,0.49813,-0.13539,-0.12924,0.24163,-0.11085,-0.059888,-0.13142,-0.016921,-0.1319,-0.37649,0.26359
http://dbpedia.org/ontology/Legislature	0.27767,-0.21522,0.44323,-0.39321,-0.31417,0.17941,-0.010409,0.01556,0.54375,2.9839,-0.47731,0.36285,-0.54175,-0.21908,-0.73804,-0.035228,0.1235,-0.14073,0.61942,0.1634,0.38603,-0.029834,0.25374,-0.37016,-0.40072,0.2676,-0.22762,-0.050039,-0.68655,-0.18993,-0.87211,0.094649,-0.01947,0.17198,0.18521,-0.088751,0.38547,-0.050199,-0.91993,-0.095701,0.22876,0.18645,0.010806,-0.085255,0.025219,0.044134,0.52794,0.21938,-0.23744,-0.43198,-0.38708,0.73829,0.12049,0.15137,-0.16538,-0.02738,0.52944,-0.023271,-0.23377,-0.56597,-0.5027,0.27035,0.11224,0.43725,0.30621,0.7463,-0.22184,-0.16031,-0.30547,-0.72118,0.13012,0.15829,-0.28449,-0.57676,0.44812,0.077645,0.0019168,0.23445,-0.32232,0.13873,-0.34836,0.046818,-0.27126,0.36094,-0.22933,-0.2908,0.27147,-0.89128,0.39441,-0.0042785,-0.023685,-0.15412,-0.096809,0.11615,0.27543,0.20111,-0.12951,0.17681,-0.019858,0.27438,0.66387,-0.22127,0.11419,0.30368,-0.23689,-1.6109,0.024395,-0.55048,-0.35895,0.44929,-0.21034,0.15925,-0.19203,-0.19594,0.082559,0.021108,-0.043841,-0.89713,-0.21758,0.041254,0.10096,-0.07871,-0.1101,0.61863,-0.6755,0.47951,0.22388,0.32394,0.30192,0.49642,-0.76106,0.33207,-0.11586,-0.28422,0.43679,0.34983,0.19607,0.29754,0.034065,-0.26537,0.60766,0.3746,0.15967,0.1625,0.5787,0.086373,-0.63778,0.2823,0.060017,0.35196,-0.14853,-0.30321,-0.33224,0.23506,0.66416,-0.18605,0.024458,-0.40815,-0.14414,0.30163,-0.075913,-0.17528,-0.30884,-0.09872,-0.98363,0.59025,0.28388,-0.16926,0.18773,-0.0076758,0.14092,0.047848,0.37719,0.38077,-0.54989,-0.56921,-0.056485,-0.23281,0.34996,0.12737,-0.12877,0.18937,0.083938,-0.12419,0.15778,0.069206,0.066312,0.39627,-0.26883,0.50864,0.2564,-0.10551,0.098608,0.23046,0.66878,0.31615,-0.18855,0.72196,-0.3648,0.079147,0.0020477,0.69896,-0.076106,-0.07016,0.25907,0.18886,-0.11107,0.12811,-0.019086,0.30101,0.39228,0.25287,-0.39757,0.45174,0.51709,0.11121,-0.65055,0.31953,-0.13906,0.29461,-0.35687,-0.19705,-0.13199,-0.094392,0.06361,-0.022846,-0.02547,-0.053537,0.54637,-0.076419,0.01216,0.055396,0.37991,-0.207,-0.26526,0.0054242,0.24261,0.159,0.43303,-0.0031851,-0.32355,-0.23238,1.0573,0.30227,-0.69622,0.10999,-0.047661,-0.36746,-0.011219,-0.80283,-0.16328,0.43102,-0.04057,0.039792,-0.28717,1.1249,-0.72718,0.22205,0.14335,-0.29783,-0.040317,0.068996,0.40116,0.25819,-0.34897,-0.22729,0.06246,-0.3671,0.084397,0.43417,0.14549,-0.30161,-0.20911,0.36668,0.58864,0.20484,0.07509,0.11227,0.076026,-0.74567,0.15094,-0.32798,-0.46375,0.4484,0.06022,0.0013097,0.35497,0.49099,-0.080902,0.3823,0.27609,-0.32701,0.18342,0.042537,-0.82457,0.057146,0.2259,-0.60834,-0.16778,-0.11661
http://dbpedia.org/ontology/MilitaryUnit	0.18456,0.644743,1.77921,-0.059026,0.072605,-0.68251,-1.4027,-0.51837,-0.041676,4.6586,-0.08551,-0.81014,0.70263,-0.65559,-0.52684,-0.443699,-0.09722,3.76656,-1.35196,-0.061231,0.323587,-0.18938,-0.238792,0.296874,-0.76247,-0.16479,-0.72785,-0.41565,0.176351,0.365047,-0.29624,0.25519,0.02243,0.55377,0.167554,-0.70605,0.496703,0.26531,0.572121,-0.939955,0.50781,0.343396,0.896993,0.421351,0.90862,0.068361,-0.085466,0.414714,0.17202,0.537073,0.70673,-0.365732,0.267185,1.24004,-0.85685,0.18187,0.167904,-0.450945,0.174479,0.493112,-0.07648,0.58564,-0.16941,0.41385,0.53523,0.00257,-0.63195,0.47273,-0.294644,0.176992,-0.711957,-0.70748,-0.31199,-0.2992638,0.3806,-0.33467,-0.238843,-0.412022,0.22651,0.625541,-0.045561,-0.1425,0.05151,0.322437,0.90654,1.14988,-0.86694,-0.11703,0.51662,0.222134,0.152481,0.49759,-0.205617,-1.04335,-0.3205,-0.90514,0.13,-0.02996,0.2495156,-0.1648,-0.247885,0.58054,0.42547,0.93909,0.0687277,-3.3051,-0.24856,-0.180898,0.050907,0.41499,-0.81519,0.160533,-0.22063,0.400965,0.095384,0.622025,0.3405112,0.1033,-0.33955,-0.07376,0.140505,-0.34378,0.2042,0.177911,0.155522,-0.6806129,-0.031553,0.23077,0.471771,0.150715,0.087152,0.416451,-0.30876,-0.04356,-0.17169,-0.088592,0.41952,-0.10248,0.461052,-0.32093,-0.5396,-0.137826,0.79264,0.482554,-0.354669,0.32944,0.01594,0.74045,-0.23467,-0.59189,-0.54995,0.264929,-0.35148,0.49918,-0.08457,0.310142,-0.03333,0.15414,0.190077,0.43991,0.66575,0.41927,0.262267,0.61526,-0.96101,-0.78612,0.027317,0.0174,0.95267,-0.261841,-0.40105,0.14997,-0.7185,0.17868,1.27797,0.53519,-0.50744,0.49698,0.12706,0.84242,-0.255276,-0.317535,-0.75858,-0.58061,-0.71168,0.17885,-0.454708,0.179921,-0.02544,0.07502,-0.692643,0.60237,0.081286,0.822001,-0.7098,-0.272466,0.401002,-0.89093,-0.59833898,-0.353795,0.490163,0.212745,1.4902,0.331263,0.359348,0.17253,-0.265531,-0.474345,0.02048,0.199009,0.22451,0.318243,-0.14762,-0.23802,0.67898,-0.068283,-0.345482,-0.086376,-0.46607,1.07375,-0.12643,-0.054718,0.7205,0.27871,0.50382,0.11459,0.12001,0.80786,0.83936,0.94601,-0.55287,-0.283724,0.41322,-0.650143,-0.09649,-0.63605,0.295108,0.286759,0.85299,0.55562,-0.399545,-0.009297,0.372764,0.481585,0.56108,0.4952426,0.195125,-0.17826,0.77444,-0.3946,0.484613,1.1073,0.92141,-0.283035,0.061353,0.196514,0.105892,0.408415,-0.5686,-0.54077,-0.90445,0.08837,-0.65374,0.0028,-0.5454589,0.43,0.35642,0.53383,-0.02273,0.13903,0.76537,-0.21988,-0.21148,-0.56926,-0.30197,0.260008,0.3425947,-0.07334,0.71124,-0.58411,-0.35308,0.42369,0.06603,0.130642,-0.70436,0.069609,-0.58319,0.162848,-0.55387,0.248446,-0.529803,0.138362,-0.031125,0.24719,-0.56702,0.0506856,-0.25692,0.60905,-0.430538,-0.171826
http://dbpedia.org/ontology/Non-ProfitOrganisation	-1.986559,0.1312,-0.05514,-0.06585,-0.1358,-0.696122,0.46044,-0.02731,0.651614,5.8914,-1.928464,0.99108,-0.32107,0.207546,1.44869,0.13037,-0.488461,3.70154,-0.383366,0.568952,-0.14107,0.275489,0.138725,0.2848717,0.83106,0.506804,-0.18986,-0.099418,0.71272,-0.374267,0.290369,-0.619253,0.250967,-0.1291137,-0.118939,0.70693,-0.88376,-0.952249,-0.1144247,-0.257089,0.24799,0.085882,0.62328,0.352363,-0.384314,-0.18864,1.55126,0.91823,0.187279,1.51405,0.60568,-0.255197,0.570613,-0.13517,0.046885,-0.743017,-0.076082,-0.73725,0.22208,-0.274985,-0.643513,-0.256169,-0.61248,-1.636863,-0.112645,-1.70396,0.149804,-0.50714,-0.159942,-1.35892,-0.17937,0.27801,0.211784,-0.3817046,-0.127286,-0.098172,0.34145,-0.71735,0.548541,1.265605,0.251688,-0.52724,-0.26559,0.40223,-1.199,0.697028,-1.437963,0.557237,0.623384,-1.1479296,0.49734,-0.017804,-0.0598587,-0.693709,0.13466,0.419848,-0.05207,-0.588148,0.617708,0.390084,-0.743733,0.44135,-1.261848,-0.19942,-0.6698,-5.2042,0.12162,0.768764,-0.116745,1.02648,-0.564047,-0.6488263,-0.30125,-0.66285,-0.4625294,0.186289,-0.011848,-0.436535,0.02915,0.1250498,0.753787,0.26507,-0.070824,-0.19478,-0.59677,-0.24901,0.66412,-0.34158,-0.73602,-0.9707,0.97,0.36668,-0.585922,0.238276,0.273053,0.066167,-1.41029,-0.888578,0.42959,0.067198,-0.56419,-0.99729,1.261123,0.042615,0.110289,-0.934826,-0.87078,0.639274,-0.72404,0.1651236,-0.217612,-0.635813,-0.078071,-0.761001,0.356921,0.66349,-1.1875,0.658394,-0.828031,0.03696,0.132701,0.214831,0.40182,0.519673,-0.292883,-0.187121,-0.20434,-0.093496,-0.58061,-0.0769856,0.15791,-0.200502,-0.675222,-0.738696,1.13758,1.21394,-0.251583,0.6147718,-0.4846,0.65517,0.793068,0.7753,-0.056961,-1.45284,-0.45959,0.3407262,-0.304079,0.38265,1.11321,-0.77877,-0.20494,0.145501,0.55642,-0.1081,-0.019279,-0.75205,0.37074,-0.328135,1.15929,0.0751,1.0222,0.47091,-0.40737,-0.133425,-0.484361,0.44461,-0.396884,-0.18525,-0.740577,-0.983412,-0.08505,0.68362,-0.164618,1.131279,1.10384,-0.299053,-0.53837,-0.62198,-1.24863,0.459092,-0.708404,0.927162,0.3357236,-0.78537,0.352983,-0.29088,-1.18048,-0.302002,-0.26374,-0.91508,0.35276,-0.96671,-0.56949,-0.519128,1.002324,0.270343,-0.626226,-0.192829,-0.79446,0.37111,-0.80628,0.32955,0.745676,0.63945,0.7178,-0.868866,1.35257,0.201372,-0.5273693,0.46038,0.928423,-0.04961,-0.741137,-0.69806,0.027139,0.98004,-0.661888,-0.016412,0.0271532,0.119397,-0.153785,0.99213,0.168573,1.56369,0.482166,-1.06743,0.158334,-0.51469,1.53821,-0.82952,0.025743,-1.1486,-0.2463458,0.556026,-1.438051,0.30212,-0.38438,-0.41081,0.07256,0.606297,-0.012988,-0.325595,0.24428,0.41457,-0.475357,-0.04903,-0.061963,-0.54844,-0.15151,-0.180931,-1.08561,0.54917,0.613807,-0.4844799,0.3344,0.410553,-0.109492,-0.7393064,-0.1992634,1.05452
http://dbpedia.org/ontology/PoliticalParty	-0.2076354,-0.4357,1.25738,0.200085,0.10971,0.12752,-0.79522,-0.14105,0.417499,6.5146,-1.03156,-0.50795,0.01933,-0.301056,-0.43569,0.110668,-0.35125,0.343341,-1.09645,0.52103,0.44572,-0.633214,0.088171,-0.254774,0.690709,0.23458,-0.15222,0.689839,-0.43218,-0.32758,0.711,0.338628,-0.23666,-0.16734,-0.00226,0.08177,-0.2979679,-0.68849,-0.1446,-0.51608,0.66473,1.03316,-0.56237,0.456772,-0.144063,0.49573,0.35035,-0.715,0.01250155,-0.5732,-0.002615,0.82447,0.6161,0.28457,-0.69194,0.292688,-0.222943,-0.09096,0.47084,-0.42543,-0.39437,1.59336,-0.22875,0.22574,-0.072378,0.55238,-0.466859,-0.06822,-0.095952,-1.02611,-0.0471295,0.659094,-0.132437,-0.73739,-0.00031,0.0502059,-0.83283,0.01081,-0.31783,0.40179,-1.00091,-0.4175,0.070374,-0.150188,-0.88291,0.92981,-0.89774,-0.57809,0.73145,0.043463,0.079009,0.136057,0.4757961,0.6886,0.027304,-0.26758,-0.82778,0.528076,-0.0321506,-0.38372,-0.127819,0.46242,0.096628,-0.8227,-0.00542,-2.48091,-0.54874,0.009604,0.266172,0.61874,-1.1345,-0.41535,-1.08916,0.513814,-0.500116,-0.63114,-0.506579,-0.55158,-0.61066,-0.28232,-0.801982,0.316143,0.11553,1.36861,-0.77635,0.38421,0.170382,0.675194,-0.93066,0.53895,-0.65155,-0.75793,-0.21559,-0.77856,0.09779,0.19423,-0.06559,0.279043,0.491257,-0.62165,-2.89687,-0.17942,0.74067,0.14429,0.76115,-0.80393,0.36759,-0.424,-0.62611,0.13922,0.444292,-0.28107,-0.549891,0.043371,0.372027,0.366971,0.66557,-0.361715,-0.196589,1.11122,-0.47362,0.02177,0.50299,0.64648,-1.26909,-0.55799,0.14937,-0.47819,0.8164,0.27726,0.27556,0.30968,-0.367377,0.52054,0.08814,-0.53777,-0.52691,-0.129856,0.85893,0.12084,0.11973,0.02283,0.37617,-0.5767,0.5778,1.03906,-0.243779,-0.76805,0.076763,0.395238,-1.02188,0.188289,0.43335,-0.18751,0.25064,0.350933,-0.58,0.37305,-0.47195,0.93322,0.2076911,0.55177,0.57841,-0.399755,0.71329,0.50358,-0.48546,-0.173055,-0.332554,-0.46066,-0.80022,0.91797,-0.74237,0.49414,0.64666,0.407555,-0.56719,-0.15697,-0.97489,-0.141446,-0.106134,0.171215,0.00738,-0.248803,-0.069849,0.52789,0.39816,-0.240958,-0.15743,-0.14175,-0.46022,0.32608,0.014602,-0.375509,0.187464,0.59327,-0.89608,-0.06676,0.160888,0.297321,-0.431084,0.22284,0.299701,0.60842,-0.20161,0.42939,0.3908,0.15357,-0.78117,-0.42991,-0.140289,1.40644,0.01637,-0.75677,-0.138058,0.91224,-0.327433,-0.66183,0.080596,-0.38395,-0.85321,0.83432,-0.8602,0.95713,0.37755,-0.265131,-0.06252,-0.444211,1.51405,-0.6532,-0.855184,1.02118,-0.87976,0.031985,0.78533,0.63853,0.05431,0.56637,0.15484,0.347899,0.35342,-0.440905,-0.010304,0.623,-0.24335,0.6825,0.291628,0.450062,0.302799,0.45669,-0.60098,0.47648,0.66759,-0.0552626,0.134475,-0.45921292,-0.230068,-0.145537,-0.12128,-0.268043
http://dbpedia.org/ontology/PublicTransitSystem	0.20162,-0.42407,0.34212,-0.397606,-0.28281,0.385442,-0.748168,-0.602987,-0.553751,7.1784,-1.022891,-0.20259,0.789066,0.229384,-1.93653,1.214212,-0.16251,5.4144,0.51942,-0.120051,0.048456,0.365962,0.24188,-0.477489,1.064282,0.00965,-0.289327,0.553798,0.48496,0.16448,-0.4526124,-0.390013,-0.02991,-0.432011,-0.21082,-0.51888,0.34562,-0.4910517,-0.042067,0.877073,0.913649,0.433376,-0.153874,0.795083,-1.34848,-0.603094,-0.84157577,0.40637,-1.578193,-0.080055,0.11763,-0.2085834,0.31931,0.5954,0.05162,0.638168,0.864606,-0.220913,-0.74391939,0.058151,0.39098,-0.330635,-0.773403,-0.021839,0.98223,0.73233,-0.79303,-0.78258,-0.068593,0.11955,0.401766,-0.7335583,0.76399,-0.6846,-0.0717,-0.685877,-0.347922,-0.04816,0.006129,1.61386,0.20599,0.0187,0.28171,0.0334,-0.536624,0.584219,-0.753663,0.31521,0.241594,-0.897795,-0.46872,0.45334,-0.585308,-0.857896,-0.0566153,-0.29944,-0.649718,1.23766,0.6063953,0.599493,0.265983,-0.50377,0.016147,-0.757,-0.5862,-4.9715,0.274114,0.088249,-0.85903,0.313568,-0.60631,0.088458,0.052783,-0.33358,-0.087174,-0.010353,-0.328314,-0.580615,-1.344944,0.93941,-0.3032,0.528018,-0.232006,-0.161151,-1.16695,-0.5495553,1.27938,0.24887,-0.23437,-0.854997,-0.396315,-0.27689,0.08738,-1.62594,-0.48865,0.509721,-0.458395,-0.5345347,-0.13984,-0.761912,-0.116822,-0.834819,0.94951,-0.273469,-0.419493,0.28973,-1.10379,-0.653545,-0.320728,0.25708,-0.687683,0.94694,0.005778,0.553688,0.23556,-0.566395,0.279747,-0.141604,0.12446,0.349165,0.054959,0.3867662,0.055852,-0.742397,-0.55038,-0.4747,0.237955,-0.670096,0.341789,0.037479,0.7246068,-0.184717,-0.14331,0.512807,0.9172,0.420123,-0.02915,0.11876,-0.001574,1.41649,0.348732,0.01075,-1.48572,-0.2695,-0.34472,0.4184,-0.851894,0.405463,-0.49455,0.371343,-0.27752,-0.58234,-0.91861,0.233038,-0.066213,0.209698,0.05091,0.319476,-0.906301,0.367611,0.497052,0.371932,0.05566,0.95566,0.66739,0.007878,0.271324,0.212309,0.127995,-0.1536062,-0.54993,-1.56292,-0.39905,-0.208689,-0.190615,-0.58796,-0.59906,0.30619,-0.37911,0.152843,0.263623,0.496033,-0.5569,0.1703,0.057349,-0.129313,0.74037,0.66103,-0.20598,0.68153,0.44134,-0.83545,0.96721,-0.91349,0.550766,1.35909,0.850473,-0.640361,0.36621,0.256671,-0.07811,-0.774483,0.916535,0.113302,-0.044125,0.05804,-1.05334,-0.359017,-0.62028,-0.19869,0.216643,0.67406,0.5398,-0.362485,-0.35596,0.7626,-0.07671,-1.36041,0.30833,-0.00351,0.62246,0.510986,-0.608915,0.436222,-0.628719,-1.32826,-0.52551,-0.228161,1.853182,-0.03732,0.8045,0.699497,0.04373,0.15341,0.80689,0.448325,0.91701,0.090051,0.5858159,-1.09353,-0.264377,-0.60468,0.25647,1.61002,-0.823589,-0.42406,1.006414,-0.05864,0.249381,-0.335651,-0.72514,-0.54276,1.50859,0.5798412,0.44115,0.0715907,-0.484604,-0.10795,0.147643,0.26325
http://dbpedia.org/ontology/SportsLeague	0.87821,0.75147,0.393216,-0.02353,0.92414,-0.62118,0.60862,0.416113,0.542325,5.0684,-1.20728,-0.07843,0.62897,0.441845,1.03728,0.071129,0.195992,0.655094,0.39344,-0.3806,-0.398941,-0.50719,1.47361,-0.39578,-0.40035,0.71804,-0.70263,0.62174,-0.27526,0.2656144,0.133986,0.01822,-0.108081,-0.55746,-0.04157,0.31975,0.253175,-0.660778,-0.23901,0.95418,-0.210123,0.89051,0.254262,0.90369,-0.93924,-0.77884,-0.16369,1.74463,-0.2153,-0.47056,-0.02258,0.107494,0.549722,-0.68777,-0.67228,-0.155571,0.424628,0.89047,0.04499,0.23657,-0.42184,0.76975,-0.12822,0.89859,-0.66112,0.08387,-0.16908,-0.0485153,-0.06652,-0.08104,-0.41395,-0.08718,0.55165,0.020004,-0.93282,0.43675,0.105924,0.4772704,0.300348,0.93367,-0.70995,-0.09725,-0.233763,0.09347,-0.349923,0.301228,-0.284741,1.47161,0.29698,-0.66353,-0.20656,-0.17996,-0.66426,-1.21871,0.58321,-1.6622,0.399991,-0.29628,0.6999,0.867135,-0.007037,-0.219858,-0.47756,0.01991,0.153373,-1.43905,0.8498,0.162841,0.34209,-0.40427,-0.33285,-0.252519,-0.83149,0.38718,-0.73276,0.833516,0.154658,0.41753,0.179095,-0.40029,0.64442,0.28614,-0.222053,-0.295682,0.328137,0.00609,0.014363,0.279884,0.390935,0.344825,0.40965,0.00691,0.211117,-0.675952,0.089464,-0.77632,-0.16088,-0.96481,0.59952,0.08688,-3.1072,0.71739,1.05569,0.42484,0.283463,-0.075932,1.26057,-0.66018,-0.22009,0.43843,-0.312767,0.482323,0.181776,0.67067,-0.208316,0.088066,-0.282547,0.948881,-0.38169,-0.078472,0.74323,-0.554237,0.73259,-1.75705,0.1160242,-0.25124,-0.0971584,0.17793,-0.1606957,-0.353568,-0.64398,0.3728785,-0.44486,0.13213,0.73768,-0.247498,-0.53422,0.183578,0.210335,-0.0922927,-0.39205,0.4271,-0.57174,-0.326038,-0.87958,-0.083059,0.189396,0.593437,0.446047,-0.48599,0.31466,-0.12591,0.23356,-0.24099,-0.564464,0.167647,0.53888,0.06604,0.75259,0.87733,1.64494,-0.195889,0.64353,-0.208555,-1.18887,-0.3915,0.042294,-0.082627,-0.74964,-0.2053,-0.93151,0.68332,0.93449,0.00213,-0.57895,0.78348,0.137712,0.05485,-1.09022,0.17544,0.03327,-0.76614,-0.53611,-0.239907,-0.703164,0.076676,-0.57914,0.79454,1.39811,0.84686,-0.32922,0.45518,-0.46765,0.44403,-0.54141,-0.71184,0.086654,0.381838,-0.4730144,1.030881,-0.243626,-0.74572,0.48122,0.522702,-1.02785,0.544711,0.14017,0.30211,-1.18113,0.59216,1.12656,-0.668,-0.10881,-0.33511,0.225516,-0.17624,-0.68827,-0.46771,-0.71817,-0.27443,1.35126,0.625483,-0.31105,0.1505,0.40166,0.55444,-0.64552,-0.297806,-0.1546,-0.407715,-0.77037,0.20589,0.33391,0.367027,-0.38428,0.1779249,0.71612,0.34182,-0.69704,-0.49308,-0.83589,-0.23702,-1.24038,0.86029,-0.56198,-0.39821,-0.31694,-0.439108,0.650363,0.228113,-0.04575,-1.05431,-0.26979,-0.85446,0.32833,-0.64766,-0.32126,-1.43334,0.775777,-0.02194
http://dbpedia.org/ontology/SportsTeam	0.56974,0.53169,0.46514,-0.335461,0.74165,-0.39081,0.29427,-0.008129,0.450245,5.3168,-0.8586,-0.4979,0.413975,0.317075,0.88627,-0.313891,0.348122,1.34826,0.236156,-0.30765,-0.1927,-0.66397,0.340469,-0.81025,-0.307408,0.81848,-0.62407,0.377339,-0.03784,0.0699,0.146057,-0.65367,0.048789,-0.04863,0.12728,-0.090334,0.74294,-0.282618,-0.052143,0.23782,0.127387,0.4671,0.208832,0.33514,-0.93969,-0.77621,-0.16913,1.27941,0.21544,-0.187991,0.37311,-0.391196,0.85132,-0.87145,-0.61641,-0.09846,0.14071,0.8348,0.48791,0.212468,-0.37053,0.533683,-0.26557,0.92511,-0.2261255,-0.188414,0.1787194,0.451624,-0.04794,0.48748,-0.91073,-0.19434,0.1158357,0.485507,-0.77652,0.122367,0.289862,-0.38573,0.281838,0.74963,-0.20652865,-0.410548,-0.375484,0.38036,0.085572,0.003335,-1.22894,1.65833,-0.18973,-0.40099,-0.13371,0.182624,-0.77984,-0.63739,0.14045,-1.44195,-0.110883,-0.28041,0.20272,0.644885,0.035035,-0.52633,-0.306105,-0.48888,-0.0561738,-1.11434,1.00009,0.319448,0.082831,-0.25658,-0.467206,-0.76918,-0.34965,0.51422,-0.22241,0.548576,0.275908,0.57401,0.02752,-0.10514,0.94818,-0.18738,0.24503,-0.49718,0.243754,-0.2772,0.225048,0.55241,0.0472,0.02504,0.229609,0.45312,-0.203683,-0.80861,0.291122,-0.73476,-0.3889,-1.09813,0.66105,0.15209,-2.50622,0.46054,1.24161,0.66208,0.60676,-0.1188197,0.73225,-0.11431,-0.135851,0.05006,-0.58121,0.596838,0.116058,0.370373,-0.51151,0.324489,-0.236787,0.426181,-0.239853,-0.29761,0.499601,-0.42433,0.572563,-1.42735,0.54079,-0.312225,-0.128384,-0.0577,-0.3179757,-0.04472,-0.86596,0.0304465,-0.78415,0.27614,0.096419,-0.228958,-0.56817,0.40631,0.00081,0.1640443,-0.03486,0.28555,0.23292,0.0462477,-0.55132,-0.158947,0.09812,1.06563,0.263547,-0.344425,0.14845,-0.39994,0.19231,0.11335,-0.85159,0.509007,0.79925,-0.173215,0.74318,0.89734,0.87181,-0.30253,0.4155846,-0.1812715,-0.56664,-0.166119,-0.124178,0.246833,-0.71114,-0.292119,-0.93708,0.6921,0.82277,0.21792,-0.14114,1.0214,0.341402,-0.35261,-1.18791,-0.167119,-0.08399,-0.36958,-0.69939,0.152763,-0.7852384,0.110306,-0.280624,0.4375,0.99187,0.532308,-1.10075,0.46551,-0.77678,0.372,-0.45978,-0.339478,-0.15841,0.10446,-0.2474244,1.007545,-0.56686,-0.565045,-0.14587,0.272352,-0.8387,-0.00857,-0.65015,-0.3153,-0.93979,0.75895,0.99658,-0.234029,-0.7642,-0.28106,0.374586,-0.59119,-0.27175,-0.46203,-0.90005,-0.53527,1.36931,0.611173,0.08064,0.136957,0.38074,0.41982,-0.350267,0.163904,0.39153,0.186455,-0.64984,0.2528,0.01008,-0.272923,-0.47645,0.05482,0.79763,0.081932,-0.25742,-0.03022,-1.27763,-0.4536418,-1.24165,0.76397,-0.66777,-0.45919,-0.35966,-0.128798,0.292213,0.000277,-0.225372,-0.88111,-0.15328,-1.0647793,-0.00119,-0.94009,-0.23432,-1.02847,0.704637,-0.23681
http://dbpedia.org/ontology/TradeUnion	-0.542125,-0.02054,0.15186,0.2583102,1.49133,-0.62142,0.144429,0.05772,-0.6949047,5.3831,-0.89756,-0.242103,0.142651,-0.56405,-0.177837,-0.106145,-0.525299,1.40133,-0.173632,0.62383,0.206773,0.80205,0.73954,-0.27162,-0.156365,0.085795,0.101367,0.59922,-0.6206894,0.12397,-0.03417,0.50936,0.108122,-0.4801,-0.384275,0.742037,0.288465,-0.485065,-0.475521,0.17729,-0.38076,-0.00532,0.061621,-0.051493,0.00167,-0.29502,-0.01171,0.447375,-0.166633,0.031878,0.42182,0.079918,-0.143836,-0.743226,0.89889,-0.07198,-0.213182,0.721972,-0.67294,-1.2087,-0.30566,-0.51995,-0.02142,0.51012,0.083615,0.651665,0.30147,0.573021,-0.58289,-0.40839,0.07512,0.325785,-0.31165,0.03856,-0.13639,0.44681,0.2100387,0.23964,-0.277007,0.181342,0.23834,0.05065,0.58009,-0.146791,-0.92072,-0.013509,-0.09244,-0.04001,0.151214,-0.021308,0.42396,-0.5536738,-0.097742,-0.98403,0.50589,-0.550209,-0.15819,-0.24261,0.989,0.332226,-0.243514,-0.62797,-0.36819,0.53229,-0.912377,-2.701,0.15072,0.431533,-0.0852891,1.08095,0.5012,-0.22289,-0.255146,0.274616,-0.2022,1.35441,0.61536,-0.33769,0.14995,-0.375981,-0.406402,0.00905,0.46545,0.71384,-0.57279,0.42107,0.379401,0.36173,0.46038,-0.16528,-0.22464,0.39379,0.304779,-0.01754,0.06062,1.09203,-0.46919,0.082081,-0.231288,-1.22247,-1.1541,-0.39535,0.810877,-0.40769,-0.249958,-0.26612,0.34148,-0.447904,-0.01377,-0.28224,0.508119,1.1406,-0.39396,-0.17257,0.70386,0.39871,0.3834943,1.02574,-0.58694,1.13392,0.367724,-0.009474,-0.20353,-0.51569,-0.4765968,-0.141319,0.01763,-0.80411,-0.03222,-0.10094,0.169805,1.28566,-0.55671,0.54188,0.90509,0.41856,-0.53235,0.5494,0.82038,-0.51771,0.04693,0.671726,-0.96676,-0.67807,-0.33726,0.03402707,-0.9936,-1.28117,0.367622,0.3908002,0.04074,-0.06051,-0.636916,0.242416,0.53225,-0.10846,0.73775,0.551189,0.154915,0.7077,0.73734,0.368284,0.67643,-0.44403,-0.35361,0.053552,0.22592,-0.189614,0.22504,-0.12196,-0.157343,0.73365,-0.008627,0.78694,0.46782,0.234501,-0.50889,0.060646,-0.82571,-0.201376,-0.84976,0.49828,-0.067212,-0.921531,0.11686,0.380345,-0.01213,0.88669,-0.16944,-0.15743,-0.013408,0.10799,-0.05044,0.189266,0.60207,0.082091,-0.91544,0.207325,-0.00229,0.432325,0.96178,-0.53182,1.33398,0.500653,-0.204842,0.233161,0.38794,-0.0923111,-0.17976,-0.90931,0.29964,0.353766,0.02085,-0.852206,-0.06172,0.30647,-0.477151,-0.0350869,0.26285,0.360202,-0.0545634,0.418408,-0.08187,1.9822,-0.1979894,-0.219069,0.313364,0.17175,0.7309,-0.732232,-0.10049,0.232814,0.375173,0.97582,-0.165914,0.55378,-0.639765,-0.1109653,0.74034,-0.02626,-0.63261,-0.40034,-0.45178,1.36752,-0.07056,0.202951,-0.450414,0.475993,0.30235,-0.061885,-0.540716,0.376452,1.50293,0.303126,-0.161079,-0.11861,0.01639,-0.392865,-0.294161,1.15303
http://dbpedia.org/ontology/Company	-0.010464,0.39163,-0.33662,-0.84683,0.15433,-0.018507,-0.21521,-0.51394,0.0055722,2.7784,-0.7317,0.040331,0.12255,-0.21674,0.044901,-0.2497,0.19559,1.3566,-0.19514,0.066914,0.3946,0.24551,-0.34957,-0.07881,0.13335,0.22648,-0.091347,0.0094516,0.069236,-0.32644,0.31751,-0.063941,0.092733,0.64521,-0.068239,0.39045,-0.083687,-0.083648,0.19981,-0.14774,0.25461,0.19914,0.27933,-0.24322,0.09882,-0.32354,0.16777,-0.29555,0.36543,0.13093,0.11362,-0.097307,-0.090927,0.27206,-0.097522,-0.38483,0.040447,-0.252,0.35034,-0.54789,0.43454,-0.389,0.049572,0.59363,0.25072,-0.20318,0.064053,0.16337,-0.28892,0.061715,-0.49722,0.023981,0.081569,-0.15475,-0.17447,-0.029285,0.25519,-0.27069,-0.066985,0.23532,0.2441,0.11964,-0.22375,-0.24078,-0.098486,-0.20762,-0.77382,0.69916,0.04517,-0.053558,-0.1128,-0.036958,-0.37487,-0.24288,0.14191,-0.0060118,-0.018057,-0.46063,-0.014689,0.41629,0.043742,0.12396,-0.28764,0.3883,-0.25618,-0.93209,0.6007,0.37488,-0.29642,-0.0044432,-0.070118,0.14031,-0.025384,0.42337,-0.18009,-0.0020668,0.8401,0.19663,0.63289,0.31816,0.30116,0.18255,0.5648,-0.23569,-0.097652,0.2832,0.43568,-0.087018,-0.46105,0.055859,-0.014047,0.030075,0.10563,-0.26131,-0.12569,-0.12196,-0.54208,-0.13919,0.056078,-0.19603,-0.29181,-0.48824,-0.039417,-0.055567,-0.18525,0.071821,-0.092115,0.202,0.26801,-0.39392,0.12197,-0.25809,0.059685,-0.28875,0.11227,0.3714,-0.52194,0.20274,0.22237,-0.052872,-0.4616,0.13812,-0.21861,-0.074643,-0.37099,-0.11487,0.012915,-0.10832,0.33542,-0.27166,-0.22702,-0.14787,-0.59298,-0.14653,-0.14549,-0.39027,-0.15276,0.35521,-0.16505,0.58398,0.8412,-0.046175,0.21379,-0.65961,-0.68491,0.30699,-0.068712,-0.0043984,-0.086723,0.13096,-0.015686,-0.14162,0.32074,0.26579,-0.19753,-0.24909,0.58763,0.30456,0.18604,0.15802,0.16393,-0.16872,-0.090445,0.0029845,-0.023582,0.46096,0.14207,-0.11627,-0.062433,0.11924,-0.71211,-0.083812,0.1363,0.38692,0.61917,0.11584,0.42544,-0.48642,-0.26155,-0.012851,-0.39943,0.12618,0.242,0.68156,-0.096485,-0.48993,-0.16395,0.063033,-0.45254,-0.20757,0.30432,-0.15363,-0.36883,-0.28555,-0.14249,-0.24587,-0.35921,-0.34348,-0.051747,0.090553,0.15935,-0.13188,0.5612,0.34451,-0.097567,-0.5377,0.16771,-0.49156,-0.1978,0.30857,0.21279,-0.081099,0.065559,-0.38106,0.16931,-0.48772,-0.1407,0.44734,-0.18814,-0.056802,0.5251,0.85028,-0.13713,0.21487,0.29107,-0.55315,0.081484,-0.087401,0.56606,0.097683,-0.006652,-0.15748,0.16211,0.15763,-0.24392,-0.024086,-0.21059,-0.037863,0.94303,-0.13673,-0.63093,0.2173,0.21823,0.78548,-0.18056,0.20469,0.056509,0.34943,0.23172,0.11169,-0.96481,-0.036159,0.050163,0.29999,-0.22223,-0.55782,0.018588,0.097204,0.011506,0.33223
http://dbpedia.org/ontology/Organisation	0.013131,0.17006,0.23494,0.037997,-0.19948,-0.054402,-0.14362,-0.17095,0.28092,2.47,-0.93016,0.28707,0.1016,-0.080624,0.6925,0.1507,-0.19469,0.53894,0.039514,-0.094518,0.18566,0.018529,0.24444,0.18068,0.29404,0.3669,0.09588,-0.090321,0.029571,-0.47104,0.23403,-0.22447,0.40243,0.11204,-0.016021,0.10732,-0.44374,-0.31017,0.0016153,-0.075389,0.2763,-0.033224,-0.1599,0.14153,-0.19289,-0.28765,0.52626,0.2578,-0.093461,0.48563,0.34364,-0.39188,0.53065,-0.12032,-0.039115,-0.082997,0.062079,-0.27876,0.81193,-0.062073,0.012007,0.026161,0.24021,-0.92794,-0.25325,-0.36209,-0.26144,0.10672,-0.02595,-0.36693,-0.2226,-0.24818,0.13868,-0.0091226,0.026891,-0.026107,0.16358,-0.42613,-0.16191,-0.015275,-0.039615,0.10348,-0.17128,0.32463,-0.13724,0.032278,-1.3702,0.27018,0.064034,-0.0055096,0.52918,-0.045193,0.036737,-0.052729,0.20393,0.26483,-0.1672,-0.090228,0.2264,0.12964,-0.41454,-0.50661,-0.066078,-0.25135,-0.11593,-1.9053,-0.18267,0.43525,-0.09934,0.34798,0.063493,0.0069137,-0.41512,0.25682,0.0081206,0.17725,0.3083,0.18071,-0.14745,-0.017898,-0.020313,0.016379,0.089056,-0.20204,0.16155,0.12304,0.23768,-0.27638,-0.44612,-0.11122,0.18239,0.41555,-0.28543,0.26735,0.1448,-0.055366,-0.40775,0.018462,0.70869,-0.26183,0.54474,-0.21015,0.027453,-0.015885,0.23464,-0.82257,-0.04644,0.089074,-0.3115,0.23261,-0.38684,0.044067,0.018919,0.092049,0.057486,0.54864,-0.35468,0.056214,-0.44603,0.18306,0.028371,-0.083614,0.39953,0.28109,0.017067,0.015449,-0.20061,-0.36862,-0.28213,0.0059444,-0.30841,-0.12556,-0.16448,-0.28474,0.73267,0.4573,-0.047313,0.42388,-0.11225,0.71501,0.039838,0.52051,0.011965,-0.52576,-0.029393,0.0088612,-0.13374,0.18107,0.22579,-0.24823,-0.34835,0.2209,0.33416,0.29916,-0.034782,0.10146,0.28042,-0.35474,0.33805,0.49637,0.41635,0.27782,0.16402,0.033915,0.093319,0.44149,-0.38631,-0.17741,-0.28793,-0.95459,-0.1705,0.5152,0.025743,0.57719,0.6637,-0.11832,-0.46105,-0.6389,-0.27536,-0.099188,0.030706,0.021892,0.49141,0.10384,0.23293,0.2701,-0.17777,-0.077125,-0.11701,-0.12592,-0.46955,-0.13175,-0.47814,-0.26665,0.90615,0.40837,-0.75363,-0.41707,-0.10897,0.14731,-0.62928,0.63099,0.5549,-0.19631,0.14824,-0.029729,0.66316,-0.054282,-0.39527,-0.22083,0.69605,0.1582,0.014214,-0.34608,0.015623,-0.21925,-0.30476,-0.17556,-0.0033268,-0.091748,0.11938,0.47547,0.011483,0.44729,0.13934,-0.62095,0.075626,-0.37528,1.0535,-0.29277,0.099784,-0.38096,-0.1228,0.45895,-0.84829,0.4714,0.3651,-0.08487,0.25829,0.56945,-0.078268,-0.087105,0.16812,0.28801,-0.34517,-0.52177,0.37221,-0.20153,0.23254,-0.4616,-0.28163,0.40551,0.47936,0.038827,0.20198,0.13638,0.21844,-0.0096064,-0.0087134,0.30059
