http://dbpedia.org/ontology/Ambassador	0.33093,0.43236,0.46603,0.18472,0.34927,0.069261,-0.015129,-0.51783,-0.36179,2.4626,0.05444,-0.3685,-0.28955,-0.28411,-0.1207,0.04753,-0.061004,-1.1872,-0.014224,-0.091473,-0.26042,0.3427,-0.072561,0.45103,-0.15863,-0.13419,-0.58075,-0.20072,-0.00311,0.027941,0.41865,0.053939,0.2356,0.25913,-0.38573,-0.48595,0.27427,-1.2307,0.33432,0.067906,0.068522,-0.64509,0.29836,-0.1464,-0.37301,-0.36206,0.082236,-0.036892,0.26464,-0.43551,0.3641,0.014762,-0.1096,0.15664,0.55749,-0.72705,-0.24016,0.4606,0.62772,-0.26075,-0.27417,-0.11333,0.2692,-0.83728,-0.28685,-0.21013,0.11647,0.10198,0.31844,0.61495,-0.43205,0.15053,-0.71461,0.47694,-0.1847,0.11192,-0.32601,-0.27146,-0.054862,-0.030748,0.092514,-0.19002,-0.54006,0.39234,0.034311,-0.46872,-0.57572,-0.32644,-0.037272,-0.33788,0.55966,-0.033271,-0.19412,0.10478,-0.10915,-0.91553,-0.29676,-0.46242,0.23549,0.21453,-0.074304,0.19969,0.064608,-0.13982,0.12688,-0.76038,0.0055308,0.20351,0.063134,-0.66333,-0.074169,0.17241,-0.41075,-0.1217,0.21922,-0.052161,0.26504,-0.46988,-0.6084,-0.48734,-0.19357,0.6986,-0.14332,-0.26164,0.28695,0.5237,-0.034583,0.48248,-0.3747,0.51061,-0.047254,-0.15528,-0.39489,-0.088933,-0.32326,-0.0010541,-0.10983,0.30318,0.038731,-0.11414,-0.59928,-0.12203,0.30934,-0.30132,-0.25134,-0.41592,0.28008,-0.24976,-0.77539,0.016648,-0.22726,-0.013265,0.079998,0.28514,0.16235,-0.23431,0.55133,0.1752,-0.13529,0.17577,-0.00068639,-0.041893,0.21641,0.15741,0.12621,-0.1856,0.27457,-0.22135,-0.0074797,-0.065246,-0.52235,-0.052706,0.36464,0.2112,0.029255,-0.0078537,0.2039,0.11073,-0.043073,0.2528,0.152,-0.28444,0.26103,-0.18153,0.080127,0.42988,0.10788,0.12082,-0.27475,0.15201,-0.42347,0.026455,0.040042,-0.21045,-0.067406,0.087775,0.36547,-0.37161,0.1994,-0.34409,0.37704,0.8747,0.64958,0.019784,0.65331,0.19806,0.31933,0.33048,-0.26189,-0.30189,0.065308,0.093804,0.32539,0.22796,-0.11587,0.44986,0.30288,-0.22215,-0.23969,0.14177,-0.2154,0.29782,-0.15355,0.53628,0.268,0.60984,0.64331,0.38114,0.081718,0.74659,-0.029009,0.17355,-0.49649,-0.59406,-0.19382,-0.10746,-0.4108,0.61192,0.23189,0.45505,0.19077,0.0034182,0.067765,-0.46477,0.22456,-0.20223,0.7436,0.25983,-0.3319,-0.87065,0.12866,0.26957,0.24038,0.17659,0.071347,-0.087908,0.16541,0.1985,-0.47917,0.19377,0.20854,-0.093409,-0.45716,-0.074012,-0.2922,-0.026845,0.18006,0.35994,-0.23077,0.13349,0.21583,0.43049,0.25206,0.21336,0.21728,-0.39085,0.84135,0.16154,0.19626,-0.19284,-0.2151,0.29882,0.68547,0.17652,-0.21024,0.0022361,-0.2984,0.55017,-0.094582,0.30501,0.74985,0.38419,0.37029,-0.19354,-0.12483,0.29571,-0.086687,-0.0383,-0.075818,0.19588
http://dbpedia.org/ontology/Architect	0.43056,-0.25697,0.072521,-0.34186,-0.069907,0.21462,0.16019,0.046952,-0.30886,2.4907,0.0025334,-0.33628,-0.65238,0.37404,0.4767,0.13775,0.10689,0.67676,0.63706,-0.071364,1.117,-0.37098,-0.25129,-0.52586,-0.38282,-0.5203,-0.32476,0.61889,0.13549,0.71957,0.17008,0.040052,0.386,0.20393,0.059692,-0.52871,-0.0049954,-0.32586,-0.057786,-0.53843,0.20995,-0.023496,0.058118,-0.25206,-0.64122,-0.49476,-0.19597,-0.7934,0.62612,0.61045,0.48935,-0.16363,-0.17103,0.16363,0.076102,-0.17962,-0.18494,0.49449,0.79426,-0.43375,-0.37887,-0.25459,0.28804,0.60464,0.19814,0.34301,0.10328,-0.30353,-0.89278,-0.083407,-0.33,-0.19134,-0.71253,0.078356,-0.12508,-0.0010034,-0.28119,-0.54994,-0.47237,-0.056963,0.4172,0.25556,0.7835,-0.26494,-0.38417,-0.44148,-0.25031,0.23859,0.12398,-0.28623,-0.23652,-0.29724,-0.42657,0.42216,0.39527,-0.69182,-0.25892,0.24168,-0.18094,0.10506,-0.36825,-0.13726,0.20437,0.32729,0.12408,-0.54626,-0.012888,0.50938,0.38844,-0.53152,-0.18659,0.1922,0.38418,0.19714,0.20678,-0.039799,-0.39765,0.11919,-0.12505,-0.22041,0.48704,0.30823,-0.69143,-0.44511,0.4875,0.62568,0.28397,0.22501,-0.34024,-0.35819,-0.61212,0.51089,0.3155,0.091899,-0.32991,-0.20602,0.56803,-0.1214,0.37195,-0.12539,0.011074,-0.29553,-0.39576,-0.2233,-0.077089,0.18047,0.028773,0.013045,-0.55074,-0.33234,0.94108,0.14031,-0.7517,0.36214,0.74289,0.039399,-0.21025,-0.49708,0.33135,-0.13591,0.13015,0.1888,-0.45098,-0.24775,0.56936,-0.54521,0.019071,0.067232,0.35174,0.076444,-0.50118,-0.001269,-0.22316,0.031896,-0.084435,-0.45432,0.018014,0.52601,-0.38341,-0.014155,0.408,-0.052788,-0.25053,0.088756,-0.27958,0.20914,0.29733,0.20831,0.31898,0.080652,-1.0064,0.15407,-0.41429,-0.033092,0.24867,0.11742,-0.090794,0.14904,0.25401,0.2904,-0.088643,-0.15526,0.15451,-0.58575,-0.19135,0.21093,0.086017,-0.16925,-0.068088,-0.047601,0.12739,-0.25035,0.1364,0.29808,0.66499,0.63979,0.11143,-0.090118,0.0064741,-0.13123,0.2704,0.33099,0.71138,0.8775,0.82857,-0.0093499,0.011568,0.039587,-0.25805,0.27305,-0.36848,0.0336,-0.23762,-0.46144,-0.32266,-0.20897,0.12166,0.32284,0.19475,0.0407,0.44721,0.24173,-0.33009,0.32892,0.049408,0.081474,0.78501,0.2302,-0.051002,-0.90155,-0.085444,0.64507,-0.029294,0.077163,0.55028,-1.3492,0.43475,-0.29782,0.47705,-0.12676,0.76,0.17753,0.55694,0.38452,-0.59642,-0.81761,-0.24436,-0.70525,-0.61706,0.4439,-0.26011,-0.26908,-0.076976,0.40343,-0.29585,-0.60012,0.43363,-0.03292,-0.09138,-0.34817,0.42704,-0.064048,-0.095058,0.3737,-0.53019,-0.41383,0.34721,0.10132,-0.038259,-0.32586,0.72503,-0.080873,0.092674,0.74663,0.11889,0.15088,0.3432,0.26494,0.27803,0.12273
http://dbpedia.org/ontology/Artist	0.13791,-0.038926,-0.075408,0.13956,0.089929,0.1085,-0.24826,-0.14233,-0.6433,2.3541,0.16585,0.28748,-0.5763,-0.15031,0.62492,0.30914,-0.30211,0.40975,-0.12792,-0.12291,0.62291,0.30253,-0.73216,-0.16541,0.27146,-0.25458,0.50064,0.31814,0.16921,0.14294,0.094537,-0.044435,-0.11748,-0.414,-0.4214,0.038161,0.26469,-0.27307,0.58117,-0.26447,0.44916,0.31187,-0.040592,-0.018227,-0.21726,-0.6665,0.32928,-0.2061,0.35631,-0.16279,0.38312,-0.57922,0.16234,0.46714,-0.081369,0.049347,0.24585,-0.12328,0.44439,-0.9481,-0.41333,-0.56065,0.50083,0.49704,-0.2537,-0.47982,-0.12556,0.1227,0.38709,-0.43169,-0.20924,-0.32273,-0.48283,0.050055,-0.41915,0.094108,-0.42883,-0.62335,-0.53862,0.21523,0.51794,0.32076,-0.22658,-0.19366,-0.11635,-0.27164,-0.47186,0.14691,0.097207,-0.37095,-0.30219,-0.28791,-0.39873,0.77586,0.25864,-0.87169,-0.14641,1.045,-0.37579,0.24641,-0.070245,-0.31565,-0.19748,0.062362,0.13517,0.27656,-0.41081,0.076715,0.26438,-0.033642,-0.37205,-0.077238,0.93882,-0.31606,-0.25782,0.17621,-0.18852,0.19256,0.72415,0.086716,-0.3676,0.20438,0.42264,0.045234,0.60635,0.42747,0.082287,0.0097022,0.24433,0.33983,-0.072442,-0.20124,-0.021903,0.23962,0.03219,0.57969,-0.44424,-0.14726,0.53546,-0.33711,-2.0688,-0.05185,-0.59579,-0.022749,-0.47569,-0.019942,0.085557,-0.01454,-0.53444,-0.51967,0.34428,0.27919,-0.99737,-0.14625,0.26671,-0.066516,0.098961,-0.74727,-0.44584,-0.27815,-0.16205,-0.014748,0.1408,-0.26991,0.068909,-0.024132,-0.097505,-0.020358,-0.057175,-0.0075002,-0.29992,-0.073331,-0.10819,0.019839,-0.090814,0.38884,-0.52559,-0.126,-0.5108,-0.027074,0.82032,0.98002,0.29901,-0.39964,-0.31932,0.2867,-0.11773,0.13411,-0.21615,-0.37895,-0.6646,0.31359,-0.27256,-0.38316,0.75259,0.34571,-0.082443,-0.12825,0.59618,-0.11874,0.0044249,-0.52069,-0.17645,-0.41469,0.17934,0.0078398,-0.17392,0.20185,-0.43758,0.15519,0.4429,-0.069623,0.14551,0.25344,-0.16433,0.73885,0.53772,-0.21866,0.22863,0.11999,0.17893,0.25863,0.63117,0.19673,0.63753,-0.15205,-0.072674,0.28283,0.1294,0.42789,-0.38735,-0.70495,0.44363,-0.2505,-0.082547,-0.28487,-0.47853,0.47136,-0.34729,-0.28617,-0.14264,0.26301,0.13958,0.14498,-0.075848,0.31406,-0.04663,-0.0026454,0.14505,-0.56159,-0.041232,0.071005,0.13139,0.29732,0.1958,-0.29477,0.37645,-0.49623,0.3626,0.19602,0.4343,0.18659,0.33756,-0.0093755,-0.56102,-0.12364,0.47065,-0.52119,0.22872,0.40427,-0.88964,-0.1348,-0.059058,0.01289,0.86258,-0.55344,0.10236,-0.19889,-0.092256,0.042608,-0.13113,0.31575,-0.30273,0.15022,-0.040797,0.085906,0.11515,0.40557,-0.20673,-0.19897,-0.042577,0.15804,0.024861,0.60879,0.14306,-0.43168,0.078242,-0.092624,0.017833,0.41588
http://dbpedia.org/ontology/Astronaut	0.34225,-0.70155,-0.3476,0.65934,-0.03897,0.66275,-0.4243,-0.26246,-0.083537,1.5921,0.26378,-0.89724,-0.65274,0.74614,-0.42757,-0.65043,0.26112,-0.35726,-0.62356,-0.49576,-0.13451,-0.023172,-0.17977,0.045093,-0.061041,-0.18704,-0.055527,-0.37178,0.71421,0.37303,0.010572,-0.49368,0.22632,0.27175,0.1345,-0.16631,-0.069561,-0.39223,-0.055535,0.17126,0.54541,-0.61873,0.2608,0.72298,-0.040573,0.11554,-0.64571,0.015839,0.5008,0.19348,0.71353,-0.79237,0.28266,-0.46644,0.060308,-0.36584,0.18411,0.12781,0.24688,-0.13422,0.038407,-0.51722,0.39221,0.093779,0.13876,-0.27567,-0.54567,0.1458,-0.39361,0.22217,-0.051288,-0.26516,-0.70943,-0.061039,-0.67093,-0.044217,-0.53386,0.027938,-0.091735,-0.057641,0.30706,-0.52041,-0.28522,0.32593,0.38527,-0.86158,0.098355,-0.80138,-0.40767,-0.33972,0.26263,0.27419,-0.15456,-0.13619,-0.36011,-1.434,-0.79272,0.052537,-0.22714,-0.26051,-0.025964,0.035513,0.56531,0.048666,-0.40253,-0.74146,-0.37559,0.20824,1.1073,0.54856,0.15819,0.17219,0.06814,0.060926,0.2979,0.49617,-0.17571,0.071037,0.40404,0.41945,-0.25822,0.1114,0.29959,0.50214,0.21218,-0.016674,-0.083056,0.80864,0.13685,0.18857,-0.18932,0.097265,0.032836,0.025843,0.099011,-0.632,0.231,0.33433,0.19456,0.29164,-1.1596,-0.040749,-0.36587,0.14187,0.51402,0.70831,-0.098964,-0.11229,-0.20847,-0.65337,-0.047589,-0.16426,-0.70783,0.039996,0.44448,0.25671,0.36203,0.03663,0.3041,-0.25561,0.35378,-0.17972,0.015257,0.24562,0.11862,-0.68795,0.26387,0.22409,1.1699,-0.0082836,-0.05407,-0.2276,0.0021791,0.13301,-0.26743,0.047522,-0.38569,-0.22083,-0.54807,0.29653,0.21661,0.15746,0.82075,-0.75639,0.22801,0.18898,-0.17867,0.71426,-0.28963,-0.12169,-0.33708,-0.19614,-0.20384,-0.6196,-0.30751,0.00057897,0.49217,-0.10531,0.13455,-0.18788,0.056845,-0.10541,0.72406,0.65581,-0.17446,0.50645,0.17322,-0.25345,-0.04729,-0.14326,0.42049,0.042927,-0.087042,-0.50628,-0.44625,0.59166,-0.13555,-0.096583,0.25529,-0.303,-0.098018,-0.30877,0.54749,-0.20466,0.96012,-0.27827,-0.033619,0.069243,-0.44524,0.04553,0.29727,0.65738,0.27679,-0.20578,0.053684,0.487,-0.25518,0.23645,0.043118,-0.22495,-0.07774,-0.38351,-0.54066,-0.171,-0.062721,0.22558,-0.82974,0.085162,0.36898,-0.044652,-0.12055,-0.42128,0.80383,-0.42542,0.38893,-0.40291,-0.023626,0.32154,0.03132,-0.0020485,-0.57132,-0.15763,-0.40835,-0.30097,-0.79282,-0.16769,0.31847,0.58211,-0.62016,0.7314,-0.23039,0.48041,0.84414,0.27895,-0.22054,-0.37162,-0.13471,-0.51059,0.28858,-0.4009,-0.83078,0.012346,-0.048861,-0.12465,0.19047,-1.3004,-0.093303,0.08853,-0.88576,-0.11542,0.70177,0.43556,0.68486,-0.33445,-0.16403,-0.24114,-0.33339,0.01572,0.33576,-0.33999
http://dbpedia.org/ontology/Athlete	0.43455,0.57603,-0.15886,0.35071,0.21128,0.23233,0.49261,-0.19765,-0.0018139,2.5527,-0.13536,0.49524,0.01331,0.86014,0.41394,0.70401,0.76881,0.068933,-0.13944,0.44772,-0.4204,-0.38575,0.026323,-0.58519,-0.71828,0.21857,0.037734,-0.057032,0.071737,-0.04568,0.073354,-0.10299,0.29554,-0.28802,-0.094223,-0.27388,0.51766,-0.55057,0.12587,0.29638,0.23407,0.052265,0.15067,0.48052,-0.48406,-0.34786,0.0016183,0.59054,-0.0045015,-0.0040007,-0.44945,-0.38504,0.23573,-0.34203,0.060442,0.094775,0.44633,0.24015,0.34341,-0.084386,-0.0080203,-0.024747,0.44531,-0.0024535,-0.31396,-0.55082,0.0033399,0.11546,-0.36192,0.39648,-0.59204,-0.00085655,-0.10657,0.049873,-0.51517,-0.23087,-0.46013,-0.325,-0.11001,-0.1512,0.48989,-0.33332,0.092355,0.33836,0.18802,0.050333,0.42602,0.3251,-0.54521,-0.68351,0.14225,-0.024168,-0.63052,-0.10978,-0.065431,-1.5229,-0.29134,-0.37045,0.25121,0.35784,0.22218,-0.11287,0.32978,-0.63756,-0.0065166,-0.86488,0.15467,-0.12959,0.29142,-0.52194,-0.35297,-0.35484,-0.058379,0.14227,-0.63626,0.26108,-0.10852,0.1173,0.35328,0.05896,0.034666,-0.18319,-0.16447,-0.0619,0.35946,0.70333,-0.1726,0.13861,0.23717,0.073389,-0.11987,-0.015581,0.29981,-0.24026,0.41325,-0.83575,-0.070368,0.035433,0.27174,0.13455,-0.80622,0.46745,0.12849,0.69697,0.10104,-0.27363,1.2575,0.04475,-0.11354,0.44489,-0.24798,0.47192,-0.23761,0.85004,-0.11036,0.36822,0.46431,-0.27802,0.075064,-0.59855,-0.12605,-0.12844,-0.081672,-0.33225,0.20681,-0.53706,0.60453,0.13227,-0.40102,0.047713,-0.48677,-0.72759,0.19525,-0.25554,-0.092914,0.1466,-0.50301,-0.23515,-0.39155,0.79087,0.048462,1.0304,-0.19483,-0.053081,-0.11111,0.092624,0.20523,0.81697,-0.12606,-0.11079,-0.026594,-0.23969,0.16094,0.030965,0.012602,0.22952,0.19845,0.025167,1.0095,0.18559,0.40086,-0.10152,0.015626,0.045219,-0.77134,0.40744,-0.20645,-0.089551,-0.29607,-0.45088,-0.02437,-0.30599,-0.10509,-0.0082667,-0.58649,0.39374,0.06795,-0.12318,-0.3652,-0.3557,-0.012957,0.087086,-0.057994,0.031655,0.16213,0.033896,0.45715,0.083586,0.34939,0.81499,-0.32068,0.21032,0.046905,0.069381,-0.35707,-0.52843,-0.37451,0.57817,-0.52773,0.36482,-0.26921,-0.048689,0.21461,0.11467,0.011504,0.38124,-0.26374,0.22422,0.076307,0.58623,0.026586,0.16953,-0.18981,-0.031161,-0.22037,-0.11987,0.36062,-0.48387,0.20981,0.073784,0.12951,-0.27258,0.38936,0.0067463,-0.078202,0.91479,-0.099393,0.33543,-0.19011,0.31091,0.37217,0.0066012,-0.013994,0.17369,-0.11866,-0.064814,0.11157,-0.25671,-0.63374,0.036204,-0.82982,-0.088639,-0.49343,0.38408,0.043718,-0.27484,-0.81115,-0.42594,-0.078277,0.013631,0.27378,0.17798,-0.20627,-0.80999,-0.1544,-0.11667,0.049727,-0.2011,0.33896,-0.20478
http://dbpedia.org/ontology/BeautyQueen	0.68755,0.18568,0.53318,-0.338121,-0.338243,-0.65055,0.89289,-0.42822,-1.12912,3.606,0.467048,-0.47836,-0.474465,0.10897,0.093622,0.50666,0.295255,2.02594,0.04575,0.48579,-0.22384,1.17146,-0.810926,0.246206,-0.435678,-0.186017,0.35046,0.416079,-0.026038,1.01664,-0.018023,0.94861,-0.03008,0.45889,1.07993,0.301327,-0.325965,-0.50097,-0.561747,-0.4572342,-0.14769,-0.267471,0.24835,0.045471,0.290419,-0.0823,-0.593308,0.77739,0.15729,-0.64884,-0.75138,-0.053921,-0.329011,-0.358142,0.02965,-0.30277,-0.471354,0.158708,-0.189368,0.037691,-0.010953,-1.03788,0.18022,-0.0853637,-0.27936,0.87749,0.250499,0.287481,0.33634,-0.52005,-0.60641,-0.34057,-0.78632,0.21836,0.48966,0.573537,-1.11099,0.61489,0.14046,-0.86264,-0.68489,0.39151,0.061268,-0.02402,0.496871,-0.4607,0.30962,1.191908,-0.50125,-0.481162,0.232641,1.02451,-0.15157,-0.39403,0.56396,-0.390444,-0.391482,1.07477,-0.7776,0.6184,0.33076,-0.007874,-0.06187,-0.58634,0.442489,-1.0661,-0.386696,0.107401,0.53655,-0.75916,0.334936,0.6443627,0.208741,-0.54039,-0.64714,-0.49336,0.180036,0.81202,0.86761,-0.79961,-0.32043,0.652353,-0.16363,0.251135,0.40242,0.184579,-0.13718,-0.58934,-0.412109,-0.19918,-1.12977,-1.64339,-0.41644,0.09126,0.76922,-0.032796,-0.121079,-0.1799,0.47721,0.57805,-4.7256,0.05194,0.44632,-0.25934,-0.86631,-0.194914,0.178898,0.53829,0.089742,-0.20062,0.7712,-0.32475,0.91509,0.009379,0.74816,-0.343914,1.09692,-1.64957,-0.428697,0.67602,-0.47781,-0.14831,-0.168575,0.5533323,1.08117,-0.271244,0.519264,0.01224,-0.05224,0.49258,-0.45479,-0.586342,0.51749,-0.14035,-0.061523,0.3304926,0.322242,-0.012403,-0.97195,0.398273,-0.018863,0.42944,0.257082,-0.65334,-0.229545,-0.20494,-0.83356,0.035541,0.10085,0.87853,-0.82415,-0.02102,0.436937,-0.1045471,0.14789,-0.75606,-0.2803136,-0.156546,0.56672,0.29039,-0.44983,0.45355,-0.491013,0.128692,-0.587054,-0.257165,0.303555,0.85396,0.050159,-1.08336,-1.461,0.21495,0.096102,0.09774,-0.183988,-0.02854,0.01594,-0.15109,-0.04743,-0.05731,0.093448,-0.05474,-0.02248,0.13457,0.74664,0.06764,0.52168,0.434304,0.1268,0.582979,0.177758,-0.088142,0.45419,-0.26984,0.00545,-1.08449,-0.01068,0.007758,-0.72489,-0.427331,0.063238,-0.31693,0.340391,-0.57486,0.45414,-0.696673,-0.08357,0.03927,-0.56516,-0.94269,0.30506,0.470551,0.070522,-0.86247,-0.54978,1.32649,-0.02618,0.1195,-0.91367,0.09896,0.011096,0.358884,-0.43596,-0.22121,0.08903,0.11058,0.8535,0.447255,-1.61082,0.191662,-2.59023,-0.205157,-0.48255,0.343552,0.40028,0.08276,0.14659,0.337639,0.261228,-0.0532,0.69941,1.07927,0.445795,-0.02342,-0.76635,-0.32903,-0.198565,-0.035602,-0.07321,-0.672021,-0.013729,0.44204,-0.209513,-0.380179,-0.3367,0.508187,-0.263733,-0.397115,0.06638,-0.24913
http://dbpedia.org/ontology/BusinessPerson	0.10701,0.44264,-0.28495,-0.22076,0.15963,0.41808,-0.29058,-0.43012,0.25829,0.69019,-0.17125,0.13867,-0.29916,0.389,0.45812,0.075968,0.3151,-1.0668,0.41594,0.28706,-0.32556,0.062192,-0.5885,-0.05357,0.46118,-0.23963,0.21862,-0.3323,-0.16592,-0.42358,0.1614,-0.54854,0.2183,-0.21796,0.16509,-0.38061,0.79908,-0.16509,-0.39209,-0.30721,-0.081144,0.024937,-0.11913,0.12216,-0.63938,-0.33169,-0.37549,-0.43047,0.66183,-0.2439,0.27633,-0.13172,0.32027,-0.22134,0.2863,-0.032029,0.28576,-0.09494,0.25391,-1.244,0.4848,-0.71506,0.16162,-0.16598,0.14543,-0.54707,0.067176,0.71121,-0.049721,-0.04521,-0.66498,-0.32085,-0.5517,0.64791,-0.34313,-0.23743,-0.20324,-0.10621,-0.22137,0.5452,0.36348,-0.3694,0.52983,-0.152,0.061658,0.2996,0.15218,0.057486,0.22753,-0.20847,0.0017354,0.45156,-0.14599,0.20497,-0.21953,-0.59896,-0.88542,-0.83156,0.20289,-0.23609,0.025593,0.51998,-0.062519,0.31318,0.092031,-2.0229,-0.073166,-0.55156,0.59266,0.057971,-0.022668,0.22819,0.28369,0.063512,-0.11077,-0.16191,0.063662,-0.38586,-0.24557,-0.6707,-0.49411,-0.0026217,-0.048313,0.58537,0.27956,0.22174,-0.20643,0.0096527,0.11086,-0.11237,-0.10686,0.41824,-0.099088,0.44622,-0.34875,-0.48697,-0.446,-0.1516,0.054434,-0.52807,0.41493,0.23146,-0.53488,-0.4387,-0.20306,-0.21272,0.035703,-0.50512,-0.40038,0.046573,0.46616,-0.32661,-0.55089,0.041492,0.15228,0.50907,0.44903,0.1909,-0.25301,-0.29494,-0.29476,-0.20672,-0.07058,0.14461,1.1022,-0.43259,0.21524,0.13062,0.25808,0.51476,0.032883,-0.090347,0.5384,0.091902,0.09136,0.18209,-0.38039,-0.13775,-0.45668,0.75627,0.087506,0.54836,0.52835,-0.89115,-0.2823,0.14151,-0.061351,0.19907,0.44917,-0.44507,-0.076544,0.41583,0.38801,-0.45746,0.34684,-0.38874,0.01326,0.24416,0.88104,-0.19533,0.503,0.3752,-0.32714,-0.53778,-0.95732,-0.096009,-0.34413,-0.10098,0.096414,-0.066429,-0.06626,-0.39863,-0.077811,0.54965,0.54517,-0.044784,-0.35613,-0.32179,-0.43695,-0.45571,-0.19121,-0.59733,0.39332,0.14641,0.35022,-0.73095,0.1855,0.013752,-0.21787,-0.33099,-0.35508,-0.11398,0.12592,-0.014474,-0.30175,-0.1055,-0.22424,-0.28151,0.14315,0.27382,0.49614,0.018762,0.40494,0.23972,0.51951,0.06335,0.098317,-0.38509,0.34933,-0.10216,0.075663,-0.19495,0.35454,0.56425,-0.38119,-0.39868,0.25765,-0.77462,0.57071,0.11927,0.14142,0.083402,0.35041,0.22482,-0.12683,0.11025,0.41352,-0.44438,-0.16348,0.39744,-0.71219,-0.22147,0.0084065,0.35736,0.11639,0.054122,-0.30331,-0.03504,0.09289,-0.68897,-0.2141,-0.14393,0.12969,0.24685,0.15736,-0.22454,0.32787,-0.2726,-0.57299,0.45169,-0.29623,0.11854,-0.056873,-0.19572,0.23638,0.072704,-0.0148,-0.036112,-0.022832,-0.063072
http://dbpedia.org/ontology/Chef	-0.19091,-0.28676,0.32561,-0.81544,0.50561,0.78919,0.78834,-0.39848,-0.01757,1.9403,-0.31308,-0.18289,-0.66309,-0.17552,0.31747,-0.65504,-0.14074,0.29981,0.38202,-0.23204,0.30351,-0.76366,-0.11101,-0.6417,-0.033541,-0.12846,-0.50136,-0.015983,0.10591,-0.42671,0.13087,0.026202,0.51546,-0.28923,0.059983,0.009892,0.04636,0.21244,0.1731,0.035994,-0.1459,-0.057951,0.51035,0.17267,-0.30422,0.39751,0.18877,-0.18356,0.36891,0.18809,0.7352,-0.35119,0.38907,-0.1733,-0.35511,-0.026707,0.65656,0.29884,0.31651,-0.23789,0.027511,-0.76683,0.30256,-0.21139,-0.071572,-0.92705,-0.10602,0.26547,0.27309,0.41217,-0.13451,0.1181,-0.9975,0.16075,-0.53093,-0.13685,-0.16619,-0.15214,-0.12023,-0.031406,-0.23897,-0.25403,0.22714,-0.1911,0.18015,0.14113,-0.082735,0.62571,-0.30009,-0.091662,-0.40147,-0.47041,-0.24236,0.048399,0.27939,-0.50339,-0.063382,-0.032434,0.32753,-0.07308,-1.021,-0.11061,0.17358,-0.11142,-0.34263,-0.21005,0.50275,0.025741,0.91297,-0.16616,-0.4105,-0.41925,0.00651,0.58027,0.26872,-0.17199,0.20222,-0.22217,0.28527,-0.61479,-0.32322,0.089815,0.64371,-0.061152,0.73393,-0.80635,0.35174,-0.39374,0.0034971,-0.32758,-0.57003,-0.3057,0.52899,-0.028405,-0.44313,-0.54849,-0.031403,-0.4324,0.26411,-0.11003,-1.6726,-0.17471,0.06788,-0.092751,0.00011409,-0.68698,-0.072147,0.39236,-0.21271,0.01492,0.43832,-0.28168,-0.29824,0.048129,0.40894,-0.2503,0.013656,0.10566,0.072425,0.30707,0.030293,0.017543,0.063263,-0.5161,0.52079,-0.26625,0.21168,-0.49087,0.323,-0.52087,-0.40635,-0.34565,-0.41104,-0.65274,-0.46266,0.36871,-0.062423,0.34417,-0.27607,-0.013636,0.25782,-0.29164,0.26929,-0.4096,-0.0027486,-0.092616,0.45523,0.50436,-0.25011,-0.15712,-0.91198,0.19404,-0.66315,-0.30428,-0.21115,0.23878,0.45002,0.12472,0.79346,-0.39619,-0.53764,-0.062362,-0.046364,-0.35242,0.17464,0.17381,-0.03439,0.48371,0.11621,-0.36494,-0.28693,0.28989,-0.26227,0.054445,0.24758,0.99194,0.40179,0.044153,-0.065543,0.36847,-0.49093,0.80438,-0.037619,0.6282,0.19394,-0.26402,0.16476,-0.48821,-0.77034,0.41903,-0.61741,-0.54525,0.10091,0.15954,-0.10931,-0.5599,-0.46091,0.3569,0.17415,0.15984,0.75084,0.21132,0.094435,-0.16683,0.10338,0.42552,-0.030059,-0.29043,-0.67006,-0.18362,-0.11594,0.14009,-0.43001,0.0041096,-0.051118,0.12153,0.32392,-0.096465,0.12573,-0.15681,-0.31113,-0.10759,-0.1531,-0.55686,-0.60056,0.22116,-0.29471,-0.013135,-1.2155,-0.16277,-0.70136,0.30469,0.36542,0.41319,-0.13837,-0.06773,-0.37615,0.0075206,0.499,0.4552,0.20745,0.64393,-0.012429,0.069012,0.22595,-0.22809,0.34328,0.66299,-0.088891,0.011584,1.6679,0.59481,-0.33095,0.6346,-0.24946,-0.049259,0.57779,-0.30166,0.25298,-0.22815
http://dbpedia.org/ontology/Cleric	-0.048821,-0.24851,0.17356,1.0929,0.31243,0.20421,-0.85818,0.40301,-0.47078,1.3683,0.24549,-0.15283,0.13986,-0.30557,-0.67341,0.16767,0.12045,-1.1603,-0.061774,-0.016967,-0.38208,-0.36489,-0.15199,-0.040534,0.34501,-0.20784,-0.38322,-0.52373,0.32587,0.48731,-0.39087,0.29192,0.27818,0.078584,0.66916,-0.1699,-0.22287,-0.24906,0.38149,-0.28839,0.043576,-0.53441,0.33749,-0.39169,0.39955,0.077964,-0.36879,-0.017642,-0.55253,-0.46529,-0.47842,-0.17564,0.30835,0.062702,-0.12785,0.28579,-0.19969,-0.20032,0.44162,-0.35289,-0.40075,0.13502,0.44129,-0.17695,0.0039822,-0.10406,-0.5646,-0.15331,0.088507,0.053085,-0.36994,0.46607,-0.93418,-0.77013,-0.058671,-0.10927,-0.46562,0.43418,-0.13056,0.2529,0.0074427,-0.15903,0.15457,0.4301,0.30628,0.41577,0.41773,-0.9411,-0.20274,-0.43124,0.41279,0.1056,-0.017582,-0.07019,-0.028398,-0.11745,0.25748,0.48069,-0.38264,-0.6631,-0.78139,0.48815,0.077528,-0.33382,0.19457,-1.6055,-0.36936,0.12687,0.097027,-0.60973,-0.23948,-0.010979,-0.13211,0.89071,-0.58014,0.55706,0.3601,-0.46229,-0.9643,-0.68009,0.35257,-0.029737,0.66173,-0.24545,0.70212,0.54088,-0.27928,-0.17532,-0.11697,0.78568,-0.5051,0.8192,0.27363,-0.71513,-0.4126,-0.23202,0.0079871,0.51241,-0.16179,0.27263,-0.58026,0.33084,0.22927,-0.62461,-0.57199,0.6211,0.82148,-0.63506,-0.23448,0.038155,0.2348,-0.4116,-0.51896,-0.39743,0.10729,-0.077431,-0.0059134,0.3304,-0.54036,0.14672,-0.046099,0.70444,-0.68829,0.17821,0.40417,-0.34953,-0.26115,-0.37807,0.13495,-0.27622,0.11236,0.67216,0.29329,0.37765,0.20153,0.083464,0.48689,-0.075739,0.063529,-0.20587,-0.66975,0.39574,-0.23741,-0.63119,-0.65442,0.1064,0.29628,-0.13715,0.25952,-0.11812,-0.67051,0.56577,0.53095,0.41982,0.69498,0.020052,-0.44424,-0.22921,-0.38632,-0.6377,-0.035475,0.61289,0.14944,-0.55828,-0.0052681,-0.22371,-0.76148,-0.37444,-0.6419,-0.90318,0.28624,-0.37951,-0.29778,0.62954,0.8294,-0.41366,-0.15344,-0.55823,-0.89313,0.38111,-0.46018,-0.037193,-0.86866,0.24128,-0.10095,0.15424,0.25793,0.18372,-0.39143,0.14093,0.25024,0.1739,-0.27313,-0.074314,-0.15701,-0.51393,-0.49583,0.5681,0.26958,0.44008,0.084586,1.0695,-0.21623,-0.66998,-0.10059,0.15592,0.68347,0.21189,-0.11656,-0.44347,-0.62751,0.044362,-0.12258,0.37924,0.54837,0.2554,0.10451,-0.5165,0.35429,-0.10733,0.18957,-0.21688,0.20585,-0.44787,-0.29486,-0.29694,0.1275,0.31305,0.28268,0.17132,0.34008,-0.059828,-1.0276,0.36415,-0.63868,0.52633,-0.15835,0.076606,0.29008,0.39766,0.55425,-0.23931,0.42098,-0.32063,-0.83468,0.39229,0.002027,-0.14949,0.0010661,0.061519,0.25312,-0.74412,-0.69331,0.22587,-0.24884,0.23683,-0.16768,0.5929,0.66051,-0.092511
http://dbpedia.org/ontology/Coach	0.46687,0.7488,-0.3779,0.28731,0.70111,0.31259,0.5144,-0.18127,0.29745,3.2971,-0.045269,0.11782,0.2838,0.36139,0.64043,-0.22447,-0.079869,-0.11461,0.49372,0.20019,-0.041539,0.036092,-0.29408,-0.48929,-0.53511,0.74732,-0.85213,0.2027,0.0056632,-0.066868,-0.432,-0.51395,-0.15037,-0.2563,0.067941,0.43757,0.81087,-0.080655,-0.13439,-0.17035,0.14756,-0.23274,0.26574,0.33381,-0.071522,-0.65457,-0.12343,0.70748,0.14229,0.22791,0.22198,-0.16794,0.185,0.0057746,0.076209,-0.23388,0.067976,1.0201,0.2005,-0.21,0.080276,0.095546,-0.017386,-0.27166,-0.40037,0.23794,0.034178,0.81407,0.10717,0.87469,-0.24522,-0.8525,-0.15905,0.64192,-0.68328,0.048336,-0.17305,-0.30109,0.53095,-0.36684,0.064444,-0.093515,-0.007578,-0.24736,-0.33364,0.16125,0.1408,0.41168,-0.22404,-0.040385,0.35818,-0.38728,-0.16059,0.09864,0.14022,-0.95835,0.067101,0.19075,0.37424,-0.070797,0.034951,-0.14137,0.42327,-0.58181,0.15416,0.084391,0.063186,0.39085,-0.27378,-0.2197,-0.43041,-0.15727,-0.65448,-0.019042,-0.37434,-0.095497,0.25042,-0.049093,-0.22051,0.32761,0.29949,-0.031637,-0.17121,0.30893,0.22617,-0.74723,0.23249,0.34053,-0.29517,0.32889,-0.093032,0.086911,-0.1341,-0.1143,-0.045991,-0.58883,0.40023,-0.040536,0.10593,-0.4752,-1.2699,0.38085,-0.17599,-0.012808,-0.080884,0.097009,0.19982,-0.72565,-0.17581,0.13192,-0.47591,0.032803,-0.51535,-0.10103,-0.49414,-0.21828,0.074834,-0.082108,0.29326,-0.71465,-0.13237,0.41934,0.45533,-0.85572,0.64053,0.25758,0.096452,0.099641,0.27965,-0.12519,-0.61301,-0.0051839,-0.051597,-0.45544,0.18196,-0.28991,0.10148,0.67208,-0.13494,0.18194,0.13947,-0.0046647,-0.42383,0.31899,-0.38864,-0.49776,-0.48238,1.054,0.16163,0.14611,0.60465,0.14531,0.37489,0.44311,-0.0069768,0.48571,0.22251,0.012385,0.6258,-0.012671,0.27612,-0.33629,-0.57058,-0.33632,-0.67543,-0.56996,-0.059585,-0.34292,-0.026393,0.64402,-0.053013,-0.3802,0.22534,0.2994,0.51413,0.78999,0.0060391,-0.070506,-0.81038,0.17051,-0.19209,-0.065467,-0.081421,-0.14987,0.247,-0.13836,-0.44038,0.54403,0.37325,0.7756,-0.87322,0.0027212,-0.59349,0.23328,-0.43815,-0.41783,0.34877,0.4524,-0.52333,0.49657,0.66334,-0.27139,0.19481,-0.2681,-0.4952,0.044705,-0.52241,-0.66439,-0.41144,0.44977,0.69725,-0.31139,0.16657,-0.046439,-0.18555,-0.35715,0.05874,-0.8515,-0.4742,-0.25219,0.95203,0.037882,0.60928,0.23918,-0.70741,-0.027159,-0.2323,0.47466,-0.60788,-0.14742,0.068381,0.65695,0.035741,-0.095433,-0.11041,-0.072417,0.71444,-0.19893,0.18341,-0.26247,-1.0532,0.083823,-0.89879,0.54325,-0.2276,0.04397,-0.58786,-0.13814,0.20819,0.56401,0.53131,-0.5026,0.085059,-0.40849,0.52593,0.072526,-0.29145,-0.047126,0.10804,-0.49682
http://dbpedia.org/ontology/Criminal	-0.43543,-0.061608,-0.015763,-0.055149,0.18811,-0.30047,-0.059718,-0.22922,0.33099,3.5393,-0.6219,-0.36909,0.31441,-0.015507,-0.61263,-0.13485,0.1162,0.23884,0.35996,-0.32637,0.37176,-0.42736,0.13315,-0.043766,0.24506,-0.55029,0.24685,0.17561,0.13648,0.16708,-0.038398,0.32173,0.09068,-0.20527,-0.081694,-0.4728,-0.22533,0.081363,-0.1281,-0.06631,0.16059,-0.1223,0.71416,-0.18104,-0.42522,-0.08167,0.22305,0.23678,0.078448,-0.12466,-0.22041,0.45924,0.37974,0.70036,-0.34415,0.469,0.21595,-0.098285,-0.10597,-0.13576,0.15184,-0.028566,-0.0049281,-0.22499,0.30314,-0.13354,-0.82568,0.13161,0.17987,-0.87426,0.0015497,-0.38749,0.55023,-0.262,-0.22263,-0.67704,-0.53746,-0.38665,0.18877,0.40667,-0.073129,-0.22756,-0.043425,-0.57253,-0.10425,0.57214,-0.031352,-0.77024,0.12377,0.046493,0.24967,0.022705,0.47931,-0.26816,-0.19278,-0.36257,-0.22877,0.015048,0.20699,-0.37464,0.036938,0.43443,0.57194,0.31216,0.049242,-1.5639,-0.36378,-0.49442,0.20396,0.26319,-0.13029,0.8803,-0.090431,0.24323,-0.13877,0.64618,0.25744,-0.49184,0.15073,-0.30624,-0.45996,0.29082,-0.29611,-0.48088,0.099114,0.070749,-0.31173,0.22108,-0.071347,0.25994,-0.020549,-0.063158,-0.24596,0.22098,0.58462,0.062529,-0.54853,-0.010426,0.34853,0.00023489,-0.22402,-0.060361,0.49876,0.32123,-0.053257,-0.097737,0.38249,-0.24204,-0.10606,-0.1332,0.23886,-0.38702,-0.22132,-0.13643,0.35217,0.51934,-0.59015,-0.32307,0.42871,-0.24586,0.29069,-0.1165,0.39606,0.29409,-0.24342,-0.20212,-0.051809,-0.54599,0.05249,0.30048,0.38227,-0.42602,0.11128,0.65771,-0.023393,-0.24655,-0.36942,0.011079,-0.14119,0.24356,-0.061464,0.83952,-0.10862,0.22975,-0.26703,1.0026,-0.39373,0.22429,0.20184,0.54816,-0.56529,-0.10356,0.18629,0.33144,0.014602,0.50355,0.082006,0.31895,0.039605,-0.20008,0.13397,-0.45156,-0.094246,0.51353,-0.097344,-0.41351,0.34588,0.66815,-0.11535,0.43685,0.64916,0.28106,0.40472,0.37013,0.68051,-0.11895,-0.27212,0.25537,-0.20563,0.51769,0.069532,-0.00097767,-0.52483,0.047821,-0.35142,0.026885,-0.10028,0.13677,0.21266,-0.44932,-0.53409,0.2187,-0.2299,-0.033849,-0.40741,0.084738,-0.066468,-0.082598,0.3629,0.10501,0.50833,0.014972,0.37551,0.0099175,0.37498,0.64996,0.2597,0.44394,-0.26189,0.55288,0.17324,0.41889,0.1861,0.2265,-0.50275,-0.028115,-0.34848,-0.11693,0.43372,0.019961,-0.5215,0.50464,0.6889,-0.021623,-0.50006,0.062407,-0.54326,0.058171,0.36254,-0.93659,-0.10777,-0.30151,-0.046684,0.10892,0.41107,0.36633,-0.37925,-0.18732,-0.20142,-0.1251,0.31415,-0.15177,0.25078,-0.058979,0.36163,0.61476,-0.05266,0.51368,-0.09132,-0.6485,-0.59984,-0.31618,-0.19016,-0.0044196,-0.29073,0.09514,0.39321,-0.032775,-0.15452,-0.058527
http://dbpedia.org/ontology/Economist	-0.38709,0.48811,0.074147,0.27719,-0.029388,0.050623,0.17637,-0.28274,-0.30688,2.5361,-0.76355,-0.23868,-0.17976,0.10369,0.35131,-0.55919,0.18533,-1.0078,0.0021076,0.088737,0.10115,0.61635,0.36238,-0.80441,-0.89052,0.031937,0.38435,0.11102,-0.029754,-0.14367,0.048892,0.49998,0.43079,-0.25795,0.14136,-0.24809,-0.1326,-0.32391,-0.2105,-0.786,0.19613,-0.36298,-0.045111,-0.02738,0.31627,0.074186,0.13299,-1.3079,0.71513,-0.72767,-0.01879,0.31424,0.31718,-0.38464,0.23389,-0.35217,-0.27134,0.0093094,0.33467,-0.67813,-0.48352,-0.531,-0.27501,0.25365,0.06134,-0.30976,0.44852,-0.20798,-0.16026,0.48501,-0.34819,0.043488,-1.0719,0.53242,-1.137,0.45254,-0.22671,-0.0094275,-0.58596,0.36653,-0.071788,0.13931,0.93804,-0.065736,-0.55834,-0.65487,-0.44586,-0.78585,-0.34562,0.044236,-0.12116,-0.21585,-0.064429,-0.21371,-0.19649,-0.92154,-0.31833,1.511,0.32564,-0.7471,-0.90359,0.28561,-0.34489,0.33371,-0.073566,-0.75483,-0.46671,-0.094117,0.60193,-0.58211,0.046751,-0.22555,-0.55815,0.26843,0.023734,-0.15106,-1.2837,-0.62658,-0.12855,-0.07711,-0.29348,-0.43549,-0.21506,0.45186,-0.10477,0.062223,-0.12632,0.081967,-0.43324,-0.45977,-0.31279,0.27481,0.68267,0.44774,-0.8083,0.38573,0.11466,-0.39991,-0.40826,0.12408,0.48832,-0.11454,-0.012155,-0.70013,0.1662,-0.56226,0.15499,-0.020685,-1.0973,0.5018,0.18363,-0.70385,-0.65672,-0.03304,0.31907,0.38551,0.33695,0.1115,-0.67675,-0.41178,0.45019,0.2824,-0.049547,-0.53029,-0.012519,-0.23242,0.34932,-0.35087,-0.028432,-0.42763,0.50839,0.017421,-0.42155,-0.6821,0.31057,-0.27818,0.76218,0.17376,-0.23762,-0.173,-0.04458,0.25995,0.1871,0.12829,0.014162,0.2955,-0.096737,-0.11053,0.3999,-0.32758,-0.56534,0.21615,-0.2434,0.12388,-0.56317,-0.25257,0.33666,0.50234,-0.30144,-0.25141,-0.98808,0.44398,0.2118,-0.28618,-0.15473,-0.13913,-0.36509,-0.013772,0.32056,0.16915,-0.32826,-0.23307,0.02458,0.089888,0.3108,-0.004969,-0.43571,0.36494,-0.55595,-0.075474,-0.84283,0.78363,0.60334,-0.028665,0.77855,-0.94691,-0.24508,0.15259,0.23654,-0.27729,-0.0052539,-0.54875,0.14487,-0.13345,-0.56319,0.31209,-0.051745,0.29748,0.0015273,0.34996,0.15491,0.12413,-0.29172,-0.11188,0.097498,0.18029,0.62231,0.035489,-0.10285,0.24732,0.067432,0.52963,0.15681,0.14483,0.21741,-1.1148,0.34464,0.17925,0.64177,-0.15147,0.34006,0.78077,-0.64903,0.55319,-0.40185,-0.66002,-0.29775,-0.050684,0.089114,0.30402,0.24326,0.4631,0.6632,0.67426,0.37215,0.16057,-0.1785,-0.020358,-0.14483,-0.7163,0.13921,-0.79569,-0.32726,0.22004,-0.29934,-0.30586,-0.10505,-0.90145,-0.16024,0.42517,0.11897,0.45114,0.20475,0.27205,0.43092,-0.58497,-0.11858,0.06686,0.11554,-0.012827
http://dbpedia.org/ontology/Engineer	0.0086023,-0.18473,0.10752,0.012761,0.02358,0.50082,-0.17082,-0.66566,-0.55796,2.1522,0.23439,-0.16664,-0.55293,0.34471,-0.087711,0.091632,0.35482,1.0917,0.013321,0.023328,0.93148,-0.48274,-0.50777,-0.51008,-0.11556,-0.01033,0.25634,0.068111,0.81666,-0.075717,-0.00051519,0.030003,0.31652,0.21723,0.14875,0.11622,0.23581,0.16913,0.19165,-0.43172,0.56027,-0.37024,0.26345,0.17778,-0.30492,-0.29777,0.056449,-0.20469,0.46642,0.3606,1.0189,-0.318,0.092015,0.22912,-0.37015,0.073733,0.30256,-0.19641,0.62234,-0.42259,-0.14533,-0.6504,0.49988,0.68856,0.78618,-0.074827,-0.11033,-0.30656,-0.64927,0.30818,-0.71273,0.18886,-0.55873,0.016748,-0.0099578,-0.092847,-0.15399,0.24189,0.16602,0.14182,0.25637,-0.30831,0.19756,-0.0033636,-0.056348,-0.41302,-0.1943,0.22908,-0.3095,-0.11492,-0.27326,-0.15878,-0.48555,-0.002257,0.36427,-0.89268,0.40152,-0.034483,-0.2612,0.17357,-0.58714,0.125,0.33287,0.53705,-0.07295,-0.94287,-0.024366,0.35483,0.3388,-0.0040253,-0.24033,0.086481,0.15558,0.63489,0.35502,-0.0078141,0.47522,0.05559,-0.12406,-0.37251,0.58332,-0.1743,0.076183,-0.48598,0.56179,0.46588,0.10647,0.79589,-0.13691,0.016181,-0.18736,0.4297,-0.32155,-0.2558,0.2315,-0.088382,0.03364,0.043296,0.25957,-0.037414,-0.20222,-0.11016,-0.12248,-0.23362,0.034002,0.20465,-0.53463,-0.14158,-0.15363,-0.70915,0.25605,-0.46095,-1.008,-0.0047916,0.58724,0.27761,-0.098296,0.050573,0.46795,-0.23215,0.43205,0.089082,0.1069,-0.21431,0.25087,-0.60077,0.059497,-0.35759,0.39667,0.44011,-0.75568,0.15246,-0.5517,-0.60951,0.028309,-0.29554,-0.23058,0.34464,0.072006,0.22245,0.46076,0.050022,0.12248,-0.097854,-0.39058,0.077901,0.24518,-0.081385,0.091565,-0.015852,-0.045259,0.022278,-0.27536,0.44392,0.32147,0.26685,0.38927,-0.089637,-0.15429,-0.53037,-0.37925,0.093671,0.055047,-0.18612,-0.52965,-0.052107,0.23737,-0.32585,0.62031,-0.006176,-0.17091,-0.18027,-0.0077878,0.26468,0.2033,0.42187,-0.45997,-0.048386,-0.12262,0.067153,0.13823,0.25221,0.80991,0.58619,0.67332,-0.41664,0.070408,-0.050332,-0.50495,0.10251,-0.28832,-0.23174,-0.35866,-0.45292,-0.17239,-0.35694,-0.20038,0.35725,0.29845,0.37109,0.5149,-0.49599,-0.16768,-0.24795,-0.056059,-0.24221,0.014885,0.16681,0.034767,-0.39645,0.11245,0.45854,0.17045,-0.25139,0.47993,-1.2335,0.044126,-0.13951,-0.1329,0.020486,0.43671,0.92521,0.096463,-0.31544,-0.49281,-0.35787,0.10986,-0.22779,0.35474,0.54375,0.13176,0.084382,0.30393,0.65258,-0.5401,0.005391,0.2653,0.15273,0.18205,-0.44993,-0.051126,-0.14226,-0.14339,0.46857,-0.48341,-0.5156,0.1063,-0.36178,-0.27622,-0.27273,0.078592,0.22751,0.27308,0.41631,0.14083,-0.35819,0.22986,0.79156,-0.35246,-0.085015
http://dbpedia.org/ontology/FictionalCharacter	-0.0015689,-0.43159,-0.62093,-0.39826,-0.75815,1.11211,0.40411,0.233476,0.2467409,4.385,0.12919,-0.377418,-0.648722,0.6423,1.05683,-0.316897,-0.0103287,0.01268,-0.05432,-1.1274,-0.382632,-0.305349,-0.167737,0.399484,0.98908,0.049299,0.83106,-0.4373,-0.93469,0.321807,-0.41025,0.63345,-0.6451,0.69705,0.41243,-0.36092,0.01559532,0.33463,-1.36844,-0.37422,0.221474,-0.325715,-0.01379,-0.0073,0.34646,-0.246229,0.907799,0.257888,0.15299,-1.16071,0.134637,-0.51279,0.30389,-0.08167,-0.236877,0.26445,-0.03325,-0.374318,0.562768,0.484514,0.98714,0.263273,0.51524,-0.44391,0.54796,0.138872,-0.75482,0.056514,0.07963,0.140687,-0.04015,-0.73721,-0.255101,-0.228119,-0.58137,1.16743,-0.304609,-0.72236,1.28445,0.1591169,0.01153,-0.666292,-0.61444,-0.196303,0.448433,0.341739,-0.54461,-0.479987,-0.44125,-1.0449,-1.5897,0.64227,-1.23246,0.058588,0.364125,-1.28479,0.245467,0.36464,-0.72144,-0.68002,0.032109,-0.239508,-0.29902,-0.351731,0.14561,-1.51318,-0.77341,-0.23622,-0.44442,-0.413647975,-0.65813,0.49413,-0.64462,-0.00422,-0.197388,0.54768,-0.12937,0.46821,0.162372,0.367619,-0.362513,-0.96852,0.171315,0.93414,1.23422,0.125916,-0.19542,0.152966,-0.617852,-0.338843,-0.37483,0.721736,0.80713,0.80145,-0.4039413,0.49752,-1.45658,-0.83053,0.129669,-0.0547467,-3.4419,-0.502177,-0.418918,0.235014,0.124143,0.353096,0.372746,-1.09616,0.89815,-0.2958,0.3943,0.8494,-0.2666,0.31268,0.312809,-0.211117,-0.46673,-0.58881,0.84081,-0.24309,0.172816,-0.71141,0.4042,0.36298,-0.1798475,-1.10435,-0.255821,-0.41768,1.17461,-0.264029,0.4757871,0.58551,-0.06007,0.61475,0.47121,0.21176,-0.1166517,-0.69273,-0.13507,-0.28128,0.448446,-0.070974,0.231071,-0.74724,-0.51341,0.47168,-0.25093,0.54584,-0.43426,-0.43857,-1.318,0.55934,-0.36552,0.35065,0.46049,-0.67871,-0.44976,0.049782,-0.221243,0.73774,-0.265167,-0.3115864,-0.17659,1.13408,-0.87629,0.468011,0.79936,0.1621464,-0.61907,0.275832,-0.117982,-0.203261,-0.023815,-0.96817,0.16327,1.16182,1.41343,0.67931,0.015142,-0.465317,0.383284,0.65274,0.516972,0.154052,0.465739,-0.221801,0.348211,0.221826,0.79609,0.121353,-1.10271,0.07175,-0.207919,-0.369314,-0.82791,1.0168,-0.0649489,0.345019,-0.09067,0.54256,-0.53646,0.212874,-0.113934,-0.48261,-0.266191,0.24208,0.47448,0.73449,0.72373,-0.66138,0.348,-0.0479,0.54938,0.260961,-0.64933,0.0137,0.490566,0.074118,-0.06897,0.09669,-0.58314,0.43495,0.0653832,0.40324,-0.215202,0.30929,-0.71493,0.91821,1.32472,0.057168,-0.74619,-0.350991,-0.52426,-0.26106,-1.20009,0.1501239,-0.7993,-0.68781,-0.65285,0.37984,0.0582577,0.7004752,0.54939,-1.16709,-0.191448,0.35394,-0.80154,0.2924893,-0.30554,-1.0666,-0.82961,0.37539,-1.14281,1.48979,-0.71274,0.32946,-0.353521,-0.47446,-0.38228,-0.300991
http://dbpedia.org/ontology/HorseTrainer	-0.181283,0.466491,-0.701,-0.07482,0.67346,0.03668,-1.12391,-0.76156,-0.060043,3.9997,-0.67874,0.82332,0.00902,0.63098,0.26175,-0.16230408,0.7014,0.96305,-0.426946,-1.10549,-0.82602,-0.55091,-0.183643,-0.82786,-0.60677,0.62796,-0.591463,-0.65548,0.36806,-0.012161,-0.34541,-0.44829,0.2073,0.375145,0.2687,0.73917,0.71921,-0.85472,-0.10529,-0.47383,-0.19781,-0.093138,-0.304596,-0.316963,0.23208,-0.19607,-0.831701,-0.18981,0.86652,-0.147107,0.309249,0.154533,0.120846,0.85931,-0.10932,0.92633,0.80006,1.09382,-0.94996,0.2148114,-0.27231,0.5844,0.59603,1.20438,-0.53218,-0.3317598,1.37684,-0.504838,-0.16145,0.137212,-1.20078,-0.85786,0.0001,-0.182028,-0.49348,-0.04263,-0.143797,-0.059676,0.258576,-0.4071472,-0.370302,-1.26046,0.38541,-0.245984,0.041133,0.76873,1.58283,1.8031,-0.19934,-0.68595,0.687559,-0.023885,-1.03283,-0.70433,-0.52597,-1.11458,-0.00036,0.07513,-0.61274,0.55417,-0.437266,0.37497,-0.33428,-1.07393,-0.182932,-1.03828,-0.201897,0.43744,-0.06747,-0.74853,0.431263,-0.514365,0.416813,0.15193,0.11725,0.02387,0.66214,-0.311307,0.83473,0.044225,0.24825,0.42881,0.87725,0.08501,-0.499795,0.78814,-0.135307,0.152297,0.007124,-0.366289,-0.60264,0.6281,-0.00841,-0.50035,-0.08913,-0.31417,0.189986,0.035395,0.04029,-0.138286,-3.521,-0.64266,1.17868,0.51362,1.09108,-1.3789,0.27138,-0.207586,-0.591725,0.32389,0.405042,0.029486,-0.664178,0.295818,0.2357875,0.29701,0.79555,-0.251821,-0.092109,-0.72925,-0.045658,-0.154851,0.08265,-0.4261735,0.4971,0.016709,0.69507,-0.71092,-0.32178,-0.5382,0.218057,0.12472,0.236458,-0.284514,-0.152979,1.02394,-0.391233,1.11742,0.18975,1.63876,0.2788849,-0.20667,-0.06358,0.01576,-0.45824,-0.5765,0.159455,1.56934,-0.47079,-0.797645,-0.647706,0.330804,-0.175413,0.06079,0.065289,0.57251,0.17148,-0.356164,0.580258,-0.01738,-0.361171,-0.18128,-0.323819,0.5992,-1.37693,1.28907,0.243154,-0.83128,-0.0575,-0.56869,0.412776,-0.76277,-0.06532,1.04889,0.15601,-0.473172,-0.60337,0.30184,-0.66533,1.01133,0.79918,-0.6337,0.74274,-0.45256,-0.8752,0.80537,-0.15631,1.2423,-0.30318,1.12127,-0.85444,0.380011,-0.31375,0.57131,-0.256195,-0.14407,-0.64438,0.138453,-0.408924,-0.456477,-0.08525,-1.03664,0.167534,0.175821,-0.188208,-0.008376,-0.466904,-0.3198,-0.073736,-0.0124,1.06095,0.24312,0.2752116,0.59227,-0.27453,-0.574899,0.43307,0.275009,-0.515903,0.192917,1.0974,-0.248699,-0.2648298,-0.85254,-0.32099,-0.88495,0.03131,0.317261,0.19536,-0.216903,-0.185043,0.147112,-0.201987,-0.141052,-0.32753,0.18878,0.603502,-0.2471612,-0.020864,-0.72835,-0.48909,0.200585,0.09585,0.35374,0.97453,-0.576449,-1.0755,-0.087578,0.047242,-0.316504,1.2917691,-0.523912,-0.278598,-1.35428,-0.107266,0.70399,1.51151,0.38124,0.05933,0.067286
http://dbpedia.org/ontology/Journalist	-0.13237,-0.075953,-0.060459,0.74344,0.0643,0.33322,0.014639,-0.61785,-0.65689,3.0252,0.22662,0.19183,-0.69778,-0.015826,-0.37036,-0.11645,-0.056506,-1.2406,-0.2775,-0.33423,0.40112,-0.1827,0.078404,-0.12061,0.5051,-0.20345,-0.20794,0.16846,0.20556,-0.11819,-0.12251,0.47882,0.12287,-0.15321,-0.11973,-0.14069,0.12789,-0.31532,0.10464,-0.27577,1.2342,0.19188,0.021741,-0.6048,-0.32982,-0.61034,-0.082489,-0.38919,0.45322,-0.35464,0.14635,-0.26545,0.02865,0.2363,-0.14859,-0.371,0.52231,-0.10817,0.85785,-0.24186,-0.27031,-0.28339,0.15605,-0.13793,0.2962,-0.68836,0.41043,-0.10891,-0.04858,0.47956,-0.70216,-0.07138,-0.45382,0.45275,-0.51388,-0.023966,-0.41229,0.46513,-0.39274,0.27965,0.31256,-0.32374,-0.07507,-0.077261,-0.54788,0.098436,-0.85064,-0.54692,0.016433,0.15055,-0.28017,-0.18169,-0.23528,0.18541,0.0601,-1.0587,-0.49729,0.10496,0.48791,-0.63701,0.11615,-0.25798,0.35456,-0.41321,0.17951,-0.67406,-0.47664,0.38096,0.44598,-0.0068703,-0.52496,0.24516,0.36794,0.52928,-0.53721,-0.12251,-0.6105,0.14949,-0.034646,-0.58601,-0.10862,-0.28901,0.057142,-0.44482,0.59096,0.13628,-0.14134,0.18003,-0.59234,0.21826,0.068524,0.34739,0.045414,0.28424,-0.22077,-0.16887,-0.57935,-0.12111,0.24928,-0.074887,-0.86563,-0.25825,0.39749,-0.37089,0.20799,-0.15767,0.11888,-0.57036,-0.58221,-0.41152,0.49916,0.13152,0.38822,-0.37424,0.02511,0.48686,0.31679,-0.48051,0.05365,-0.10616,0.3411,-0.77814,0.60325,0.1777,-0.11835,0.068088,-0.049524,-0.52392,0.14635,-0.15203,-0.24932,-0.5937,-0.051865,-0.043041,0.75525,0.11034,0.1652,-0.44473,-0.39915,0.12028,0.17573,0.10134,0.1828,-0.6782,0.36118,0.61216,0.32053,0.23575,0.16349,-0.2129,-0.47417,0.46644,0.35236,-0.17418,-0.20532,0.035992,-0.052602,0.18892,-0.017521,-0.55123,-0.1127,0.086586,0.10057,-0.36152,-0.42878,0.10967,-0.10462,0.034994,-0.54539,-0.30272,0.055564,-0.042348,-0.23305,0.23151,0.32981,-0.0627,-0.61853,0.12817,-0.54553,-0.26205,-0.035783,0.44601,0.50723,0.24973,-0.053072,-0.0048597,0.19847,-0.18976,0.54112,0.6942,-0.85047,0.25321,-0.14604,-0.32287,0.012958,-0.53224,-0.47379,0.77129,0.042353,0.60585,0.21774,-0.10602,0.1739,-0.55997,0.49409,0.60724,0.56513,0.099006,0.007796,-0.27856,0.022995,0.070393,-0.023611,-0.41593,-0.27296,-0.33384,0.017857,-0.51702,0.2632,-0.1231,0.17469,0.15539,-0.29846,-0.1656,-0.24689,-0.17125,0.11154,0.25089,0.12419,-0.010896,-0.40879,-0.20484,0.2053,0.66216,0.36313,0.26912,-0.2778,-0.33956,-0.19601,0.32317,0.14646,0.14926,-0.071694,0.1796,-0.10212,-0.17726,-0.11971,-0.0040058,-0.25273,0.57946,0.23391,-0.15245,-0.5008,-0.10351,0.37991,-1.037,0.11424,-0.37076,-0.10077,-0.20761
http://dbpedia.org/ontology/Judge	-0.38047,0.70083,0.17061,0.099141,-0.25362,-0.26551,0.37052,0.15961,-0.015807,3.2859,-0.41277,-0.30372,0.061817,-0.039144,-0.56307,-0.34327,-0.19827,-0.28026,0.49837,-0.10525,0.23053,-0.50204,0.017804,-0.16087,0.36131,-0.043885,-0.17805,-0.53472,0.28514,-0.59498,-0.5311,0.68776,0.10518,0.095873,0.31015,-0.029566,0.27825,-0.069295,-0.29928,-0.26982,-0.091104,-0.25393,0.18528,0.017696,-0.27745,-0.5025,-0.52249,-0.13101,0.13945,-0.21,0.089766,0.1363,0.014503,0.16118,-0.14098,0.12133,-0.33413,-0.54885,-0.044644,-0.45497,-0.11633,-0.59712,0.30385,0.43254,0.04011,-0.11879,-0.1122,-0.37802,0.43045,0.10565,0.30415,0.15659,0.027499,-0.37115,-0.16419,-0.55621,-0.19931,-0.14191,-0.0087412,0.11762,0.073835,0.20308,-0.44177,-0.15566,0.39675,0.037877,0.36622,-0.81961,0.39087,-0.20841,-0.090636,-0.25064,-0.20758,0.3949,0.039118,-0.50307,-0.38172,0.16558,-0.063161,0.085394,0.2736,0.45811,0.44661,0.0904,0.55841,-0.92191,0.36718,-0.22347,0.27257,-0.28851,0.3012,0.41719,0.090876,0.30392,0.18066,0.4014,0.29327,-0.57047,-0.061849,-0.11343,-0.044388,0.058045,-0.22103,0.027671,0.1437,0.28716,-0.081941,0.053795,0.24832,0.19726,-0.49594,0.36468,0.20152,-1.0027,0.036754,-0.39589,0.12008,0.095189,0.62352,-0.066601,-0.9496,0.16824,-0.32908,-0.14448,0.1009,0.075807,0.22299,-0.1971,-0.34984,-0.19873,-0.11679,-0.64684,-0.47127,0.14159,0.33825,-0.29592,-0.32115,-0.43148,0.49741,-0.4793,-0.30079,-0.080403,0.027045,-0.29668,-0.43036,0.31169,-0.21368,-0.25363,-0.023818,0.12533,0.28272,-0.53889,0.24525,-0.26745,0.12231,0.17162,0.49749,0.2098,-0.72215,0.25721,0.13096,0.0090126,-0.27254,0.23332,-0.047031,0.50893,-0.25011,-0.13409,0.078565,0.27309,-0.56533,-0.12769,-0.16467,-0.16267,0.35971,0.22587,-0.44301,0.0014717,0.0048621,-0.27255,-0.21444,0.34327,-0.026636,0.34449,-0.45358,-0.34368,0.087961,0.47681,-0.18574,0.55368,-0.051592,0.38353,-0.21316,0.46881,0.45403,0.78972,-0.43155,-0.21468,-0.056552,0.53476,-0.24915,-0.17076,0.17758,-0.20848,0.23924,0.50842,-0.24313,-0.032459,0.032075,-0.29241,-0.12785,0.089996,-0.014201,0.25378,-0.33884,-0.47179,-0.10271,0.20626,-0.21845,-0.65763,0.43245,-0.17375,0.7033,-0.16329,-0.045321,0.38774,0.50021,-0.51504,-0.85372,0.20424,-0.31216,0.33467,-0.28409,-0.078812,-0.10402,0.37854,0.45972,-0.24498,0.35782,-0.0055149,0.12328,0.049569,0.014829,-0.022051,-0.56619,0.0073448,0.20844,0.38373,0.15299,-0.31418,0.01458,-0.12253,0.097374,0.45344,0.2889,0.35823,0.071529,-0.058035,-0.37963,-0.47025,0.3212,0.15375,0.10169,-0.27968,-0.31087,0.26287,-0.38903,0.7977,-0.019325,-0.064577,0.013922,-0.32966,-0.42202,-0.34877,-0.48659,-0.15879,0.55327,-0.16516,0.22372,-0.033885
http://dbpedia.org/ontology/MilitaryPerson	-0.45063,0.091923,0.60619,0.037335,-0.087545,-0.23532,-0.771371,-0.6063,0.245085,6.2899,-0.58897,0.07746,-0.19957,-0.077592,-0.11248,-0.14349,-0.78144,2.12606,-0.80846,0.063542,0.380819,-0.665542,-0.73111,0.011617,-0.18852,-0.1244,-0.37246,0.04014,-0.099389,0.0745,0.153517,0.565473,-0.41435,0.62799,0.36206,-0.663214,0.23773,-0.56349,0.15159,-0.111305,0.42909,-0.074539,0.832153,0.164167,0.54492,0.060751,-0.230047,0.40498,0.77019,0.75888,0.00848,-1.06044,0.409925,0.6704,-0.4237,0.444815,0.341075,-0.443348,0.232833,-0.303358,0.014,-0.30805,0.05465,0.26221,0.99144,-0.17241,-0.55942,0.35896,-0.75566,0.43883,-0.96641,-0.66675,-0.078852,-0.3349838,0.873043,-0.251584,-0.195853,-0.330372,-0.09943,1.16917,0.156409,-0.407291,-0.18654,0.321404,0.78728,0.25808,-0.19263,-1.05847,0.81875,-0.855416,-0.169999,0.3679761,-0.408287,-0.52702,-0.34817,-0.68877,-0.52062,-0.47919,0.43054,-0.469281,0.140585,1.0173,0.25849,0.4559,0.5329057,-2.9935,-0.66797,-0.201962,-0.2037,0.221448,-0.23836,-0.02383,-0.66599,0.46317,-0.063858,0.593213,0.273996,-0.52556,0.08625,-0.314032,-0.270154,-0.19455,0.05225,0.16496,0.42824,0.0495041,-0.306257,0.20547,0.02844,-0.093686,0.40121,-0.085278,-0.32726,-0.43409,-0.46751,-0.268156,0.25113,-0.220701,0.212422,0.33975,-1.80666,0.167604,0.398288,0.574494,-0.183369,0.228487,0.350684,-0.04319,-0.611157,-0.86005,-0.161513,0.273376,-0.28428,0.33632,0.05432,0.69934,0.227292,-0.024841,0.175397,0.11906,0.563709,-0.22405,0.31153,0.46766,-0.31616,-0.85045,-0.16705,0.0448,0.53742,0.26654,-0.24646,0.26021,0.07741,0.406092,0.61972,0.217531,-0.59221,-0.02575,0.04572,0.89567,-0.35251,0.290195,-0.5089349,-0.57216,-0.40434,1.04117,-0.354818,0.194733,0.22622,0.1207341,-0.343543,0.4251,0.085809,0.031991,-0.01284,0.509724,-0.02392,-0.49271,0.25524102,-0.025226,0.392536,0.294165,0.73574,0.51019,0.12316,0.17301,-0.126453,-0.5534671,-0.01293,0.277729,0.40845,0.320997,-0.49317,-0.195694,0.67105,0.374815,-0.56734,0.060901,-0.95132,0.3568688,0.55795,0.26561,0.60937,0.317933,0.257005,-0.28232,0.209133,0.65733,-0.03464,0.12733,-0.76947,0.0930328,0.117368,-0.706389,0.226062,-0.3639,-0.264752,0.272389,0.24792,0.52187,-0.197855,0.232801,0.440644,0.336115,0.68478,0.26311,-0.120065,0.072622,0.00475,-0.348641,0.71161,1.18632,0.46456,0.412905,-0.232721,0.847084,0.153972,-0.36513,-0.26615,0.17964,-1.06618,0.42175,-0.163519,0.01514,-0.65266,0.42798,-0.02429,0.40719,0.17209,0.232258,0.47356,-0.28898,-0.26897,-0.433617,0.20641,0.79011,0.02157,0.02842,0.349009,-0.108524,-0.36537,0.30423,0.3863,-0.306108,-0.058903,0.36718,-0.508335,0.44488,0.008,0.467616,-0.248713,0.268159,-0.39672,-0.6208,-0.120986,0.358278,0.22111,0.27338,0.070862,-0.03918
http://dbpedia.org/ontology/Model	0.1748,0.36983,0.11983,0.075854,-0.13093,-0.31505,0.39821,0.2669,0.056501,1.1744,-0.014877,-0.10373,0.072091,-0.31126,0.17211,0.99678,-0.73059,2.3293,0.15002,0.37233,0.4035,-0.33966,-0.14024,0.10576,-0.14595,0.67276,0.038988,-0.18991,0.60254,0.47052,-0.53965,0.030343,0.4927,-0.18748,0.49479,-0.34851,0.49985,-0.37606,-0.18538,-0.21898,-0.084454,0.0095976,0.37744,0.10912,-0.34609,-0.22793,-0.5232,-0.54149,0.20066,-0.05863,-0.2579,0.046205,-0.63191,0.023148,-0.42707,-0.27542,-0.089048,-0.048897,0.13604,0.3651,-0.44976,-0.085758,0.28503,0.16896,-0.044899,-0.43989,-0.2651,0.15407,-0.075998,-0.08301,-0.38394,0.016625,-0.25189,0.67012,-0.39482,-0.041639,-0.085405,-0.12932,0.18405,0.69401,-0.31313,-0.11249,0.20426,0.42095,0.6975,-0.014632,0.10133,0.3596,-0.18436,0.018799,-0.44853,0.72607,-0.35006,-0.33786,0.1289,-0.34201,-0.033922,0.6185,-0.030557,0.13733,0.36642,0.17112,0.062958,0.1467,0.063288,-1.0935,-0.42905,0.12326,-0.39414,-0.42771,-0.17021,-0.511,-0.26242,-0.61517,0.56499,-0.24113,0.33868,0.33521,0.039995,-0.047908,-0.49142,-0.33482,-0.40263,0.2425,-0.28356,0.14048,-0.22671,-0.17331,0.04648,-0.32675,0.113,0.32569,-0.0091467,0.0031801,0.087173,0.15454,-0.19526,0.036744,0.49551,0.099999,-0.76697,-0.51666,0.13191,-0.56306,0.12768,-0.8287,-0.18877,0.063523,-0.10909,0.53286,-0.41414,0.34033,-0.30165,-0.20226,0.28696,0.04832,0.28707,0.47311,-0.17305,0.13412,-0.53463,0.49779,-0.34621,-0.66345,-0.10606,-0.59091,0.49989,-0.018433,1.1309,-0.048276,-0.13873,0.25689,0.095039,-0.14154,0.14096,0.5093,0.15969,0.33718,0.14409,-0.010123,-0.12914,0.57367,-0.18177,-0.69517,-0.14873,0.45306,-0.41656,0.6743,-0.055734,0.18954,-0.4761,-0.53095,-0.23633,0.24896,-0.085202,-0.55466,-0.21325,0.10598,-0.1931,0.32747,-0.41562,-0.3037,-0.022375,-0.15508,-0.65452,0.34307,-0.19037,0.52233,-0.25278,0.17625,-1.1648,0.040003,-0.23232,-0.294,0.25856,0.42009,-0.45667,0.22321,-0.10654,-0.08916,0.19213,-0.34659,0.20317,-0.0053747,0.14829,-0.01569,-0.071058,0.23458,0.71629,0.65125,-0.5148,-0.5057,-0.14833,-0.65927,0.36456,0.26756,0.074137,0.30105,-0.16391,0.091127,-0.69533,0.10416,0.63539,0.16146,0.22362,-0.085,0.22708,-0.34868,-0.62045,0.24571,-0.17551,0.069826,0.0918,0.034588,-0.13413,-0.5835,0.20302,0.0537,0.10189,-0.30607,0.41356,0.28675,0.19381,0.075893,-0.41677,-0.14412,0.27115,0.69145,0.30469,0.686,-0.052035,-0.25638,0.29177,-0.33302,-0.092353,-0.29073,0.3377,-0.020887,0.058504,0.32338,0.21658,0.55562,0.61244,-0.18089,0.48906,-0.094888,-0.19833,-0.051646,-0.13137,-0.14658,-0.15063,0.028252,0.87056,0.56399,0.098351,-0.77462,-0.35688,0.12913,-0.19994,0.075214
http://dbpedia.org/ontology/Monarch	0.41054,-0.32991,0.23999,-0.12434,0.016627,-0.034441,0.15471,0.055098,0.15431,1.4407,-0.18465,-0.42909,-0.0081671,-0.12937,0.18659,0.25381,-0.072851,-0.19364,0.63213,0.42543,-0.010396,0.22605,-0.77985,0.069216,-0.76438,-0.10293,-0.062567,0.034538,0.32953,0.8587,-0.47983,0.26944,0.40706,0.22888,-0.28034,0.50777,0.4819,-1.0717,-0.0048868,-0.26067,-0.049411,-0.15421,-0.043082,0.33988,0.93073,-0.17829,-0.094033,0.4548,0.14664,-0.11899,-0.22812,0.27684,0.10786,-0.047558,0.34514,-0.55282,-0.022084,-0.057836,-0.48218,-0.28919,-0.06232,-0.16021,0.22847,-0.1903,0.35265,0.49644,0.03576,-0.14059,-0.28607,-0.37434,-0.8804,-0.27715,-0.9539,0.083401,0.71021,0.32321,-0.16763,0.47877,0.0058311,-0.1602,-0.61148,0.49935,0.079767,0.14728,0.43888,-0.16713,0.32512,-0.15831,-0.19307,0.17663,-0.30422,0.3686,0.25003,0.28567,0.71339,-0.20856,0.014853,0.32003,-0.32763,0.41567,-0.26592,0.20114,-0.44642,-0.049365,-0.32523,-1.7498,-0.2364,0.03871,0.57718,0.042244,0.019371,0.40784,-0.49425,-0.18154,-0.61818,-0.32201,0.068863,-0.64847,-0.30256,-0.12681,-0.71235,0.11944,0.32571,0.24681,-0.25728,0.50015,-0.0659,-0.081692,-0.036978,0.10876,-0.34054,-0.49315,-0.62052,-0.60124,-0.15144,-0.74358,-0.063053,1.0587,0.43041,0.30378,-0.76894,-0.05841,0.096386,0.30626,-0.26224,-0.53057,0.57363,0.18062,0.2606,-0.58322,-0.12576,-0.57949,-0.061715,0.53518,0.087491,-0.47922,0.51189,-0.21266,0.20391,0.66533,0.13695,-0.075056,0.044802,0.04257,0.46743,0.3507,0.050939,0.077633,0.36343,0.20113,-0.2773,-0.094118,0.2627,0.088829,-0.47321,-0.16934,0.8004,-0.47464,-0.15017,0.22913,-0.42534,-0.016603,0.27005,-0.22823,0.10296,0.018727,-0.49652,-0.09783,-0.048023,0.20841,-0.48424,0.047206,0.3405,-0.17684,-0.15531,0.042812,-0.03661,0.18332,-0.18483,-0.49509,0.1511,0.85486,0.027651,-0.059248,0.31211,0.15609,0.71211,-0.17107,-0.47761,-0.57194,0.56403,0.2913,-0.22984,-0.0030982,-0.0018774,-0.018381,0.44602,-0.10628,0.22273,0.12637,0.57891,-0.174,0.30752,0.53373,0.58858,0.36354,-0.016869,0.11895,0.089228,0.62834,0.17858,0.016573,-0.0058551,-0.19224,0.11929,-0.31562,-0.29646,-0.17574,-0.039184,-0.03056,0.0019277,0.00074949,0.73874,-0.41639,-0.11902,-0.94644,0.86937,0.63667,-0.39737,-0.65273,0.19047,0.55497,-0.02216,-0.064055,-0.14942,0.37207,0.19594,0.27764,-0.35829,-0.076363,-0.016734,-0.0078203,-0.11206,0.043992,0.18253,0.13006,-0.09527,0.14907,-0.47552,0.5127,0.028594,-0.32859,-0.043828,0.16756,0.01456,-0.12022,0.11758,0.40928,0.11075,-0.84386,0.60961,0.56906,0.16374,0.067533,-0.19267,0.36104,-0.17877,0.33707,-0.25336,0.091537,-0.28561,0.10069,-0.29001,-0.1855,0.014819,0.74696,0.20523,0.018026,0.097828,-0.29149
http://dbpedia.org/ontology/Noble	-0.40102,-0.026892,-0.53124,0.63178,-0.10529,0.096709,0.46977,0.28589,0.077748,1.8969,-0.22741,0.021087,0.084924,-0.29972,-0.046911,0.083964,0.11985,0.076178,0.23675,-0.24377,-0.58057,-0.20493,-0.25518,0.23874,-0.31578,0.25281,0.020299,-0.09123,-0.73533,0.65345,-0.068725,0.77295,0.22546,0.015508,-0.21155,-0.36726,-0.15847,-0.59454,-0.080834,0.016523,0.27373,0.19891,0.42827,-0.054445,0.89656,-0.36522,-0.013432,-0.055381,0.11735,-0.3286,0.024358,0.3021,0.020658,0.073417,0.5405,-0.26434,0.029924,0.38357,-0.59182,0.047492,0.31274,-0.34877,0.15402,-0.45832,0.18685,0.16377,-0.059066,-0.77349,-0.05828,-0.19365,-0.009209,-0.47806,-0.34044,-0.14176,0.5804,0.33539,-0.11599,0.30949,0.022849,-0.29167,-0.36898,0.037648,-0.025817,-0.16333,-0.038322,-0.21948,0.39791,-0.037794,-0.74244,-0.40243,-0.16852,0.44176,0.21454,0.37065,0.20392,0.098188,0.33529,-0.43012,0.0078667,0.033113,0.29361,-0.13954,-0.053615,0.52457,-0.19633,-1.5287,-0.33042,0.31368,0.064829,0.022653,-0.048112,0.026168,0.38399,-0.068117,-0.20376,0.43508,-0.061166,-0.43397,-0.25247,0.15088,0.21123,-0.27906,0.052251,0.87176,0.42898,-0.28301,-0.59582,-0.28642,0.12453,-0.4057,0.12691,-0.065987,-0.2102,-0.25855,-0.37906,-0.075461,-0.67504,-0.13779,0.64938,-0.011814,-1.3827,0.37756,-0.052619,0.36553,0.13578,-0.55471,0.22247,0.61078,-0.021418,0.080201,0.50156,-0.31131,0.5233,0.47339,0.23525,0.24719,-0.23754,0.068188,-0.2414,0.077835,0.61484,-0.26848,0.18053,0.82861,0.54182,-0.28126,0.49153,-0.21562,-0.10942,0.18261,-0.36722,0.76354,0.30534,-0.38446,0.33182,-0.028025,0.11978,-0.28692,-0.22663,-0.14508,0.016898,-0.1139,0.56,-0.0046191,-0.39416,0.25219,-0.4997,0.19814,0.16696,-0.24141,-0.57546,0.24373,0.21005,-0.4614,0.21699,0.27468,-0.37505,-0.68077,-0.14152,-0.11293,0.31201,0.58499,-0.088417,0.16661,-0.086621,0.70114,-0.36012,0.088874,-0.064288,-0.92277,-0.066706,0.5321,0.0077593,0.087225,0.31734,-0.097164,0.47735,0.75228,0.066879,0.21117,-0.0020593,-0.052275,0.045993,0.48255,0.35031,0.30175,-0.073322,-0.034434,-0.34378,-0.11462,-0.044366,-0.28253,-0.29345,-0.39417,-0.64345,0.081016,-0.055493,0.42938,0.1966,0.25032,0.13382,-0.083085,-0.32531,-0.25878,0.073852,-0.072859,-0.044359,-0.087899,-0.038608,-0.78806,0.60726,0.6853,0.047496,0.072381,0.02613,0.074823,0.7166,0.0047484,-0.27554,0.38758,-0.15044,0.23094,-0.065662,0.81052,-0.87621,-0.42466,0.26834,0.22587,-0.46904,0.55995,-0.049979,0.26669,-0.29632,0.043602,-0.17403,0.16035,-0.14403,0.097819,0.095424,0.33666,0.088973,0.49192,0.52414,0.33511,0.054503,0.28402,0.057895,-0.07575,-0.076943,-0.31273,-0.72846,-0.36725,-0.33626,0.042021,0.18836,0.63804,0.66777,0.039077,-0.22509,-0.032159
http://dbpedia.org/ontology/OfficeHolder	0.100353,-0.84001,-0.21001,0.245521,0.39068,-0.798,-0.42356,-1.25931,0.372897,4.10996,-0.89204,-0.12156,-0.041297,-0.54947,-0.1989,0.08581,0.30346,3.4276,1.30933,0.64091,-0.145688,0.7544,-0.033925,-0.44826,0.61254,0.24781,-1.0078,-0.79243,-0.4393703,0.07502,-0.06418,-0.64705,0.18661,0.72325,-0.24931,-0.325193,-0.417845,-0.400172,0.31824,-1.0861,0.27755,0.64892,0.256725,0.195498,-0.17336,0.56799,-0.349468,-0.88186,0.18454,0.08531,0.1656842,0.046988,0.693189,-0.199064,0.381201,-0.354261,0.01061,-0.56052,0.253801,-0.0457,-0.271525,-0.32634,0.47493,0.69211,-0.45998,-0.42903,-0.41399,0.6422,-0.254813,0.4641,-0.556687,-0.532732,-0.1848659,0.660465,0.00315,0.92675,0.125273,-0.71358,-0.077325,0.72028,-0.42453,0.01472,0.153347,-0.026676,-1.12615,1.04901,1.31628,1.65643,0.99645,-0.190946,0.266894,-0.07699,-0.134307,-0.16596,-0.117371,-1.08067,-0.3932,0.06398,-0.54845,-0.06316,0.114104,-0.39264,-0.211325,0.024687,0.135606,-1.25241,-0.32485,0.00548,0.16957,0.073586,0.22661,1.09109,0.015411,0.27928,0.658946,-0.27423,-0.11928,-0.053796,0.268558,0.341716,-0.006733,0.26032,0.867894,0.193666,-0.589387,-0.14193,0.37387,-0.33339,0.102039,0.96549,-0.196636,0.23030306,0.585199,-0.67172,-0.007569,-0.22311,0.44722,0.071667,-0.6372,-0.43213,-0.95565,-0.167178,0.1216491,0.111386,-0.12523,0.564697,0.8823,-0.1716386,-0.302158,-0.32688,-0.46705,-0.47647,-0.382327,0.37614,0.511412,0.33198,-0.760155,0.44319,0.51612,0.86426,0.715564,0.00869,0.599366,0.153782,-0.352161,-0.485075,0.14219,-0.12934,0.301537,0.4147723,-0.2967,-0.77717,-0.3391,0.16432,-0.128549,0.113003,-0.25014,0.83099,-0.61425,0.3001,-0.156954,-0.56733,0.34251,-0.45916,0.23627,0.2258,0.05675,0.3931,0.24582,0.691434,-1.13638,0.088539,0.79517,0.155735,0.59821,0.6123,-0.00074,-0.113438,-0.16002,0.06033,0.81093,0.44157,-0.30897,0.05514,0.6257,0.54382,0.192221,0.45155,-0.009777,0.34598,0.322695,0.75703,-0.06118,0.06057,0.84641,0.731837,-0.51491,-0.808035,-1.10593,0.66161,-0.108823,-0.31608,-0.09425,0.625853,-0.0182052,0.328048,0.24038,0.08201,-0.30985,-0.57719,0.201251,0.37902077,-0.421031,0.69132,-0.80704,-0.520831,0.3520811,-0.33706,0.416256,0.223398,0.64441,0.389494,0.7548,0.54711,0.36047,-0.5284,-0.168424,-0.63374,-0.2999851,0.29126,0.28943,0.22537,0.068527,-0.35173,-0.0777,0.413977,0.349804,-0.23744,0.06239,0.24036,0.54837,0.34843,-0.310819,0.153031,0.105144,0.54402,-0.75127,-0.37708,0.0706,-0.57071,0.27914,0.45997,-0.03286,0.30183,0.61945,0.44922,-0.06086,0.55363,-0.37324,-1.57994,0.07684,1.10439,0.076784,0.78027,-0.80219,-0.643251,0.75731,0.449305,-0.2816543,0.223406,0.06393,0.68002,1.35323,-0.09978,0.17176,-0.019496,0.327275,0.099776,-0.10349,-0.08938
http://dbpedia.org/ontology/OrganisationMember	0.318167,-0.12774,0.24395,-0.01341,0.20156,0.1265,-0.02091,-1.00841,0.17636,3.88618,-0.90493,0.1648987,0.038159,-0.76573,1.11789,-0.384559,-0.49549,0.8517229,-0.46674,0.283891,0.04683,0.18566,-0.05596,0.091226,0.172902,0.64822,-0.41024,-0.35401,0.632,-0.51649,1.10595,0.37435,0.1438,0.34336,-0.10678,-0.49716,-0.84522,-0.34234,-0.26666,-0.41992,0.245262,0.3092,0.231417,0.61153,-0.117416,-0.02342,0.97012,-0.03929,-0.241175,0.496993,0.341446,-0.40392,0.75921,-0.52624,-0.44031,-0.18002,0.25486,0.2005,0.4844,-0.233369,-0.32438,0.60938,0.27031,-1.12296,-0.56778,-0.302466,-0.7408,0.24902,-0.04785,0.15497,0.03305,-0.65639,-0.78407,0.3841,-0.06449,-0.073964,0.131447,-0.30294,0.08559,0.05489,-0.081242,0.0704061,-0.629983,-0.07524,0.173933,-0.470958,-1.695005,0.082237,0.029814,0.02445,1.32797,-0.505178,-0.116304,-0.569195,-0.32075,-0.243,-0.0116,-0.371772,0.105901,-0.197042,0.07382,-0.11264,0.018363,0.218892,-0.4831,0.046656,0.00419,-0.00524,0.42242,0.43317,0.59047,-0.01951,-1.171754,0.53956,-0.098954,0.395472,-0.16779,-0.05003,-0.2838,0.60621,-0.29833,0.076859,0.81386,-0.349756,-0.08629,0.62603,0.266128,-1.1038,-0.81464,0.38226,0.03511,0.79185,-0.52512,0.66457,1.01994,-0.211043,-0.50468,0.659908,0.4955,-0.66591,1.80071,0.35497,-0.220243,0.271409,0.62019,-0.2464,0.199036,0.01561,-0.67591,0.185659,-1.03681,0.86231,-1.50052,-0.30468,0.01869,0.742245,-0.6482184,1.25536,-1.12012,0.710132,0.90304,-0.37947,0.5227,-0.02456,-0.0986,-0.43544,0.475036,-0.48647,0.285898,0.61122,-0.08593,-0.23756,0.1097,-0.16263,0.28081,0.703767,0.311872,0.87582,-0.78684,0.62743,-0.0234,0.45665,-1.03605,-0.51799,-0.33653,-0.271282,0.079515,-0.0592371,-0.634718,-0.77298,-0.2274264,0.085103,0.03851,1.07093,0.58059,0.41468,0.28789,-0.452942,-0.3500298,0.34891,0.173484,1.17811,0.09989,-0.11689,0.77098,0.703891,-0.91651,-0.316529,-0.69635,-0.98253,-0.26159,1.27777,-0.21978,0.59393,-0.080261,0.78691,-0.85211,-0.69252,-0.46739,-0.48892,-0.73807,0.121121,0.63708,0.33951,0.012982,0.75754,-0.392085,0.181234,-0.051671,0.1845,-0.37038,-0.01369,-0.348875,-0.563,0.95508,-0.12425,-2.07494,0.153668,0.2951211,-0.0949141,-0.771452,0.46524,1.16891,0.30764,-0.030117,-0.165425,0.720429,0.24341,0.11353,-0.204616,0.492425,0.42972,0.31621,-0.2912,0.137397,0.246368,0.06027,-0.206074,0.3303281,0.64123,-0.013061,-0.1267,-0.40056,0.96787,-1.22923,-1.25474,0.099589,-0.89102,1.77202,-0.74133,0.81809,-0.48123,-0.316007,0.73544,-0.33777,0.84731,-0.391108,0.21833,-0.031371,0.17712,0.03724,0.35662,0.41587,-0.5897,-0.37383,-1.33134,0.72881,-0.53473,-0.067777,-0.04317,0.35103,0.477366,0.89544,-0.85386,0.338221,0.3352,0.16593,-0.253295,0.227912,0.61563
http://dbpedia.org/ontology/Philosopher	0.8226,0.24836,-0.010735,-0.12999,0.18689,0.36267,-0.18077,0.096533,-0.21456,1.909,0.11949,0.14074,-0.39745,0.062715,0.02079,0.29856,0.34641,-0.64006,-0.074036,-0.23734,0.36632,-0.16678,-0.3243,0.21392,0.54703,-0.025623,0.060162,0.43627,-0.2836,-0.042453,-0.16904,0.84282,0.16087,-0.15254,0.22319,-0.6777,0.34111,-0.50074,-0.49809,-0.36683,0.10775,0.49694,-0.030166,0.42962,-0.43242,-0.47164,0.29299,-0.40257,-0.023094,-0.14731,0.37501,0.068239,-0.13613,-0.13424,-0.081455,-0.078916,0.019891,-0.077467,0.40821,-0.74433,-0.18995,-0.27487,0.6106,-0.19419,-0.529,-0.17453,0.020159,-0.23095,-0.39756,-0.35721,-0.36562,-0.33159,-0.77934,0.14175,-0.43541,-0.14549,-0.77836,0.14575,-0.57102,0.90907,0.35393,-0.064663,1.0916,-0.32514,0.050056,-0.90955,0.15273,-0.91139,-0.86061,-0.24278,-0.79618,-0.51668,0.12983,-0.0048756,-0.32666,-1.0068,-0.11484,0.17224,0.42868,-0.4776,-0.41296,0.24755,0.13724,-0.097288,0.14213,-0.90805,-0.37665,0.23475,0.22865,-0.45822,-0.036532,-0.10832,-0.073518,-0.065539,-0.82364,0.47151,-0.81308,-0.19368,0.1941,-1.0393,0.16233,-0.47148,0.22719,0.73072,0.30067,0.30107,-0.44419,0.40475,0.087472,-0.051714,-0.36343,-0.55038,-0.14174,-0.30466,-0.43603,0.084676,0.56437,-0.23081,-0.27336,0.36734,-0.65992,0.26097,-0.26294,0.098081,0.038161,-0.5028,0.15088,-0.22938,-0.72571,-0.056772,0.52257,-0.6842,-0.56973,0.47291,-0.067168,0.55038,0.70998,-0.71838,-0.16644,-0.11459,0.66914,-0.51156,-0.25363,-0.15372,0.79788,0.30932,0.0043445,0.32928,-0.013351,0.3165,0.02159,0.16888,0.035642,-0.78311,0.41335,-0.027759,0.73063,-0.23492,-0.44556,-0.53501,0.51241,0.71155,0.55683,-0.25703,-0.10071,-0.29282,-0.5142,-0.26263,0.6145,-0.45286,-1.7056,0.56065,0.035037,-0.27126,0.13517,-0.077784,-0.073744,-0.072541,-0.012256,-0.65158,-0.33652,0.31399,-0.85557,-0.35795,0.10127,0.06441,-0.1711,-0.85714,-0.24934,-0.45519,-0.31329,0.30517,-0.64968,-0.035711,-0.12653,-0.44118,0.51486,1.0247,-0.51201,-0.37499,0.14921,0.36802,0.52221,0.19729,0.65037,-0.13361,-0.19377,-0.077484,0.11688,0.27543,-0.13985,0.072708,-0.075339,-0.30708,-0.19365,0.29951,-0.39318,0.38489,-0.094957,0.59559,-0.082925,0.0045151,-0.19012,-0.36676,0.69792,0.54682,0.37513,-0.3774,-0.91235,-0.21846,-0.23915,-0.048853,0.30771,0.21684,-0.11927,-0.82012,0.59067,-0.1512,0.52245,0.24122,0.60671,0.58625,-0.45975,0.78599,-0.69139,-0.39921,-0.68939,0.32311,-0.011149,-0.34388,-0.030364,0.39048,0.12086,0.1872,-0.028869,-0.013186,0.12275,0.10852,0.38335,-0.40239,0.11445,0.064717,0.70354,-0.66592,-0.33648,0.17849,0.05545,-0.34932,-0.65071,0.14824,0.41486,-0.13536,-0.69497,0.73357,0.33181,0.32998,0.40111,0.54243,0.13892,-0.56994
http://dbpedia.org/ontology/PlayboyPlaymate	0.55252,-0.246533,-0.02417,1.8519,-0.15388,0.56786,1.02741,-0.052926,-0.66939,0.41764,1.39035,-0.32137,-0.40932,-0.81179,0.170699,0.52694,0.157661,-2.17411,-0.04638,0.311159,0.60477,0.359645,-0.80067,0.00975,-0.15391,0.461352,-0.229406,-0.43303,-0.5872,-0.07839,-0.54535,-0.097928,-0.0788868,-0.07635,0.78213,-0.062734,-0.301581,-0.11207,0.335902,0.50126,0.3203,0.224008,0.81419,-0.83366,-0.98908,0.004179,-0.71169,-1.73446,0.77183,-0.252921,-0.27244,0.56671,-0.97614,0.127808,0.256786,-0.0075852,0.59438,0.312903,0.50813,0.91812,-0.41849,-0.452,1.28683,-0.366674,-0.69348,0.66031,0.335572,-1.15076,-0.93008,0.09027,0.64716,0.49844,0.67091,0.452261,-0.14446,0.11238,-0.563082,-0.46479,0.82766,0.02296,-0.5971,-0.69351,-0.96493,1.11893,0.87123,0.0677776,-0.59189,0.51112,0.00514,0.94472,-0.06216,1.02623,0.113043,-0.068246,0.167868,-0.192427,0.99323,-0.3067,-0.89044,-0.159604,-0.141276,0.68694,0.08354,0.25939,0.91256,2.5374,-0.39548,-0.159971,-0.30338,-0.01264,-0.21334,0.99861,-0.332349,-0.58559,-0.00465,-1.90224,0.9399,0.99144,0.07189,-0.564833,0.518797,0.95172,-0.406251,-0.205775,-0.238298,1.18539,-1.48409,0.26071,1.30678,0.435428,-0.69093,-0.6308,-0.39178,-0.45844,0.59096,-0.44867,-0.436,1.04882,-0.0681254,0.75127,-1.95779,-0.49194,-0.48986,0.204173,-1.05005,-1.34738,0.515188,-0.30285105,0.62696,0.20452,-0.26894,-0.210515,0.256605,-0.032633,-0.235512,0.58259,1.10695,-0.03577,-0.10931,-0.5477,-0.68186,0.09952,0.75074,-0.270709,-0.82485,-1.25859,0.46189,1.054,1.68852,0.08049,0.38846,-0.144174,0.80628,0.49164,-0.10095,0.98952,-0.54271,0.20029,-0.59533,1.10644,0.93888,1.38591,-0.47314,-0.75281,-0.04808,0.95764,-0.55163,-0.324047,-0.136086,-0.342196,-0.86828,0.17146,0.36757,0.236534,0.47381,-0.71754,-0.86167,0.83373,0.444773,-0.008694,0.02389,-0.179876,0.40513,-0.92446,-0.39243,-0.172004,0.49614,0.95972,-1.19714,0.210824,-0.84369,-0.00633,0.12634,-0.149443,-0.84901,0.97617,-0.285077,-0.26088,0.0649,0.07605,0.06878,0.070031,-0.599647,-0.52781,-0.12358,0.5869,1.37981,-0.1440412,0.63934,0.60426,-0.41403,-0.88264,-0.7379,-1.29506,1.06445,0.172153,0.06139,0.03514,-0.61495,-0.089866,-0.154737,0.66627,0.38024,0.426942,0.88107,-0.1235808,0.89533,0.295863,-0.21355,0.36922,-0.4332,0.41404,-0.081226,-0.884,-1.03959,-0.160936,0.04446,-0.404608,0.06084,-0.95757,0.27116,1.14371,-1.19561,-0.30628,-0.584586,0.284096,-0.1313,0.94049,-0.80088,-0.62505,-0.99119,-0.60455,1.36849,0.255244,-0.083726,-0.80838,-1.54519,0.315843,-0.66935,0.59279,0.15957,-0.14611,0.63646,-0.1565,-0.06701,-1.04491,-1.0319,1.30878,0.258926,1.6881,0.701486,-0.34048,0.46222,0.37851,-0.00136,-0.77104,-1.35063,-0.76398,0.152077,-1.29617
http://dbpedia.org/ontology/Politician	0.042132,-0.090976,0.28364,0.23647,0.32229,0.43668,-0.33885,-0.53262,0.17215,3.1067,-0.40985,0.50166,-0.52209,-0.010907,-0.43948,0.43792,0.31504,-1.2606,0.45076,-0.010119,0.32402,-0.14659,0.015605,-0.29081,0.37803,-0.11947,-0.041918,0.086623,-0.095657,-0.15935,0.094007,0.53068,0.35613,-0.2822,0.30299,-0.2823,0.1545,-0.42937,-0.48776,0.19748,0.37663,0.3344,-0.055592,0.10085,0.088672,-0.23157,0.11051,-0.25366,0.10985,-0.34517,0.17092,0.58971,0.49061,0.16372,0.17033,0.1584,0.089969,-0.079551,0.025759,-0.91233,-0.28327,0.39396,-0.15682,0.13455,0.033619,0.056381,-0.067313,-0.37791,-0.24638,-0.61084,-0.66632,0.37453,-1.0587,0.022654,-0.40101,-0.027014,-0.28633,-0.11825,-0.014011,0.24677,-0.12359,-0.6247,0.39198,-0.041366,-0.39138,-0.21163,0.33774,-1.0323,0.038791,-0.50801,0.074874,0.14068,-0.25827,0.63476,-0.052898,-1.2501,-0.55462,0.16656,-0.033135,-0.41588,-0.18646,0.30583,0.50651,-0.23507,0.3751,-1.0918,-0.37542,-0.15512,0.27412,0.044276,-0.45419,0.12598,-0.23231,0.36492,-0.28922,-0.076017,-0.31487,-0.89345,-0.6013,-0.37355,-0.65012,-0.28366,-0.46463,0.55858,0.16146,0.073876,-0.031766,0.23649,-0.37264,0.0031404,-0.67213,0.25812,0.11874,-0.057399,0.19752,-0.223,-0.20536,0.42909,0.04621,-0.3901,-0.90428,0.43843,0.1816,0.0065818,0.029585,-0.33197,-0.028123,0.10311,-0.060564,0.23166,0.43846,-0.25681,-0.38839,0.10189,0.46581,0.74679,0.41943,-0.42609,-0.084804,-0.045735,-0.24545,-0.32821,0.26542,0.88082,-0.0094731,-0.23485,-0.15341,-0.45415,0.2733,0.098258,-0.035825,-0.19632,-0.088981,0.32512,-0.046212,-0.040166,-0.098606,-0.37492,0.34138,0.51497,0.30008,0.52078,0.032888,-0.78524,-0.058696,0.49083,-0.10951,0.005583,0.18328,0.054595,-0.38962,0.35146,0.64764,-0.37054,0.27417,-0.27059,0.14253,0.539,-0.16112,-0.040098,0.028578,0.41605,0.022199,-0.47471,0.023302,0.44087,-0.15379,-0.31573,-0.49025,-0.43134,-0.25026,-0.10442,-0.65808,0.36862,0.85716,0.17497,-0.33246,0.19975,-0.8246,-0.5576,0.14377,0.13735,0.2864,0.29843,0.63497,-0.034551,0.33199,-0.092351,-0.030599,0.50849,-0.10513,-0.18714,0.24276,-0.523,-0.35626,0.077611,-0.22264,0.60111,0.085403,0.33531,-0.075134,-0.0084711,0.34538,-0.089327,0.026592,0.43242,0.81395,-0.17181,-0.03995,-2.9316e-05,-0.063387,0.59351,0.54337,-0.36829,0.1954,0.05955,0.10232,-0.30591,-0.050062,0.035848,-0.088778,0.31708,0.42994,0.30894,-0.20712,0.2317,-0.13486,-0.069714,0.56921,-0.075679,0.18102,0.21564,-0.3458,0.90059,-0.088727,0.39622,0.25008,-0.030182,-0.20667,-0.1383,0.23567,0.16882,-0.080109,0.24193,0.27379,-0.21768,0.14184,-0.06638,-0.54879,0.6358,0.26912,-0.11155,-0.55801,-0.070874,0.31779,0.46026,0.088749,-0.11473,0.21987,-0.32107
http://dbpedia.org/ontology/Presenter	-0.0012858,0.27629,0.12058,0.87633,0.026167,-0.42398,0.55836,-0.57604,-0.31872,1.3604,0.11646,0.21407,-0.38917,-0.19976,0.42349,-0.08861,0.13155,-0.38749,0.25796,-0.94489,0.054575,-0.25482,0.0095343,-0.20249,0.50867,-0.12972,-0.46136,-0.13379,0.31195,-0.28717,-0.91305,-0.12288,0.29081,0.4245,-0.017197,-0.078474,0.39737,-0.012568,-0.35154,-0.50607,0.65687,0.21427,-0.3171,0.48894,-0.52496,0.18733,-0.2136,-0.57029,0.24283,-0.15312,0.32621,-0.36787,-0.11045,-0.094391,-0.56566,-0.54181,0.23652,0.35541,0.16631,-0.15143,-0.62773,-0.1632,0.41665,-0.16521,0.34797,-0.3698,0.047368,0.11078,-0.17378,-0.093137,-0.14041,-0.061156,-0.1107,0.069152,-0.73149,-0.12586,-0.15254,0.33742,0.35424,0.17232,0.24941,-0.13565,-0.27968,0.10461,0.077655,-0.08909,-0.52125,0.36479,0.15548,-0.30724,0.11235,-0.34904,0.3024,0.58309,-0.0384,-0.72352,0.021234,0.45522,0.09517,-0.19297,-0.34161,-0.36246,0.095172,-0.56939,-0.013566,-0.41153,0.12995,0.20562,0.072969,-0.59926,-0.39477,0.15294,-0.13156,0.61363,-0.12331,-0.35884,-0.097998,0.367,0.35722,0.01113,-0.39484,-0.031176,0.33085,-0.14415,-0.22646,0.31475,0.16972,-0.15252,-0.020963,-0.135,0.45945,0.25051,0.26659,-0.14916,0.16905,-0.38367,-0.056093,0.12979,0.67991,-0.68971,-0.67672,-0.026082,-0.11771,-0.25258,0.37483,0.04844,0.83476,-0.24206,-0.46236,-0.28545,-0.015434,0.076044,-0.024479,0.20266,0.029595,-0.36507,0.91214,-0.09573,-0.044812,-0.42293,-0.74953,-0.98492,0.59028,-0.27352,0.17426,0.32465,-0.13257,0.18151,-0.0010252,-0.10169,-0.3482,-0.18014,0.40931,0.25502,0.070577,0.47119,0.14906,0.11428,-0.74718,0.63182,-0.066648,-0.16178,0.41811,0.10372,0.21153,-0.15881,-0.3026,0.54285,0.30212,-0.19602,-0.15467,0.61283,0.17458,0.022789,0.080869,-0.2517,-0.090052,-0.27065,0.43828,-0.25596,-0.29883,0.20105,-0.033648,-0.027338,-0.32779,0.72601,0.102,0.12804,-0.34876,-0.46135,0.11421,-0.048139,-0.30161,0.31294,-0.38774,0.70112,-0.713,-0.12375,-0.50162,-0.28108,-0.054947,0.080749,0.30464,0.48449,0.4337,0.02561,0.45676,-0.67762,-0.047817,0.4931,-0.52188,-0.23184,-0.12855,-0.013659,0.18575,-0.12671,-0.48143,0.56066,-0.44139,0.44781,0.32812,0.06069,0.25883,-1.0515,0.58273,-0.17499,0.53502,-0.35481,-0.5032,0.12542,-0.16277,0.21457,0.047282,7.8637e-05,0.1265,-0.46769,0.67752,0.1519,-0.41932,-0.12265,0.4344,-0.25843,0.027751,-0.1343,0.10798,-0.38099,0.06524,0.50612,0.57192,0.01544,-0.835,-0.056137,0.076871,0.71023,-0.19089,0.48024,0.27448,-0.59273,-0.67108,0.079873,0.44928,0.36049,-0.058449,0.33597,-0.29386,-0.37819,0.24958,0.2847,-0.44502,0.80545,0.61235,0.779,-0.27349,0.31524,0.35744,-0.44132,0.31672,0.23117,0.075217,-0.032715
http://dbpedia.org/ontology/Religious	-0.12499,-0.62425,0.16616,0.46385,0.24132,0.14883,-0.30292,0.68841,0.2259,3.4694,-0.11464,-0.20623,0.48311,-0.042266,0.10715,-0.062374,-0.32636,0.40785,0.051449,0.45788,0.12651,-0.36663,0.13842,0.47372,0.50969,-0.21139,0.080251,0.26513,-0.51494,0.85028,0.35058,0.33448,0.027416,-0.41734,0.64389,0.060896,-0.64893,-0.61577,0.012167,0.20468,0.11923,-0.10726,-0.13536,0.60602,0.45847,-0.28077,-0.058584,-0.26379,-0.31058,0.033898,-0.48239,-0.16349,-0.16648,-0.11671,-0.14156,-0.09538,0.31954,-0.022767,0.11378,-0.14739,-0.074487,0.24394,-0.17658,-0.27207,-0.57433,-0.3249,-0.14773,-0.030853,0.011553,-0.29778,-0.18607,-0.10588,-0.07578,-0.80915,0.42415,0.34538,-0.43695,0.28852,-0.26921,0.24432,0.089234,-0.34668,0.070271,0.2687,0.20616,0.49459,-0.80158,-0.77971,0.04232,-0.30201,-0.30393,0.35711,0.55298,0.21526,0.18671,0.017727,-0.20477,0.26586,-0.11186,-1.0822,-0.37308,0.15767,0.4093,-0.30132,0.09492,-1.9419,-0.84755,-0.044896,-0.36655,0.27095,-0.13871,0.25479,-0.23868,-0.2133,-0.16899,-0.031566,-0.17001,-0.32113,-0.028868,0.12226,0.23164,0.027579,0.16576,0.51418,0.22715,0.36937,0.21186,-0.25584,0.42077,-0.022178,-0.13064,0.061596,-0.46303,-0.46743,-0.60606,0.06641,0.19812,-0.11917,-0.39975,0.078808,-0.94446,0.19563,0.28809,0.024045,-0.53154,-0.11322,-0.054786,-0.57968,-0.74082,-0.49221,0.087843,-0.17266,0.22917,-0.15314,-0.12683,0.25407,0.19847,-0.72681,-0.20785,0.24671,0.33022,0.026789,0.11301,0.51077,-0.53083,0.292,-0.13816,0.020242,-0.19117,-0.14077,0.19761,0.50434,0.36356,0.26079,0.24741,-0.15252,-0.024489,-0.083823,0.45719,-0.6688,0.33198,0.71656,0.019028,-0.054232,-0.37494,-0.14861,0.054581,0.36284,0.94835,-0.16513,-0.98137,-0.15208,0.018636,-0.40559,-0.1319,0.15579,-0.21828,-0.36607,0.20918,0.23293,0.033257,0.15002,-0.22744,-0.21776,0.06182,-0.093254,-0.32733,-0.54886,-0.43234,-0.19987,-0.20147,0.98138,0.047964,-0.11035,0.0060161,-0.28277,-0.031373,0.03527,-0.69116,-0.015108,-0.12559,-0.23409,0.21605,-0.28179,0.1473,0.37558,-0.3262,0.1605,-0.78285,-0.34853,-0.0071107,0.44358,-0.1605,0.019886,0.46991,-0.011507,-0.24976,-0.084296,0.031014,-0.17284,-0.46192,0.47639,0.58953,-0.47038,0.028563,0.2675,-0.13616,0.12035,-0.16006,-0.52752,-0.26015,0.81144,-0.34645,-0.1046,-0.11539,0.80401,0.050458,-0.37488,-0.0088575,0.51091,-0.20629,0.069183,0.31176,0.60725,-0.057951,0.21171,-0.20972,-0.35969,0.77222,0.15786,-0.42632,0.3448,0.049554,-0.28453,-0.076244,0.16834,0.252,-0.027921,-0.7129,0.35296,-0.061356,-0.35494,0.44202,-0.35612,-0.74352,0.62164,0.037768,0.12028,0.01287,-0.44685,-0.03458,-0.41088,-0.46997,0.2502,-0.23246,0.243,-0.10195,0.57902,0.28163,-0.00031184
http://dbpedia.org/ontology/Royalty	0.013768,-0.4301,0.29681,-0.16937,-0.23436,0.1306,0.25963,-0.3665,-0.18875,1.3165,-0.18517,-0.098929,0.31433,0.58041,-0.077035,-0.026136,0.050524,0.31739,0.089748,0.07995,-0.22086,0.037492,-1.114,-0.15189,-0.17926,-0.16641,0.070497,0.070088,0.15734,0.31014,0.05224,-0.28803,0.067899,0.18454,-0.57861,0.20996,-0.29787,-0.09897,0.14829,0.28609,0.88609,0.59142,0.54224,0.4339,-0.011112,-0.32606,0.15936,-0.014967,-0.41593,0.16434,0.21516,-0.19774,-0.14552,-0.03288,0.33143,-0.09583,0.29627,-0.20156,-0.37418,-0.056447,-0.28447,-0.020829,0.19463,0.20533,-0.20851,0.27664,0.16702,0.49017,0.47201,-0.24013,-0.81527,0.33356,-0.11924,-0.077625,-0.029761,0.13669,0.10067,0.52763,0.0045537,-0.26389,0.41515,0.034331,0.017533,0.1975,-0.079089,0.49323,0.063246,0.86045,0.35163,-0.24713,-0.28286,0.054527,0.10486,0.47432,0.0035012,-0.4423,-0.64314,0.3762,0.10263,0.51323,-0.10488,0.94456,-0.33805,0.44281,0.5952,-1.1721,-0.13516,0.15394,0.79327,-0.26932,-0.43532,0.33181,0.38164,-0.16085,-0.25458,-0.15829,0.0017719,0.32476,-0.030448,0.26393,0.071548,0.14427,-0.1337,0.4891,-0.24757,0.82653,0.23704,-0.34921,0.28311,-0.31644,-0.069772,-0.42385,-0.31552,-0.23805,-0.39641,-0.21075,-0.161,0.66581,0.2781,-0.023609,-1.1011,-0.33586,-0.1419,-0.17872,-0.13471,-0.053448,0.77433,0.088242,-0.011253,-0.33279,0.42006,-0.33627,-0.36573,0.30582,0.22797,0.083732,0.36464,0.29123,0.013724,0.73953,0.29842,0.10975,-0.39572,0.03746,-0.47811,0.39675,0.75813,0.43471,0.39419,-0.50398,-0.34473,0.25796,0.22727,-0.14802,0.021859,0.52707,-0.19595,-0.64602,-0.47307,-0.62518,0.12125,-0.22332,0.45121,-0.33741,-0.76282,-0.12925,-0.58176,-0.13131,0.041762,0.16199,0.036358,0.065955,0.49389,-0.41066,0.25891,-0.29518,0.053599,-0.021488,0.24386,-0.26999,0.26678,-0.015479,-0.46906,-0.33101,-0.0011421,-0.015258,0.85715,0.14676,-0.054731,-0.2874,-0.41653,0.46488,0.30353,0.27208,-0.037469,0.24994,0.1287,-0.29927,0.36395,0.98788,-0.04542,0.038094,-0.33543,0.12022,0.35456,-0.2667,-0.17864,-0.17779,-0.32375,0.15478,0.11154,-0.064917,-0.29704,-0.1759,-0.039864,0.026474,-0.29981,-0.037191,0.26854,-0.59569,-0.42129,-0.24952,0.081946,-0.37148,0.16958,-0.49421,0.0080328,0.36682,-0.25297,-0.3529,0.2108,0.35592,0.20409,-0.053835,-0.2815,0.49916,0.21196,0.18736,-0.38069,0.3805,-0.51119,0.55223,0.015398,0.51495,0.29763,0.046121,0.56354,-0.32334,0.60869,0.27487,-0.62991,-0.37669,0.3277,0.24528,0.39354,-0.11986,-0.37948,-0.041934,-0.29719,0.11043,0.3142,0.42034,0.10568,0.54023,0.15248,0.44182,-0.52509,-0.19151,-0.21932,-0.071237,-0.95819,-0.43002,0.026787,0.19738,-0.059099,0.48434,-0.090529,-0.33464,0.79893,0.15976
http://dbpedia.org/ontology/Scientist	-0.4911,-0.33718,-0.18717,0.062238,-0.34661,0.90335,-0.61538,-0.32965,-0.071357,2.5365,-0.11629,-0.096278,-0.49503,0.003493,0.0062099,-0.13257,0.45511,0.043787,-0.10017,-0.72242,0.58759,-0.11867,-0.54617,-0.017687,-0.055997,-0.17505,0.048368,-0.039849,0.57311,0.21623,-0.19452,0.15995,0.581,0.24216,0.754,-0.11084,0.27825,-0.006854,-0.30623,-0.14934,0.81042,-0.24259,0.51549,0.079882,0.23377,-0.06334,-0.031022,-0.46909,0.14882,-0.4261,0.72336,-0.0058841,0.23514,-0.40684,-0.048091,-0.56472,0.031417,-0.3653,0.68265,-0.53911,-0.11688,-0.3922,0.64015,0.0081617,0.14572,-0.42026,-0.68787,-0.0017058,-0.27854,0.37843,-0.7983,-0.22332,-0.70545,0.38186,-0.3413,0.12923,-0.3033,-0.15539,0.06504,0.26889,-0.074818,-0.44147,0.42131,0.16823,-0.039599,-1.0693,-0.70195,-0.3761,-0.72985,0.030089,-0.19084,0.1421,-0.33356,0.12816,-0.50592,-1.19,-0.16493,0.17725,-0.11918,0.095797,-0.41457,0.42723,0.59714,0.044249,-0.019256,-1.0269,-0.24635,0.37589,0.36103,-0.5085,0.33064,0.2097,-0.015162,-0.21941,-0.043259,0.66614,-0.52336,-0.40435,0.086938,-0.049043,0.50713,-0.51277,0.20339,-0.14911,0.44542,0.47711,0.035541,0.38122,-0.30259,0.16131,-0.7042,0.50913,-0.067941,-0.26846,-0.088572,-0.16368,-0.18523,-0.1608,0.50447,0.041841,-0.63102,0.53561,0.12764,-0.0063249,0.42117,-0.28,-0.32457,-0.51951,-0.73826,-0.66804,-0.070329,-0.86584,-0.41342,0.29521,0.045751,0.44955,0.19279,-0.28514,-0.16784,0.0067066,0.9584,-0.43472,-0.031122,0.38013,0.23398,0.032744,0.18378,-0.16544,0.10225,0.36495,-0.22954,-0.084797,-0.073567,-0.50207,0.12252,-0.053517,0.46622,-0.27016,-0.55444,0.23998,0.24786,0.55119,0.56804,0.057917,-0.0095847,-0.0050536,0.34137,0.025801,0.27965,0.018612,-0.63128,0.26695,-0.37302,0.04506,-0.27546,0.23557,0.1246,0.40954,0.14289,-0.4279,-0.913,0.12032,0.1286,-0.084517,-0.12116,-0.00075028,0.19826,0.35637,0.37872,-0.05708,-0.18666,-0.42371,0.036041,-0.42011,-0.1136,-0.36095,-0.13675,-0.032004,-0.3341,-0.53395,-0.32513,0.27779,0.29026,-0.22617,1.2713,-0.2443,0.028306,-0.13345,0.21144,0.28207,-0.32826,0.17099,-0.16802,-0.56948,-0.2717,0.30246,-1.0394,0.50582,-0.28957,0.15309,-0.11645,-0.050131,-0.62123,-0.39608,0.031597,0.087975,-0.26332,0.19345,-0.11457,0.13192,0.11486,0.44278,0.17969,-0.032239,0.52475,-0.82193,-0.45802,0.09349,0.27525,0.087067,0.047529,0.64614,-0.091413,-0.066126,-0.21176,0.051707,-0.13979,0.15962,0.41049,0.52043,-0.18857,0.21594,0.38023,0.39226,-0.035191,-0.20895,-0.28944,-0.23778,-0.32661,-0.30652,0.27798,0.11801,0.13693,0.020057,-0.25212,-0.20034,0.006943,-0.31637,-0.73356,0.045008,0.57177,0.26194,0.072984,0.075424,0.27732,-0.04578,-0.016272,0.95936,-0.14966,-0.12594
http://dbpedia.org/ontology/SportsManager	0.85371,0.47147,0.22763,-0.08893,0.55977,0.25003,0.6061,-0.645527,0.008161,5.0286,-0.75123,-0.304581,0.2463,-0.112155,0.49827,-0.634421,0.033873,1.53598,0.51672,-0.38414,-0.503749,-0.355887,0.04788,-0.96501,-0.249915,0.60498,-0.44347,0.23885,0.30233,-0.17402,-0.22464,-1.2394,0.736909,0.07573,0.07709,0.45111,0.3265708,-0.351658,-0.73916,0.00785,-0.130053,0.14307,0.010322,0.420242,-1.15644,-0.37212,-0.58179,0.41319,0.397286,-0.03243,0.43092,-0.414676,0.65421,-0.14239,-0.23242,-0.211194,-0.25882,0.498869,0.10597,-0.11043,-0.17655,0.4541039,-0.1906,0.60715,0.10226,-0.68494,0.258357,0.476434,-0.20291,0.58639,-0.73761,-0.12643,-0.28628,0.293077,-0.58343,0.55346,0.200762,0.28411,0.193108,0.415554,-0.56321,-0.59232,-0.273916,-0.19947,-0.575703,0.226108,-0.445678,1.35765,0.183064,-0.582007,-0.519187,-0.15908,-0.410864,-0.494096,0.77562,-1.89725,0.128621,-0.1310074,0.257196,0.466405,-0.366718,-0.53266,-0.3196378,-0.08628,-0.013807,-0.94235,0.81946,0.84739,0.2364,-0.43245,-0.72142,-0.342169,-0.48064,0.67773,-0.16906,-0.14744,0.655418,0.229722,0.217278,0.118777,0.01943,0.229526,-0.38427,-0.57768,-0.09577,-0.202,-0.100625,0.352382,0.09131,0.247625,0.04676,0.32645,-0.024374,-0.95331,0.142632,-0.64311,-0.425908,-0.78387,0.04018,0.05673,-1.74522,-0.22493,0.56571,0.3039,-0.35973,-0.072799,0.981332,-0.541181,-0.70597,-0.4325,-0.297322,0.21652,-0.42784,0.445661,0.30555,0.627279,-0.040647,0.293541,-0.2115029,-0.39109,0.54548,-1.12729,0.82597,-1.27282,0.2857,-0.20282,-0.006546,-0.07106,-0.0028156,-0.65996,-0.93351,0.3127485,-1.09534,-0.50183,0.54908,0.063472,-0.43093,0.80226,-0.4407,0.3652543,0.43259,-0.47168,0.31762,0.101114,-1.05119,-0.110419,0.200108,0.98809,0.026213,-0.87829,-0.115005,-0.13493,-0.094139,-0.02496,-0.22977,0.081111,1.15068,-0.123534,0.60069,0.73519,0.85833,-0.37173,0.08546,-0.55143,-1.2233,0.25877,0.607582,0.368753,-0.4666706,-0.398402,-0.88357,0.07845,0.42017,0.27458,0.01968,0.36546,-0.181408,-0.08674,-1.32574,-0.1186442,0.04348,-0.204638,-0.64481,0.673853,-0.90497,-0.254684,-0.100176,0.38469,0.55339,0.75802,-0.97782,0.05476,-0.10256,0.159103,-0.39891,-0.5471,0.191722,-0.048112,-0.1057324,1.076678,0.40859,-0.7297,0.62778,-0.171648,-0.76601,0.368485,0.02884,-0.116638,-0.737286,0.08673,1.14011,-0.110394,-0.31908,0.10641,0.332206,-0.64947,-0.143257,-0.39628,-0.79088,-0.77691,1.33505,0.381833,-0.33303,-0.15743,0.118485,0.12528,-0.374544,-0.403386,0.5372,-0.313105,-0.8813387,-0.091455,0.86716,0.305437,-0.087822,0.29881,0.96681,-0.05187,-0.16749,-0.60051,-0.73286,-0.09947,-0.49799,1.106,-0.77266,-0.76643,0.00033,-0.102426,0.046621,0.057243,-0.19323,-0.05169,0.53291,-0.54425,0.04928,-0.78522,-0.02371,-0.95338,0.49612,-0.0737
http://dbpedia.org/ontology/Writer	0.16844,0.12176,-0.25024,0.55969,-0.019715,0.66947,0.37939,-0.50048,-0.087503,2.8035,0.23403,0.14822,-0.72011,-0.071406,-0.048008,-0.24702,0.11762,-0.063486,0.067035,0.0033891,0.19744,0.065556,-0.18524,-0.48428,0.14717,0.023158,-0.14227,0.063032,0.059859,-0.10234,-0.12618,0.097889,-0.23678,-0.15774,0.078854,0.46456,0.2064,-0.16612,-0.24889,-0.34623,0.74001,0.38695,-0.41745,-0.50991,0.14206,-0.52216,0.48729,-0.0076383,0.66892,-0.039855,0.52008,-0.2938,0.095236,-0.041431,-0.069168,-0.34786,0.10822,-0.096592,0.51035,-0.49819,-0.3512,-0.50444,0.46296,0.47811,-0.061124,-0.47242,0.36175,-0.045132,0.16916,0.52695,-0.051127,-0.54575,-0.65637,0.11208,-0.59128,0.22585,-0.63629,0.004259,-0.46077,0.51397,0.18297,-0.45533,0.1898,-0.20382,-0.20026,-0.20264,-0.56363,-0.66901,0.12453,0.038076,-0.7481,-0.44258,-0.60188,0.45025,-0.052496,-0.84982,-0.061743,0.18953,0.14671,-0.47567,0.12841,-0.96609,-0.24618,-0.4422,0.29816,0.012973,-0.21525,0.36554,0.1466,-0.56233,-0.22943,0.28574,0.5011,0.26069,-0.88727,-0.12019,-0.96036,0.24238,0.1047,-0.46776,0.15812,-0.51237,0.26371,0.17245,0.72721,0.42161,-0.052913,0.34113,-0.35004,0.060452,-0.27102,-0.02646,0.021779,0.19099,-0.213,0.010086,-0.21622,-0.51203,0.18093,-0.31232,-1.2426,-0.11447,0.19024,0.0015712,-0.4551,0.011093,0.37718,-0.65811,-0.59507,-0.32044,0.30731,0.30824,0.10863,-0.19439,-0.004391,-0.010041,0.26496,-0.72042,0.30918,-0.27378,0.70536,-0.56099,0.29848,-0.29947,-0.039013,0.023899,0.30583,-0.55511,0.27167,-0.061228,-0.54346,0.0075061,0.066771,-0.5678,0.61245,0.2285,0.21063,-0.27522,-0.5131,-0.18114,0.46407,-0.086754,0.072584,-0.53307,0.57763,0.28799,0.23315,0.12137,0.21182,-0.47095,-0.89956,0.63411,-0.12419,-0.024367,0.16375,-0.70215,-0.30417,0.049947,0.16092,-0.27889,0.044005,-0.47023,-0.50365,-0.40479,-0.54896,0.30391,-0.10062,0.14278,-0.36474,-0.15089,0.30544,-0.23053,-0.26669,0.088601,0.04541,0.067136,-0.11044,0.22918,-0.42424,-0.62944,-0.12294,0.009221,0.79763,0.32959,0.27015,-0.29498,-0.012207,-0.4997,0.19431,0.61281,-0.83297,0.32755,-0.11648,0.29691,-0.5323,-0.28755,-0.18903,0.43922,-0.47019,0.42848,0.35742,-0.33646,0.38125,-0.15815,0.11662,0.54567,0.22506,-0.17153,0.19716,-0.78169,0.094037,0.24205,0.027416,0.065302,0.29426,-0.42745,0.14397,-0.32153,0.01582,-0.023787,0.18974,0.25036,-0.17147,0.15218,0.06951,-0.082039,-0.22152,0.095488,0.45998,0.073343,-0.43974,-0.3016,-0.042702,0.32617,0.07815,-0.34175,-0.48522,-0.5274,-0.22022,0.1315,0.10191,0.078736,0.22686,-0.21641,-0.26493,0.16516,0.061503,-0.028971,0.11618,0.19951,-0.037829,-0.2697,-0.4273,0.26487,0.092059,-0.86965,0.082799,-0.50685,-0.12019,-0.23835
http://dbpedia.org/ontology/Person	-0.28545,0.18613,-0.36656,-0.028399,-0.0466,0.07194,0.029929,-0.91536,0.26457,3.1194,-0.36638,0.67558,-0.53645,0.094788,0.25359,0.21967,-0.53271,1.1469,0.14427,-0.030327,-0.019001,-0.047542,-0.57979,-0.066617,0.36411,0.18252,0.1427,-0.11847,-0.12525,-0.27783,0.049227,0.058603,-0.14217,0.3706,0.16469,-0.071414,-0.24358,-0.39535,-0.36792,-0.03858,0.17707,-0.017135,-0.014997,0.076096,-0.12927,0.12746,-0.17967,0.06977,0.21505,0.27568,-0.40566,-0.71503,0.44739,0.16341,0.1085,0.019055,0.085015,0.035652,0.14133,-0.28882,0.28899,-0.41341,-0.14936,0.1413,0.27201,-0.60803,-0.20074,0.18194,-0.37625,0.30936,-0.31392,-0.21361,0.072878,-0.32829,0.092763,-0.038384,-0.12643,-0.39655,0.10654,0.55379,0.21618,-0.089621,-0.13622,0.019074,0.51439,-0.12215,0.53386,-0.60281,0.41781,-0.81894,-0.12758,0.0082661,-0.34409,0.03834,-0.2392,-0.53265,-0.27096,-0.23375,0.17762,0.072559,0.18009,0.21602,0.04448,-0.22746,0.5272,-1.1949,-0.17566,0.056218,-0.21881,0.001688,0.44443,-0.27613,-0.18361,0.12183,-0.10581,0.067063,-0.061074,-0.2932,0.2397,-0.037792,-0.32675,-0.43845,0.19067,-0.04481,0.30299,0.047837,-0.32462,-0.17309,-0.4214,-0.14464,0.23669,-0.045929,-0.12923,-0.16116,0.24681,-0.097846,0.12894,-0.082661,0.1543,0.16279,-1.0104,0.18795,-0.091862,0.52258,-0.20191,0.067817,0.044474,-0.24263,-0.061477,-0.57814,0.047357,0.043726,-0.13786,0.13788,0.29092,0.47789,-0.028608,-0.038931,0.11675,-0.26427,0.048919,-0.36274,0.11859,0.11262,0.39282,-0.26175,-0.070577,0.3636,-0.10836,0.48829,-0.12166,-0.20442,0.39812,-0.022508,-0.10683,-0.088209,-0.28073,-0.17601,-0.50547,0.18879,-0.1132,0.38393,0.0093451,-0.33469,-0.20428,0.78412,-0.31775,-0.029647,0.41582,0.0013441,-0.41009,0.22361,-0.094451,0.13014,0.50927,0.55883,-0.46231,-0.2126,0.25572,-0.046041,-0.037454,0.25784,-0.34846,0.15959,-0.28146,0.36388,-0.078552,0.0088429,0.12487,0.19132,-0.07884,0.014637,-0.12294,-0.072034,0.32882,0.38889,-0.19089,-0.032443,-0.59442,-0.0041312,0.3301,0.37451,0.30986,-0.071407,-0.085805,-0.56887,0.18607,0.20415,-0.47275,-0.51236,-0.53919,-0.0015432,-0.030882,0.030391,-0.087028,-0.16246,-0.24024,-0.050451,-0.28717,0.28115,-0.10606,0.31304,0.45754,0.23915,0.38061,-0.24163,-0.14491,-0.080358,-0.56473,-0.074441,0.31097,0.23218,0.05754,0.42657,-0.29657,0.82086,0.20658,-0.8666,0.19116,0.30677,-0.37201,0.22199,-0.043669,-0.21748,-0.10175,0.11434,-0.17144,0.27899,0.39512,-0.057092,0.27998,-0.3414,-0.37029,-0.044937,-0.13276,0.49246,-0.32546,0.22689,-0.049421,0.025456,0.10179,0.14277,0.16326,-0.33239,0.051427,0.22603,-0.025355,0.21068,0.19122,0.44498,-0.16963,0.17023,-0.38504,-0.44419,0.091514,0.30146,-0.18267,-0.13564,0.13998,0.11921
