http://dbpedia.org/ontology/AustralianRulesFootballPlayer	0.2102435,0.27928425,-0.081293325,-0.13279325,0.2218325,-0.172564,0.293585,0.0373815,-0.0518339,2.298725,-0.3177125,0.4174,0.0434015,0.269645,0.26498,-0.18764875,-0.1300625,0.44415075,0.35023125,-0.030865,-0.1798175,-0.29017025,0.0680525,-0.1858605,0.09782525,0.4004675,-0.16398525,0.210831,0.051199,-0.077214675,-0.37418875,-0.0095475,0.14957075,0.0117995,0.02384825,-0.03006725,0.2572964575,-0.24040675,-0.1405353,-0.02155,0.2409625,0.175435,0.4036,0.2183525,-0.1028325,-0.16961,-0.08442525,0.31297425,-0.252255,0.10138,-0.229865,-0.1821775,-0.01252235,-0.121795,-0.30238375,0.02854425,0.080904,0.139375,0.17600975,0.01578325,-0.21208,0.399312,0.21299425,0.08496,-0.16909782875,0.11206415,0.084681,0.2309075,-0.1060845,-0.0926635,0.203336325,-0.2915475,0.33133925,-0.06159725,-0.1325685,-0.0038455,0.0116805,-0.016263,0.2522825,0.143623,0.078298925,0.06944,0.1516435,0.179075,0.0929415,0.17685075,-0.481552165,0.31033925,0.247445,-0.081632,-0.1235325,-0.36018,-0.25968,-0.164979,0.295915,-0.5922625,-0.0320725,0.195109,0.0445175,0.229285,0.0314715,-0.22434225,0.1699425,0.06655675,-0.152658,-0.500635,0.06226125,0.19745,0.1346825,-0.11958275,0.0678025,-0.116372575,-0.4448295,-0.13641,-0.21098025,0.3700493,0.0954135,0.01424975,-0.242935,-0.13173175,0.1154205,-0.1037365,-0.2401675,-0.19553175,-0.06631075,-0.24627425,-0.12815925,0.231699,0.00303975,0.1972845,0.14648,-0.0163125,0.10444175,-0.16776225,0.27457,-0.36732,0.19960825,-0.111696,0.272795,-0.06414275,-1.27245,-0.062875,0.2766075,-0.1006275,0.016468275,-0.0186075,0.34059325,0.03867575,-0.14156775,0.05654075,-0.00552325,0.19535505,-0.0285,0.19380375,-0.12677425,-0.1533385,0.12163275,0.216368,-0.100121,-0.0015725,0.125126175,0.040003,0.2318825,-0.29339675,-0.37234275,-0.36603,0.34230075,0.0018835,-0.2406475,-0.0126125,-0.1255725,0.22657625,-0.0209125,-0.23065275,0.1932875,0.062986,-0.0428675,0.194415,0.09353575,0.38599325,-0.2393495,-0.002354,-0.0047685,-0.21986475,-0.535645,-0.1292945,-0.2491275,0.23301075,0.19182625,-0.45139225,0.084298,0.09428975,0.09702375,-0.10885025,-0.02310925,-0.202875,-0.00704925,0.22826,0.165987,0.158705,0.498545,-0.1042175,0.3903,0.1951775,0.0842205,-0.06375585,0.03045875,0.17715175,-0.250762,0.0069535,-0.0575755,0.081347,0.299775,0.06189725,-0.11942,0.637865,-0.210711,-0.061649,-0.8395925,0.21323,-0.283635,0.1246225,-0.10507,-0.27241,0.083806,0.0762975,0.07079165,0.149865,0.608755,0.53654175,-0.213625,0.20261825,-0.19811925,0.149673775,-0.2284425,-0.183,-0.04105525,0.500265,-0.0046975,0.143565,0.2566785,-0.01001975,0.34692,-0.159613,-0.33480425,0.05652325,0.06649425,-0.03950165,-0.2983075,0.18109975,0.44481,-0.220996,0.029962,-0.16465425,0.138435,0.01644,-0.275915,-0.132788,-0.0574625,-0.11283525,0.179028,0.372457575,0.00967625,0.090592,-0.26958955,0.109535,-0.2999475,0.078771,0.49473,-0.19603365,-0.05254,0.16427975,0.17123175,0.1654705,-0.1600175,0.0212885,-0.01168675,0.04503075,-0.1139225,-0.1068275,-0.2549725,-0.03949,-0.4480875,-0.11001,-0.09806975,-0.3598625,-0.3176875,-0.1372375,0.14655875,-0.04645675,-0.367355,-0.2901535,-0.329355,-0.1134275,0.1537855,0.33171675,-0.01316075,-0.3647625,0.5835325,-0.010665
http://dbpedia.org/ontology/BadmintonPlayer	0.55845,0.39866,0.207585,-0.268492,0.383595,-0.1095237,0.67472,-0.34473,0.075367,1.293085,-0.147825,0.3938485,-0.135575,0.30795,0.343055,0.234144,-0.122285,0.2212,-0.1401875,0.445657,-0.437575,-0.223075,-0.288865,-0.0857195,0.33534,0.700435,0.1256725,-0.000515,0.0955185,-0.1627435,0.05253,-0.244689,0.20098,-0.12209,0.00829,-0.178723,0.346945,-0.2546235,-0.046343,-0.34263,0.289335,0.265473,0.35209,0.235255,-0.3345,-0.131149,-0.16166,0.39817,-0.00577,0.033752,-0.378865,-0.1668064,0.4496903,0.20871,-0.34448,-0.42837,0.276545,0.27147,0.236003,0.07722,-0.56379,0.138755,0.3714,0.02822,-0.2829391575,0.1547383,0.337305,0.34225,0.0134815,0.069855,-0.093715,0.161716,0.232677,0.1109,-0.362935,-0.074825,-0.304505,-0.131798,0.1558475,0.263419,-0.04154115,-0.148545,0.02163,0.1125535,-0.0271457,0.53241,-0.03001,0.2900585,0.33208,-0.400375,-0.005168,-0.1263,-0.615945,0.075972,0.310975,-0.97346,0.52881,0.032045,0.01864,0.94206,-0.417555,-0.39743,0.360295,0.09696,-0.1882905,-0.847555,0.2243925,0.2368645,0.35401,-0.051815,0.44944,-0.05328015,-0.339315,0.110496,-0.0895655,0.51529,-0.009619,-0.013685,-0.274195,-0.17241,0.02313,0.116675,0.075105,-0.042705,0.1211155,-0.22324445,-0.4408725,0.047296,0.0200825,0.417084,-0.025575,-5e-05,0.3266,-0.5727595,0.309325,-0.44079,0.3245,-0.247405,0.31519,-0.052945,-1.7445,0.3620335,0.11842,-0.254245,-0.26634,0.50063,0.7617,-0.21794,0.003542,-0.244745,-0.057515,0.602875,0.0973755,0.359475,-0.1363495,-0.2109565,0.40217,0.29511,-0.1493235,-0.43797,0.072365,0.098515,0.2505125,-0.41806,0.1705465,-0.318725,0.219765,0.41543,-0.306105,0.30107,-0.59655,0.098395,-0.3173,-0.021568,0.121395,-0.338275,-0.223895,0.0832195,0.050885,0.109048,-0.213879,0.122392,-0.0893375,-0.08867355,-0.29217,-0.153997,-0.44352,0.1200215,0.4376925,0.014765,0.1011105,-0.15477,0.39976,-0.072765,-0.11433,-0.125215,0.16966,0.25052,0.1906835,0.1568605,0.93582,0.000615,0.340035,0.04815,0.077181,-0.0089562,-0.161035,0.0449935,0.114556,-0.581658,-0.1310835,-0.097485,0.56268,-0.43832,-0.07426,0.457205,0.001899,-0.140823,-0.790825,-0.0760638,-0.037025,-0.040585,0.12207,-0.162015,-0.250483,-0.106174,0.17813,0.03313,0.73671,0.54167,0.17337,0.18765,-0.030032,0.2829575,-0.3691895,-0.222,-0.192181,1.008955,-0.05999,0.2635,0.110635,0.01091,-0.04638,-0.095965,-0.438605,0.0874875,-0.0513,-0.0791058,-0.6496,0.416785,0.49393,-0.208615,0.29762,0.165009,0.1895745,-0.12012695,-0.020015,-0.1167835,-0.31002,-0.28315,0.643615,0.17868015,0.159157,0.03291,-0.71599,0.106462,-0.561935,0.142632,-0.01287,-0.1223223,-0.00641,-0.010785,0.30257215,0.67166,-0.07299,0.30984,0.33429,0.045133,-0.34992,-0.1610335,-0.34897,0.2388895,-0.399145,0.04241,-0.166145,-0.348895,-0.264495,-0.345705,0.1895095,-0.233364,0.113265,-0.45239,-0.15883,-0.246775,0.432435,0.360665,-0.00017,-0.78386,0.2871,0.21586
http://dbpedia.org/ontology/BaseballPlayer	0.37278,0.37224,-0.15496,-0.122942,0.488165,-0.021465,0.34071,0.0656,0.265387,2.27335,0.072035,0.44562,-0.01222,0.347935,0.36936,-0.120121,-0.16762,0.50321,-0.032704,0.0309845,-0.162679,-0.396485,0.19587,-0.17844,0.181116,0.328465,-0.3452725,0.28352,-0.0973,0.012765,-0.1084225,-0.38428,-0.10628,0.0987695,-0.080039,-0.162645,0.262575,-0.2329485,-0.074838,-0.02034,0.174215,0.449465,0.45555,0.431405,-0.26942,-0.266105,-0.57987,0.45288,-0.26919,-0.114538,-0.37701,-0.08268,0.2289053,-0.191665,-0.391915,-0.15202945,0.378255,0.42823,-0.077872,-0.3661,-0.366545,0.574115,0.1182415,0.51844,-0.1035641575,0.0410683,0.052775,0.371595,-0.0325368,0.201028,0.1007435,0.066335,0.115165,-0.1470795,-0.340655,-0.11472,0.021495,-0.0768155,0.226935,0.260146,-0.09632615,0.06625,0.251325,0.06301,-0.022713365,0.45356,0.020815,0.4916035,0.17875,-0.376465,-0.239245,-0.28101,-0.50161,-0.308853,0.436225,-1.061695,0.38962395,-0.1431805,0.203185,0.642205,-0.2050845,-0.17403,-0.022475,0.29696,-0.1541855,-0.36834,0.1292875,0.164825,0.308975,-0.10843,0.402235,0.17485985,-0.55527,-0.076781,-0.2137705,0.77804,-0.0191535,-0.0232605,-0.43527,-0.131654,0.355345,-0.142033,0.04338,0.29514,-0.042801,-0.50326,-0.429773,0.390895,-0.005238,0.0355335,0.087105,0.103022,0.1639605,-0.1710095,-0.010655,-0.36138,0.177762,-0.156123,0.27413,-0.3096905,-2.13255,0.446175,0.21377,0.39733,-0.2369615,0.427385,0.783745,-0.18566,0.031606,-0.038615,-0.043435,0.3662,-0.1998145,0.44199,-0.226105,-0.0280585,0.14408,0.21013,-0.317515,-0.338504,0.154437,0.047535,0.38145,-0.562725,-0.0985785,-0.05365,0.41486,0.17392,-0.062855,-0.0913825,-0.47604,0.27706,-0.21786,0.1745245,0.499185,-0.055918,-0.367535,0.0908845,-0.078925,-0.199012,-0.293954,0.090597,-0.1861125,-0.2319,-0.63019,-0.051107,-0.0162,-0.0314835,0.1085775,-0.062022,0.1324255,-0.072015,0.157645,-0.084265,-0.13399,-0.175875,0.11558,0.634185,0.0669785,0.203585,0.91477,-0.204388,0.1056285,-0.117752,-0.564659,-0.4428217,0.123185,-0.0726435,-0.079429,0.074722,-0.378925,-0.11282,0.39044,-0.14687,-0.01574,0.52886,0.161608,0.056732,-1.03642,-0.269325,-0.162128,-0.263525,-0.398245,-0.28793,-0.204448,-0.1450015,0.07605,0.410465,0.76121,0.729895,-0.1329275,0.034675,-0.091341,0.33138,-0.582085,-0.30338,0.0060185,0.46771015,-0.28569,0.405895,0.379045,-0.20429,0.15163,0.11238,-0.312895,0.37874,0.019171,0.0511042,-0.249945,0.1898,0.50135,-0.45532,0.026695,0.068544,0.1051495,-0.472265,-0.315235,-0.276075,-0.07665169,-0.174165,0.650255,0.23913515,0.032435,-0.118938,-0.39349285,0.47371,-0.393395,-0.0333055,-0.06457,-0.1449873,-0.133705,0.42096,0.37292,0.347135,-0.04996,-0.03947,0.22979,0.054483,-0.492005,-0.40528,-0.506865,0.317367,-0.74302,-0.222875,-0.22614,-0.29112,-0.22951,-0.387455,0.09383,-0.093369,-0.290115,-0.1256195,-0.246802,-0.01529,0.186305,-0.26092,-0.14799025,-0.621395,0.11667,-0.1431945
http://dbpedia.org/ontology/BasketballPlayer	0.360965,0.388315,0.22493,-0.291547,0.848885,-0.1462735,0.394695,-0.11229,0.181782,2.294,-0.045155,0.344707,0.083845,0.330625,0.28084,0.079674,-0.055055,0.55223,-0.1557825,0.243142,-0.306165,-0.417895,0.04774,-0.18966,0.12236,0.61904,-0.3032825,0.21801,0.074945,-0.19546335,-0.1176815,-0.26701635,-0.28952,-0.039715,-0.0957115,-0.324875,0.3316,-0.1992735,-0.0554135,-0.247306,0.05548,0.406575,0.513315,0.1563845,-0.33846,-0.47688,-0.35291,0.55754,-0.37518,-0.133183,-0.38924,-0.1291075,0.1369403,-0.260585,-0.526715,-0.53389,0.193385,0.43762,0.189288,0.050785,-0.21992,0.53708,0.25519,0.120192,-0.0151331575,0.1767283,0.319285,0.41903,0.028715,0.248688,0.1048865,-0.06881,0.293,-0.133589,-0.525385,-0.15409,-0.289915,0.146335,0.328465,0.24046,0.09621885,0.132635,0.068055,0.32792,-0.075847,0.4008,0.001075,0.4828785,-0.001595,-0.545945,-0.089257,-0.2195715,-0.365185,-0.065388,0.2022152,-1.2721,0.3696155,-0.000888,0.049585,0.759305,-0.2422255,-0.28007725,0.3621,0.005175,-0.1854305,-0.261829,0.4070775,0.140245,0.21706,-0.30905,0.0309,0.04585685,-0.515525,-0.174459,-0.3208305,0.488915,-0.0307135,0.0495985,-0.40297,-0.042585,0.273965,-0.1732115,0.01595,0.0901355,0.0872355,-0.38,-0.419522,0.24312,0.1184845,0.0657445,0.1072885,-0.0906,0.244755,-0.3806995,0.145798,-0.411205,0.077685,-0.263385,0.232855,-0.43104,-2.00235,0.488075,0.085528,0.15251,-0.2293685,0.2519105,0.98766,-0.1542965,0.057092,-0.08502,-0.133315,0.1300835,-0.3263395,0.322425,-0.49594,-0.2428915,0.223472,0.112905,0.055605,-0.64375,0.16779,0.182506,0.1895895,-0.65554,-0.1025185,-0.019355,0.458435,0.437315,-0.21969,0.139825,-0.597415,0.452455,-0.13499,0.0841045,0.242025,-0.21094,-0.366615,0.1360495,-0.120285,-0.095812,-0.270764,0.154662,-0.0883775,-0.005845,-0.507052,-0.212797,-0.29991,0.3684865,0.2447125,-0.147766,0.1567555,-0.22781,0.27222,-0.0334,-0.098295,0.02904,0.041255,0.53203,0.0505895,0.320505,1.006065,-0.148302,0.0405,-0.1381175,-0.320314,-0.3078717,-0.19885,-0.1129765,-0.0224735,-0.0534735,-0.1089755,-0.025025,0.409325,0.00448,0.06292,0.50497,0.069963,-0.088253,-0.84037,-0.167475,-0.1502675,-0.029965,-0.36576,-0.23208,-0.255518,-0.1173635,0.274866,0.50689,0.772165,0.901465,-0.149114,0.01871,-0.173861,0.42692,-0.555755,-0.31876,0.015264,0.735495,-0.08335,0.44298,0.224405,-0.1518,0.0978305,-0.060335,-0.52182,0.0684905,-0.188755,-0.0138658,-0.32545625,0.331855,0.436445,-0.05334,0.157904,-0.189411,0.0103805,-0.348725,-0.195465,-0.35124,-0.1727,-0.480255,0.57372,0.08406515,0.299825,0.034465,-0.59051,0.2414,-0.55912,0.049332,-0.14873,-0.0464938,-0.016235,0.453105,0.15251,0.032045,-0.164188,0.024295,-0.02797,-0.188287,-0.41697,-0.455375,-0.55988,0.23028,-0.975705,-0.053453,-0.331875,-0.06779,-0.45275,-0.235669,0.1206825,-0.114739,-0.07739,-0.37917,-0.401585,-0.15015,0.352725,0.049545,-0.35897,-0.529465,0.309965,-0.1558585
http://dbpedia.org/ontology/Bodybuilder	-0.32497,0.21655,-0.33957,0.51382,0.47156,0.49579,0.15494,-0.47969,-0.0063584,0.6511,0.10389,-0.029187,-0.11382,0.47837,0.49708,0.42698,0.47072,-0.26008,-0.60861,0.2975,0.25769,-0.20115,-0.16942,-0.44391,-0.96417,-0.12935,0.50226,0.095971,0.013959,0.1206,-0.33094,-0.026842,-0.19888,-0.17052,0.68783,-0.25503,-0.069118,-0.11403,-0.69797,0.34742,-0.167,-0.4675,0.22271,0.033098,-0.20088,0.58401,0.2101,-0.010685,0.44114,0.047344,-0.31768,-0.10099,0.36406,-0.37427,-0.03566,0.61569,0.55538,-0.048492,0.24247,-0.38535,-0.65654,-0.72866,0.21182,0.03756,0.030792,-0.43609,0.1356,-0.1257,-1.1343,0.052032,-0.35155,-0.13101,0.34525,0.15627,-0.17582,-0.12585,-0.48753,-0.40601,-0.12388,-0.15327,0.84207,-0.49119,0.45645,-0.22887,0.43196,-0.0086351,0.9417,0.054746,-0.11309,-0.38453,-0.28937,0.092312,-0.51268,-0.043097,0.27442,-0.97068,-0.22568,0.24297,-0.17283,0.23874,0.29342,-0.053852,0.47254,-0.3479,0.406,-0.86862,0.23088,-0.19108,-0.17557,-0.42281,0.037385,-0.30007,-0.22323,-0.10161,-0.02797,-0.38524,0.22622,0.5041,0.19446,-0.016127,-0.11773,0.06691,0.30693,0.20782,0.019192,0.43524,0.26554,0.040505,-0.12082,0.11497,-0.36227,-0.033219,0.88314,-0.17699,0.30318,-0.48957,0.076564,-0.18674,0.34075,-0.0040263,-1.2533,0.05516,-0.44159,0.45429,-0.38767,-0.2701,1.1034,-0.33488,-0.38941,0.20142,-0.29539,0.18246,-0.083117,0.43518,0.122,0.0028866,0.68742,-0.60592,-0.59038,0.2304,-0.064153,0.17073,-0.57808,-0.15378,0.081985,-0.56761,0.28817,0.21278,-0.099009,0.1804,-0.0098818,-0.5883,0.48264,-0.26384,-0.43159,-0.26449,-0.41848,0.53319,-0.47975,0.92352,0.51721,0.88862,-1.0308,-0.083733,-0.066022,0.01757,0.10135,0.48633,-0.012208,-0.68142,-0.23984,0.16442,0.25515,-0.046234,-0.0097471,-0.16038,-0.14242,0.69151,0.84196,-0.15313,-0.011038,0.12052,0.38986,-0.39049,-1.0911,0.58489,-0.58173,-0.17701,-0.44317,-0.43343,-0.095679,-0.15302,-0.22155,0.36394,-0.4833,-0.1209,-0.22073,0.28088,0.1531,-0.21941,0.20119,-0.14313,0.1781,0.33782,0.43452,0.30398,0.070449,0.40663,0.20158,0.69775,-0.65351,-0.16697,-0.11293,-0.41401,-0.32868,0.11615,-0.8298,0.46659,-0.7076,-0.045356,0.28803,-0.47573,0.20572,-0.019561,0.25489,0.6537,0.42114,0.47566,0.25903,0.61354,0.064745,0.33414,0.43096,0.28087,0.34485,-0.44329,0.3306,-0.17091,0.25137,-0.44206,0.2839,0.12753,0.17382,0.60817,-0.62934,0.79854,0.43103,0.18493,-1.3074,0.35342,-0.12505,-0.7047,0.43256,0.41681,0.25701,-0.16,-0.018911,-0.5774,-0.051698,-0.12143,-0.22111,-0.010289,0.3247,0.65929,-0.22023,-0.19939,-0.70136,-0.52839,-0.31333,0.099715,0.71086,-0.1001,0.17782,-0.72471,-0.026152,0.085484,0.49467,-0.61326,0.15349,-0.25957
http://dbpedia.org/ontology/Boxer	0.094804,0.060926,0.072271,0.58318,0.15636,-0.17437,-0.1138,-0.54385,-0.19299,1.2681,0.24057,0.20857,-0.24975,0.037193,0.17034,0.33064,0.96855,-0.30066,0.087436,-0.4517,-0.55222,-0.97382,0.20007,-0.87574,0.036258,-0.22497,-0.20546,-0.22689,0.47479,0.17829,-0.13754,-0.10966,-0.15975,-0.43617,-0.12735,-0.71765,0.31382,-0.49338,-0.56255,0.66532,0.43341,0.090543,-0.062888,-0.40024,-0.1694,-0.17768,0.12383,0.026755,-0.11211,0.31025,0.1202,0.80956,0.35183,-0.62713,0.15482,1.1201,0.52084,-0.30646,0.41983,0.046005,-0.45933,-0.53887,0.32385,0.10493,-0.51907,-0.35225,0.3452,0.35756,-0.39216,-0.34891,-1.1335,0.49862,0.44142,0.12308,-0.51305,0.15468,-0.27819,-0.51093,0.70859,-0.21791,-0.078752,0.12045,-0.092064,-0.15958,0.31273,-0.1454,0.82716,0.23407,-0.31737,-0.34932,-0.17685,0.5463,0.21891,0.05464,-0.099715,-0.77352,0.15658,-0.39361,0.34989,-0.17183,0.31178,0.18358,-0.37016,-0.26205,0.2101,-0.46291,-0.20133,0.23041,0.31596,-0.03635,0.07399,0.10504,-0.0094562,0.16666,-0.44758,0.22717,0.37388,0.0040966,0.35029,0.21115,-0.55313,0.15524,0.1027,-0.19521,-0.091785,0.11769,-0.052516,0.30409,-0.035466,-0.38371,-0.70767,0.33909,0.072316,-0.54761,0.65994,-0.06824,0.3737,0.51407,0.088648,-0.027173,-2.1002,-0.29311,-0.31271,0.38397,-0.071178,-0.34472,0.97528,0.42594,0.34577,0.22907,-0.43065,-0.28224,-0.25511,-0.061963,-0.5668,-0.31865,0.29753,-0.03192,-0.15004,-0.28586,0.16286,-0.0081837,-0.20405,-0.7919,-0.067183,-0.48123,-0.29633,-0.069282,0.40484,-0.13175,-0.30941,0.35644,-0.31351,-0.028078,0.13237,-0.18461,0.025399,0.89194,0.32414,0.75437,-0.21246,0.41218,-0.17247,0.1279,-0.38971,0.2824,0.68258,0.56922,0.19542,0.17681,-0.34603,0.63442,-0.065458,0.118,0.19601,-0.58545,-0.16802,-0.50987,0.45947,-0.17701,-0.053194,0.44281,-0.084267,-0.58039,-0.35065,0.13401,-0.042126,-0.41069,-0.97833,0.3639,-0.13093,0.016333,-0.35346,0.4111,-0.27854,0.014669,-0.046436,0.23291,-0.48939,-0.36874,0.18046,0.24972,1.0959,-0.33174,-0.31084,-0.11413,-0.23864,0.32227,0.54339,0.4723,-0.15891,-0.11278,-0.23622,-0.45149,-0.55614,-0.33673,-0.75612,0.21884,0.46125,-0.26938,0.20706,-1.034,-0.041643,0.72269,0.05387,0.60629,0.42221,0.30902,0.096452,0.52383,0.28336,-0.17729,-0.2227,0.62804,0.34307,-0.10145,-0.23921,-0.29843,0.37348,0.098332,0.42102,-0.040132,-0.47848,-0.19426,-0.61952,0.46573,0.085915,0.53847,-0.75701,0.27708,-0.074372,0.25017,-0.062389,0.69189,0.33083,0.11849,0.0066045,-0.0059578,0.28689,-0.068187,-0.11616,-0.23477,0.093295,0.15858,0.049995,-0.21273,-0.61468,-0.077384,-0.5085,-0.60486,0.23595,0.068228,-0.16801,0.0095455,-0.50816,0.54065,0.35863,-0.19132,0.20057,0.65498
http://dbpedia.org/ontology/Canoeist	0.50431,-0.021427,-0.55474,-0.036853,0.45988,0.68578,0.32313,0.13025,-0.97015,-0.22389,0.25286,-0.072682,0.28084,0.85362,0.1957,-0.17818,0.75611,-1.6639,0.42572,0.22747,-0.06915,-0.14474,-0.0058342,-0.51442,0.21828,0.065797,0.13443,0.093996,0.33106,0.22024,0.068389,-0.30006,0.41835,-0.19989,0.12061,-0.27966,0.58021,-0.41237,0.10921,0.28237,0.321,-0.075924,0.88823,-0.070666,0.35658,0.42944,-0.047483,-0.53242,1.1116,0.1425,0.082738,-0.62662,0.26073,0.068952,-0.82915,-0.19494,-0.58281,-0.39765,0.17815,-0.0046396,-0.23144,0.056568,0.34529,-0.0028901,-1.3069,0.012266,0.81298,-0.065402,-0.40539,-0.34682,-0.33622,0.22065,-0.27843,0.49642,-0.2743,-0.46299,-0.32235,-0.085884,-0.29209,0.37415,0.6088,0.25168,0.40633,-0.37692,0.36152,-0.017651,0.50961,-0.91701,-0.32473,0.18756,0.099288,-0.1635,0.27583,0.36609,0.29339,-0.47358,0.014973,0.32332,0.53228,-0.20923,-0.11655,-0.73714,0.096694,-0.56731,-0.61356,-1.3278,-0.3635,0.52616,0.68446,-0.074306,0.371,0.19076,-0.013355,-0.0058354,0.054801,0.26125,0.30853,0.70108,0.052561,-0.17991,-0.024656,-0.47694,-0.43793,-1.0658,0.34814,0.55683,-0.38831,0.30859,-0.13544,0.16693,0.011297,0.29685,-0.11727,-0.598,0.28289,-0.58037,-0.32429,0.21261,0.444,0.32967,-0.15467,0.22793,-0.21659,-0.5719,0.8484,0.37363,0.12485,-0.22819,-0.16021,0.35938,-0.22894,0.18575,-0.063856,0.46003,-0.063559,-0.16081,-0.15745,0.77001,0.077672,0.064385,-0.59514,0.028168,-0.24685,0.28402,1.0709,0.20538,-0.76425,0.34262,-0.22638,0.78905,-0.31878,-0.84071,0.45664,-0.18721,-0.062778,0.48826,-0.0083658,-0.66212,0.076467,0.62297,0.43735,0.0019129,0.30175,-0.0022626,0.24875,0.12569,0.17704,-0.10038,-0.53073,-0.16723,-0.53008,0.087127,0.36448,-0.18481,0.17057,0.093989,0.067383,0.22916,0.5717,-0.37926,-0.32394,0.4789,-0.15184,0.0093387,-0.37179,0.12853,-0.48463,-0.47434,0.00035638,-0.42873,0.51636,-0.43504,-0.19831,0.63152,-0.30189,-0.097772,0.17743,0.28117,0.31276,0.016511,0.39544,0.38577,0.97502,0.12821,0.22536,-0.23604,-0.12161,0.15231,-0.56863,0.44379,-0.079527,-0.073991,0.53899,0.60831,-0.14627,-0.21737,-0.15745,0.53355,-0.38666,0.020641,-0.074354,-0.065039,-0.54894,0.1154,0.26716,0.19065,-0.69705,-0.006655,0.65314,-0.060045,-0.0023573,-0.77497,-0.068611,0.4626,-0.061271,-0.23315,0.63675,-0.81378,0.44476,-0.50279,-0.0063154,-0.03644,0.46596,-0.1269,0.27948,0.47348,0.78069,0.048603,-0.81048,-0.20704,-0.23142,-0.22191,-0.16752,0.84566,0.3056,-0.032314,0.27518,0.023352,0.057626,-0.36044,-0.33799,0.14765,0.13143,0.36652,0.069136,-0.74732,-0.25851,0.010376,-0.41436,0.1215,0.55851,0.029077,-0.16794,-1.1366,0.3138,-0.028891,-0.77917,-0.27308,-0.30333,-0.55282
http://dbpedia.org/ontology/ChessPlayer	0.20287,0.1664775,0.05547,-0.202662,0.245015,-0.03625,0.25484845,-0.13189,0.131727,1.62905,-0.070585,0.36512585,-0.2480935,0.253,0.349045,0.063704,-0.088215,0.619075,-0.2030525,0.05237,-0.1186165,-0.33347,-0.047884,0.05268,0.45592,0.24219,0.1553575,0.107285,0.04535,-0.235819,-0.22755,-0.217048,-0.00401,-0.10109,-0.02184,-0.50358,0.21816,0.0198765,-0.0319,-0.2752305,0.082465,0.3585,0.47204,-0.00334,-0.1940795,-0.107615,-0.38555,0.3115125,-0.3436425,-0.067353,-0.256305,-0.24818,0.0456008,-0.133135,-0.41241,-0.38065,0.03991,0.1691185,0.116238,-0.170533,-0.222155,0.3993,0.38302,-0.135415,-0.0931891575,0.2902783,0.403005,0.39387,0.048535,0.0632905,0.331965,0.054325,0.26641,-0.1920745,-0.129925,-0.030345,-0.203265,-0.41785,0.01312,0.671835,-0.19071115,-0.32869,0.371165,0.23058,0.003264,0.545645,-0.22209,0.2618085,-0.09732,-0.78379,-0.076703,-0.120025,-0.43402,0.137702,0.430565,-1.11501,0.523645,-0.1091405,0.10077,0.850745,-0.13482,-0.251111,0.225866,0.085445,-0.0376265,-0.779405,0.053438,0.438035,0.59948,0.087015,0.43211,0.38265485,-0.4162,-0.03537945,-0.1671855,0.246449,-0.1973435,0.007951,-0.05225,-0.40714,-0.08868,-0.32584,0.2155,0.035971,-0.0786695,-0.033755,-0.3486605,0.263025,0.1069995,0.360639,0.181233,-0.059715,0.198054,-0.3702795,-0.074315,-0.23284,0.41133,-0.236825,0.17167542,-0.418585,-1.9363,0.293285,-0.107575,-0.140635,-0.2329465,0.2206565,0.64814,-0.26028,0.087377,-0.182916,0.32663,0.116216,-0.0927245,0.331965,-0.324575,-0.1526265,0.560415,0.3956164,-0.319555,-0.53844,0.0839025,0.2138135,0.319875,-0.30555,0.0029187,-0.411025,0.25364,0.2365645,-0.454995,-0.012196,-0.56004,0.285655,0.123495,-0.1257755,0.20233,-0.0275625,-0.0431925,-0.0520205,0.058805,0.082713,0.001616,0.112642,-0.0458835,0.008115,-0.651205,-0.079192,-0.48024,-0.1078335,0.1849325,-0.01007,-0.3655895,-0.1365,0.43501,-0.06583,0.146396,-0.397115,0.129755,0.434295,0.1218685,0.1967025,0.958405,-0.139815,0.40286,0.04525,-0.090159,-0.2420717,-0.0821835,-0.02615115,-0.094104,-0.388253,-0.221135,-0.2126695,0.2766,-0.24486,0.18893,0.362387,0.009499,-0.157783,-0.68059,0.02713,-0.066705,-0.07081,0.12484,-0.205735,-0.166663,0.19909,0.36756,0.608475,0.6029,0.837355,-0.29619,0.085605,-0.095626,0.08379,-0.52767,-0.217655,-0.162111,0.600705,0.10795,0.123687,0.64842,0.157669,-0.223575,-0.15073,-0.41651,0.025325,0.091549,0.1487442,-0.469245,0.04278,0.42659,-0.157465,0.20945,0.066814,0.2336195,-0.381175,-0.41255,-0.251435,0.131675,-0.329365,0.942245,0.29382515,-0.18572,0.138815,-0.654795,0.031405,-0.585045,0.108757,0.027645,0.1752427,-0.23504,-0.060865,0.3360605,0.414875,-0.38917,0.15451,0.14005,-0.075362,-0.327915,-0.591915,-0.148890885,0.221875,-0.211845,-0.27614,0.24647,-0.461365,-0.28631,-0.483075,-0.08172,-0.103129,-0.130565,-0.494245,-0.35068,0.183945,0.469765,0.4343,-0.09706,-0.574585,0.15623,0.07264
http://dbpedia.org/ontology/Cricketer	0.17978,0.28946,0.67247,0.034061,0.29072,0.44196,0.56162,-0.13156,0.45326,1.203,0.1846,0.57885,-0.25494,0.16676,0.46148,-0.1536,0.093375,-1.7067,0.76334,0.40622,-0.86142,-0.45439,-0.51395,-0.2891,0.60986,0.22802,0.36951,-0.2421,-0.66389,0.2233,0.025193,0.13144,0.6617,-0.21933,0.13452,-0.020312,0.30582,-0.15057,-0.54929,0.48793,0.5214,-0.46511,0.69232,0.23425,0.080484,-0.49998,-0.02114,0.47494,-0.11477,0.52202,0.11481,-0.36671,0.15542,0.05863,0.09924,0.25129,0.2625,-0.11766,0.59133,-0.41412,-0.32178,0.33726,0.051462,0.038494,-0.62171,0.15362,-0.22246,-0.073209,0.39907,-0.046181,-0.07767,0.52711,-0.52421,0.33982,-0.14117,0.17986,0.062708,-0.17321,0.78965,-0.5378,0.58465,0.32513,0.096118,0.53001,0.1142,-0.37879,0.64287,-0.39044,-0.11264,0.14644,0.11794,0.089763,-0.70814,0.13681,0.127,-1.0614,0.5247,-0.1096,-0.15288,-0.054363,0.67567,0.27872,0.51775,-0.74084,-0.31715,-0.59491,-0.51892,0.4532,0.52117,-0.3662,0.18625,0.55048,-0.48769,0.41396,-0.17541,0.638,0.035723,0.048557,0.032206,-0.55706,-0.43807,0.17729,-0.33776,-0.31192,0.30166,0.29273,-0.50293,0.19879,-0.22286,0.63477,-0.28483,0.31485,-0.44181,-0.34248,0.22176,-0.4778,0.46913,0.092183,0.35495,0.017358,-0.58195,0.63089,-0.15974,0.29209,-0.16116,-0.47512,0.61171,-0.082005,0.36903,0.17426,0.14498,0.73075,0.16342,0.101,0.23468,-0.12746,0.77424,0.48024,-0.16057,-0.41888,0.10855,-0.24607,1.2577,-0.070622,0.59342,-0.38554,-0.080326,-0.57679,0.24872,-0.14186,-0.19173,-0.98011,0.088592,-0.063051,-0.020359,-0.19704,-0.34285,-0.3164,0.31721,0.50516,-0.50175,0.36153,0.31911,-0.56179,-0.54812,0.0016593,-0.26827,0.63117,0.63712,-0.25327,-0.32985,0.59483,-0.16389,-0.30333,0.24968,-0.59218,-0.037147,0.77179,0.7439,-0.17855,0.14057,-0.059338,0.33269,-0.38868,0.22609,0.059098,-0.083808,-0.36702,-0.70614,0.012089,-0.20196,0.011142,0.47525,0.15274,-0.03419,0.31015,-0.28288,0.11719,0.022577,-0.053904,0.30706,0.059018,0.60946,0.47654,0.34612,0.19481,-0.55643,-0.68198,0.096578,0.2935,0.28945,-0.14425,0.13975,0.071499,-0.11461,-0.15138,-0.37477,0.92155,-0.40854,0.65412,0.053275,0.19672,0.33783,-0.072528,0.76928,1.0661,0.86051,0.46434,-0.45886,0.0054912,-0.013688,-0.97002,-0.18909,-0.1712,0.2432,-0.86817,0.27325,-0.20385,0.049905,0.018146,0.56117,0.49377,0.62438,-0.2131,-0.65759,0.64094,-0.1173,0.59329,0.30972,-0.39399,0.14484,0.20537,-0.30873,1.0991,-0.24405,0.16895,0.12103,-0.17769,-0.29494,-0.03222,-0.35773,-0.16517,-0.396,0.41381,-0.29741,-1.035,0.2284,-0.051242,-0.69168,0.26507,0.28711,-0.1598,-0.6254,0.13755,-0.1222,0.27697,-0.36641,-0.32496,0.12303,-0.30544
http://dbpedia.org/ontology/Cyclist	0.53658,0.25751,-0.48658,-0.14745,-0.034129,0.57207,0.33921,-0.25955,-0.8392,1.9159,-0.096579,0.30506,-0.28378,1.0929,-0.58008,0.17182,0.49309,-0.35147,0.81887,-0.26552,-0.31264,-0.27409,0.37377,-0.7991,0.33757,0.27433,0.0050776,-0.12753,0.7707,0.31995,-0.011405,-0.22852,-0.025731,0.027349,-0.077159,-0.62624,0.2459,-0.40099,0.48699,0.55824,0.43683,0.15509,0.24995,0.77444,-0.346,-0.21807,0.17056,-0.25743,0.25536,0.65273,-0.045255,-0.43197,0.061354,0.30519,-0.3754,0.54107,-0.21556,0.11649,0.55044,-0.054744,-0.38587,-0.45302,0.048968,0.39305,-0.48839,-0.44071,0.30598,-0.28512,-0.0051277,0.48294,-0.37588,-0.26974,0.0078632,0.43132,-0.20282,-1.0481,-0.070387,-0.24358,0.19717,0.44228,0.42009,-0.20588,0.28605,0.284,0.38094,0.18502,0.57989,-0.080736,-0.24395,-0.21748,0.2726,0.099108,-0.046926,0.14182,-0.41525,-0.92366,-0.14355,-0.038368,0.28321,0.42356,0.31735,-0.58201,0.42263,-0.55423,0.14456,-0.88167,-0.039259,0.40231,0.30571,0.16914,0.16229,-0.42228,0.26163,0.32382,-0.27807,-0.12158,0.23528,-0.46075,0.21039,-0.12095,-0.10333,-0.6677,0.5936,-0.69184,0.42374,0.27859,0.074595,0.2639,-0.072011,-0.13826,0.040485,0.25754,0.2033,-0.55878,0.21782,-1.0698,0.048267,0.10694,-0.046735,0.12143,-0.88847,0.11173,0.29618,0.48144,-0.25066,-0.18796,-0.28066,-0.24259,-0.36497,0.055235,-0.3134,0.29297,0.075917,0.20259,0.065114,-0.21816,0.31787,0.066892,-0.28809,-0.13591,-0.39561,0.39343,0.16959,0.089741,0.42422,-0.33742,-0.18,0.30165,-0.82672,0.57637,0.44325,-0.71953,0.38222,-0.066785,0.1942,-0.14215,-0.087205,-0.33169,-0.25692,0.54773,0.16984,0.78025,-0.14284,0.21982,-0.29709,0.20552,0.27116,0.44054,0.029716,0.10858,-0.19107,0.054948,0.3102,-0.033315,0.20422,0.27584,0.4195,0.34799,0.24037,0.040989,-0.32286,0.40506,-0.15123,-0.30019,-0.32803,0.58845,-0.16794,-0.49596,-0.34997,-0.91966,0.57295,-0.4476,-0.080163,0.36918,-0.11632,0.1939,-0.66233,0.51416,-0.058836,-0.07211,0.45267,0.48791,0.36309,0.11051,0.22621,-0.39106,0.15347,-0.45801,-0.39817,0.37338,-0.10793,0.35658,0.29963,0.097632,-0.40515,0.064606,-0.10186,0.40365,0.22393,0.25773,0.3672,-0.1274,0.17227,-0.31291,-0.13083,0.93445,0.30498,0.030151,0.49801,-0.16979,-0.15849,-0.35494,0.34935,0.1323,-0.39739,-0.41573,0.37859,-0.52273,0.31826,0.48998,-0.17056,0.47488,-0.030469,-0.16922,0.35054,0.60925,0.26659,0.94977,-0.55513,-0.65408,-0.081151,-0.34913,-0.10519,0.63365,0.25679,-0.060114,0.38962,-0.042432,-0.16032,0.51489,-0.60064,-0.067892,0.094111,0.7086,0.1503,-0.64643,-0.5771,-0.40239,-0.16061,-0.20436,0.058219,0.12149,0.64426,-0.80968,-0.28247,-0.35585,0.29368,-0.39156,0.39328,0.015103
http://dbpedia.org/ontology/DartsPlayer	0.45914,0.35775,-0.113221,-0.119417,0.45906,-0.293725,0.41488,0.03486,0.147837,1.196705,0.00962,0.51422,-0.10383,0.1685205,0.439035,-0.147986,-0.11788,0.27123,-0.0472455,-0.341143,-0.37809,-0.1266875,-0.271215,-0.247825,0.33659,0.5444,-0.0344175,0.253485,-0.028835,-0.41791,-0.169426,-0.49501,-0.182685,0.224625,0.03234,-0.241112,-0.143055,0.0085035,-0.1069235,-0.17059,0.015065,0.54458,0.170795,-0.074955,-0.242665,-0.24841,-0.382705,0.409965,-0.38004,0.314887,-0.177885,-0.053375,-0.3460997,-0.0298255,-0.529805,-0.229745,0.266525,0.29424,0.211423,-0.175131,-0.191645,0.080395,0.519235,0.303015,0.0289068425,0.1594533,0.132575,0.003045,-0.0537785,-0.023182,0.1901605,0.17572595,0.31742,0.03745,-0.42914,-0.36367,-0.05753,-0.55145,-0.021465,0.40083,-0.11091615,-0.14245,0.054205,0.03488,0.139568,0.341115,0.300665,0.4972685,0.314355,-0.2838045,0.23126,-0.007215,-0.286975,-0.095893,0.3662,-0.883045,0.4136995,0.1555595,-0.240415,0.715605,-0.51565,-0.129675,0.275737,0.1843275,-0.2073405,-0.852905,0.1843375,0.31091,0.20435,-0.28047,0.24661,0.01004235,-0.42381,-0.098784,0.0262795,0.26721,-0.0556235,-0.0480955,-0.456215,0.025615,0.066421,-0.254695,0.33128,0.263995,-0.1108645,-0.297905,-0.672485,0.38943,-0.3848255,0.141714,-0.03926,-0.08607,0.2004825,-0.2365195,0.330615,-0.208325,0.48978,-0.297565,0.11401,-0.23145,-1.9144,0.50209,0.30658,-0.424915,-0.11251,0.2188325,0.690175,-0.184875,0.188257,-0.310525,0.16513,0.09933,0.0782165,0.5846,-0.236525,-0.009029,0.3953,0.49839,-0.26483,-0.46973,-0.080395,-0.21184,0.35892,-0.3201,0.3435465,0.05591,0.048435,0.122925,-0.53281,0.138745,-0.28964,0.38034,-0.266635,-0.0840005,0.3681375,-0.171545,0.003195,0.2038745,0.117365,-0.066417,-0.234259,-0.172053,0.0414275,0.23196,-0.54163,0.0161145,-0.317215,-0.0773735,-0.0045675,-0.072744,-0.2563495,-0.053455,0.331215,-0.026535,-0.26497,-0.2179285,-0.0317045,0.2975045,0.3551185,0.114339,0.820735,0.0203,0.365175,0.08004,0.174926,0.2019083,-0.028373,-0.054113,-0.185069,-0.336983,-0.247745,-0.2212705,0.306885,0.0919,0.076269,0.395825,-0.151892,0.168152,-0.82224,-0.127175,-0.135525,-0.03868,-0.2246,-0.095875,-0.109908,0.001775,0.2433725,0.038325,0.498725,0.705555,0.105865,-0.184715,-0.244976,0.2454515,-0.182775,-0.0800755,-0.0811,0.745935,-0.172505,0.238225,0.298139,0.05719,-0.108845,0.031714,-0.25026,0.086302,-0.005505,0.0029827,-0.65769,0.45273,0.348235,-0.19509,0.06668,-0.013403,-0.0340275,-0.04669,-0.1361425,-0.40161,-0.293965,0.07056,0.041045,0.16977015,-0.279795,-0.24061,-0.46403,0.367665,-0.395315,0.260387,-0.320675,-0.0727523,0.008615,-0.2133,0.499735,0.24671,0.21188,0.128225,0.0732725,-0.072567,-0.337695,-0.56371,0.16189,0.359715,-0.6443,-0.1179675,-0.243095,-0.55801,-0.071015,-0.324845,0.258455,-0.0707645,-0.260794,-0.438445,-0.452145,0.1126515,0.21454,0.29331,-0.253485,-0.43851,0.390805,0.127135
http://dbpedia.org/ontology/GaelicGamesPlayer	0.42141,0.13708,-0.260436666667,0.0501186666667,0.551946666667,-0.448606666667,0.44363,-0.0227493333333,0.190711333333,1.59707333333,-0.0726766666667,0.538179,-0.141348666667,0.26483,0.53506,0.0221693333333,-0.067543,0.0679,0.0396716666667,-0.230765333333,-0.205163333333,-0.24221,0.14601,-0.0804996666667,0.3672176,0.407203333333,-0.153317333333,0.318313333333,0.0405466666667,-0.10382,-0.198179333333,-0.26794,0.0471566666667,0.0626603333333,-0.0262673333333,-0.095202,-0.05737,0.103432666667,0.011801,0.05972,0.106931666667,0.477933333333,0.123562666667,0.07688,0.0264833333333,-0.0468433333333,-0.330126666667,0.634123333333,-0.113673,0.174031333333,-0.193186666667,0.143476666667,0.0019502,0.226307333333,-0.25068,-0.09434,0.054196,0.156099333333,-0.334698,0.233616666667,0.12501,0.401515333333,0.2156642,0.329817,0.0694372283333,0.2088032,0.170813,0.131466666667,0.190413333333,-0.135451333333,0.285556333333,0.40261,0.101678466667,-0.310116666667,-0.195613333333,-0.0374973333333,0.0208533333333,0.2346117,0.0946033333333,0.434906666667,-0.0675241,-0.274016666667,-0.0465316666667,-0.0234376666667,-0.00752466666667,0.20391,-0.267694333333,0.337972333333,0.221987,-0.28225,-0.103306666667,-0.351676666667,-0.417886666667,0.127373,0.33934,-0.702623333333,0.42838,-0.0909403333333,-0.155240666667,0.35597,-0.396393333333,-0.546405333333,-0.125053333333,0.425356666667,-0.0898203333333,-0.329949,-0.0505766666667,0.10626,0.0982396666667,-0.335563333333,0.20153,-0.285873433333,-0.585613333333,-0.0910793333333,-0.231972,0.19318,-0.200515666667,0.504256333333,-0.340706666667,-0.113666666667,0.346356666667,-0.150843333333,0.02143,0.0125676666667,-0.138396333333,0.00258766666667,-0.0992056666667,0.236253333333,0.141371333333,-0.01274,0.500216666667,-0.02824,0.17661,-0.032753,0.134186666667,-0.45155,0.367113333333,-0.176693333333,0.28972,-0.6029,-1.64757666667,0.346911,0.113593666667,-0.10589,-0.234110333333,0.1062,0.223916666667,-0.13,-0.125148666667,-0.06546,0.10735,0.248986666667,0.12099,0.474183333333,-0.288308333333,-0.125651,0.179932433333,0.134333333333,-0.0100733333333,-0.347994666667,0.29494,0.089068,0.162463333333,-0.3025,-0.20491,-0.153656666667,0.170203333333,0.0928466666667,-0.3402696,-0.143316666667,-0.31634,0.779176666667,-0.00394333333333,-0.0107193333333,0.2590105,0.00398643333333,-0.0751066666667,-0.0251236666667,0.001337,0.0686156666667,-0.263859333333,0.134604666667,0.068451,-0.111036666667,-0.814476666667,0.0710233333333,-0.279214,0.218560333333,0.395041666667,-0.288681333333,-0.227079666667,0.066944,0.23047,0.140317333333,0.05711,-0.0307666666667,-0.09068,0.0334566666667,-0.128857666667,0.221936666667,0.839463333333,-0.00688,0.526336666667,0.222266666667,-0.235846,-0.231654466667,-0.221186666667,-0.0913543333333,0.059584,-0.0858386666667,-0.289486666667,-0.330466666667,0.347486666667,-0.204484,-0.0784466666667,0.342617666667,0.182277666667,-0.0880663333333,-0.651529666667,0.0680363333333,0.0344,-0.53239,-0.29141,-0.08381,-0.532128666667,-0.246886666667,0.391743333333,0.270523333333,0.458553333333,0.434156,-0.193872333333,-0.161006666667,-0.167170666667,0.247104,-0.0842166666667,-0.0271213333333,0.0824153333333,0.451585666667,-0.138063666667,0.02882,0.138725333333,0.294853333333,0.0539566666667,-0.0328033333333,-0.392040666667,-0.103174,-0.00707,-0.0622638666667,-0.455509,-0.10943,0.708336666667,-0.165257333333,0.124073333333,0.153086,0.347296333333,0.192423333333,-0.188953333333,-0.208889333333,-0.179255756333,-0.33391,0.423769,0.2193101,-0.256326666667,0.289933333333,-0.297792,-0.0808,-0.56967,-0.003582,0.42155,-0.0753048666667,-0.304373333333,0.177943333333,0.274123333333,0.1858,-0.457326666667,-0.027324,0.0809086666667,-0.0799746666667,-0.119640666667,-0.243076666667,-0.127863666667,0.347833333333,-0.436407,-0.160169333333,-0.0663613333333,-0.241943333333,-0.220786666667,-0.265723333333,0.369306666667,-0.201949333333,-0.399503333333,-0.447576666667,-0.629723333333,0.0350833333333,0.390272666667,0.44332,-0.335666,-0.389533333333,0.180883333333,-0.243103333333
http://dbpedia.org/ontology/GolfPlayer	0.428915,0.55422,0.25093,-0.651397,0.644105,-0.301525,0.38782,-0.308895,0.174392,2.0906,-0.35661,0.388268,-0.234284,0.19258,0.151387,-0.244186,-0.384765,0.96399,0.0378375,0.0269365,-0.448775,-0.25604,-0.136485,-0.009815,0.35625,0.59225,-0.4128075,0.31934,-0.01269,0.1854,-0.1819355,-0.49642,-0.04451,0.103168,-0.148995,-0.43792,0.28044,-0.3774435,-0.00865,-0.107205,0.154415,0.18465,0.333345,0.21703,-0.42853,-0.1535305,-0.23762625,0.465555,-0.035555,0.135537,-0.373835,-0.1758305,0.1325553,0.077275,-0.153365,-0.362815,0.203315,0.569745,0.183818,-0.08397,-0.41652,0.611835,0.09229,0.358985,0.0857858425,0.2392333,0.1662705,0.28425,-0.103085,-0.063537,0.298935,-0.034225,0.306795,0.006865,-0.55767,-0.01982,-0.23893,-0.10924935,0.097675,0.061785,-0.17941615,-0.101925,0.26935,0.20751,-0.042061,0.57865,0.01817,0.9267585,0.1974375,-0.2431805,-0.207875,0.06319,-0.47175,-0.165113,0.38762,-0.819625,0.878015,0.0787045,0.011685,0.44532,-0.66725,-0.302276,0.012785,0.31205,0.0654045,-0.46696,0.1902225,0.351545,0.107486,-0.07401,0.35775,-0.01287115,-0.39144,0.169841,0.0947845,-0.05267,0.1368365,0.0381765,-0.344975,0.005085,0.62142,-0.022075,-0.084745,-0.13151,-0.017637,-0.2155115,-0.651165,0.0397285,-0.0944605,0.059559,0.105485,-0.09916,0.017115,-0.5586595,-0.10234,-0.34442,0.350715,-0.22165,0.44857,-0.368295,-1.84645,0.205825,0.34654,-0.116715,-0.112095,0.298065,0.865315,-0.0850795,0.027313,-0.154521,0.0467225,0.103985,-0.3823045,0.22569,-0.174227,0.056909,0.2088995,0.3772915,-0.363655,-0.33494415,0.38469,0.305595,0.427415,-0.139375,0.1520365,-0.008695,0.12238,0.22635,-0.1057505,0.069155,-0.626225,0.271255,-0.2169,0.0951045,0.178665,-0.296125,-0.037232,-0.01708,0.054165,0.049283,-0.272619,-0.0280555,-0.1234175,-0.142299,-0.489318,-0.270387,0.069155,0.006821,0.080926,0.001445,0.0327985,-0.193455,0.29974,0.06649,-0.022585,-0.142095,-0.0597612,0.22468,0.2267635,0.491675,0.785885,-0.1315205,0.1660685,-0.081015,-0.304339,0.1870383,0.117255,0.0319135,0.076141,-0.310343,-0.367525,-0.177275,0.21466,-0.10657,-0.01325,0.46004,0.201158,-0.051405,-0.80525,-0.091677,-0.27756,-0.21613,-0.10713,-0.106765,-0.236173,-0.1208605,0.039005,0.244054,0.536145,0.854775,-0.02578,-0.1580965,0.151779,0.11023,-0.598385,0.21586,0.104544,0.53958,-0.12264,0.57499,0.335371,0.02061,-0.07938,0.025708,-0.42825,0.415765,0.0697195,0.1455042,-0.468425,0.1731465,0.31753,-0.29558,0.349645,0.0118665,-0.011926,-0.046295,0.020745,-0.07039,0.068455,0.00986,0.53604,-0.08242985,0.03916,-0.47382,-0.322445,-0.043525,-0.63714,0.157177,-0.28193,-0.1475023,-0.306735,-0.03366,0.397995,0.13837415,-0.130681,0.20627,-0.064065,-0.294247,-0.33916,-0.49996,-0.33668,0.21995,-0.232895,-0.077363,0.02342395,-0.578975,-0.27865,-0.46042,0.39893,-0.119309,-0.1756825,-0.314985,-0.38642,-0.301505,0.3137005,0.06765,-0.08922,-0.4071,0.288915,-0.00281
http://dbpedia.org/ontology/GridironFootballPlayer	0.453426666667,0.241507333333,0.0946289,-0.172724666667,0.49481,-0.154345,0.403753333333,0.149593333333,0.0199896666667,1.78942,-0.0616166666667,0.318821333333,0.26246,0.190427666667,0.23924,0.124691666667,0.247786666667,0.0645166666667,0.301221666667,0.145903333333,-0.261866666667,-0.487696666667,0.0777766666667,-0.199853333333,0.0604933333333,0.466273333333,-0.322451666667,0.50286,-0.247076666667,0.0659666666667,-0.0387383333333,-0.250163333333,-0.213306666667,0.0625726666667,0.007137,-0.0237566666667,0.02337761,-0.0775923333333,-0.0639344633333,0.149396666667,0.202933866667,0.300303333333,0.693016666667,0.314368,-0.281776666667,-0.323624,-0.283316666667,0.466536666667,-0.612803333333,0.100617333333,-0.133978,0.05733,0.173253533333,-0.369923333333,-0.124385,0.02953,0.186644,0.41183,0.179217666667,0.0324666666667,-0.10415,0.553763333333,0.173027,0.219893333333,-0.100173438333,0.2834722,0.241832333333,0.34435,-0.135824333333,0.159288333333,0.123334433333,-0.170056666667,0.15563,-0.0250796666667,-0.415443333333,-0.072556,-0.0559603333333,0.09801,0.46574,0.0612906666667,-0.179747433333,-0.205246666667,0.250503333333,0.265256666667,-0.121674666667,0.358211,-0.103616666667,0.507199,0.183816666667,-0.34633,-0.292546666667,-0.1138,-0.203806,0.0104646666667,0.258923333333,-0.855933333333,0.02013,0.0941103333333,0.194836666667,0.404133333333,-0.219961333333,-0.28939532,0.309896666667,0.029079,-0.243540333333,-0.671413333333,0.388391666667,0.228676666667,0.222896666667,-0.20902,-0.293496666667,-0.2572201,-0.453533333333,-0.067376,-0.209097,0.482833333333,-0.0939156666667,0.139149666667,-0.345283333333,-0.346103333333,0.166968666667,-0.250798666667,-0.232063333333,0.347677666667,0.0307386666667,-0.38242,-0.0900166666667,0.302693333333,-0.0194576666667,0.264439333333,0.23597,-0.332353333333,0.108724666667,-0.100546766667,0.119356666667,-0.461696666667,0.08982,-0.163903666667,0.251613333333,-0.324885333333,-1.77616666667,0.320684,0.23887,0.106857333333,0.04993,0.0378066666667,0.63992,0.0607666666667,0.138583,0.0901133333333,-0.201433333333,0.0715766666667,0.0338603333333,0.072447,-0.469106666667,-0.100364333333,0.204424,0.132106666667,-0.114348,-0.48478,0.07779,0.1508859,0.206206666667,-0.362663333333,-0.0437256666667,-0.219086666667,0.263667666667,0.257248,-0.191076666667,0.07603,-0.381162666667,0.348613333333,-0.0380333333333,-0.046642,0.222143333333,-0.07659,-0.239201,-0.0804466666667,-0.107253333333,-0.122305666667,-0.112862666667,0.141728,-0.0358913333333,-0.0428066666667,-0.532951666667,-0.174848,-0.224262666667,0.191539666667,0.052775,-0.38787,0.0698263333333,0.0438484433333,0.134095,0.285676333333,-0.153083333333,0.01671,0.248173333333,0.31039,0.315899,0.167853,0.869456666667,0.01118,0.44411,0.0812066666667,-0.369622666667,-0.209604466667,0.0838033333333,-0.205514333333,-0.161876,-0.004042,-0.115884,0.200003333333,0.254018333333,0.0540366666667,-0.231596666667,0.593843333333,0.117978666667,-0.121922,-0.655399,0.17932,-0.0755866666667,-0.140317,-0.623913333333,-0.184416333333,0.0623446666667,0.101306666667,0.117606333333,0.140346666667,0.736883333333,0.598536666667,-0.37745,0.23411,-0.312717333333,0.213092333333,-0.47103,-0.401536666667,0.0763043333333,0.544553333333,-0.12622,0.38809,0.43655,-0.0553866666667,0.251093333333,-0.096127,-0.505803333333,0.198746666667,0.038124,0.129261466667,-0.10978,0.449116666667,0.534593333333,-0.379546666667,0.0810566666667,-0.227904,0.170659666667,-0.35431,-0.218946666667,-0.286168333333,-0.24386,-0.44339,0.419336666667,0.3613501,0.2563,0.079566,-0.3329314,0.52678,-0.304021333333,-0.0587396666667,-0.249513333333,-0.0133178666667,-0.007452,0.477496666667,0.299600333333,0.171373666667,-0.264076666667,-0.0296463333333,-0.00662,0.108035333333,-0.365906666667,-0.472546666667,-0.51932,-0.16706,-1.04513666667,-0.19455,-0.054845,-0.279903333333,-0.266373333333,-0.326816666667,0.0466683333333,0.048354,-0.0137466666667,-0.301996666667,-0.559866666667,-0.100473333333,0.0925166666667,0.062909,-0.101162333333,-0.29592,0.210365,-0.20856
http://dbpedia.org/ontology/Gymnast	0.22641,0.26136,0.25085,0.54177,-0.023135,-0.50115,0.25046,0.035651,-0.34203,0.90499,0.41407,0.46771,-0.14027,0.41192,0.35069,0.54625,0.82895,-0.85482,-0.80899,0.61859,0.24416,-0.13228,-0.25484,-0.815,-0.9292,0.29707,0.12563,-0.57493,0.16038,-0.19936,0.01632,-0.19033,0.66199,-0.20714,0.82682,-0.26966,0.55506,-0.79267,-0.1144,-0.21754,-0.0078746,0.44995,0.35055,0.46395,0.045254,0.14563,0.21314,0.025046,0.38512,0.24629,-0.62384,-0.49098,-0.023607,-0.29154,-0.14883,0.078355,0.40007,-0.10585,0.60942,0.50926,-0.089475,-0.36067,0.37009,-0.13645,-0.82238,0.12595,0.28286,0.22238,-0.23047,0.44326,-0.43242,0.0074081,-0.67393,0.29374,-0.31128,-0.1036,-0.57226,-0.31291,-0.11715,0.11783,0.34546,-0.36974,-0.19451,0.60266,0.11957,0.3128,0.89469,0.062539,-0.65362,-0.13193,-0.076006,0.14618,-0.6894,-0.099967,0.16682,-0.59711,-0.62777,0.16044,0.10147,-0.0041654,0.13539,-0.051075,-0.042943,-0.61156,-0.16019,-0.57007,-0.38577,-0.17386,0.31986,-0.78452,-0.11885,0.078746,0.13096,-0.19968,-0.39462,0.12757,0.27128,0.49434,-0.12352,-0.040511,-0.22741,-0.3749,0.16615,0.2043,-0.1088,0.21565,0.11588,0.1604,0.25233,0.086673,-0.25596,0.1272,0.55962,0.0025619,0.26871,-0.843,-0.078346,0.44302,-0.032978,0.24188,-1.1812,0.36114,-0.016201,-0.12636,-0.048916,-0.096593,1.2124,-0.82971,-0.063401,0.11518,-0.70572,0.33928,0.13363,0.45792,0.13318,-0.012772,0.5208,0.17308,0.018026,-0.98575,-0.45528,0.31525,0.06446,-0.020331,0.17537,-0.64525,0.3458,-0.1077,0.07032,0.48201,-0.11813,-0.78734,-0.15061,-0.63034,-0.16608,-0.43835,-0.8737,0.28518,-0.72169,0.52246,0.72954,0.99679,0.084971,0.28564,-0.3646,0.17011,-0.094086,0.72161,-0.26626,-0.18373,-0.26828,-0.22395,0.60082,-0.75583,0.065624,-0.013932,0.13099,0.17258,0.51218,-0.25066,0.16196,0.1554,-0.77857,-0.051779,-0.33575,0.44915,-1.0017,0.09414,-0.31999,-0.32716,0.074635,-0.13862,-0.23082,-0.26029,-0.47297,0.6686,-0.51743,0.0047183,0.071809,-0.34177,0.039622,0.43982,0.18832,-0.39569,0.090769,0.0030626,0.7101,0.39533,0.37221,0.54913,-0.56825,0.0023294,-0.067821,0.58705,0.046462,-0.018687,-0.049092,1.0164,-0.1492,-0.27559,-0.017859,-0.22892,0.10849,0.21677,0.46569,-0.36103,-0.67569,0.40159,0.2091,0.73871,0.4244,0.4116,0.15405,-0.096043,0.051136,-0.15933,0.12778,-0.10566,0.30716,-0.022566,0.48283,0.083098,-0.1713,0.21369,-0.35835,0.31376,-0.42881,0.51561,-0.56525,0.13474,-0.54176,-0.11109,0.021196,0.66455,-0.10743,-0.20872,0.26563,-0.25802,-0.22561,-0.41125,-0.28659,-0.4407,-0.28223,0.46205,-0.042049,0.015178,-0.92351,0.40376,0.17038,0.0427,0.74707,0.11847,0.37722,-0.49076,0.35963,-0.47974,0.14158,-0.46618,0.26884,0.029394
http://dbpedia.org/ontology/HandballPlayer	0.345835,0.315975,-0.01958,-0.126422,0.573235,-0.1469355,0.586005,0.003895,-0.443388,1.451175,-0.104825,0.42956,0.115715,0.449255,0.21985,-0.044361,-0.095015,-0.02435,0.1888125,0.0661615,-0.361685,-0.371965,0.0967,-0.215695,0.237227,0.16662,0.3387725,0.339695,0.17381,-0.245609,0.19752,-0.161675,0.0348915,0.080754,0.107185,-0.48241,0.22798,-0.3866485,0.042545,-0.286079,0.202126,0.536865,0.3358,0.041095,-0.423625,-0.38848,-0.2931,0.43839,-0.4148525,0.134392,-0.1186465,0.00819,0.0594553,0.065385,-0.26609575,-0.459655,0.327165,0.098405,0.177758,0.11099,-0.30529,0.51369,0.268645,0.152515,-0.2305441575,0.3769783,0.49065,0.263065,0.0017225,0.0885805,0.285585,0.25682,0.33517,-0.36476,-0.27587,-0.39823,-0.19926,-0.21444,0.347845,0.250651,-0.07456115,-0.22677,0.18316,0.1238941,-0.0022055,0.333485,0.080335,0.1073335,0.04018,-0.182415,0.122035,-0.157796,-0.23807,0.004162,0.302485,-0.859085,0.207445,-0.05168,0.12014,0.684465,-0.214806,-0.42775,0.1952,0.123954,-0.0935055,-0.812755,0.2664625,0.216188,0.184125,-0.25864,0.032655,0.06272485,-0.636275,-0.196589,-0.1981755,0.643565,0.2699615,0.2317545,-0.286435,-0.34933,0.172095,-0.40793,-0.072095,-0.18831,-0.1120295,-0.022165,-0.597955,-0.01649,-0.0854105,0.277224,0.101575,0.24429,0.308445,-0.5651595,0.262915,-0.304915,0.452165,-0.44794,0.1621825,-0.3285695,-1.523575,0.5741,0.36821,-0.019727,-0.240475,0.434885,0.68851,-0.312995,-0.0327325,0.0584,0.0102565,0.26773,0.011217,0.033405,-0.19671,-0.1816565,0.295315,0.430974,0.01226,-0.46705,0.1378185,0.267905,0.48183,-0.22803,0.1708615,-0.210505,-0.092055,0.657835,-0.559495,0.36823,-0.556305,0.117655,-0.248645,-0.0340655,0.3187731,-0.302765,-0.215145,0.02811365,0.066615,0.217558,-0.147374,0.101752,-0.1456725,0.019335,-0.557025,-0.301322,-0.27199,0.3114665,0.1968925,-0.21484,0.047521,-0.10055,0.356055,0.08272,0.084626,0.08858,0.3546,-0.076055,0.4766385,0.468845,1.0863,0.092715,0.39238,0.026835,0.0005665,-0.1153867,0.127395,-0.1254815,-0.0337588,-0.0899105,0.034555,-0.11303,0.533115,-0.12543,0.04867,0.493555,0.124278,0.049077,-0.78567,0.07362,-0.147255,-0.17468,-0.125145,-0.31578,-0.464768,-0.302895,0.534205,-0.160655,0.81914,0.68778,-0.047015,0.26296,-0.077446,0.31046,-0.317535,-0.2991,-0.117701,0.78648,0.2327,-0.19497,0.2993925,0.06612,-0.138175,-0.04384,-0.299025,0.217005,0.243595,0.0017087,-0.52521,0.7205,0.29279,-0.0884025,0.355365,0.011253,0.2963245,-0.336045,-0.307965,-0.2696,-0.10961,-0.224024,0.51085,0.16132015,0.313755,-0.14072,-0.61849,0.493205,-0.34164,-0.0096445,-0.199415,-0.2295673,-0.24552,0.066317,0.43219,0.562645,-0.143184025,0.31953,0.23072,0.051483,-0.120913,-0.164044,-0.307905,0.441095,-0.504185,-0.068967,0.0213026,-0.176541,-0.505885,-0.1866485,0.1355685,-0.0117865,0.055685,-0.179475,-0.13391,-0.178955,0.448575,0.570965,-0.07926,-0.571695,0.329035,0.004225
http://dbpedia.org/ontology/HorseRider	0.03778,0.1568695,-0.364685,-0.142475,0.311705,-0.27187,-0.158926,-0.1567475,-0.36853,1.91405,-0.250002,0.4346,-0.18928,0.75498,-0.097367,-0.02751354,0.13413,0.572245,0.282207,-0.086132,-0.518955,-0.20875,0.12961,-0.23098,-0.186615,0.319975,-0.026551,-0.23869,0.24888,0.1632285,-0.21062,-0.38582,0.171595,0.1040555,-0.15736,0.1016985,0.218015,-0.38764,0.26458,-0.12605,0.03984,0.0771675,-0.1409065,0.1236685,0.090145,-0.203275,0.1139495,-0.400975,0.401495,-0.029432,0.0672145,-0.197775,0.059278,0.381745,-0.05466,0.683215,0.2374005,0.142995,-0.32103,-0.07054,-0.301735,0.6481,0.384135,0.813725,-0.371915,-0.29388,0.430285,-0.49316,0.23615,0.034871,-0.23782,-0.45004,0.021315,0.055035,-0.14341,-0.492475,0.093745,-0.098218,0.177663,-0.036835,-0.1102495,-0.267974,0.22107,0.194348,0.26627,0.347865,1.084,0.78755,-0.099765,-0.19128155,0.0925495,0.1060175,-0.45117,-0.30455,-0.07648785,-0.49123,-0.132215,-0.19943,-0.341435,0.39683,0.125972,0.0237,-0.205785,-0.335,0.086139,-0.57756,-0.29424,-0.1035595,0.005255,-0.41049,0.491175,-0.3690975,0.273454,-0.1237,-0.0092365,0.0798015,0.207715,-0.29371,0.545775,0.0254775,-0.1195,-0.17032,0.764035,0.164865,-0.2185155,0.59625,-0.0079685,0.133813,-0.1384075,-0.312265,-0.1841815,0.31355,0.211845,-0.34064,-0.02716,0.05479805,-0.015505,-0.01770995,0.093218,0.262532,-2.08645,-0.31894,0.542905,0.295555,0.415765,-0.72265,-0.27075,0.046045,-0.0591425,0.128997,0.101325,-0.241395,-0.049183,0.030694,0.348015,0.089802,0.1985095,-0.027322,0.045119,-0.03631,-0.12241,0.3339795,-0.15064,-0.29310675,0.389675,-0.132827,0.349755,-0.074995,-0.445445,-0.0907265,0.313645,-0.0039,0.099019,-0.25486,-0.0895935,0.132915,-0.1428265,0.49687,0.035915,0.87545,0.09748745,0.21772,-0.048655,0.31273,-0.43963,-0.1412755,-0.03973,0.72739,-0.1013885,-0.517115,0.113382,0.017666,0.2353435,0.089432,0.004679,0.26014,0.055871,-0.159312,-0.151366,-0.0841485,-0.31598,-0.06057,-0.460925,-0.087675,-0.26742,0.916735,0.00102,-0.61466,-0.164345,-0.40327,0.251578,-0.152909,0.1217085,0.55485,-0.269735,-0.04465,-0.376525,0.541575,-0.153751,0.551085,0.215375,-0.044713,0.595355,-0.1976455,0.00117,0.2625055,0.19566,0.4098245,-0.133285,0.414705,-0.1092805,0.1543645,0.0309335,0.225025,-0.18869,0.316285,-0.384215,0.2180665,0.071958,-0.190771,-0.271603,-0.038568,-0.0682485,-0.0496545,0.101671,0.104548,-0.39454,-0.089956,0.166862,-0.4379,0.117381,0.165455,0.0249098,0.128419,-0.434645,0.1520655,0.26218,0.17700968,-0.2287365,0.196425,0.28089,0.1048955,-0.1532085,-0.24392,0.278885,-0.43551,-0.032197,0.3267655,-0.0688761,-0.22404,0.153065,-0.04684,-0.336285,0.026295,0.09522,0.093515,0.48814,-0.1276806,-0.063603,-0.156905,-0.419085,0.1192798,-0.062235,0.411595,0.64427,-0.1714645,-0.397015,-0.0086595,0.132185,-0.45178,0.13653455,-0.2174,-0.048385,-0.959065,-0.14284,0.050765,0.59104,0.105342,0.28318,-0.159551
http://dbpedia.org/ontology/Jockey	0.21699,-0.19329,-0.3994,-0.2617,0.65998,-0.45746,-0.25379,-0.59734,-0.15348,1.3573,0.33808,-0.18129,-0.21541,0.55836,0.040453,-0.2357,0.072254,-0.68518,0.15561,-0.46053,-0.31328,-0.7626,-0.18316,-0.52756,0.38578,-0.16713,-0.25168,-0.18716,0.97823,0.060545,-0.23671,-0.5835,0.46131,-0.12451,-0.22617,0.072319,0.080428,-0.3481,0.25318,-0.13077,0.57724,0.071996,-0.26512,0.22647,0.16335,-0.49268,-0.48495,-0.35006,0.023652,0.067283,0.47195,-0.35925,-0.080134,0.86383,0.084652,0.29324,0.92774,0.15521,0.17007,-0.40922,-0.64023,0.054544,0.3779,0.9291,0.0063838,-0.19242,0.070421,-0.2947,0.021963,-0.37124,-0.32314,0.60325,0.055255,-0.15443,-0.67097,0.017042,-0.37225,0.059567,0.52576,-0.38756,-0.33846,-0.0038013,-0.22226,-0.37885,0.090094,0.80436,0.72829,0.67639,-0.27653,-0.65703,-0.29458,-0.49022,-0.43618,0.063556,-0.16507,-0.82885,0.042322,-0.35937,-0.43035,-0.35307,-0.28721,-0.10098,0.046403,-0.33935,-0.049178,-0.40004,-0.10772,-0.35695,0.47103,-0.18437,-0.10344,-0.24536,0.34238,0.92949,-0.12963,0.28093,0.12558,-0.14852,0.58712,-0.16567,-0.33908,0.38038,0.41726,0.42614,-0.1563,-0.33093,-0.079182,0.21371,0.28193,0.14772,-0.19421,0.41039,-0.2311,-0.30399,0.32803,0.027443,0.36308,-0.097066,0.075308,-0.235,-1.4399,-0.28949,0.32071,0.18013,0.28034,-0.70663,0.38277,-0.10341,0.15668,0.23959,0.33451,-0.11721,-0.13552,-0.31162,0.26167,0.15704,0.6422,-0.26043,0.31631,0.55267,-0.46333,-0.092275,0.46354,-0.06206,0.30663,-0.25571,0.16576,0.15328,-0.033913,-0.42183,0.20856,0.17283,0.057016,0.29999,0.19545,0.16456,0.16258,0.20002,-0.018512,0.83021,-0.060449,0.034765,0.50987,-0.036669,0.22411,0.02256,0.45426,0.94465,-0.2202,-0.37022,0.048305,0.3,0.22436,-0.13504,-0.17587,-0.11819,-0.19857,-0.20401,-0.26059,-0.39265,0.047631,-0.31333,-0.15293,-0.4343,-0.15916,0.12886,0.076065,-0.61112,-0.31626,-0.013807,-0.14482,0.135,-0.25786,0.65763,-0.33661,-0.088102,-0.66825,0.095726,-0.12446,0.15787,0.11626,-0.19983,0.3159,0.10864,-0.077903,0.31491,0.26662,-0.25025,-0.54411,0.74941,0.031519,0.41175,-0.034412,0.26738,-0.19244,0.09086,-0.95477,0.61396,-0.18425,-0.16247,0.34278,-0.45978,0.10537,0.37979,-0.45386,0.0030832,-0.22383,0.069994,0.18261,-0.12828,0.10146,0.0020413,0.09991,0.083804,-0.63672,-0.47961,0.14617,0.22806,0.13239,-0.01048,0.2556,0.32828,-0.7441,-0.46523,-0.29194,-0.12803,0.19537,0.0058048,-0.17658,-0.082087,-0.40881,0.2718,0.15748,0.72879,-0.11591,-0.40193,0.21666,-0.37748,-0.071177,-0.26219,-0.26693,-0.042743,0.038485,0.59643,0.28536,-0.82772,-0.14282,-0.50682,-0.11517,0.041963,0.37107,-0.14555,0.35536,-0.32371,-0.17498,-0.10777,0.54908,0.39845,0.54186,-0.30448
http://dbpedia.org/ontology/LacrossePlayer	0.344235,0.355145,-0.186545,-0.088912,0.600445,0.02202,0.566135,0.027415,0.189627,1.8788,-0.01665,0.315305,0.20438,0.26608,0.1848215,-0.094686,0.00456,0.189285,-0.0905975,0.270097,-0.1926455,-0.571265,0.18496,-0.088765,0.14021,0.6903,-0.4066525,0.268375,0.29079,0.046715,-0.131503,0.07807,-0.13977,-0.14317,0.06239,-0.06732,0.14189,-0.1352585,-0.120385,-0.257022,0.155805,0.366375,0.60005,-0.0104,-0.02051,-0.264815,-0.2791455,0.50075,-0.3768155,-0.149418,-0.23651,-0.1411685,0.2805653,-0.12127,-0.392525,-0.36323,0.13753,0.382465,0.114943,-0.0704,-0.3365,0.52046,0.35427,0.39831,-0.1024091575,0.0240478,0.120185,0.55188,0.01651,-0.096792,0.040485,-0.04406,0.283965,0.108925,-0.47915,-0.36338,-0.239295,0.039445,0.1970805,0.18692,-0.20534115,0.0068815,0.221315,0.388165,0.086808,0.567465,0.117,0.5818585,0.01019,-0.292527,-0.0529532,-0.054385,-0.190864,-0.199618,0.11163,-1.145545,0.476715,-0.1624305,0.143995,0.69728,-0.209424,-0.281391495,0.397415,0.1714235,-0.3172605,-0.540765,0.0017925,0.316935,0.032505,-0.292135,0.074925,0.09907985,-0.332085,-0.008377,-0.2587805,0.641815,0.0489465,0.0243135,-0.60534,0.06145,0.298755,-0.1195425,-0.077085,0.17668,0.0933255,-0.36824,-0.52538,0.317555,-0.030357,0.107674,0.143518,-0.047875,0.017685,-0.2068095,0.04769,-0.361225,0.0979735,-0.108567,0.27996,-0.59561,-1.463045,0.3766585,0.36361,0.16336,-0.24785,0.252956,0.57383,-0.081897,-0.101143,-0.153196,-0.2279,0.06167,0.0504545,0.17182395,-0.31853,-0.1500915,0.1850715,0.19087,-0.203395,-0.4418,-0.10205,0.2268475,0.34419,-0.63739,0.0694615,0.033675,0.15284,0.2884885,-0.28045,-0.086042,-0.51432,0.280655,-0.025485,0.03437,0.373635,-0.501135,-0.402365,-0.0457005,-0.240645,0.094413,-0.164749,0.165122,0.0581975,-0.039015,-0.501238,-0.190122,-0.101935,0.4148715,0.0257585,0.050425,0.1399305,0.006081,0.318435,0.090855,-0.082015,0.02837,0.143025,0.3412,0.1028885,0.29074,0.875695,-0.329735,0.1072235,-0.1208745,0.0119505,-0.4345167,-0.225145,0.0806335,0.027126,-0.350228,0.002865,-0.262524,0.507145,-0.33544,-0.2096,0.460055,0.260058,-0.216713,-0.75747,-0.23356,-0.1526465,-0.143798,-0.349155,-0.278015,-0.280013,0.0216,0.36041,0.083025,0.596295,0.723485,-0.23801,-0.330425,-0.0277945,0.290129,-0.570195,-0.30329,-0.156946,0.69522,-0.28842,0.2297,0.263564,-0.136355,0.139275,-0.15309,0.08338,0.129911,-0.10803,0.0827292,-0.3367585,0.361995,0.341265,-0.19358,0.322015,0.035914,-0.1022405,-0.54068,-0.30209,-0.350535,-0.20191,-0.218268,0.65563,-0.02449285,0.199117,-0.13086,-0.546585,0.36009,-0.663695,-0.155438,-0.317975,-0.1089723,-0.02636,0.250475,0.05433,0.30782,0.042415,0.0599032,0.186425,-0.0223211,-0.18325,-0.36884,-0.513835,0.40815,-0.78965,0.150235,-0.273375,-0.2011945,-0.60504,-0.27775,0.206675,-0.204169,-0.25486,-0.5674,-0.47151,-0.27685,0.067645,-0.088125,-0.47172,-0.355385,0.239865,-0.075865
http://dbpedia.org/ontology/MartialArtist	0.03198,0.114662,0.106666,0.022976,0.2313945,0.080583,-0.234,-0.071650625,-0.38641,2.20835,0.128034,0.20509,-0.14316,0.015605,0.496815,0.31933,0.04438,0.1702905,-0.45113,0.151365,0.29063,-0.090445,-0.266755,-0.380925,-0.09067,-0.32527,0.07072,0.1902455,-0.179375,-0.265725,0.0882355,0.0910925,0.010845,-0.57827,-0.153125,-0.1290295,0.1529905,-0.1435825,0.23778,-0.209315,0.2216456,0.149501,0.278024,0.0584365,0.185045,-0.063875,0.27053,0.314755,0.459615,-0.1307975,0.358625,-0.3020905,0.32598,0.34861,-0.3203645,0.3203185,0.591775,-0.12857,0.1891275,-0.5023075,-0.318515,-0.581365,0.512655,0.089645,-0.20269,-0.17924,-0.085394,0.097112,0.01369,-0.493905,-0.39315,-0.49655,-0.325335,-0.0375775,-0.15919,0.097369,-0.29357,-0.624565,-0.388165,0.4967,0.10864,-0.23374,-0.26571,-0.21745,0.04902,0.15047,-0.77508,0.1179575,-0.1100665,-0.238535,-0.163101,-0.091625,-0.40266,0.517035,0.3426,-0.595595,-0.056436,0.73133,-0.132375,0.02416,-0.043142,-0.007755,-0.37236,0.0649255,0.0528105,-0.56427,-0.43243,0.2800225,0.30108,0.047239,-0.43094,-0.117024,0.46796565,-0.102125,-0.32918,0.51962,0.09531,0.140829,0.3336465,0.180513,-0.32267,0.157365,0.0259,-0.0089155,0.56301,0.399345,-0.0830715,-0.0430029,0.4559,0.2791,0.146294,-0.231765,0.0431785,-0.25002,-0.158385,0.207555,-0.368785,-0.151465,0.218362,0.104355,-1.8893,-0.300515,-0.556435,-0.00975335,-0.16605,0.289349,0.6327785,-0.23759,-0.2633809,-0.2968075,-0.083105,0.324715,-0.251415,0.21915,-0.10307,-0.324403,0.1587005,-0.55428,-0.287965,-0.1076295,0.12612,0.075331,0.097055,0.141095,-0.0619055,-0.088251,-0.1529025,-0.182344,-0.053072,-0.0440356,-0.1402275,0.1741145,-0.29933,0.1763395,-0.0681085,0.165821,-0.251904,0.18818,-0.19434,-0.0086648,0.579005,0.69291,0.15867,-0.07241,-0.3483,0.01672,-0.357055,0.36099,-0.15962,-0.0146,-0.506165,0.228875,-0.23094,-0.330305,0.45343,0.261015,-0.022005,-0.391705,0.65041,-0.0450685,0.19368745,-0.198905,0.09183,-0.1704625,-0.120385,0.1609849,-0.20749,0.014465,-0.0474,-0.04058,0.42862,0.0175785,0.06626,0.176735,-0.37878,0.43004,0.371825,-0.1144565,0.160488,0.20965,0.2739,0.046025,0.598585,-0.119715,0.045565,-0.0738308,-0.362877,0.252625,0.36238,0.43142,-0.234753,-0.313303,0.10324,-0.2737,-0.3604185,-0.32424,-0.461765,0.394245,-0.066155,-0.1818015,-0.175115,-0.061305,0.45223,0.00349,0.135556,0.424275,0.021256,-0.0866377,0.14094,-0.03463,0.351759,-0.0330075,0.0942475,0.55518,0.012515,-0.03435,0.166097,-0.2920575,0.318015,0.04205,0.344835,0.0824545,0.268345,0.20908725,-0.72064,0.00546,0.062585,-0.2350085,0.1353485,0.1889585,-0.636935,-0.076172,-0.323149,0.10566,0.648145,-0.073985,0.0974355,-0.1334065,-0.221703,0.030166,-0.091951,-0.007285,0.04198,0.286085,0.0486315,-0.103282,-0.14868,0.121055,0.01574,-0.48877,0.3981165,-0.176115,-0.3028245,0.326714,-0.23741,-0.017725,0.147221,-0.058481,0.3427615,0.46232
http://dbpedia.org/ontology/MotorsportRacer	0.849215,0.09487,0.089855,-0.0592945,0.406765,-0.24546,0.1877995,0.05233,-0.461475,0.68077,0.025259,-0.035915,-0.514665,0.67422,0.371305,-0.0563354,0.117137,0.0057635,0.51472,-0.192154,-0.404305,-0.64867,0.703165,-0.467155,-0.042135,0.47412,0.275455,0.24744,0.58292,0.718,0.231331,-0.60732,0.218715,0.047325,0.0831825,-0.262215,0.034075,-0.108354,0.13629245,0.609035,0.44961,0.12437,0.54192,0.2706105,-0.438025,0.066743,0.140463,0.080427,0.304554,-0.105295,0.35428,-0.550785,0.246715,0.31079,0.10159,0.170565,0.0109818,-0.255845,0.396625,-0.033991,-0.49231,0.38897,0.473405,0.61749,-0.239958,-0.1379055,0.249535,-0.563945,0.40882,-0.433965,-0.54121,-0.07274,-0.240685,0.53383,-0.86646,0.05409,0.1375735,0.2509625,-0.035578,0.446685,-0.1508795,-0.448395,0.095285,0.31294,0.3324895,-0.329435,0.4318235,0.477535,-0.336105,-0.0925285,-0.297205,-0.14047,-0.27341,-0.113955,0.0140315,-0.5165,-0.0779572,0.1212435,0.211259,0.28838,-0.026594,-0.1081905,-0.096066,-0.164375,0.23153,-0.80747,0.1658215,0.140001,-0.315815,0.1418,-0.46182,-0.543865,-0.0807305,0.50517,0.2003445,-0.1177661,0.154165,0.1147765,0.33326,-0.443485,-0.26192,-0.36982,0.192135,-0.678755,0.813365,0.692745,0.157835,0.039818,-0.04241,-0.045795,0.216069,0.444705,-0.03864,-0.47933,-0.209612,-0.85652,-0.239975,-0.37648,0.18719,0.24228,-1.320355,-0.54505,0.63587,-0.21123,0.231775,-0.29338,0.1152045,0.1736435,0.24113,0.064189,0.1352515,-0.299825,-0.0117185,0.483055,0.0986165,-0.0872695,0.052742,0.40674,-0.0675415,0.120719,0.275929,-0.277637,0.2482,-0.54252,0.40665,-0.554125,-0.193123,0.159567,-0.170806,-0.153829,0.02438825,0.141806,-0.2168335,0.27928,-0.466165,-0.18611,-0.0909385,0.42833,-0.32968,0.90696,0.1454175,0.41615,0.17403555,0.143603,-0.161265,-0.50871,0.17948,0.412395,-0.0938869695,0.1170145,0.1950445,0.0822451,0.429095,-0.1048875,0.023871635,0.017466,0.317885,0.18792,0.351905,0.0610465,-0.19934,0.145535,0.62658,-0.26922,-0.40151,0.1861135,-0.1727707,-0.069554,-0.49572,-0.419708,-0.172045,0.17887,0.35405,0.44088,-0.01763,0.711035,0.024745,0.32375,-0.02623,0.107748,0.16886,-0.0883504,0.41037,0.378305,-0.271815,0.17552,0.11574,0.25592,0.02475,0.51183,-0.40546,0.1518255,-0.45517,0.16813,-0.124294,0.09940785,-0.44657,0.822945,0.0821545,0.47376,0.12885,-0.0848525,0.22454,0.340915,-0.226125,0.12076,0.1964735,0.3283575,0.1791,-0.1742625,0.409516,-0.2420685,-0.39077,-0.146045,-0.39835,-0.144335,-0.0170075,-0.1823155,-0.29019,0.06156965,0.3173,0.1144915,-0.24325,-0.189885,0.1569305,-0.130847,-0.0182985,0.161698,0.1924245,-0.034634,0.19363,-0.432625,-0.0726105,-0.14798,-0.117411,-0.093315,0.5334675,-0.173281,-0.323395,-0.276975,-0.55627,-0.415915,0.1362925,0.299014,0.00143,-0.2636235,0.00397,-0.604855,-0.42028,-0.49809,-0.502075,-0.22887,0.34475,-0.74948,-0.13537315,-0.53551,0.40621,0.413895,0.199213,0.134325
http://dbpedia.org/ontology/NationalCollegiateAthleticAssociationAthlete	0.2829402,0.347176,0.231228,0.0227348,0.26973,0.072668,0.421244,0.2143508,0.02710942,2.48788,-0.359426,0.0765378,0.23299,0.1220076,0.459254,0.2153538,0.673596,0.6114886,-0.12941,0.364178,-0.072782,-0.2379358,0.1370288,-0.1935776,-0.139976,0.39415,-0.284062,0.1472462,-0.0065546,0.3377654,0.2832288,0.0266606,0.2405284,-0.101222,-0.1296186,-0.1808644,0.0243922,-0.382908,-0.06384384,0.334646,0.1342794,0.311651,0.1407514,0.2666668,-0.0492402,-0.3716526,0.25071366,0.3828754,0.0203217,-0.20858614,-0.352332,-0.1792172,0.362528,-0.389918,0.12707446,-0.092039,0.308373,0.28012,0.029402,0.1791208,-0.09952366,0.1961126,0.2821864,0.0925115,-0.26861,-0.0326656,0.1684858,0.075618,-0.13495,0.171505,-0.1188586,-0.12489811,0.02361938,0.0642676,-0.2784318,0.113774,-0.347206,0.11505098,-0.132296,-0.1350416,0.0881474,-0.074514,-0.116393,0.45213306,-0.0674256,-0.0094094,-0.338654,0.5978466,-0.2072184,-0.3641598,-0.07819704,-0.0090036,-0.1857528,-0.350512,-0.1040536,-0.543086,-0.1049534,-0.084038,0.0658506,0.0472,-0.064146,-0.164188,-0.136386,-0.050611,-0.27325432,-1.181476,0.0561396,0.0595622,0.128146,-0.196366,0.07524006,0.1458618,-0.2436718,-0.0183018,-0.2990438,0.32954,0.2183718,0.172934,0.2018964,0.1003458,0.142916,0.08082392,-0.1922862,0.0751118,0.055448,0.32091,0.070876,0.269376,0.080752,-0.069327,-0.10262702,0.0490228,0.1158428,-0.0786278,0.2143944,-0.23750614,0.0119718,-0.1847366,0.2892154,-0.1469786,-0.51609,0.237954,0.340854,0.3853474,0.15337212,-0.138566,0.666268,-0.0844184,-0.27008,0.4221062,-0.343322,0.168764,-0.2299598,0.2883586,-0.00455324,0.1043058,-0.022504,0.0004238,-0.1597224,-0.267087,-0.0778778,0.06626938,0.1282018,-0.52479,-0.1854998,-0.218475,0.102335,-0.010718,-0.27255,-0.005513638,-0.150712,-0.0193504,0.049641,0.0978606,-0.038434,-0.1209388,-0.14957,0.141906,-0.0109904,0.472206,-0.1214256,0.50782,-0.26085,-0.10681274,-0.1182764,0.1191164,0.05224748,0.683182,0.149965,-0.040082,-0.1065114,-0.1590878,0.2360744,-0.0552816,-0.1361392,0.3385842,0.2640978,-0.061208,0.555124,0.2948504,0.4224396,0.1060956,-0.1393388,0.0921028,-0.423504,0.292732,-0.0650508,-0.0307276,-0.0625728,-0.153476,-0.173218,0.3432538,0.0700046,-0.01202374,-0.28173284,0.372412,-0.0480964,-0.240874,-0.170202,-0.0137378,-0.0277548,0.0413344,-0.190377,-0.175209,0.2023422,0.13748746,0.177356,-0.0522866,0.3575196,0.510018,-0.202524,0.04824396,-0.1409056,-0.0660734,-0.2426174,-0.1852724,-0.347288,0.0881766,-0.0162374,0.45421,-0.1722424,-0.1780498,0.325398,0.075432,-0.2324512,0.0765326,0.0389164,0.08354492328,0.0664984,0.0259,0.1729752,0.161878,-0.313366,0.0867548,-0.078124,-0.210628,0.0412612,-0.15563488,-0.002734,0.084357,0.067477,0.0058126,0.1551738,0.22366786,-0.1002474,0.290184,0.0058336,-0.017028,-0.184538,-0.110244,-0.120786,0.21268144,0.0425992,0.251244,-0.043694,-0.0988332,0.118224,-0.2545432,-0.3546072,-0.2598652,-0.591932,-0.0924036,-0.390566,0.3587316,-0.3161256,-0.1979132,-0.228673,-0.18878222,0.1534424,0.010844,0.210768,-0.214128,-0.0053196,-0.2710076,-0.1453808,-0.1596198,0.0635692,-0.199968,0.16255284,-0.00177
http://dbpedia.org/ontology/NetballPlayer	0.591785,0.43245,0.01751,-0.420807,0.732155,-0.0703185,0.548025,0.05023,-0.080358,1.178865,0.00013,0.562665,0.30875,0.206765,0.35469,0.206834,-0.252961,-0.039845,0.0517125,0.0409012,-0.280315,-0.41383,0.307275,-0.054622,0.38805,0.793345,0.01625415,-0.04567,0.0990255,-0.312475,0.07235,-0.091175,0.413935,0.036625,0.114975,-0.221976,0.440045,0.0236865,-0.0595885,-0.32304,0.2724565,0.50999,0.097885,-0.02379,-0.153417,-0.29898,-0.2695575,0.55924,-0.12702,0.105447,-0.038805,-0.304215,0.2236953,-0.193365,-0.2915625,-0.171225,-0.046715,0.301895,0.168443,0.21539,-0.48572,0.34663,0.26148,-0.068005,-0.4487441575,0.1263683,0.340295,0.40572,0.165085,0.051609,0.07818,0.32563,0.46619,0.07891,-0.16996,0.1446,-0.20249,0.113885,0.289815,0.33404,0.05711385,0.139775,0.01502,0.434585,-0.073362,0.384675,0.149255,0.5682585,0.04121,-0.359015,0.065035,-0.146481,-0.416555,-0.124763,0.304795,-0.84676,0.505025,0.3125345,-0.02028,0.801555,-0.076055,-0.46048,0.515145,0.0339,-0.3998455,-0.886455,0.1338625,0.300605,0.130964,-0.031815,0.150335,-0.11988015,-0.40687,0.005651,-0.032287,0.41023,0.059373,0.1093695,-0.38647,0.012065,0.039715,-0.074805,-0.16534,-0.09761,0.0575905,-0.29031,-0.464435,0.246485,0.0045755,0.397034,0.192117,0.0699875,0.08397,-0.1691595,0.360385,-0.358755,0.26772,-0.06772,0.383725,-0.230445,-1.42959,0.35279725,0.058535,-0.314075,-0.1498145,0.29227,0.748645,-0.0802015,-0.137038,-0.219745,-0.30414,0.36454,0.1123355,0.41447,-0.11929,-0.1649515,0.2943,0.401718,0.08463,-0.58573,-0.019935,0.219287,0.578465,-0.32427,0.1129565,-0.1081475,0.39907,0.3378,-0.32038,0.048445,-0.606545,0.389675,-0.089725,-0.1379555,0.23294,-0.0591055,-0.33963,0.038461,-0.0388675,0.312838,-0.214419,0.080317,-0.2067575,0.012705,-0.484418,-0.282382,-0.3845,0.2867765,0.3196675,-0.038215,0.1210505,-0.0626415,0.2113277,-0.060525,0.0874025,-0.36109,0.21496,0.19853,0.5189585,0.35388,0.77197,-0.114184,0.60782,0.297115,-0.185879,0.0087208,-0.161185,-0.067592,-0.109469,-0.409338,-0.083855,0.081895,0.63689,-0.01126,-0.00928,0.48427,-0.0035085,-0.264968,-0.60296,0.0417,-0.30502,-0.20997,-0.289315,-0.280315,-0.234833,0.216865,0.00083,-0.234275,0.541275,0.504285,-0.1150305,0.131255,-0.187371,0.37678,-0.12779,-0.35767,0.098499,0.906585,-0.0349925,0.063265,-0.09512,-0.129405,0.1506,0.00831,-0.319685,0.18258,0.11876,0.1530442,-0.38729,0.249575,0.4892,-0.24623,0.164698,-0.194501,0.1761045,-0.32597,-0.134986,-0.2111,-0.5028,-0.2339664,0.625215,0.38318015,0.09443,0.00349,-0.310415,0.173795,-0.52299,0.113212,0.02591,-0.2364773,-0.037945,0.182705,-0.098585,0.405435,-0.055345,0.54539,0.13114,-0.0282195,-0.29252,-0.09695,-0.193962,0.371835,-0.804595,0.15915,-0.28679,-0.27678,-0.33024,-0.361455,0.286575,-0.136614,0.07749,-0.445555,-0.300957,-0.20707,0.2662995,0.270415,-0.140011,-0.734895,0.32583,-0.015345
http://dbpedia.org/ontology/PokerPlayer	-0.0926,0.2008135,-0.235025,-0.395737,0.654835,0.04264,0.25608075,-0.040405,0.304782,1.78625,0.08424,0.54714,-0.406425,-0.038175,0.39186,-0.0104,-0.479795,0.8287,0.2610975,-0.121153,-0.045605,-0.30485,-0.12557,0.104305,0.34177,0.40722,0.1883025,0.1187975,-0.01512,-0.31796,-0.05237,-0.541745,0.0499155,0.148785,-0.25253,-0.2503185,-0.065045,-0.044072,-0.298915,-0.170015,0.264467,0.2236365,0.78494,-0.24502,-0.395075,0.19506,-0.44003,-0.01344,-0.263885,0.088047,-0.272655,0.305125,0.1093653,-0.18387,-0.60634,-0.3016,0.363045,0.15149621,-0.005159,0.11925,-0.133328,0.62856,0.43233,0.103695,0.2514658425,0.2452683,0.555025,0.18612,-0.022724,-0.212517,0.457015,0.077065,0.580235,-0.1922045,-0.23706895,0.060095,-0.07989,-0.1378055,0.457345,0.620295,-0.17920615,-0.28189,0.24711,0.020865,0.042598,0.57255,0.083735,0.2766335,0.15783455,-0.53182,-0.03625,-0.54307,-0.431365,0.04559215,0.387135,-0.87199,0.54581,-0.3057805,-0.42214,0.95225,-0.570715,-0.42246,0.06428,0.314055,-0.0709205,-0.763605,0.2035075,0.297305,0.41282,0.043825,0.204985,0.04319785,-0.37793,0.077306,-0.1117555,0.061875,-0.0921235,-0.2625855,-0.221319,-0.394,0.39824,-0.224595,0.180405,0.133715,-0.2672295,-0.170075,-0.830545,0.064154,0.1363195,-0.037151,0.051155,-0.216355,0.042845,-0.2028095,0.163,-0.283695,0.281535,-0.408405,0.359615,-0.44303,-2.16675,0.1275,0.167265,-0.34434,-0.10237,0.2225935,0.4287415,0.08119,-0.231978,-0.214432,0.159405,0.04808,0.0276625,0.2106135,-0.101727,-0.022705,0.640085,0.39343585,-0.332445,-0.356001,0.37691,-0.20485,0.361745,-0.1526055,0.0586015,-0.061845,0.585865,0.372125,-0.530435,-0.06065255,-0.3592595,0.36782,0.227365,0.02294085,0.3034505,0.09208,-0.130375,0.0802895,0.017785,0.552513,-0.296829,0.332507,0.1674175,-0.20967,-0.798165,0.239843,-0.45217,-0.0636885,-0.2146625,-0.41166,-0.1696945,-0.1247,0.397235,0.105325,0.216625,-0.310435,-0.278805,0.67816,-0.1333665,0.20584,0.844605,-0.54686,0.65964,-0.0717565,-0.486294,-0.4349667,-0.0854285,-0.0908715,-0.331224,-0.185428,-0.124317,-0.08697,-0.055105,0.024755,0.18597,0.4353,0.031083,0.129567,-0.824865,-0.007675,-0.233072,-0.00807,-0.33582,-0.24716,-0.446323,-0.07089,0.12754,0.349605,0.53341,0.764305,0.17808,0.15557,-0.071496,0.13535,-0.86138,-0.25576,-0.227921,0.440084,-0.0053444,0.25832,0.742665,0.359405,0.0603185,-0.006285,-0.34122,-0.078305,-0.10213,-0.1264858,-0.492405,0.2025635,0.2689765,-0.1443735,0.141818,-0.163806,-0.2405355,0.148215,-0.50971,-0.12683335,-0.034141,-0.2675395,0.458605,0.23222015,-0.399725,-0.158955,-0.28996,-0.375585,-0.266435,-0.103908,0.184335,-0.0396678,-0.31136,0.043045,0.54562,0.16344,-0.183006,-0.011555,0.0591,0.0216465,-0.040725,-0.353405,-0.21014,0.11179,-0.346598,-0.301705,0.05939,-0.215568,-0.476565,-0.147195,0.43714,0.116016,-0.24227,-0.15845,-0.480175,0.094834,0.40249,0.609905,0.127995,-0.704895,0.188275,0.027745
http://dbpedia.org/ontology/Rower	0.72884,-0.19365,-0.26837,0.089542,0.31917,0.47101,-0.0031167,-0.38986,-0.58078,0.27347,0.427,-0.0090117,0.15074,0.43316,0.053549,0.58742,0.087313,-0.67415,0.059195,-0.13172,0.031255,-0.2076,0.41946,-0.69971,-0.21633,0.06415,0.42872,-0.29457,0.23156,0.90638,-0.25488,0.14619,0.48423,-0.15758,0.49235,-0.34529,0.8621,-0.72454,-0.20503,-0.39076,0.12804,0.2233,0.39243,-0.30491,0.28426,0.18749,-0.51109,0.39855,0.219,0.53958,0.16779,-0.0058408,0.62492,0.032586,-0.42228,-0.19017,-0.01308,-0.065802,0.67671,0.14702,-0.23206,-0.13769,0.64838,0.39219,-0.71652,0.32339,0.28015,0.58247,-0.74624,0.5402,-0.541,0.39542,-0.20511,0.059364,-0.36956,-0.15849,-0.10237,-0.23436,-0.010053,-0.094783,0.16447,-0.38746,0.57792,-0.014511,0.089475,0.28679,0.86856,0.14575,-0.29457,0.15464,0.26953,0.13492,-0.25124,0.77365,-0.84386,-0.72517,0.13428,0.28047,-0.39622,0.17984,-0.30261,-0.98887,0.050047,-0.48086,-0.41375,-0.98419,-0.27373,0.26216,0.010586,-0.37055,0.63341,-0.6569,0.0034656,0.45143,-0.1889,-0.18469,0.19607,0.32658,0.33574,0.3574,-0.12823,-0.41721,0.42402,-0.0051176,-0.3441,-0.39539,0.16753,0.42057,0.3158,0.28333,0.30709,0.26701,0.2101,-0.080146,0.60299,-0.83591,-0.0073144,0.16537,0.32567,-0.27901,-0.23969,-0.20709,0.13683,-0.055894,0.82274,-0.65703,0.76155,-0.080362,-0.2426,0.24848,-0.49306,-0.14872,0.49537,1.1319,-0.10764,-0.24701,0.28583,0.58277,-0.12133,-0.0031912,-0.0087413,-0.044754,0.24405,-0.38961,0.7117,0.071855,0.034128,0.14965,-0.16942,0.47062,-0.53315,-0.81744,0.57906,-0.74558,-0.23554,-0.25083,-0.086794,-0.096948,-0.6152,0.57343,0.09578,0.36714,-0.13478,-0.23893,-0.079337,0.3841,0.065275,0.65978,-0.18259,-0.18434,-0.56464,-0.43925,0.1841,-0.44261,0.10854,-0.36847,0.5187,-0.44662,0.46413,0.092221,0.23806,0.55036,0.45662,-0.07782,-0.37184,0.24971,-0.3442,-0.12897,0.14297,-0.38786,0.64089,-0.18909,-0.25613,-0.18884,-0.14721,0.58376,0.28935,0.60263,0.24657,-0.15317,-0.024484,0.60469,0.37316,-0.14965,0.43039,-0.19439,-0.010971,-0.21061,0.20552,-0.083508,0.56807,-0.1635,0.43248,0.13664,-0.23441,-0.70915,-0.26379,0.96173,-0.55755,0.069873,0.0087819,0.0011422,0.23456,0.013017,-0.41885,-0.15586,-0.3009,-0.36282,0.48169,0.23164,0.37819,-0.21908,0.16006,-0.15218,0.01089,-0.31361,0.12125,-0.37149,-0.25653,-0.14282,0.31946,-0.49722,0.31255,0.39575,-0.60424,0.31899,-0.066841,0.89518,-0.59803,-0.23491,0.49343,-0.71762,-0.047409,0.59425,-0.014505,-0.13418,0.97413,-0.076228,-0.29691,0.020602,-0.75491,-0.07835,-0.14196,0.3142,-0.062602,-0.29616,-0.35803,-0.17436,0.06552,0.011004,0.37577,-0.30809,0.47306,-0.56482,0.15415,-0.047992,-0.16845,0.09116,-0.34592,0.11198
http://dbpedia.org/ontology/RugbyPlayer	0.455445,0.38017,-0.193975,-0.151882,0.715885,-0.273485,0.44699,-0.145145,0.091522,1.9302,-0.010855,0.62865,-0.02469,0.317275,0.454305,-0.094436,-0.1913905,0.196705,0.3777175,-0.047023,-0.530255,-0.41215,0.214125,-0.26706,0.162575,0.607105,0.0660645,0.25293,0.06281,0.023905,-0.1645175,-0.0482,0.37357,0.016495,-0.0876095,-0.2584985,0.14697,-0.041613,-0.19734,-0.2226875,0.16775,0.2717085,0.42872,0.400705,-0.1714375,-0.338995,-0.07816,0.52664,-0.312725,0.131842,0.003145,-0.37025,0.2967403,-0.43617,-0.025005,-0.07993,0.337095,0.26784,0.246028,0.02447,-0.422365,0.488975,0.235575,0.206597,-0.2460591575,0.2190033,0.19878345,0.310965,-0.03906905,0.243453,0.17127,0.230575,0.64103,-0.1287955,-0.433,-0.09205,-0.00728,0.018035,0.3952,0.294325,-0.17735115,-0.043549,0.359655,0.089423,-0.167992,0.09268,-0.0888395,0.3696785,0.23022,-0.18171,-0.0644025,-0.191366,-0.32392,0.0075715,0.2258165,-0.90599,0.333245,0.1200545,0.051075,0.663315,-0.260467,-0.54359,0.48868,0.195083,-0.3991105,-0.694135,-0.0131975,0.1930925,0.17618,-0.223175,-0.053715,-0.36918515,-0.60001,-0.03684335,-0.1374855,0.2710525,0.1656465,0.2377045,-0.500395,-0.05594,-0.037505,-0.21357,-0.29418,-0.128295,0.0235955,-0.32868,-0.489445,0.348225,-0.1269355,0.248024,0.2061495,0.072654,0.096175,-0.2447395,0.333735,-0.303525,0.1142125,-0.187851,0.35375,-0.340976,-1.90085,0.25175,0.385625,-0.12867,-0.091575,0.068335,0.835425,0.073335,-0.072843,-0.31005,-0.14303,0.28687,0.2672505,0.30045,-0.391575,-0.1528915,0.250209,0.379815,-0.287245,-0.365883,0.260235,0.13795,0.539765,-0.28123,0.1560365,-0.0834265,0.271575,0.238681,-0.51143,-0.0118725,-0.606825,0.334335,-0.303905,-0.0465755,0.48634,-0.116045,-0.35617,0.1919895,0.17087,0.204683,-0.211819,-0.174853,0.1605325,-0.14656,-0.57727,-0.225137,0.03856,0.5206665,0.2352925,-0.48479,0.0199925,0.13687,0.266307,0.180468,0.007595,-0.4304,0.28159,0.057665,0.4717235,0.1708455,0.87876,0.034395,0.72074,0.020365,-0.225079,0.0046688,-0.082448,-0.3040315,-0.316524,-0.216793,0.030885,-0.04279,0.44835,-0.0290785,0.05951,0.679165,-0.098877,-0.110038,-0.72257,-0.022176,-0.30841,0.004455,-0.315445,-0.12213,-0.07463,0.042125,0.06322,0.01854,0.789115,0.7003,-0.221775,-0.028615,-0.251946,0.1916,-0.3251,-0.141828,-0.345051,0.710975,0.08075,0.24289,0.329755,0.038085,0.177725,-0.175855,-0.1551595,0.175825,0.462135,-0.0200903,-0.57899,0.31531,0.517135,-0.257085,0.1723055,-0.087941,0.2634645,-0.295945,-0.346805,-0.254,-0.146655,-0.063535,0.62201,0.32404515,0.118415,0.067925,-0.343445,0.272485,-0.354295,0.207462,-0.03385,-0.0745173,-0.05388,0.303475,0.232195,0.421775,-0.22875,0.232595,0.091356,-0.063333,-0.31925,-0.053445,-0.50733,0.102125,-0.831155,0.21863,-0.049155,-0.394785,-0.23252,-0.41353,0.2006105,-0.151854,-0.216753,-0.46314,-0.50561,-0.116265,0.3088895,0.399025,-0.306265,-0.3722,0.215725,-0.13603
http://dbpedia.org/ontology/SnookerPlayer	0.2873,0.35555,0.00704,-0.04952,0.37293,-0.303415,0.49746,-0.08191,0.0563335,1.120375,-0.009445,0.59099,-0.311785,0.30918,0.17908,0.0506635,-0.07334,0.016075,0.1711225,-0.117378,-0.712645,-0.452535,-0.052007,-0.092475,0.508735,0.330375,-0.1020025,0.178885,0.175207,-0.058345,-0.01133,-0.37198,0.1112345,0.0650665,-0.179155,-0.31584,0.0006835,-0.0042075,-0.32753,-0.2876245,0.15803,0.264499,0.409025,-0.03218,-0.56451,0.118365,-0.361425,0.286734,-0.28281,0.191832,-0.1341535,-0.24012,0.2213253,0.051625,-0.512285,-0.507875,0.150178,0.155445,0.249058,0.26686,-0.531535,0.15466,0.360565,0.023795,-0.1037791575,0.4926733,0.359455,0.29261,-0.10606,0.0326035,0.547,0.157246,0.430515,-0.2598,-0.34056,-0.058255,-0.1406145,-0.31942,-0.096235,0.247341,-0.09753115,-0.2167,0.1626525,0.1591185,-0.085452,0.2761345,0.174645,0.3057085,0.22888,-0.318463,0.0191,-0.1829894,-0.51224,0.0664415,0.32823,-0.9115,0.66443,-0.0337895,-0.25142,0.88737,-0.42947,-0.2928235,0.542275,0.1850925,0.0344845,-0.801155,0.3174775,0.422985,0.38113,-0.2046805,0.071815,0.29426985,-0.628435,0.062071,0.1098895,0.2993255,-0.1539585,0.1031245,-0.151256,-0.28544,0.1120345,-0.067385,0.024845,0.12421,-0.1696745,-0.086865,-0.45794,-0.02286,0.1485495,0.272164,0.1431045,0.219585,0.55394,-0.4332145,0.37051,-0.224005,0.52698,-0.540955,0.075905,-0.276718,-1.80815,0.127525,0.22006,-0.33028,-0.148763,0.203144,0.85704,-0.376105,0.139032,-0.037305,0.24268,0.1846595,0.1913705,0.41578,-0.1094025,0.0544425,0.499525,0.573965,-0.327665,-0.25445,0.183175,0.00837,0.41478,-0.373895,0.2418065,-0.18677,0.341988,0.2800705,-0.359205,-0.05648855,-0.44595,0.0147,-0.20965,-0.1572305,0.089005,-0.207385,-0.226035,0.3422645,0.060755,0.200548,-0.291249,0.271262,0.0786425,-0.01351,-0.4794525,-0.198382,-0.176023,0.2939315,0.1746275,-0.308115,-0.1513945,-0.0325465,0.456525,-0.03063,-0.21954,-0.413575,0.20779,0.2949415,0.3336985,0.1918715,0.847755,-0.0106,0.42096,-0.168235,0.0087655,0.0241813,0.052155,-0.0779715,-0.105719,-0.455328,-0.150997215,-0.291325,0.425205,-0.0946735,0.297995,0.40786,-0.0458395,0.034547,-0.747815,0.036535,-0.109345,-0.03101,0.04139,-0.32386,-0.410523,-0.041555,0.124885,0.10067,0.549775,0.71328,0.07747,-0.01396,-0.254081,0.2145965,-0.32967,-0.20358,-0.257061,0.802345,0.0403525,0.214695,0.66215,0.047085,0.031712,-0.08947,-0.554245,-0.06289,0.1119025,-0.0817858,-0.92122,0.09606,0.53764,-0.27244,0.217655,-0.083991,0.002138,-0.0748655,-0.254045,-0.328085,-0.166815,0.001825,0.491555,0.28107015,0.01135,-0.0372885,-0.52371,-0.00156,-0.34734,0.107022,-0.007405,0.1166677,-0.280455,-0.04367,0.51286,0.32695,-0.026025,0.06064705,0.19949,0.0120795,-0.33687,-0.411255,-0.060535,0.2410225,-0.859955,-0.085056,-0.048855,-0.41541,-0.23835,-0.464205,0.24226,-0.0562105,-0.155455,-0.404865,-0.262144,-0.06909,0.251073,0.47692,-0.38369,-0.54722,0.353325,0.127165
http://dbpedia.org/ontology/SoccerPlayer	0.29213,0.312325,-0.069038,-0.0809975,0.66266,-0.1412645,0.461725,0.067035,0.0052535,2.1575,-0.263015,0.43906,0.04315,0.21882,0.336645,-0.0428605,-0.14878,0.477795,-0.0312295,0.185507,-0.246355,-0.479315,0.169265,-0.0675467,0.140715,0.56888,-0.2560575,0.18696,0.20788,-0.0684,-0.008655,-0.2515375,0.020719,-0.04717,0.02677,-0.1722225,0.352035,-0.2411685,0.07872,-0.2296845,0.27897,0.435155,0.510715,0.203405,-0.366915,-0.47071,-0.2851955,0.466975,-0.4809,-0.031382,-0.322235,-0.101525,0.0729303,-0.16066,-0.409895,-0.3349,0.1964,0.354435,0.254628,-0.041725,-0.204395,0.54266,0.078245,0.2584,-0.1710691575,0.1322633,0.444305,0.374665,0.079545,0.147423,-0.09827,-0.007065,0.2291645,-0.1148045,-0.484085,-0.2397375,-0.346965,0.141075,0.54704,0.36823,-0.12807615,0.133185,0.25353,0.257655,-0.039423,0.40496,-0.0930115,0.5472585,0.28584,-0.243734,-0.25538,-0.00152,-0.324455,-0.275933,0.2032973,-1.039715,0.33161,0.0763295,0.120245,0.502165,-0.222533,-0.41464,0.399715,0.037265,-0.0789155,-0.483035,0.1617025,0.240363,0.143946,-0.243585,-0.01323,-0.18980515,-0.698965,-0.0487035,-0.0650395,0.40274,0.1319015,0.1718345,-0.611895,-0.1350725,0.0838245,-0.185249,-0.084745,-0.05523,-0.032873,-0.166355,-0.428117,0.238175,-0.0028055,0.336019,0.253365,-0.11605,0.062725,-0.3323895,-0.009495,-0.3829,0.208915,-0.249295,0.1709495,-0.182415,-2.0399,0.362498,0.197,0.06245,-0.28228,0.40443,0.699205,-0.236765,-0.276638,-0.1651565,-0.016225,0.296805,-0.1494445,0.2058165,-0.36068,-0.1223915,0.14091,0.435977,-0.215675,-0.70713,0.147934,0.1966529,0.2421465,-0.359865,0.1450865,-0.053805,0.37705,0.46816,-0.34591,0.019105,-0.593725,0.32873,-0.208055,0.0291015,0.367531,-0.336155,-0.362155,-0.0337305,-0.0379435,0.196783,-0.057051,-0.00237085,-0.0079935,-0.041325,-0.70272,-0.248617,-0.184398,0.3634115,0.2116175,-0.21569,0.0691705,-0.0577305,0.2553945,0.022525,-0.06358,-0.2481025,0.21025,0.2391445,0.2079135,0.34384,1.1402,-0.050375,0.442805,-0.02423,-0.303054,-0.1101617,0.112305,-0.1077265,-0.0363955,-0.208458,-0.080715,-0.14574,0.444505,0.009865,-0.05869,0.46244,0.076253,-0.116458,-0.862675,-0.091994,-0.35828,-0.250625,-0.345595,-0.373835,-0.253168,0.055585,0.40849,0.338955,0.829295,0.80229,-0.261785,0.072555,-0.247521,0.2701905,-0.4153885,-0.200695,-0.0156185,0.69737,0.06744,0.199125,0.283351,-0.09893,0.00652,-0.010965,-0.335605,0.076243,0.0289335,-0.0466178,-0.32351625,0.56255,0.51623,-0.24363,0.34224,0.005766,0.2232045,-0.217745,-0.32891,-0.384255,-0.313275,-0.316705,0.768245,0.23988515,0.05796,-0.144635,-0.51834,0.358655,-0.525055,-0.115008,-0.134235,0.0281312,-0.177705,0.242245,0.17395,0.37846,-0.18632,-0.01549,0.13998,0.124708,-0.33348,-0.10089,-0.324595,0.2973185,-0.697055,-0.00128,-0.23585,-0.28498,-0.32775,-0.14347,0.167703,-0.020575,0.000785,-0.31273,-0.387575,-0.118145,0.36204,0.04346,-0.082135,-0.65865,0.25699,0.04136
http://dbpedia.org/ontology/SquashPlayer	0.012735,0.1910425,0.085755,-0.196767,0.494725,0.178225,0.06212,-0.24704,0.088987,1.45296,-0.09465,0.3342045,-0.041735,0.151352,0.20173,-0.134131,-0.279375,0.3872166,-0.0342555,0.308112,-0.136364,-0.332415,-0.33135,0.337745,0.1688955,0.2488005,-0.2306025,0.34181,0.174937,-0.416335,-0.246655,-0.026365,0.37552,-0.311115,0.076135,-0.26859,0.36838,0.0492165,-0.19735,0.190705,0.216845,0.467105,0.34227,0.060215,-0.507455,0.052675,-0.06967,0.801905,-0.370203,0.089622,-0.445225,-0.325695,0.4721203,-0.115655,-0.17495,-0.48228,0.256515,0.47541,0.098683,0.08861,-0.10067833,0.2226993,0.31292,0.158469,-0.0682691575,-0.2312367,0.046445,0.312075,-0.0369263,0.460883,0.197925,0.56315,0.152707,0.05235,-0.46421,-0.165025,-0.25785,-0.1250235,0.05205,0.106525,-0.07801615,-0.238385,0.27227,0.130845,-0.093262,0.41561,0.16046,0.3664685,0.25229,-0.18505,0.205635,-0.31378,0.053195,-0.075538,0.206924,-0.537875,0.4250815,0.2473295,-0.0872615,0.66869,-0.2107705,-0.3027275,0.49544,-0.22218,-0.2526905,-0.947405,0.4348875,0.37788,0.19677,0.02693,0.25786,-0.23169015,-0.448565,-0.06688,-0.0127125,0.248408,-0.0227935,-0.0821555,0.13059,0.124215,0.132415,-0.030345,-0.045715,-0.06796,-0.0076765,-0.2653175,-0.01895,-0.00885,-0.1987205,0.091149,-0.36979,-0.02772,0.251925,-0.1683945,-0.011915,-0.229435,0.1481705,-0.20369,0.265645,-0.2749375,-1.94265,0.50569,0.135844,0.050825,-0.127455,0.357405,0.509425,0.10545,0.016287,-0.000305,0.0494265,-0.05473,0.3859655,0.502015,-0.49336,-0.1648565,0.2828025,0.192615,-0.136487,-0.25154,0.06554,0.411415,0.433845,-0.329395,-0.0235375,-0.203835,0.3337525,-0.056035,-0.27293,0.19872,-0.320351,0.1772485,0.01494,-0.3133805,0.030505,-0.163365,-0.085262,-0.1821255,-0.0551065,-0.031485,-0.277254,0.062322,0.0442875,-0.03454,-0.57036,-0.537317,-0.1198,0.1581915,-0.1167525,-0.0828565,-0.1359895,0.03934,0.260227,0.140365,-0.08913,-0.198384,0.506255,0.289736,-0.1160165,0.464515,0.672945,-0.32095,0.223465,-0.0685585,0.082616,0.0915283,-0.0040015,0.1904335,0.565426,-0.293303,-0.26315,-0.17686,0.50561,-0.21724,-0.12231,0.294132,-0.0599365,0.066882,-0.767315,-0.171045,-0.28316,-0.0979425,0.224705,-0.0519255,0.142207,-0.0976365,0.257463,0.204715,0.4077,0.434385,0.05643,-0.02431,-0.242076,0.44471,-0.3484575,-0.39838,-0.169871,0.44002,0.0104225,0.168445,0.218425,0.00322,-0.36785,-0.06862,-0.212355,0.187665,-0.133455,0.1108642,-0.617325,0.436925,0.168135,-0.258875,-0.022645,-0.066343,-0.055917,-0.04196,-0.012065,-0.18885,-0.01803,-0.083065,0.311145,-0.07490985,0.202714,-0.22917,-0.77997,0.19651,-0.63667,-0.321058,-0.418425,-0.1066823,0.43557,-0.228555,0.39476,0.1642375,-0.342235,0.33365,-0.101475,-0.069179,-0.34135,-0.01923,0.117935,0.39265,-0.481275,-0.0705335,0.00164,-0.016305,-0.089795,-0.02382,0.43901,-0.445919,-0.08037,-0.1072835,-0.455255,-0.25693,0.123915,0.348855,-0.4709,-0.87041,0.26511,0.322345
http://dbpedia.org/ontology/Swimmer	0.72285,0.27793,-0.053722,0.61765,-0.00053002,-0.13997,0.64524,-0.2808,-0.33269,1.633,0.36243,0.043168,0.083051,0.34282,0.12799,0.5774,0.59084,-0.25324,-0.24797,0.10881,-0.34645,-0.11821,-0.20307,-1.0664,-0.58282,0.051209,-0.0054579,-0.8298,0.50183,0.35962,-0.069168,-0.16529,0.35072,-0.8089,-0.025772,-0.61773,1.1157,-0.58686,0.43002,0.21426,0.50878,-0.12113,0.11392,0.20934,0.44152,0.11628,0.29793,0.24489,0.28072,-0.0021055,-0.089067,-0.39069,0.17731,0.25493,-0.31074,0.29783,0.10117,-0.24927,0.94221,0.62067,-0.1829,-0.37592,0.60047,-0.14727,-0.83558,-0.2903,0.66104,0.39369,-0.40082,0.34344,-0.4333,0.33286,-0.4534,0.22089,-0.44764,-0.70334,-0.71524,-0.11281,0.10288,-0.42305,0.73017,-0.052732,0.22527,0.18809,0.68789,-0.39295,0.80796,0.30544,-0.4676,0.1215,0.035482,-0.087385,0.20455,-0.0084191,-0.18329,-1.0405,-0.18502,-0.1395,0.26044,-0.038403,0.044656,-0.59682,0.12327,-0.84886,-0.33857,-0.67679,-0.073342,-0.18158,0.16933,-0.61417,0.1179,-0.14092,0.032848,0.4106,0.094869,0.19678,0.35254,0.41799,0.12927,0.19543,0.1234,-0.34055,0.27297,-0.38978,0.27561,0.26234,-0.30706,0.21268,-0.0052782,0.39868,-0.11933,-0.19482,0.80129,-0.44424,0.48096,-0.59922,-0.21354,-0.087189,0.61038,0.57071,-1.0925,0.56977,0.33879,0.57196,0.16008,-0.012794,0.78133,-0.21239,-0.5108,0.56319,-0.14994,-0.037883,-0.17423,0.94692,-0.080874,-0.1092,0.11361,0.65136,0.27453,-0.29903,-0.105,-0.29246,0.13558,-0.17853,0.70844,-0.21662,0.53863,0.34781,-0.48823,0.20336,-0.12082,-0.50003,0.33179,-0.59772,-0.10221,-0.1154,-0.2957,-0.054989,-0.70062,1.0667,-0.22376,0.32522,-0.10738,-0.26117,0.075424,0.090548,0.19757,0.47857,-0.4952,-0.48462,-0.075812,-0.13186,0.17166,-0.032753,-0.0041659,-0.061137,0.46403,0.16259,0.87434,-0.083942,0.26096,0.29583,-0.20878,0.33233,0.015545,0.10427,-0.30746,0.054548,-0.22853,-0.13067,-0.055506,0.08062,-0.51479,-0.48915,-0.46973,0.44553,-0.22333,0.24416,-0.41827,-0.20526,0.039745,0.62922,0.50581,-0.58397,0.22584,-0.25141,0.26998,0.06316,-0.10983,0.35078,0.039367,0.30229,0.32371,0.0096999,-0.2204,0.22331,0.01453,0.92232,-0.55946,-0.31492,-0.40832,-0.76584,-0.042791,-0.19646,0.010258,0.00385,-0.42741,0.32283,0.35194,0.56597,0.10846,0.18495,-0.22555,0.16578,0.095625,-0.13911,0.52749,-0.75562,0.27628,-0.070889,0.21837,0.06363,0.12711,-0.11518,0.15098,0.16517,-0.32918,0.34078,-0.6607,0.011353,0.26665,0.13565,-0.0065693,1.1303,0.0080424,-0.24702,0.1474,-0.5213,-0.50071,-0.16523,-0.48403,0.11831,-0.48345,0.35769,0.29649,-0.44381,-0.55902,0.092988,0.054173,0.04416,0.2338,0.20167,0.083718,-0.60353,0.45797,-0.06533,-0.32958,-0.41057,0.10042,-0.24859
http://dbpedia.org/ontology/TableTennisPlayer	0.338233333333,0.102936666667,0.0983066666667,-0.155055333333,0.46774,-0.0723866666667,0.31476,-0.131306,0.140504666667,1.76656666667,-0.1745,0.431736,-0.083698,0.14232,0.266523333333,0.0196006666667,-0.279316666667,1.15551333333,-0.0559683333333,-0.0614386666667,-0.422286666667,-0.1895,-0.253155666667,-0.129817866667,0.322936666667,0.381954,-0.152456666667,0.0875723333333,-0.19711,-0.0798766666667,-0.0573366666667,-0.117436333333,0.105746333333,-0.00355666666667,0.095992,-0.302783333333,0.163883333333,-0.253305666667,-0.142886666667,-0.294649666667,0.238043333333,0.427403333333,0.52625,0.034547,-0.53403,-0.108874333333,-0.243547333333,0.246596666667,-0.178821333333,0.116854666667,-0.482713333333,-0.158079666667,0.192901233333,-0.00715666666667,-0.426254666667,-0.45742,0.106763333333,0.158723333333,0.0907938333333,0.190046666667,-0.221836333333,0.470343333333,0.183131,0.133243333333,-0.0317094383333,0.3117322,0.193693333333,0.151106733333,0.0846866666667,0.244622,0.18051,0.160633333333,0.399529666667,0.104146666667,-0.0708866666667,0.127946666667,-0.142316333333,-0.305793333333,0.0537106666667,0.109983333333,-0.1258361,0.0139283333333,0.32357,0.19639,-0.278754666667,0.609,0.228626666667,0.716739,0.0990116666667,-0.192706666667,-0.220786666667,-0.18463,-0.394426666667,-0.0901053333333,0.283456666667,-0.902753333333,0.36859,0.0948643333333,0.207723333333,0.795483333333,-0.326846666667,-0.0796266666667,0.0852683333333,-0.0621716666667,-0.218207,-0.610686666667,0.450905,0.16787,0.26969,-0.071292,0.214286,-0.0248867666667,-0.262726666667,0.084244,0.073669,0.12554,-0.103285666667,-0.142310333333,-0.126743333333,-0.184868,-0.10182,-0.178,-0.200524666667,0.199596666667,-0.131022,-0.316964333333,-0.269986666667,-0.0472333333333,0.134633,0.272566,-0.0573366666667,0.0580533333333,-0.005342,-0.391335333333,0.180443333333,-0.07478,0.173839666667,-0.236934833333,0.182407,0.0423643333333,-1.76893333333,0.184415,-0.042549,-0.102325,-0.241687,0.200596666667,0.498496666667,-0.0413448333333,0.019428,-0.175836666667,0.139591333333,0.139971666667,-0.034979,0.266427,-0.42541,-0.290531,0.33215,0.40919,-0.23774,-0.144413333333,0.0252666666667,-0.0859583666667,0.146833333333,-0.44076,-0.035568,-0.189776666667,0.186607333333,0.334486666667,-0.37354,0.20956,-0.623733333333,0.061145,-0.227803333333,-0.130867,0.0757643333333,-0.0890316666667,-0.0367366666667,0.185209666667,-0.156766666667,0.0681753333333,-0.447996,-0.131268666667,-0.0530916666667,-0.109686,-0.395197333333,-0.187813666667,-0.0827133333333,0.386591,0.06305,-0.0882143333333,-0.268447433333,-0.153453333333,0.197846,-0.17333,-0.289536666667,0.00858333333333,0.0335266666667,0.168907,0.118260333333,0.29838,0.742606666667,-0.01108,0.177880333333,0.063927,-0.0576608,-0.0206074333333,0.151493333333,0.115484,0.056534,-0.452078666667,-0.335676666667,-0.120858666667,0.366346666667,-0.293397666667,0.174579333333,0.424836666667,-0.056818,-0.0286886666667,-0.752473333333,0.005367,-0.0713856666667,0.19994,0.0362423333333,-0.00404,-0.188236333333,0.0118633333333,0.270407333333,0.159217,0.526610666667,0.554966666667,0.0117866666667,0.0398433333333,-0.083927,0.277722566667,-0.394822,-0.354407333333,-0.158909333333,0.611953333333,-0.137500333333,0.39122,0.138555333333,0.10387,-0.25734,-0.00425733333333,-0.288753333333,0.00373333333333,-0.0265433333333,-0.1654977,-0.570576666667,0.399136666667,0.450322333333,-0.175164333333,0.35454,0.021912,0.031757,0.199229666667,0.0668,-0.091543,-0.188483333333,0.0746533333333,0.495941666667,0.1309911,-0.1756,-0.102142333333,-0.269613333333,0.35575,-0.380306666667,0.063832,-0.0971733333333,-0.2637682,-0.41498,-0.0300066666667,0.310381,0.104503333333,0.003587,-0.022522,-0.0500603333333,0.114542,-0.228723333333,-0.119750333333,-0.167563333333,0.142956666667,-0.446073333333,-0.211216666667,0.05664,-0.472486666667,-0.0280333333333,-0.107369,0.170709,-0.0745593333333,0.328493333333,-0.335404333333,-0.0837666666667,-0.01627,0.307606333333,0.168158566667,-0.079334,-0.582736666667,0.294058333333,-0.06417
http://dbpedia.org/ontology/TennisPlayer	0.58219,0.3653,0.218275,-0.258147,0.53344,-0.23957,0.408195,-0.250059,0.122147,1.9976,-0.13771,0.313899,-0.07956,0.306615,0.37931,0.0008145,-0.304365,0.59472,-0.1402225,0.102722,-0.37575,-0.37789,-0.35487,-0.19197,0.39502,0.57906,-0.2342775,0.124684,0.070195,0.031305,0.019365,-0.212705,0.0446745,-0.06362,-0.017542,-0.319695,0.42263,-0.3079885,0.012635,-0.1988345,0.287595,0.464775,0.524705,0.1947705,-0.545815,-0.12897,-0.37566,0.53461,-0.284975,0.027167,-0.55903,-0.1416945,0.2848803,0.01702,-0.300782,-0.32971,0.282785,0.391885,0.131288,0.18209,-0.378555,0.375405,0.282745,0.2100605,-0.1065841575,0.1708583,0.404425,0.223929,0.033065,0.151518,0.06057,0.05182,0.2158695,0.0937,-0.38369,-0.139105,-0.25255,-0.12054,0.156761,0.099615,0.00601585,-0.0376425,0.26305,0.366175,-0.169432,0.6645,0.00267,0.7193585,0.13062,-0.523695,-0.19267,-0.057975,-0.41813,-0.036543,0.292355,-1.118785,0.61745,0.1223695,0.055565,0.81982,-0.429905,-0.060415,0.13739,-0.114525,-0.2094655,-0.51392,0.3325775,0.306575,0.03224,-0.168863,0.336685,-0.09262515,-0.326945,0.029556,0.0030785,0.352125,0.0076415,-0.0728105,-0.307245,-0.107667,0.291645,-0.109965,-0.306945,-0.18495,-0.059413,-0.2058215,-0.617585,0.27708,0.0522995,0.194059,0.01731,-0.020845,0.194572,-0.5796095,0.22595,-0.191345,0.1888895,-0.35794,0.296915,0.09569,-1.91475,0.299945,0.0702215,-0.122875,-0.2462655,0.386085,0.66618,-0.0596,-0.160928,-0.112405,0.016882,0.20632,0.0278165,0.373245,-0.52964,-0.1514065,0.338985,0.323375,-0.23723,-0.477525,0.238625,-0.132905,0.35265,-0.42817,0.024158,-0.185865,0.259475,0.414775,-0.45925,0.13015,-0.69962,0.082395,-0.27729,-0.0422855,0.2916915,-0.150285,-0.15757,0.1188345,-0.12329,0.182673,-0.273884,0.032832,-0.2252125,-0.105779,-0.440036,-0.250707,-0.037785,0.3170215,0.1047275,-0.0755815,0.01033385,-0.34398,0.315905,-0.07513,-0.2573,-0.10173,0.01424,0.291361,0.1295935,0.298265,0.92381,-0.07666,0.21995,-0.0558495,-0.085071,-0.0350217,0.137125,0.010976,0.033011,-0.412138,-0.412365,-0.270128,0.60779,-0.39423,0.157494,0.5014,0.058628,-0.126618,-0.880075,-0.0643895,-0.08069,0.07696,0.079575,-0.143345,-0.257658,-0.187125,0.362505,0.1704255,0.76318,0.71716,-0.04951,0.008135,-0.101106,0.41814,-0.420563,-0.166261,-0.070924,0.75113,-0.178865,0.36735,0.294293,0.033295,-0.27053,-0.023145,-0.32728,0.2528,-0.10788,-0.00541155,-0.58882,0.49632,0.691885,-0.229965,0.384665,0.007979,0.009739,-0.1248305,0.01438,-0.165357,-0.126435,-0.05565,0.724255,-0.04520835,0.11147,-0.18409,-0.510855,0.360905,-0.518455,0.085992,-0.293835,-0.3328023,-0.3017,0.037715,0.2903515,0.39863,-0.044515,0.003935,-0.08643,-0.094292,-0.281605,-0.162168,-0.3089,0.14564,-0.420755,-0.038665,-0.077115,-0.41877,-0.32212,-0.2696635,0.1289035,-0.273589,0.1825,-0.484315,-0.24998,-0.21865,0.50667,0.18791285,-0.086175,-0.77751,0.44646,-0.010525
http://dbpedia.org/ontology/VolleyballPlayer	0.501235,0.32044,0.11674,-0.231672,0.654765,-0.0844885,0.476345,0.04559,0.084912,1.95115,0.191267,0.214515,0.04351,0.27438,0.295735,-0.0397905,0.00087,0.4289335,-0.3879275,0.308922,-0.333165,-0.283585,-0.1053065,-0.194755,0.22877,0.71911,-0.2045775,0.04639,0.16519,-0.049645,0.091565,-0.35497,-0.12765,-0.130685,0.104535,-0.2721,0.468365,-0.3791835,-0.019215,-0.168765,0.242089,0.39401,0.56303,0.1333145,-0.300215,-0.205904,-0.2734075,0.531055,-0.16515,-0.191903,-0.42291,-0.110735,0.2578203,0.003805,-0.56224,-0.374605,0.067305,0.266515,0.178943,0.221585,-0.37062,0.39192,0.44076,0.28591,-0.1994191575,0.1633833,0.316035,0.347105,0.01852,0.099253,0.054645,0.26185,0.1722955,-0.033,-0.38857,-0.178935,-0.458545,-0.013885,0.227675,0.08767,0.07647385,-0.003819,0.263655,0.28313,-0.074457,0.616455,0.082625,0.7052585,-0.04951,-0.35993,-0.018122,-0.01929,-0.250735,-0.215408,0.25758,-0.956245,0.45177,0.0795345,0.091745,0.831635,-0.164075,-0.22726,0.256663,-0.04634,-0.1949305,-0.350615,0.4140125,0.1258,0.106701,-0.385455,0.2595,-0.07346015,-0.58927,-0.0366028,0.0050695,0.3009265,0.1279365,0.2390695,-0.579315,-0.02792,0.276365,-0.25074,0.080913,0.12005,-0.0433545,-0.268822,-0.441816,0.29163,0.0533245,0.268269,0.00317,-0.102865,0.137079,-0.3516645,0.166227,-0.387025,0.1865835,-0.283945,0.261825,-0.2518715,-1.7619,0.3943185,0.0909395,-0.0394075,-0.172931,0.42101,0.8108,-0.19361,-0.116778,-0.1731115,-0.332975,0.12942,-0.0758645,0.46097,-0.451945,-0.1939565,0.357745,0.23646,-0.089847,-0.54993,0.174835,0.2477775,0.30883,-0.6097,-0.00556,0.02789,0.229315,0.498985,-0.272465,0.12531,-0.538415,0.351415,-0.101623,-0.1083055,0.141955,-0.3126,-0.46368,0.051136,-0.20486,0.154818,-0.239369,0.179147,-0.2833275,0.07795,-0.278025,-0.255877,-0.30646,0.3486815,0.1776775,-0.1227975,0.1259205,-0.119135,0.39781,-0.073335,-0.210455,-0.132585,0.018665,0.38774,0.1919935,0.28458,0.94525,-0.032875,0.1053015,-0.0650525,-0.03720065,-0.1998417,-0.0314225,0.0553585,0.091951,-0.375213,-0.28571,-0.085535,0.436815,-0.233385,-0.20441,0.508665,0.004908,-0.090578,-0.850565,-0.0562515,-0.2000795,0.042735,-0.105685,-0.34258,-0.145913,-0.31651,0.3113745,0.106235,0.79365,0.680425,-0.1966445,0.01137,-0.206646,0.191695,-0.3583185,-0.226985,0.059199,0.830125,-0.164745,0.27883,0.148435,-0.178015,0.010595,-0.160605,-0.240105,-0.011955,-0.211055,0.0057627,-0.15572,0.370635,0.544165,-0.20766,0.147498,-0.019299,0.0689945,-0.245585,-0.085195,-0.322685,-0.290895,-0.2073845,0.697655,0.17911515,0.139412,-0.1246425,-0.471805,0.280265,-0.602545,0.075102,-0.23196,-0.2302273,-0.194845,0.141309,0.103145,0.380125,0.023855,0.0960165,0.0938435,-0.065004,-0.33155,-0.271825,-0.502725,0.172395,-0.749205,-0.050166,-0.13499,-0.33208,-0.52915,-0.005935,0.327975,0.030566,0.066075,-0.49669,-0.344155,-0.15962,0.38745,0.1517025,-0.1663915,-0.738995,0.33869,-0.24228
